0.627354123112,0.0,0.489625820855,-0.36632268773,0.712977801029,0.0,0.0,-0.484594854231,-0.340211988929,0.0,0.574165300307,-0.144254260834,-0.36652080196,-0.87332814123,0.747422873671,-1.41021469803,-0.0939824700812,0.867802486817,0.0,0.533869203626,0.0,0.926880918691,0.0,0.276177259906,0.027000008529,0.0,-1.00735460821,-2.71081298382,-0.604596993036,0.374490323857,0.185108945546,-1.26847043108,1.38896557359,3.64714880812,0.464418090401,0.546400607691,-0.616425923775,-1.0025383423,0.0,0.214662832966,0.31860931168,-0.58376188492,0.270068457401,-0.843360437719,-0.22410383695,-0.0451088119398,0.0,0.0,0.771509083454,0.0,1.15602728277,-0.00821606511915,0.417504446028,0.301307510309,0.0,0.0,-0.288267004703,0.438883763504,0.521443222157,1.47612290486,-0.789591681991,0.0,0.0,-0.625124806266,0.0,0.199751962454,-0.755909212209,0.0,0.949421508494,-0.776459812341,0.08864394131,1.10771288224,0.0,1.49476366368,0.301942216131,0.0,0.45507374942,-0.134993771131,1.35680490033,-1.16174730201,1.15948730876,-1.36043475208,-0.0966442171154,0.0,0.0,-0.761144463482,-0.092177929964,0.0,0.0,1.20999910818,0.145790719263,1.519909169,-1.80782920743,-2.83083808642,0.43638190981,0.0,-0.711195116897,-0.919125527301,0.578735467179,0.807847272277,0.0411389734826,0.0,0.082134594307,0.647695105143,0.832697024674,0.0388985213487,0.0,-1.84840798119,0.632682383487,-0.237775779506,0.727219324877,0.0,0.180587931459,-1.57596083129,-0.685403152835,0.14369493754,0.746474545986,0.0,-0.116993236575,-0.183022213886,-0.14276381508,-0.184921014395,0.0,0.0920985351626,0.0,0.0,-1.09656284026,-0.06401738495,-0.259320294194,-0.902356548833,1.29308733354,1.41067762687,-0.0790950143169,-0.578652151418,-0.329169614352,-0.589331835605,0.0,0.159108872063,0.618578676546,0.0450656674983,-1.39884864146,2.35665243055,-1.24878496403,0.279937962114,0.469239406618,-0.130232521379,0.432536582896,0.0,0.0,1.35383308051,-1.03020168576,2.16987750589,-0.0629189240352,0.21611039544,-0.49694811533,0.0,0.0,-1.01764562784,0.146976045838,-0.661225764334,-0.00613786623632,0.0,-0.563588605846,0.0,0.0,0.0,0.128879623516,-0.243912172554,1.292762462,0.0,0.0,0.0,0.0,0.946625955427,0.0,-2.3962606535,0.0,-0.260319320695,0.0,0.245467824758,0.775487851876,0.0,-0.879936793097,-0.376308355304,0.0,0.0,0.0,0.0,0.358325700122,0.437281378554,2.65112155672,2.25694077254,0.540299621698,-0.977794553162,1.80602866331,0.0,0.0256864345523,0.0752442959815,0.0,1.31383679945,0.535001741796,0.0,-5.26018850328,-0.713480752602,-3.20586082145,0.0,-0.346235462821,-1.04756128233,0.498697409544,-0.905982739726,-0.346856004425,1.28759219757,0.129429413332,-0.0546142382154,0.334713125883,0.0,0.843623829421,0.0,-1.09235047376,0.0,0.0,0.0,0.931003329414,0.0,0.0,0.894132469317,-0.219050932439,1.19562074709,0.0,-0.190230129449,1.31715998174,0.0,-1.5335344511,-0.124817425129,-0.0253801321576,-0.724992252943,0.449943179473,1.83466306245,0.0,-2.02651245118,-1.30019160012,0.0,0.6825834828,-2.39326752543,-1.20771343257,0.243891637656,0.0,0.0,2.13948459558,0.0,0.0,-0.0325827333584,-0.060312955611,0.0,-0.595692542603,-2.16651145934,0.983263921495,0.0,-0.683640222299,0.0,0.0,-1.86519051224,0.0420286904093,0.461805925177,-0.283849484538,1.87882017995,-0.123075269633,0.0771748595108,-0.677271445539,0.979442734752,-0.746778705017,-0.568628437073,0.0,-2.66843342436,-1.91990284366,0.78425764539,-3.03107702599,0.0,-1.03434109406,0.56901649499,0.0,0.0,-1.63277122006,0.273416282707,0.503174012502,0.0,0.0,0.204483977001,-3.92703829783,0.0,-0.0594899041236,0.149415729597,0.0,-0.979468200457,1.83625080945,0.0,-0.63689021436,0.0,1.1113918815,0.77469940394,0.0,-0.40643962346,0.420186781651,0.0,0.0,0.287183998678,0.495997974313,1.31598530842,-1.31155637739,0.0440722900494,0.00314941125233,-0.0204181036744,0.441233155545,0.0,0.965114581843,0.0,1.38900766559,3.0374419538,0.242147238921,1.90582445657,0.0,2.29926049328,1.06865914781,0.4383680974,-0.876462863271,-1.75044350526,1.58474799199,0.699356028262,-0.738693542558,0.724245531067,-0.0294207860472,-2.41139618427,-0.18661362358,-2.8103444019,0.958284970174,1.45574128062,0.0,-0.392148064685,1.09188301813,1.1269876751,0.927599226483,0.706268716023,0.0,0.0,-0.464745095012,0.0,0.944687840111,0.0,-1.09600810472,0.233978721514,0.0,-0.566882604209,-1.84853154239,3.04986109508,-0.917039029453,-1.19151053303,-0.826633924861,0.0,-1.17599924346,0.0,0.0,0.0,0.170911516299,-3.04483182387,-5.16667484902,0.364981077694,0.567453516808,-1.7681360496,0.0,0.0,0.800123268297,-0.196229330971,0.0,0.0,-1.2057148638,0.0,0.0,-2.90974663642,0.0,-1.75445618731,-0.361928293244,-0.208320955875,0.879944328593,-0.601408069123,0.0,0.0,0.0,0.0,-1.90932752585,0.0,-0.440623122163,3.88372642746,0.16349514557,-3.16304489589,0.673534575605,-1.12092258711,0.0,0.259775809924,1.24967546859,0.684423267282,-0.978715980908,-0.638953194529,1.94000231607,-0.290177365062,0.414549098467,1.36857103875,-0.729721596297,-0.45550021418,1.24946897175,0.354443271756,0.555428771827,0.0,2.07259853123,-0.0920136101512,-0.556893879807,0.690492764579,-0.253995580873,-0.0711527874325,-1.36255135466,-0.316414408576,2.34061962127,-2.57692420429,0.0,-0.39258963586,0.347585769324,0.0,0.735190931369,0.0,0.0,-0.898079176931,0.0,1.33837477222,-0.105810009476,-1.93715388375,0.377623400594,-1.32945237953,1.35821524321,0.0,-0.918153210943,1.92601342946,-1.7866806108,0.0,-1.0661245979,1.42387983589,-1.70530315117,0.0,1.39804247413,0.0,0.0609126636715,0.0,-0.584898062067,2.96238644296,0.412333146995,0.243031745181,0.299597218864,0.0,0.976020277331,0.320141753807,1.58616486062,0.900119446099,0.0,1.65280156855,0.214018920935,0.0,1.38647860827,1.27760372153,-0.410645775071,0.0,2.76497858023,-0.168489961659,0.846423816318,-0.128252284376,-0.326569569807,-1.52040451473,0.0,0.0,0.0,0.302033987912,-0.0969173209085,0.0,-0.267534111158,-0.232220054175,1.73257287703,0.0,0.0,-1.78361075176,2.26003823021,0.0,0.0,0.0,0.0,-1.0710320611,0.0,0.0,0.0,0.0443059068906,0.0,-0.600047401766,0.0,0.226205272256,-1.86822453773,0.457287619239,0.236521853179,0.0,2.9785675557,-0.324558702929,0.177184460761,-1.0860851036,0.0,-5.7508162133,0.0,-0.0593490581785,0.0,0.0,1.4824081974,0.0,0.632277672761,-0.249822550471,1.41222720918,-1.51566366066,0.0,-0.442511738581,-1.08535043591,-1.20778299943,-1.65462668157,1.35213956962,0.755663351081,-0.422235232672,1.40800048164,-0.552799821805,1.2872720703,-0.510745386057,0.0,-3.10642876793,0.706156244416,0.539500526657,2.37111137782,-2.48605406042,0.0,-3.53219289163,0.0,-2.83684894446,1.37594276014,0.0,-1.66338865885,0.118257664453,-2.15449586777,1.77509642501,0.0,-0.265994207591,0.61024107919,-1.16481803381,0.915269004731,0.0,0.0,0.0,0.0,-0.279678518984,-1.67820642013,3.22279591676,-1.2451849866,-1.79322990433,2.07996630195,-0.0456679420042,0.0,0.711691584065,0.0,0.720923475074,1.08586080269,0.0,0.0,0.713231983907,-2.20951326044,-1.04571023802,-0.920105425158,0.0,0.0130804352694,-0.729409222017,-1.38980659562,-1.88804414194,1.07320483356,1.45612243549,0.0,-0.152406834048,-1.03530795238,-2.11908021464,2.361482102,0.0,0.0,0.0,-2.33615871035,2.07301681265,-0.801917429054,0.927377790767,0.0,-0.600115015529,0.0,0.752522586714,0.0,-2.04794758189,0.367729726158,-0.512497685592,-1.08151803894,-1.94238987894,-0.492096118473,0.0,-0.323734458917,0.390877399137,0.0,2.43167578822,-3.24579594374,1.20363885304,1.64401486934,-1.61274855835,0.0,0.0,0.0,-2.03959383796,1.86480223674,0.0,0.0,0.0,0.0,0.489899290885,-0.670664530794,2.05390519256,-0.350574612653,-0.459119390562,0.0,2.37474521851,-2.38052413379,2.14697012505,1.56388116624,1.05834599587,0.0,0.0,0.0,-1.86786508603,-2.18628844077,4.50448057858,-1.35640106042,0.0,0.0,0.523592956745,0.0,0.162690204481,0.0,-1.7605472668,-0.0205255536822,0.0,0.0,0.0,0.0,2.93132382438,0.0,1.17563709885,-0.723568644762,0.0,0.0,0.239634829217,-2.00309422618,-0.450898963632,-0.280678401446,1.27926415044,0.0,0.0,-1.61776904406,0.0,0.0,0.0,-1.88026388842,-0.492353034437,0.0,3.68492436756,1.47348643536,2.56456918665,0.0,1.31358773307,0.0,0.0,-2.20126178579,0.0,0.0,-0.0654859276889,-2.89341778841,-0.762167772115,-0.413532934784,0.527548014302,2.41539026701,-1.81110305765,-0.668552900335,-0.768366099515,0.0,-2.1353278082,0.0,0.0,-0.570361071212,-2.78983894609,-0.821759393698,-2.02108531155,0.271933538311,1.46187153363,0.0,0.0,1.92452294483,0.0,-3.59668915504,0.0,0.289479239551,0.0,0.700079512482,0.0,1.72318372637,0.0,-2.17565888936,0.0042718079975,0.0,-0.507443237888,-1.12614768716,0.0,0.0,-0.034216117462,-0.574861040235,0.0,-0.535368025153,0.0,0.0,0.0,1.52355135263,0.0,0.0,2.11121911701,3.35447084288,-1.20315945334,0.0,0.0,-1.22239250633,0.355792535031,0.0,0.0,0.147459866245,0.0,0.0,2.36177909083,-1.45080302967,-1.10236201662,-1.29419737611,0.0,0.785519470205,0.0,0.0,0.886116491117,-2.7193118833,-0.433326351105,0.0,-0.691744200669,0.0,0.0,0.616856392575,1.52692472187,2.88953366899,-0.302802299603,0.3261129022,-0.622489040119,0.0,1.01256899095,4.71954207689,2.00843633628,0.0,-0.123627732741,-3.30126391006,2.57382801776,0.0,0.318122168954,0.198684639201,0.248626035273,0.0,-0.410941532696,-4.58523490768,1.73085887885,-2.61910867409,0.53113368704,0.133301384148,0.407190294406,0.0,0.0,-1.61849520514,-0.419075377143,0.0,0.0,-1.23490389124,2.00574700502,0.364762671996,0.801258234147,1.12847018881,0.30770860308,-1.00119651957,0.972127089039,0.659655642659,0.455446522416,-0.0923050972316,3.23158331097,1.14715260769,0.0,0.203031135558,1.44240661116,0.0,-4.7308587692,1.33987064263,1.31988136805,-2.97378673632,0.0314651322827,-0.230506206102,3.33999380466,0.824796436224,0.0,0.0,-1.83762909936,0.0,-1.17178216996,0.239748846187,-0.556024724911,-0.746010341437,-2.61684224391,0.698801823087,2.41489365659,1.19888982602,0.947653377932,0.0,2.90561110943,0.0,3.66925266243,0.0,0.0,0.0,-0.284096062385,2.01101024714,0.775423033499,0.0,2.36750254945,-0.184515462539,0.0,-5.09803284281,0.578443535727,-1.11701813949,0.0,0.0,-3.10192353539,0.0,0.0,0.0,0.0,0.569808180921,0.346350110578,-0.332577347212,1.93855667352,1.14468876488,-0.899874335692,0.0,-0.88226046345,0.62761213253,2.77289511775,0.0,0.0,0.0,-0.263683289266,0.0,0.0,3.90926228848,-0.278651018427,-0.171950248569,0.0657634876984,0.0,-0.0623820287801,-1.73098694831,0.0,-1.86807739571,0.0,1.22467953946,2.40498654112,0.539381876375,-0.832224037576,0.0961160173902,0.0,-1.76045125386,0.0361462073565,0.0,-0.172127062835,-5.41447381498,0.0,0.0,1.03603561223,1.65826230472,0.0,-0.761271227286,0.0,-1.1484131309,0.0,0.0,1.0824472018,-3.90575493834,0.0,-2.21370617849,0.0,-1.43790476329,-0.561823479025,-1.58543957515,0.0,0.0,-2.40309055639,-1.31281817223,-3.09461228395,0.0,0.0,0.585520510422,-0.565196868761,0.58444440718,0.169450844708,0.0,0.0,0.0,0.0,-0.272231044955,0.0,2.57441299341,0.0,0.0,3.55898735145,-2.25389654022,-1.70683827529,0.0,0.466540290404,0.0,-1.0817237016,2.41015608174,0.0,0.715585036266,0.324384968571,0.0,0.0,-1.00011520489,-3.80642694782,0.0,-2.37448062379,4.45084182309,0.0,-2.23170091696,-0.815366576397,0.0,0.0,-3.75125514243,1.64581240699,-1.26038616643,-1.32283948941,0.121153659316,0.0,0.0,0.0,-0.297381554502,-1.9617347665,0.0,-0.367352866181,0.0,0.0,-0.22466467199,1.2359612353,-0.0237221284665,0.0,0.0,0.0,0.0,2.16687012406,0.0,0.0,0.0,0.0,0.0,0.0,0.113369111413,6.17865542291,4.15601244218,1.70186872631,0.407371818836,0.0,-2.60409419818,-0.94799079012,-0.0624970295144,0.0,0.0961769130141,1.25608946273,1.48088278462,0.0700267822975,1.8489565634,1.75527349379,0.0,-1.50793912555,-0.185696894809,0.0,0.438056127909,0.0,-0.377860794171,-0.162511312202,-0.911788552023,2.9343854064,0.491636292735,0.909361999574,0.0,-4.09663829155,0.0,2.54645903515,-0.338871597441,-1.53255743036,0.0,0.855014697439,3.73810645349,0.0,0.0,1.06461688241,0.0,0.0,-1.02740649206,-4.16783361542,0.0,-0.103381522428,3.17175544742,0.0,6.59227777725,0.0,0.0,-0.132083922048,1.93493010905,1.53824509897,-1.41305644247,3.9539030552,0.0,-0.584484180557,-1.32685132525,-0.366464193872,-0.9947894176,0.0,0.401325178329,0.0,0.0,2.87716453347,0.0,-0.148173941266,-0.566511438805,3.71733564184,0.0,0.0,2.89116078403,-2.2842377253,2.01028657435,0.646135427451,0.0,-1.5434292846,-0.802281301937,2.24540781293,0.0,-1.41194019967,0.0,-2.67483395104,0.0,1.51022013897,0.0,0.0,2.80816825626,3.01111590388,-1.32068853876,-2.48361319497,0.0,-2.98404160023,-1.25072044327,-2.46786116904,2.6546815172,0.0,0.0,0.0,0.0,0.0,2.02627017713,0.0,0.0,1.11636520291,0.617813705306,0.0,-0.772017323586,-0.597929876424,0.0,0.0,-3.44928434298,1.11637292606,-3.26967837149,0.453732805564,2.99572504677,0.872392732538,0.0,0.715404250065,0.0,2.33843870215,-0.786793022396,-1.60593497334,0.184860166791,0.0,-4.34725233286,-1.07615386418,0.0,-1.27510788232,0.194568577848,-0.292639208633,-1.67943457644,0.538370716692,0.0,0.0,2.56848104441,1.10250293063,0.0,1.16328877189,0.4416032484,-0.604774682025,-0.920065214555,0.0,0.0,3.85693550496,-0.272454173459,0.262507469117,0.0,0.0,0.0,0.0,0.0,0.694441922188,0.0,0.121202748052,-1.33882284015,-2.84493037391,-1.94533893071,0.954904073409,-2.31440382507,2.68428287049,0.0,0.0,-4.11071955738,0.0,0.0,-0.323018448254,-1.03790193108,0.0,0.588183209757,2.39896857954,0.00484655993587,-0.223875056969,0.168943924462,0.914804328112,-1.24072155641,0.330707595667,2.53537285951,1.93290643672,0.0,0.0,0.0687175031626,0.0,-0.116275397535,0.0,0.0,1.33049840303,1.45151170474,-1.67124518476,0.294523484947,0.656266870847,0.0,-0.420044497155,-0.0663041936529,0.0,0.50121386617,2.72084076132,0.0,0.0,0.0,1.17428929338,0.937568621041,0.0,0.373478394206,-0.640410981328,1.97469903208,-3.0502782059,0.0,-1.79683173328,-1.79898692707,0.0,0.219677030955,0.0,0.0,0.0,0.0,3.79282483927,-0.669159472633,-0.748323033195,-1.41837834383,-3.52529226051,0.0,-0.662669026887,0.618188541318,-2.73309232509,-0.0476604246477,0.0,0.195912438274,0.0,-3.6402552971,0.0,-1.09426948391,1.78441185816,0.0,0.0,3.18770334869,0.675935445482,0.0,-1.04686122794,-1.3237095087,-4.82292667117,-0.258374918766,0.1609054996,1.4792038789,-2.4468213904,-2.53435787866,4.32342029109,0.0,-0.604798710903,-4.08752114328,0.0,1.87316261495,0.0,-1.80940998427,0.0,0.0,-0.798474786301,0.0,-1.93873976737,1.30656842071,0.408420119058,1.9053556638,1.97750689607,0.500364953203,-3.30113588954,0.0,-0.726482276938,-0.361965928808,0.0,0.0,0.656874791426,0.0,0.0,0.555167343079,1.11435364313,0.0,0.0,-0.931915837949,0.12685184002,0.0,0.0,-1.59637539331,0.0,0.0,0.117992537745,0.0,0.0,1.96538712764,0.0,0.0,0.0,-1.05405445979,0.834361896207,0.0,1.62767326323,0.0,-2.19861595848,2.00800193998,1.90044319102,0.0,-0.00826449095886,0.0,0.648942847724,0.0,0.0,0.197888048158,0.0,-1.4903195219,0.0,0.0,0.0,0.0,-0.190402620435,2.70413855368,0.0,-1.53350040637,0.0,0.0,-0.0367961417817,0.161915838677,0.0,0.0,0.0,-0.838582593829,0.0,-0.374063123447,-4.32032753525,1.5509108189,-1.49569020787,0.0,0.0,1.65466865286,0.0,2.67001940337,0.81377027374,2.13190747877,-1.3453215561,1.21624113303,-1.72015647258,-3.33808709585,-0.041438443134,0.117942990853,1.85228032141,-0.0531614434506,0.0,0.0,3.22347698742,-0.654424253831,-1.84798748412,2.12124945221,-0.423613448071,0.0,0.0,0.0,-2.13818530364,0.0,0.0,0.114098349122,0.0,0.0,-0.466458804099,0.0,2.98835503194,0.602928681285,-0.647651324233,-0.985708178897,4.81610274108,-2.61179302438,0.0,0.415441364435,0.978599093735,0.0,-2.65782927144,0.0,0.0,0.0,-0.258558595246,0.0,0.0,0.0,0.0,0.0,-1.59116999214,0.0,0.202395259755,1.06723031754,0.0,-0.690730467795,1.27827337587,-4.39473274188,0.0,2.99162738477,4.37708499557,0.0,1.17219960143,0.0,-0.510067146205,1.51343170156,1.03604892601,-0.254083115424,0.0,0.124272587289,-1.71601111199,0.679184039597,0.24476276644,4.42593669369,0.0,2.67938308404,0.0,2.36311784498,-0.821591162543,0.0,0.0,-0.713034740962,0.644036778537,0.0,0.0,1.63549904372,0.0,-0.982609230046,-2.71686521015,0.0,0.427759144402,0.0,0.0,-2.53553672568,0.0,0.0,1.35498985873,0.0,0.0,-1.23079926432,0.0,0.0,1.25219099955,0.777736668286,-0.455515492247,-0.0737992281752,0.436130255461,-0.302885613369,-3.63508772623,0.0,0.0,0.0,0.259742546556,-3.51633219903,-0.65197070638,0.0,0.91468587105,0.576259737805,-0.310106924617,0.0,0.0,0.0,1.42744293601,1.28955458981,-1.18981926457,-1.53237994278,0.0,2.17441805805,-0.948243937094,0.0,-0.678318345626,1.76250140589,-1.30513170301,0.0,-1.61944279336,0.371332640409,1.83898116574,0.0,-0.0615830472814,0.120063578264,-1.81142028364,0.0,-1.78046477175,0.0,-0.323290096158,0.0,-2.46388797596,0.0,0.0,-3.50604982294,0.0,0.0,1.6613360054,-0.777129272294,2.99931689052,0.834355918383,1.67136249641,0.0,0.0,-0.00302234580337,0.0,-2.71479618263,2.55630419637,0.0,0.876398786846,-2.86416789968,0.0,0.746173621134,-0.403096181305,-0.436782122135,-3.16656393941,0.0,-0.968571435095,0.0,2.00944402776,0.0,-3.99201715447,0.231744328717,0.315532930955,0.0,2.78660452401,-0.408589609379,0.0,-1.66138552005,-2.03105216199,-1.67843016013,0.0,-1.93750397822,0.0179876738483,0.0731844928246,0.0,2.60551223179,-0.230678641385,0.0,-0.783428522985,-4.21651019258,0.0,-1.59379100755,0.0,0.0,1.89004349866,1.19522403846,-0.129121587071,0.0,0.250620749048,-3.18465404708,-3.78271446248,0.0,0.0,0.0,0.0,1.93292330397,3.44550422313,-2.27334559683,0.0,1.50149522346,1.91662386995,-1.06796011148,0.0,-0.745810995209,0.0,0.0,0.0,4.02421973727,0.0,0.0,0.0,-0.797818926554,1.55305440835,0.302962427737,0.460673045829,-2.54289900159,0.08212076665,0.83848032459,-0.584928237841,2.31664448448,-2.58854442878,-1.55242221067,-1.57085445723,-1.1954544554,-1.55913777631,-0.00200919023517,0.0,0.0,-0.618518143803,1.81894467288,-1.78948065071,2.30609918119,0.0,2.09966359979,-0.375074197907,0.0,0.0,3.34693508413,0.0,-2.44522607945,-0.536413549677,0.0,0.0,-1.59084585706,-0.205606928239,0.985675243744,0.0,-1.64681711553,2.03490312819,-0.289778870963,0.0,0.249221803473,0.0,-7.44994669269,1.09387645317,3.94529999197,0.309689110709,0.0,0.0,2.52372359358,-0.475783884601,0.0,0.777957942743,1.71555538583,-2.51314984713,0.499887228108,0.0,0.0,3.56374448408,0.0,0.0,2.25483691978,0.0,-0.0280727051157,0.0,-0.161190542915,0.0,1.71694195592,1.09662228032,1.67239477826,0.0,0.0,1.29598686445,-1.84316647182,-1.87372214133,0.802568482314,0.181108473376,0.0,0.0,-2.69025974593,0.0,3.72790655027,-0.804912334263,-0.934782234025,-2.8627175409,-0.855804262431,-1.67493900778,0.0,-1.06185905279,0.0,0.0,0.744540020905,0.0,0.0,-1.41768353397,0.500523185413,2.71512627571,2.75929210463,0.0,1.21024803799,0.0,0.895518551673,1.06245558393,-1.37162302051,5.27862297217,4.58011490638,0.540197095207,-1.34545586592,-0.693515568333,0.0,-0.276019693735,-0.973847057808,0.554696941322,-0.525749348779,-4.94014003024,0.710539883821,-0.761048344866,-1.21447934781,0.0,-0.881507651361,-0.663480718641,0.0,0.0,-1.74065192185,3.75553707334,2.47612113567,-0.660077230315,1.14900702096,3.30662419979,-1.36209948247,-1.31600825819,0.975763757635,-3.39294580796,-0.0199250019673,-1.13270237249,0.42384952262,2.37896338823,0.0,0.0,0.0,0.635359470275,0.0,-1.28459438984,0.0418067232467,0.0,4.38726608259,-1.67735603792,0.0,0.0,1.49117662458,-1.75995702523,0.88261943078,0.0,1.46302161542,-1.13331978298,3.49836426676,1.72873300374,1.16001922934,0.0,0.0,1.74152726709,0.0,-0.496343294739,0.0,-0.11929214168,0.885884990719,0.0,-0.62347873265,0.686650465495,-4.00774914568,-0.924765223176,1.97496673467,-0.612452262766,0.0,0.0,-1.16931805229,-0.245903616571,0.0,0.0,1.5324615167,0.5086382641,-0.764789503884,0.0,-3.17293719459,1.87009021274,-2.27065875853,-1.28513664963,0.0,0.0,0.0,-1.30953145153,-0.271061220393,0.0,0.862646755912,0.0,-0.0541377505635,-2.21374635199,0.0,1.02776341482,0.0,0.0,-3.13585703333,-2.74004694439,2.52225693018,0.257548067272,0.767396195843,-1.56026191574,0.0,0.0,-1.59725648048,-3.00311901571,0.0,0.0,0.767687127343,3.2198656586,0.0,0.0206126020633,1.44032818881,-0.212664116948,2.9152752035,0.0,0.0,-1.57996402703,0.107700998221,-2.16306314886,0.0,0.0,-2.18406218014,-1.0272376193,-4.46469847826,0.0,0.0,0.0,0.0,0.955305271677,1.58692789239,0.211041531408,0.550305781731,0.376438999791,0.2598452061,0.0,0.0,0.36387806178,2.44251205483,1.59461722787,0.0,-1.39017824269,0.0,0.0,-2.01894307601,1.35857289121,4.9472836623,-1.08086880217,0.0,-2.59106139606,0.0,0.0,0.0,0.0,0.0,0.0,0.0,-0.263359310375,0.0,-2.56349514168,0.0,0.0,-1.86400193212,0.0,-0.510836529312,-2.21754882365,-3.83030492093,0.0,-3.22153243176,2.25891515875,0.0,0.0,-0.156888314563,2.56801088236,0.0,0.327477504589,-5.06108325368,0.0,1.422350052,0.0,0.0,0.0,0.0,0.0,0.0,-3.45878022765,2.5279214754,0.210594384389,0.0,0.0,-0.398142994208,3.30437675145,0.372022351332,0.0,0.0,-1.29848511743,0.0,1.44675873823,0.0,-1.78046184026,0.855193248662,-0.58127864016,0.0,-0.0664469851495,0.0,4.12846105048,0.0,-1.43773881517,-2.99957728846,0.42383683121,3.76207467881,0.0,0.293716740979,0.0,0.717335073968,1.71001916459,0.0,-1.98113467861,0.0,-0.34706598209,-0.411309730762,0.0,0.0,0.0,-2.38167032156,0.0,-3.60585164146,0.0,0.0,-0.322002425297,0.0,0.351968201145,2.47636330875,-1.83164838439,-3.76139115823,1.6485528243,0.174573706136,0.25759839359,0.0,0.0,0.0,0.0,0.0,3.15667083698,0.0,0.0,0.0,0.0,-0.480430204752,0.0,0.0,-1.00345154936,-2.69117183279,0.524287207323,0.0,0.0,-2.15491733783,-0.593972238617,-0.487619004018,2.19469870628,-0.875564053049,0.0,0.844586129902,0.0,3.57230164646,-0.942483040215,0.0,0.999575352532,0.0,0.854925816056,-0.309850786334,-0.454532739313,0.142426407468,0.282451344076,-2.52058061888,0.0,-2.06602413271,0.0,-3.49586025383,1.26270252113,-0.407569047665,-1.96874007374,0.0,0.0,2.18684464291,0.0,0.0,2.22505843786,-1.82844455749,0.749629460255,1.51070356922,-0.17162016152,0.0,0.0,0.0,0.0,2.4509015869,-1.4873899883,0.0,-3.51077015338,0.0,-3.60945948392,-0.0969945524745,0.0,0.0,1.22466707943,-0.0512140052684,0.0,0.0,0.0,2.00237432431,0.0,0.0,2.08757944386,-0.524892277233,0.0,3.07883181421,0.124547585304,2.31257306538,-0.298251125135,-1.97441376669,-2.58574439127,3.40374391199,0.498743019779,0.0,0.0,-0.971322007152,0.0,0.0,1.00654230093,-2.55734960837,-2.17693043881,-1.02861503984,0.0,-1.14555298084,0.0,0.0,0.0,0.0,2.50007770787,0.0,0.0,0.0,0.0,0.0,-1.83899289512,3.62632316132,0.0,-0.776358903765,-0.41115601303,2.51367096169,-0.894256835353,1.26542294763,-0.00136440829502,0.0,0.0,0.995768507121,0.0,0.0,-3.94179644241,0.0,1.22434771225,0.0,0.0,2.89418223312,-1.69016743498,-1.3826865826,-5.16913707845,2.15847751085,-0.848537315015,-3.11418435097,-0.124341447662,0.67939260949,0.0,-0.628542302769,0.0,-3.49163682658,0.831611901783,0.0,1.46695073831,0.0,0.0,2.85195625065,-2.76662181316,0.0,0.0,-2.5401558722,0.0,0.0,0.0,0.697068196079,-1.67808243506,-0.0804594327807,0.0,0.266916074253,2.25113329156,-1.88552248181,1.36961951296,0.0,0.0,-0.118159131781,-0.34939621231,-0.531147548328,0.0,0.0,0.0,1.4449970311,0.157108732644,-0.312910238703,0.0,0.0,2.33748502071,-2.01546042696,0.0,0.262597108264,-4.94613848915,0.0,3.18567626467,0.0,-5.28521994274,1.35673622083,-0.684336585485,0.0,0.0,0.0,-2.75306751386,-0.33830825915,0.0,1.80747030114,-3.22088257397,1.07552604067,-0.948375430719,0.0,-2.22034991193,-1.40108667252,1.24774588033,0.0,-1.54846180987,-0.0198144090195,0.0,-1.64690733125,0.0,3.43371212345,0.0,0.0,-3.84908869415,-2.15869061299,-2.69430972434,-0.370213609548,-2.3074525891,0.0,0.0,-3.19339219886,1.77021265155,-4.80877071958,0.0,-0.0274087741594,0.0,0.0,-1.58676974351,0.0,0.0,-1.4494295892,1.07993756159,3.75453708105,-3.73996269715,0.0,-0.601742117463,3.02829476499,-2.61277802181,0.0,0.0,1.55894922807,-3.71382677692,0.0,-0.322901893201,0.0,-1.84470734024,3.339810281,0.0,0.0,0.0,-1.07937180542,0.0,0.0,2.29763931324,0.0,0.0,2.53077167665,-2.02493041928,1.04199350239,0.0,0.0,0.0,0.0,-0.656860730452,-3.63253537905,0.0,0.0,-3.35568500134,-0.17467257957,0.0,0.0,0.0,0.0,-0.759192508925,5.69067258784,1.94896610812,2.54142066584,0.0,0.0,-1.06149747138,0.0,0.0,4.10519776996,3.50090378526,0.670286160471,0.0,1.5376204215,4.14042225467,-1.16770565746,0.0,0.0,0.0,0.0,1.05434414596,0.035534140264,5.88189330419,0.0,0.0,0.0,-1.99232813272,0.0,-0.916463717311,-0.784697671419,-1.4757508784,-1.70487054591,0.0,-2.6434982412,0.0,0.0,2.43428780564,0.302316820965,2.27707964584,0.0,0.0,0.937949571337,0.0,4.67996221714,0.0,0.0,0.0,0.0,1.66178120327,0.0,0.399507759587,0.0,-0.666724905147,0.0,-1.73796105685,0.0,-1.98069521074,-0.775630712498,0.431033432184,0.0,-1.00593467237,1.70198886858,0.0,0.0,0.68099288681,0.191318266357,1.64919833445,0.0,0.0,2.36256167067,0.0,0.0,-3.53370404405,-1.85865694475,0.0,-0.497716968571,0.636840858835,-1.24244060622,-1.25811091414,0.0,-2.18099343556,0.0,1.68975481139,2.39817081106,0.455583739086,0.0,-2.21926817334,-0.714601049354,-0.531216777101,-1.05113579805,1.95033767294,0.0,-0.471437489749,0.0,0.0,0.669993554178,3.63298585438,0.0,0.0,1.75268526814,0.0,0.505952652175,0.0,1.58320379302,2.24716281074,0.0,-3.36707996287,-4.67879960229,-1.90950742389,0.0,0.0,0.745600966259,0.0,0.0,3.07663672951,3.57593582191,0.0,-1.23498396147,-2.90911337243,-0.105222012063,-1.66677757235,0.0,-3.11140581955,0.12629968938,0.0,-0.867007455989,-0.81547899062,0.0,1.97569711567,0.0,0.0,0.0,0.0,0.0,0.0,-1.27787575329,-2.56670646493,-0.623166633491,0.0,0.0,0.0,-1.48065938389,0.0,-1.6372922563,-0.840835242022,-4.04890191494,0.0,1.73353685097,1.38111622198,0.0,-3.5291286624,-0.935658653897,-5.56429120691,0.0,-0.395380510478,0.0,0.0,0.0,-1.58014069422,-2.83664678687,4.50604394286,-4.28091221866,1.82175480434,0.0,0.0285279021332,-1.42369851816,0.0,0.881128216073,2.15709832227,-2.51947458088,-3.57683245756,-2.28518798805,0.0,-1.47969254111,0.572864967068,-2.62439844689,1.96281210994,0.0,0.0,-1.0933662503,1.3729796115,0.0,0.187233706564,3.55740752978,0.0,0.0,0.0,0.0,0.22853478256,0.0,0.0,0.0,0.0,-2.63072182573,0.0,-0.619920062593,1.80549575247,0.0,1.76498152626,0.0,-1.14808129833,0.0,0.0,0.0,2.70180868174,0.771884557851,0.0,-0.051648208901,0.0,-0.933150696097,0.0,-3.74841743022,0.0,0.0,-4.15700587107,2.70249204707,0.0,-1.03654466614,-2.59838621546,0.0,0.0,-5.0026385787,-0.942002833314,0.0,1.32318900143,-2.16266078995,0.0,2.45663725077,-1.24120429756,0.0,0.174277234477,-0.012522373543,-0.318641037587,0.0,0.790204924974,0.0,-0.462531048878,1.93161985673,0.561631314505,-1.68389057916,0.0,-0.72663809043,2.85079748001,0.0,1.22214016962,0.0,0.0,0.0,-1.93443922256,-0.16469272683,5.71791743239,3.00194083937,0.0,-0.51094292706,0.0,-0.334204781611,-1.09986399163,-0.702280454846,-0.987611293868,0.0,-4.65822184506,2.97542022,0.0,0.0,0.0,0.149346613089,0.0,0.0,-0.529234125185,3.04988196841,2.66587616626,0.0,0.190819643718,0.0,-2.35878730302,0.059671047884,0.0,-2.16018362965,0.0,0.0,-0.506323499194,-0.471794559388,0.0,0.0,0.0,-1.13772366979,0.0,0.289857315282,0.0,2.40594621255,-3.64815205428,0.0,2.90787518277,0.0,0.0,0.0,0.0,2.44234668953,0.447217892513,0.0,0.58741723089,0.927666145063,0.0,2.22388601045,0.0,0.0,0.0,0.0,0.0,0.861921642698,-1.30501037022,-3.22463396723,2.93292759296,0.823305102553,-3.95494064761,0.0,0.0,-2.24630371487,-0.303708707082,0.0,-4.24505375895,3.97587150148,0.0,0.0,0.0,0.0,0.0,0.0,3.8921628059,0.858657322928,0.0,0.0,0.0,-3.14802859126,0.0,-0.868254160994,-0.397055428854,0.0,-0.587076680685,0.620485159571,0.0,1.21344552696,3.1500227703,-6.18446073148,-0.128644637252,-1.90566735524,0.0,0.0,2.75752378519,1.04880409314,2.38412246957,-2.90899576714,-1.94684755702,0.0,0.0,0.0,0.0,0.0618983143538,0.0,0.0,0.0,-1.13553646838,1.19085690255,0.0,1.30874335079,-0.726832169229,0.0,0.0,0.0,-0.926507379257,0.0,2.53557919647,0.323036610544,-0.971533939779,1.24236380307,0.0,0.0,0.828446867657,-2.63416360285,0.0,1.77164382214,-0.479903520422,0.0,2.29364938979,-3.46127477355,1.80004652546,0.0,-1.44870500372,-0.228945450133,0.0,0.0,-2.18547150367,1.50386503954,-2.18053699372,-4.25165787482,-1.4749895061,0.0,0.0,0.0,0.0,-0.886353144031,0.0,-3.06211196438,-0.0483439583412,2.19269870208,-0.117728530418,-0.711585441382,4.10794243882,0.0,0.178759637059,-2.21535328089,-4.08310188503,-0.543404971689,-1.03176359763,0.0,2.02851897522,-4.31741506946,0.0,-2.07912574823,0.0,1.28996146158,0.980013116676,0.0,0.0,0.0394171983745,-0.61728122837,-2.8925967194,0.0,-3.30333098832,0.0,0.0,1.34568747372,0.660995622185,-1.74850281307,1.02914795632,-0.0221501939572,-2.97649498214,1.65604591966,0.0,0.0,0.0,0.0,0.0,2.15786070857,0.0,0.0,0.0,0.0,0.072855842079,0.313590100336,-2.61233638889,-4.2498203037,0.0,0.767729082676,-1.30518219793,3.38157599884,-3.123702042,0.0,0.0,-0.999191043365,0.0,-4.22457410145,0.0,-2.99078436785,0.650879288817,0.0,-4.09464337991,0.0,0.0997264950126,1.75187606074,0.0,-3.94922963644,-1.15274006106,0.0,0.0,0.0,0.0,0.0,0.0,1.33846881993,0.0,0.0,-1.29098221613,0.0,0.0,1.39310828047,0.0,0.0,-1.71740030162,0.373814055694,0.345286089246,0.258285924478,-0.574547639941,-4.24185350213,0.0,-0.714081976212,0.0,0.0,0.840359949362,0.0,0.0,0.0,1.37587178307,3.61341954046,0.0,0.0,0.0472399418347,0.0,0.0,-1.5344331509,1.45444296057,0.0,2.27526287035,-2.35441181193,0.0,0.0181774739156,-0.101328971485,0.0,0.0,-2.45796089269,0.32639361102,-0.0635771266928,1.04133419787,2.04056520697,0.82003032805,2.82285217068,-3.08024163283,1.1028522515,-1.33455558476,-7.34873975821,2.38094855959,0.38918736612,0.0,0.0,-1.97998588289,4.06464698665,-5.6349645412,2.18547150367,0.0,1.28885820862,0.216011858856,0.748154257806,0.0,0.0,1.51396122354,0.0,0.0,2.38539654456,0.0,1.55902774358,0.0,-0.367417736663,3.06024294121,2.31725894678,0.921883099661,0.411562725199,-3.26847445863,3.20600167423,2.43786486308,0.0,0.0,0.0,0.0,4.46381855783,0.0,1.36969373755,2.79149802966,-0.249393669263,2.09915721199,-0.486026496057,0.0,-1.76911617741,-1.25846936962,0.0,1.07598603667,-3.95033327166,-1.34852062,0.384349011934,-2.41411786032,-1.34652735368,0.0,-2.09411807826,0.0,-3.4473314391,-3.32285216854,2.86493333659,0.0,2.20483535856,-0.783381073162,-2.36324799643,0.0,0.0,0.431029078561,0.0,0.0,-3.46557977836,-1.37038514917,1.87412759573,0.0,0.0,0.0,-3.35187773772,0.0,0.0,-0.771357300337,-1.96786189637,0.325773036355,3.37599140587,0.0,4.03737705811,0.0,-0.149777638628,0.262319971537,0.0,0.0,-0.127274296927,0.0,2.78222720682,1.00843238082,-2.27009190233,-1.37699413444,1.30201583318,3.06185673267,0.0,-0.0108977399322,0.0,0.0,0.0,0.0,0.504335285068,0.0,0.0,3.05900552546,-1.96910511535,0.0,0.0,0.0,-1.21399923088,2.39815473381,-2.44527274696,-3.44932322894,0.0,0.0,0.0,0.0,0.0,1.98677129811,0.0,1.76928175044,-0.170164518166,-2.2958992361,0.0,-0.453650103094,-1.73021131425,0.0,-1.40363901247,-1.30916556494,1.72931976156,0.0,0.103419612071,0.0,-3.14609417098,0.0,0.503917814678,0.0,-4.50388451139,0.0,0.8483577117,-3.19406659345,0.0,-1.73422737356,0.0,-1.41102768684,0.44158439943,3.38748061953,-2.57885432884,-1.18610163437,0.0,3.53068820133,0.0,0.0,-0.347730048958,0.449578629162,3.44030894363,0.913112257597,0.0,0.541043276626,0.0,0.0,0.0281774306187,0.0,0.946653130775,0.0,0.363190768737,-1.69284193758,1.89001400615,-1.85584007226,-0.188605457865,-0.253265363826,-1.94565164167,0.0,0.0,0.0,1.08509760561,0.0273436540873,-2.10547387429,-1.00784306087,0.0,0.0,4.16536346425,-0.99214478673,-1.61675363752,-1.92156354655,0.737526649259,0.161900763968,-1.75026428854,-2.36635236298,2.18547150367,-1.16009877364,0.0,-1.54603909103,0.0,-1.63162972417,-0.548571926639,-1.22636775573,-1.15193607784,2.84527685502,2.17514601364,-5.04673498131,0.0,-4.93281920155,0.0,0.0,-0.266038813115,1.20328456469,1.92187720073,-2.01126213455,-0.472978200518,-1.297557345,0.879355069587,5.1757396932,-2.32300118455,0.0,-0.734387463167,0.0,1.18468152314,3.05905186252,0.0,0.0,1.429935091,0.0,-1.97933216605,2.84032057581,-2.18949197733,0.0,1.55124946396,2.86950848298,0.249115843729,1.64430083998,-1.85939893895,0.0,0.167805100226,1.78531494833,2.76865365701,0.0,-0.192202943009,-3.02781671955,0.0,0.803802678143,0.0,0.0,0.0,-2.74707714204,2.09552340412,-0.0336469432159,0.0,-1.63212158195,1.63715814573,0.0,0.0,0.0,-1.03893027582,-0.466077143162,0.0,0.998998674177,-0.528072041724,0.0,-1.26185059487,0.596465206688,-2.49481293142,0.0,0.0,-0.165079494572,-0.556556567044,1.3465763701,-0.282863973984,0.0,0.0,0.0,0.0,0.0,1.27765171436,-2.61722624611,-2.13207230932,3.57645838912,0.0,0.0,-0.123062161027,0.0,-4.42445381843,0.0,0.0,0.0,-0.751805295744,-2.18547150367,-0.913864134337,2.44039255096,-0.945914982349,-0.320581796402,0.0,-0.0598178640716,0.0,0.0,-3.03434643096,0.0,0.0,0.0,-5.12729350338,-1.30770644974,-1.48963703798,0.0,-0.981662108174,2.04439679833,4.20597668015,-0.137990073224,3.64052630909,0.0,3.22279596819,0.0,-1.9233522222,-3.14201015813,4.31348012426,1.78427935594,0.0,1.37812371204,-2.00563044905,2.64742531629,1.67837374572,0.0,-1.91457667249,0.0,1.50557346215,0.0,-0.837042343059,-2.75517967326,0.0,3.53248722389,0.0,0.0,-1.68461698048,-2.53449570521,1.6562961956,0.0,0.0,1.15469578222,-1.05055225828,-2.07357580204,-2.8984289101,0.0,0.0,0.0,0.0,0.0,0.0,0.0,0.0,0.0,-0.318430710079,1.79446663376,2.17726275821,0.0,0.0,1.18139250666,0.0,0.469704456922,0.0,0.0,3.98591819311,2.49769279017,-2.42023829921,-3.7245204746,0.0,1.40964112637,2.41685399748,-6.10736551073,0.0,0.0,-2.30793259733,-1.7241695142,-2.10302578451,4.52864410504,0.0,0.0,0.258332304723,0.0,-4.19991847859,0.0,0.0,-1.72408065947,-2.07101728512,-2.58020233777,0.0,0.0,6.01665243858,4.10556113145,0.762706886395,0.0,0.0,0.0,1.45275943267,0.997454458625,0.0,-1.01811586648,-0.838761762935,0.0,-2.50312658476,0.0,2.92291208535,0.585301243284,-1.41412992256,0.0,0.0,0.0,0.192332037442,4.03905778387,-2.0450702935,0.0,0.731829916908,-2.42064300692,1.72938265099,0.719797337605,-2.77135356937,-0.180155110794,0.975948910742,0.62260141082,-1.75799384543,0.0,1.14007972086,-1.93983670444,-0.930453687316,0.0,0.0,0.0,0.0385187752649,0.0,0.0,0.0,0.0,3.12769827952,0.0,1.91327903721,-2.99448359399,0.552507432994,1.24489587303,0.0862937474607,0.237970267707,0.0,0.0,0.0,-0.84335823909,3.96012382919,0.0,-0.40700578868,-3.17736324897,-0.858886979407,0.0,0.0,0.530505587656,2.27751239403,0.0,-0.390320493987,1.31243300135,2.06608481123,0.0,-0.450853408775,0.0,0.0,0.0,1.54606587033,0.730260565084,-1.64845196084,0.0,1.08544864393,0.779928023859,-0.866886007853,-0.952647947586,0.0,0.0,0.0,-0.10654047232,0.0,-1.04069163642,0.0,-1.09975773071,-0.46373481235,0.0,0.0,1.93265356785,-0.355094842822,2.34862038483,3.98323822654,0.0,0.0,-1.95381224281,-1.96986469224,0.0,1.41324767857,2.59946120568,-0.690457752021,0.0,0.0,0.0,1.84897946201,-1.89087202305,-3.37140263206,0.314999920814,0.0,0.439753917102,1.00119913864,0.0,-0.20225351599,-1.27910971136,-0.127121234998,-0.348789665704,0.0,0.0,3.74280214686,0.0,-2.21420994421,0.0,0.0,0.0,0.0,1.16026687017,0.0,0.0,1.88744087606,0.0,0.0,-3.21667329876,0.0,0.0,0.0,2.32589668008,0.0,0.0,1.64547320799,0.646168207032,0.0,-1.84936820944,-3.36876143508,0.0,2.02329772006,0.0,-2.60784876396,2.50351897651,0.0,0.0,0.793640099494,0.0,-5.40686768033,1.60045239481,0.783031049756,0.0,0.0,-1.76278799336,-2.97835088485,0.0,-1.49257637907,-0.950011298498,2.2536905511,0.0,0.0,-1.56462943211,0.0,1.53858780106,0.0,-0.0478557731271,-0.902033968804,0.0,-1.675395492,0.0,0.197001873824,0.0,0.0,0.0,3.20841540522,0.770932959588,2.18360595003,-0.149287172853,0.0,0.0,0.0,0.0,0.0,0.0,0.0591791538634,0.373393654545,3.17813782013,0.0,0.0,5.10338763057,-0.78664289293,0.0,-1.20738547803,0.0,0.391744018793,-2.46349348387,0.35468324453,0.674865478152,0.0,0.0,0.0,0.0,0.0,-2.05205555399,0.717982821189,-1.40503405517,0.0,-3.18941086512,3.49260174562,0.0579765522944,0.0,0.0,0.0,-2.65680798819,0.0,-2.62884843571,1.10294310399,0.0,-3.53212880207,0.30132486989,0.0,0.0,0.0,0.0,0.0,-1.34005767112,0.0,2.88909667864,-0.963241981598,0.0,1.51061938954,0.65052165385,-1.18519625162,0.0,1.75151597616,0.0,1.96733864912,0.253834158463,0.0,0.789920221857,2.34303668127,-1.21620863294,0.0,0.0,0.0,0.0,0.0,0.0,-1.50843086568,-0.840399183645,-0.198570867988,0.0,2.16492364443,0.639111556016,0.0,0.15624704846,-3.46714260437,1.10375549892,-1.98466034361,0.0,0.0,-2.9746852236,-1.20954608489,0.0,-3.43364946979,-0.618293288474,0.0,0.0,-3.54809740988,0.0212481827865,0.165649414939,0.0,1.65753522019,-1.47241208662,-1.78738405018,-1.6984437229,0.0,1.37939064227,0.0,0.0,-1.69518142424,0.0,-2.33612697578,0.0,-0.912829227391,0.0,-0.433708431811,2.55289306205,0.0,-3.23509961175,0.0,-1.37228276226,-4.92925390266,-2.89839293498,-0.887295335002,-2.33858141869,0.0,0.0,0.0,0.0,-3.32233947384,0.0,-1.11821112007,-2.53563935831,0.0,0.298163274817,0.295009792927,-1.25906519778,-2.09484492054,2.35907069909,0.0,0.0,-1.93569698524,0.151846472395,0.0,-0.529697648686,0.0,0.0,-3.53904068253,0.0,0.0,1.88223178903,0.0,-0.799835160393,0.0,0.0,0.0,1.5642360765,-2.71580717391,0.0,0.0,0.467205445081,0.363593933139,0.0,-0.967364171559,0.0,1.731999703,0.0,2.56059255061,-1.47663488051,0.0,2.20962799055,0.0,-0.947692613333,2.25198381222,-0.685225274827,3.39293377859,-1.61107015217,0.379647028922,0.0,0.0,-2.55184840948,0.0,0.0,1.81484793785,-2.94886558229,-0.781703429178,1.6995133289,0.957550482505,1.2255997559,0.0,3.02956899694,0.0,3.65590877438,0.0,0.0,0.0,3.23024270988,-3.11222122115,0.0,0.0,1.97183290666,1.20890941871,-0.219126695225,0.0,-2.52317616828,0.0,1.29541956508,1.25000986107,-0.845462039229,-3.6851444663,0.0,-1.20703158526,0.0,0.0,3.24581763481,0.0,0.0,0.0,0.0,0.0,0.0,-1.17020997577,0.0619499657459,0.0,-2.30849590415,0.242187357315,2.55165457575,0.480269019108,0.855517703747,0.0,0.994663229073,0.0,0.0,-0.317279725883,0.0,0.0,0.0,1.76061788947,0.925110658892,1.32144292811,1.59104370137,-2.21880288591,-1.95883946531,0.0,-2.44405895087,0.460093909419,1.91645290884,-4.11507756872,0.0,0.129002309243,4.07164447443,1.11299784315,0.0,-0.311087994358,-4.42838950243,-1.93004112935,-3.09694549137,0.0,-2.2316643657,2.40766719423,0.0,0.0,0.0,0.0,0.0,0.0,0.0,-1.45428853543,3.69977410989,0.0,0.819745800668,-1.39279482649,0.0,-0.135380310759,2.01401658482,0.0,-0.368247922004,-3.75319393213,0.0,-1.66058159013,0.0,0.0,-2.40692920857,0.0,0.0,-0.667766948667,0.0,0.0,-4.35190429652,3.17813782013,-0.861937362453,0.0,-1.94115089036,4.45359146514,-2.07140271693,0.0,0.0,-2.9999436371,0.0,-2.35820170389,0.0,0.0,-0.305077054529,-0.113712147897,0.0,0.0,0.0169993137672,1.75604400086,0.0,-2.12928374307,0.0,1.8820271814,1.59967220014,0.0,-0.768389625461,-0.206052511424,-1.89228955084,1.10558775598,0.0,0.0,0.0,0.0,-0.78151638754,0.0,0.0,0.185152313062,-1.48913670896,2.63741518383,-3.36409210965,-1.28578909998,-0.0306026711729,2.50012127717,0.0,2.74686186496,0.0,0.0,0.0,-0.139127212794,0.742619450883,-0.42604084074,0.0,0.0,-2.08575451208,0.0,0.258317523827,0.0,-0.736253553993,3.29088168655,-0.557886339945,-0.662456769332,3.12440383798,0.0,0.0,0.556873255629,0.0,0.0,1.76043002076,-2.26388560546,0.0,0.0,0.933888591419,0.433523179875,0.0,0.0,0.0,-1.27615938928,2.49145223669,0.217486291157,-0.418456511686,-3.06547358106,0.0,0.0,0.0,-1.41970051515,-0.367846491475,-2.35480689888,0.0,-2.6682715862,0.0,0.0,0.0,2.28145165734,0.0,2.12181321875,0.0,0.0,0.0,2.18891404221,-1.85111241787,-0.520223992449,0.0,-0.803393061885,3.41862024974,0.0,2.99288846883,-2.14348687995,-2.32216634762,-1.26645646161,1.84085600768,0.0,-3.31448293068,-1.40938817113,0.0,0.0,-3.99685303748,0.0,-2.45894718466,0.0,0.0,0.0,0.0,-1.09856034924,1.27320476538,0.0,0.0,-2.03499785464,0.0,-0.73374863542,0.0,0.0,0.0,0.00453044770046,0.0,0.0,0.0,0.0,-3.45281654823,-1.05827741071,-0.103878093727,-0.775783609914,-0.0889567252489,-2.55411104812,4.57491469753,3.44644025991,-2.47194037575,0.0,0.0,0.0,1.67996531471,-0.328643011752,-1.00431829709,-1.74704524842,-4.42630424236,4.45623941301,0.0,0.0,3.15677448725,-0.838311967949,-4.55305588285,-3.93534459351,-1.73929826117,0.0,-3.75461694016,0.0,3.45313169618,1.28555857704,2.37807850467,0.289857315282,0.346682836493,0.0,0.0,-3.68729086994,0.0,0.0,0.0,-2.32405911905,2.82884941018,-0.93469037637,0.0,0.0,0.0,2.63502232465,-0.810708838005,0.0,0.0,0.0,0.314284789719,0.528878931905,0.0,-2.36456287912,-1.57527959919,2.12127690327,0.0,-0.711120541572,0.0,2.4601125385,2.26902140268,0.850792682829,0.0,0.0,4.27335211016,-2.05943516374,1.00221423444,0.0,1.24489587303,0.0,0.0,2.94141509586,-1.6846728803,0.0,0.0,0.0,0.0,3.66209533669,2.63833396647,0.0,0.0,0.0,0.0,-0.638981779286,0.0,0.0,0.478731407174,-0.730854307124,0.0,3.69223473877,0.0,0.0,-2.15735359977,-1.51081641407,0.0,0.0,0.0,-2.73872547542,1.59954967002,0.0,2.88661831334,0.0,-2.55029178971,0.0,0.0,0.0,2.73181580017,0.0,0.0,0.0,0.0,0.0,0.26833675836,-1.53246040081,-0.260125460015,0.187580319742,0.870613432002,0.0,-1.2340001368,0.984363852825,-0.796007855538,0.0,-1.17469526565,1.95704654798,-0.240540305404,0.0,0.0,0.0,-2.79720458584,4.95765207759,0.0,0.0,0.0,-2.96583340714,3.75305451586,0.0,-0.074634643282,-1.24527389003,0.0,-4.03665619708,0.0,2.76626950492,-0.765980673508,0.0,-1.67179874025,0.0,0.0,2.31588831477,0.684986963021,0.488259077185,2.5298358622,1.11883398139,0.367615757006,-1.57549046209,0.0,0.0,-6.40782304246,2.06291158372,-0.0211788878683,-1.56758851087,-0.551719695737,-1.9479242395,0.0,1.17396097507,0.610503644206,0.0,1.35768155132,0.0,1.30802333612,0.0,-2.27403251727,0.0,-2.25259667248,0.0,0.0,-1.31082646458,-2.48488611808,0.0,1.03903211628,0.441150370429,-1.17210705831,0.0,1.25444376496,0.710036418445,2.87875858919,0.0,-2.16109264117,1.78579819362,1.47023190073,0.00710447096336,0.0,0.0,0.0,0.0,0.288395841247,3.3283425894,1.2789533057,-2.97104828024,0.0,0.0,-2.95364342138,-3.90927731277,1.17901783145,0.0,-0.116117559204,0.538235350099,0.0,-1.67762590858,0.769958391987,0.0,0.0,1.35514452536,0.132707296456,-2.94892867308,1.74064463501,0.0,0.0,2.75622872229,-2.67611942651,0.0,0.0,0.0,0.0,2.9969138608,0.476792816006,-1.56723969828,-1.72300722553,2.72790486428,0.0,0.0,0.0,-0.174645463078,0.0,0.0,0.0,0.0,0.619861501427,0.260192605965,-1.97950700993,-2.22944586973,-0.613501632809,-2.83624637987,-4.13237130789,0.0,0.0,0.0,0.0,-5.20714045561,-3.00612735902,-2.86991716032,-1.550152958,1.30029414672,-0.90395348619,-1.1371573072,-1.75564346028,0.0,0.0,-1.93467405663,0.0,0.0,0.0,-4.19120384522,-5.28581746632,0.0,0.0,-0.46474922342,3.43268650483,0.0,-0.987110171779,0.577488910634,0.0,0.0,0.0,-0.279787221843,0.0,1.66458390424,0.0,0.0,0.0,-0.2398896815,-1.26974023274,2.08805206149,0.0,-2.13430973654,0.0743714251916,0.0,0.0135062513894,1.62852708846,0.454866516607,0.0,0.0,0.810547403405,0.0,0.0,2.59232765073,0.0,-2.64323947287,1.81187462552,-0.58412526361,-0.142828601551,1.57159273711,3.24702730379,0.0,-2.39801413829,0.0,4.14938784698,-0.679202760161,0.0,0.0,0.101858674378,0.0,1.0040658809,0.0,0.0,-1.35033032543,0.0,0.0,2.35723731369,-3.82441011931,0.0,0.0,0.0,0.0,-0.531682079432,0.0,-2.37808359273,0.0,0.0,0.0,-0.812964489662,0.0,0.0,0.0,0.0,-3.41719582642,-0.588440224004,0.0,0.0,0.0,0.0,1.8396644658,0.0,3.00827171949,0.0,1.28248794578,0.0,1.86877873652,0.0,0.0,2.57161650975,-2.01590015923,-3.11987560438,0.470013028911,0.21895634842,-0.336219678803,0.0,0.0,-0.126711571255,0.250319435532,0.0,2.30286924186,0.0,-1.24770784114,-1.68364795245,-0.403755378255,0.0,-1.15457513025,2.0363724227,0.0,0.0685211085642,1.74633123662,-3.27156478597,-0.0918111736623,0.0,0.0,0.750548485608,-1.51744941342,0.0,-3.61806215454,2.4653782112,-0.417987582051,0.787479381105,0.0,0.0,-2.88519881632,0.763003098765,0.0,1.81279517218,0.0,0.0,0.0,0.0,-0.07461131518,0.0,5.09991809866,0.0,0.0,2.37467323608,1.31992872934,0.600130098075,-0.813688062686,1.25963989716,-1.15314932345,1.59657187369,1.44964508893,0.0,3.13689871268,0.0,1.04783964407,0.0,-2.18547150367,0.0,-1.07664009347,0.0,0.0,0.0,0.456743304321,2.97222534075,0.0,-2.37820034107,0.0,0.513446448433,-1.03485028179,-0.0150537946931,0.0,0.609325957782,0.0,-0.00550248417882,-0.21255999152,-3.41676885272,0.0,-1.33468845529,-1.24505015889,-0.864758033025,0.0,-1.20756985555,0.0,-2.75467397908,0.0,0.687718791992,0.0277261729532,0.0,0.0,2.21386894822,0.0,-1.66963594076,-2.95461795358,-0.713142347892,0.0,2.37637684143,0.0,0.0,2.31603847671,0.0,0.0,0.0,-2.60518892111,2.07126574631,0.0,0.0,0.0,0.54707959216,0.0,0.737299720352,0.0,2.17758464044,0.0,1.78704282521,0.0,0.0,0.0676766140478,1.25554309206,0.0,0.0,2.42679682353,-3.18217229374,0.0,4.31214786552,0.718958828365,2.62233579712,0.0,0.0,0.0,-1.38496898308,0.0182710713242,0.0,-2.30666322505,-0.795844616431,0.0,0.0,0.0,-0.719305039063,-3.94905629145,0.0367599234766,-4.05643251767,0.0,0.0,0.0,0.262474961121,3.61267797735,0.507941902773,0.951445883246,0.718074673667,0.0,0.0,1.29013933804,0.0,0.0,0.0,0.0,-0.193317116305,0.0,0.0941844048778,0.552024682145,1.38853442247,0.0,1.20139520161,0.0,3.07576508172,0.0,-1.33965281785,0.0,1.18164371832,-0.667375444873,0.0,0.0,-0.512487788738,0.0,0.0,0.0,0.0,0.0,1.96379334992,-0.57522358761,-0.173050677608,0.0,-4.02663359817,-3.48388889327,-2.29814162577,-1.07251991322,1.11547968959,2.90779077172,0.497964066715,1.28798894494,-1.39095468052,0.0,1.45704638253,0.0,0.0,0.0,0.82153922602,0.0,-4.56025583581,0.0,0.0,0.0,1.83163731245,-1.49034287017,0.0,0.0,0.137758870446,0.373300092149,0.602729128407,0.218186699227,1.30803221378,0.0,0.0,-3.12334963464,-2.88028189613,-2.93792751486,0.0,-0.293225500611,-0.714317176806,2.54230576069,0.0,0.0,-2.77161591109,3.6286418605,-3.72963055189,1.13697028806,1.48099308133,0.0,1.48118690294,0.0,3.23220117556,0.0,1.18798071329,0.0,0.559807470459,0.0,-0.644995851938,1.08751611099,0.352986075896,0.0,-5.05765338922,-3.35540235596,2.20417656072,0.0,0.0,0.0,-2.87983889221,4.78717466367,0.181927198499,1.25172755266,-2.72079433531,-2.28816761008,0.0,0.0,-0.374163685212,0.976966214876,0.0,-0.485425305716,1.59014390759,0.0,-0.819680391502,-1.0264458918,-2.58795281708,3.44080006247,-0.319148056543,3.18909945372,1.48445231507,-1.4259009906,-1.31890598527,0.0,0.0,-0.367106797025,-3.52046269692,0.0,0.0,2.24603831733,-4.24900042803,-0.279844516887,0.0,-1.45675987649,1.16269061496,0.0,2.39814216577,0.0,0.0,0.0,1.40344418814,0.0,0.0,0.0,2.79078163269,0.0,-2.08772446454,-0.228446926882,-0.268223877287,1.12082176641,0.908032544056,0.0,0.0,1.13133909968,0.307820508055,0.0,0.0,0.0,0.0,3.25825035252,-3.55221425095,-0.399272859192,1.09398286916,0.0,-1.89015479581,0.0,0.0,1.61368108194,1.98507527622,0.0,0.0,1.91348908585,2.43811508835,-1.3573462898,1.58643399684,-0.718799442963,1.14027507425,3.02111461594,0.0,0.0,0.0,0.0,1.96274206473,0.0,0.0,0.0,0.0902375981746,0.0,0.0,1.48513182393,-1.62610220752,0.0,-1.80031700924,0.0,0.0,-2.33370802802,-3.35899333148,0.0,2.61102843565,0.0,0.0,2.87599288757,0.0,-1.03843990529,0.0,0.0,0.87289581531,-2.54765998108,3.42943224024,0.0,0.0,2.37595050197,0.0,0.0,0.0,0.0,-0.709955384986,2.1932331056,0.0,0.0,1.60068807549,0.0,3.79708612011,-1.16250373923,0.589249303849,0.0,0.0,2.32206055393,0.0,-2.05174207458,0.0,0.125046229371,-1.86116189896,1.73737926966,-1.08372864986,0.0,0.0,0.0,-1.15878549074,-1.16568038073,0.0,0.0,1.27856909936,0.0,0.0,0.0,1.71812437766,-1.09064581327,-2.58678335826,0.434553287731,0.0,-2.52066468288,0.0,0.0,-1.4263638732,0.0,-1.53412367452,0.0,-3.95552121875,-2.27721041569,0.0,0.0,0.0,0.0,3.80848398109,0.0,-2.71918281979,0.898081245403,0.0,0.0,0.763125958806,0.0,0.0,0.0,-0.144899637016,-2.32826366968,0.0,0.969681266257,1.29974038868,0.48460397529,0.0,1.50840792478,0.118560918827,2.26908279515,0.106407186839,0.0,2.42385131953,2.5223730788,0.407133841629,-0.496496628294,-0.00754889493755,-0.17616689641,-1.60412765595,0.0,0.0,0.0,1.64470788658,0.0,1.23493688749,0.0,0.0,0.617231546411,-0.0549920223839,0.0,0.0,-0.529232454289,0.0,-5.23603807311,0.0,0.0,0.0,3.65636213429,0.0,3.26108545296,-0.781428969663,3.21628872867,2.0494516693,0.0,0.0,0.0,0.0647963963663,0.0,-1.42262583051,0.0,0.0,0.0,0.0,0.0,0.0,-1.25598930176,-1.52401831833,0.469006152538,1.48132133359,-1.66699357722,-0.47710922959,0.0,0.0,0.00709992296367,0.0,0.0,0.0,0.0,0.219363952254,0.0,1.48625483037,-0.0969459067852,1.6167323396,1.03328429964,0.320141753807,1.60964643241,0.0,0.0,1.2492952139,-1.54341464308,0.0,0.0,-1.46596844887,0.0,1.76187451276,0.0,-0.337909000108,0.0,-0.00949403069088,0.0,-3.21739757192,0.0,0.0,-2.85109366423,-2.51410363213,0.0,0.0,0.0,-1.42694821376,-0.248441479945,0.0,1.85863127471,0.0,0.0,1.57278465521,0.0,0.0,0.0272133156834,0.0,-1.59326913597,0.0992701831845,0.0,2.20403052018,0.47837737556,0.0,0.0,0.0,0.0,0.0,-0.937895344404,0.0,0.0,2.73669637853,0.317713259341,-1.78566413448,0.0,0.0,0.0,-0.46126004038,1.89137299957,-1.50867579823,-2.79802529575,0.0,0.0,0.0,1.70797051679,0.0,0.0,0.958316145728,-0.449593594258,0.0,-0.567167998915,0.0,0.0,-0.265456287275,4.82563386443,0.0,0.0,1.40279965137,2.19622632248,0.0,0.0,0.0,0.0,0.0,0.0,-0.122325670012,0.0,0.0,2.1407833413,1.02670250876,0.0,-1.84744512875,0.0,0.504335285068,0.0,0.0,0.0,1.72229016477,2.35204507744,1.72890275065,0.0,0.0,0.0,0.0,-2.97759457205,0.0,-3.87487571486,2.97009329017,0.0,0.0,1.35514452536,0.0,0.0,0.0319828722755,0.0,1.74241484954,0.0,0.0,-1.63084916508,0.0,1.24702924133,0.0,-1.40546876615,0.0,0.0,0.0,0.0,0.584020855595,0.0,-1.01526222242,2.0284549806,0.0,0.0,-1.35739254625,-3.96083663884,0.0,-2.87557693341,0.0,-2.33603866518,1.50497315756,2.42236608676,-0.62084060678,0.0,0.0,-0.815990751628,0.0,-1.83735497802,-1.96663046849,0.0,0.0,0.0,-1.5599508379,0.52606388064,0.359943419422,0.0,3.06172470076,0.0,0.0,0.0,0.0,0.0,0.24532012017,0.164716635107,-2.18547150367,-4.46666616908,0.0,0.0,0.764266951443,0.0,-4.0661021,4.90063903472,0.0,0.682600352587,0.0,-0.319946886502,0.0,0.0,0.0,-0.59230638349,-1.00261663539,0.0,0.0,0.0,0.0,0.0,0.0,0.0,0.0,0.0,0.0,1.9208418327,-1.28319249811,1.49285221778,-2.2639664436,-0.138972998875,0.0,0.18928308154,0.688061640298,2.22762492133,0.582626614834,-0.470973460876,-0.116678968988,0.0,0.0,-1.62092932781,0.0,-0.603247309439,4.12678206699,4.31618855622,0.407571531077,0.0,-0.968716891304,0.0437209627195,-0.726232729886,-0.52318288046,0.0,0.0,0.399886036458,0.0,0.0,2.65459186714,0.0,-1.45365517041,-0.300084163882,1.72011259127,0.0,0.0,0.0,2.446126921,1.79049460035,0.0,-1.52696068322,0.0,1.03502313028,0.0,0.0,2.14717036818,-3.10735760717,0.0,0.0,-0.840914358406,0.572620547937,1.02067343271,3.21517471055,0.0,1.1413025813,-0.430255353544,0.0,2.09640846352,0.45537593822,2.19622632248,0.518890212683,0.0,-1.47820699146,2.111077139,-2.4052898908,0.0,0.0,0.0,1.37767911825,-0.732153413545,-2.82353160976,-0.671020400459,-3.47520009534,0.0,-2.13584526419,-1.39271530807,-1.55361405495,0.51030077788,-0.06792553542,0.0,-1.20009283526,1.77462202494,0.0405315335238,0.0,0.228788567435,0.0,0.0,0.0,0.0,1.53091843047,1.17959841335,0.298416139155,-0.079767672041,0.0,-0.433653122367,0.0,-0.507252675691,-2.0174571013,1.36299083105,-3.11987560438,0.0,-0.182398897783,1.51507424708,-0.468236763924,0.145229672259,-3.7590124562,1.45266487832,0.0,0.0,0.0,0.0,2.20716634459,0.0,0.0,0.0,2.18547150367,2.26124789748,0.0,0.0,1.54160293982,2.1709358819,-0.832333507493,0.0,0.743605586915,4.25983852366,0.0,0.0,0.0,1.92083493643,0.0,0.0,0.0,0.0,0.0,-0.935239835556,0.094313259966,1.30376757552,0.113196253855,-1.06670685734,0.0,3.49560557283,0.0,1.60978238209,0.0,1.40490333671,0.635715628093,0.0,-0.0672558751088,-4.54694401976,0.662865326929,0.0,1.760262008,0.0,0.0,0.0,0.0,-1.29505770546,0.0,-4.33110435844,2.76773257553,0.0,2.85734872142,0.516405939982,0.0,0.0,2.15884215035,0.0,0.0,2.21568353493,1.20961663779,1.67145667422,0.0,0.0,-1.74221851122,-1.37565788425,-1.84193014864,0.0,-1.99514693902,0.646286124431,1.24147494614,0.0,0.0,-1.38321107784,1.57472078382,0.0,0.0,0.0,0.0,0.0,0.293442431892,2.24637547767,0.0,0.0,-0.123237249603,-2.05840282117,0.0,0.945267212583,1.47209444541,0.0,0.0,-2.72048539314,-1.45401222287,-0.13445718971,2.19882912053,0.0,1.97590880382,0.0,-2.44552138755,-3.51784993665,0.0,-1.7962690831,4.16383209218,1.30887008191,-0.2753088395,0.1633984422,0.0,-3.33910573033,0.0,0.138288448977,-0.165523142176,1.59728620269,-3.12543311692,0.0,0.0,0.0,0.0,0.0,0.755803539459,0.0,2.70247968758,-1.23887467225,-0.302039844773,0.0,0.0,-0.0512140052684,-1.11703742922,0.0,0.0,0.0,0.0,2.49929529163,0.0,-1.74114053211,0.0,0.0,0.0,-1.55361405495,2.62958749387,2.3562947535,0.0,0.0,0.0,0.0,-2.03910746397,0.0,-0.830759441476,-0.83229581789,2.03705443028,0.0,0.0,-3.68877593776,0.0,-0.735591955797,0.0,1.08415915445,0.0,1.60625244623,-0.762455122419,-2.25561087643,0.0,0.3776946248,0.0,0.702289104224,0.0,2.29177083188,0.0,0.0,0.0,-1.26229929321,0.0,-2.05268197195,0.0,-0.110442271091,0.0,0.0701202806612,0.0,0.0,-4.82812170402,-3.15565432483,1.36830599211,0.0,0.0587682951057,0.0,-1.34021518753,-0.190707819503,-2.22188618317,-1.14902274193,0.0,0.0,0.183476739709,0.345811598754,0.0,-1.57733178453,-3.10133608885,0.0,0.0,0.0,0.273577390305,0.0,-1.75636417496,0.0,0.0,0.0,1.44057107624,-1.90142996966,-4.26098928748,2.41338055043,1.07400765801,0.0,1.51942006072,0.0,0.0,1.07904831084,0.0,0.0,-4.28382127443,0.387533465251,0.0,0.0,0.0,-3.69975578745,0.0,-3.6408777999,0.0,0.0,0.0,0.0,1.19474061507,0.0,0.929130125114,0.0,2.92812378343,3.07229392771,-0.977193421368,-0.329449030131,0.0,0.0,-0.0672558751088,0.0,0.0,0.0,0.0,0.0,-1.08226736775,0.0,0.0,0.0,1.91052550646,1.88646704524,0.0,0.0,3.10282751553,-1.24505015889,0.0,0.0,-0.629364639282,0.0,-0.651217801073,0.0,-2.99646750089,0.0,-2.23132829648,0.0,1.56764355797,-3.32422051358,0.0,0.531420416005,0.0,0.0,-1.13729372681,0.0,0.0,0.0,0.0,0.0,0.0,-2.05967810076,0.0,-0.194707109394,0.0,0.0,-0.425722329875,2.59407224667,0.0,1.90971720554,-0.473899930186,1.88647090929,0.0,0.0,-2.65869948954,0.0,0.0,0.0,2.17842280862,-1.9961404988,0.0,0.0,0.659367145707,-0.67399610526,1.88526985062,0.0,-0.000294901978981,2.97000769789,0.0,0.0,1.83066764611,0.0,0.485537093532,-0.153854208174,4.58133003697,-0.788662657708,0.0,0.0,2.49724164099,0.919980482455,0.0,-2.43621565873,0.0,0.0,-2.13112311048,0.232717525125,0.0,0.0,1.50259471876,-0.526259329926,0.0,0.0,-0.498583015478,0.687382163192,-0.786070429828,-3.68660878811,0.0,0.0,-2.13679781564,3.30018994589,-2.04918166341,0.0,-0.842123674338,-1.13211156326,0.0,0.0,-2.95818748684,0.0,2.16818835985,0.0,2.22740940193,0.0,-0.897522137775,0.0,0.0,1.14680649905,0.286820941251,-1.47822802449,0.0,0.311100388255,0.0,0.540564532443,-2.31707768228,0.0,0.636644001358,0.317533457846,-0.662978152615,0.558541587272,0.0,0.0,-2.53301721069,0.0,0.0,0.0,-2.35762749447,0.946900456772,0.0,0.0,-3.73877600902,0.0,0.0,0.762381969928,0.0,0.0,1.93798062257,0.0,0.638427698453,0.0,0.0,1.04751293214,0.0,-0.366143280849,0.0,0.0,-2.32402704079,-1.5702303951,-0.945030229385,0.0,0.469379303052,0.0,0.0,3.21260271146,4.13280700701,-0.732281794526,2.4836466052,-3.77346318162,0.453477679267,-2.02456897287,0.0,0.0,2.14136646111,-0.380058359568,0.0,0.0,0.0,0.0,-2.48104964084,2.14525840946,0.0,0.0,0.0,0.0,0.0,0.0,-1.43240732004,0.688061640298,0.635715628093,-1.68115929081,-0.883633885765,0.0,-0.609952276949,0.0,0.0,0.791561081768,-1.54772277846,-0.488428793095,0.0,0.0,0.0,0.0,-1.86323955312,0.0,0.0,0.0,0.0,0.0,-1.42412694518,3.29021811176,0.0,-3.07105676646,0.0,-0.760449620213,0.0,0.0,-3.38395268766,2.77613512163,3.01699982756,3.42187323734,0.0,0.0,0.0,0.0,-0.638475628135,-1.82214258546,-1.03886373073,-1.02408105402,-1.69362931376,0.0,0.0,0.894029270161,0.0,-4.36952956695,5.21164598814,0.0343664141422,0.0,0.0,-0.432276962822,0.0,-2.43970737868,0.0,4.40154979416,-3.44503819094,-0.0738941343262,0.0,3.1423608825,0.0,-0.0786853428126,0.375400999654,0.0,-2.85140437274,0.0,0.0,0.0,2.21219376869,0.0,1.96835594263,0.0,-4.00206357668,0.0,0.0,0.0,0.0,2.53794306303,2.04471499335,0.0,0.0,0.584905111732,0.0,2.21543055207,0.0,-1.23790385122,0.0,-0.123326993556,0.0,0.288655367921,-2.56025671463,3.37506984869,0.0,0.0,0.0,-0.868290971034,0.468497538293,0.0,0.0,0.0,-1.54306735394,-1.41486648331,-1.43903124223,-3.84092330481,0.0,0.857565948467,-2.87331683377,0.0,-2.97820588899,0.0,0.0,0.0,-3.56268787881,0.0,0.0,0.16643482904,0.0,0.0,0.0,-5.07076086544,0.688061640298,0.0,0.0,-2.83075840033,-1.05796978242,-0.168270778837,0.0,-1.34004830617,1.24155029377,1.48818879801,-1.49043329394,0.0,0.0,0.0,2.4493674696,0.0,0.0,-0.833172606868,0.0,0.0,0.0,1.52828422793,1.2334511536,-2.76386824532,0.0,-0.957712492161,-1.31319726617,2.71830972364,2.9211010048,0.0,0.0,0.0,-3.67983063462,0.0,0.0,0.0,0.373950385898,0.0,0.506317211299,2.12432163817,-3.26513957709,-1.17382352379,0.0,-0.77505336645,2.10378621351,0.955270689821,0.0,1.91183753761,0.0,0.0,2.02229685845,0.0,0.0,-0.677366385275,0.0,-0.670549405286,0.0,1.84519963203,-2.24047257125,0.0,-1.59325830298,-3.34086139325,-1.6065874003,3.07674393073,0.0,0.746655585707,1.93085662006,-1.77191040161,-0.839670809833,-1.06454872854,0.558872807774,-2.90205363902,-1.65475181847,0.0,-1.3738965181,-0.818705279133,0.0,0.0,-1.323892646,-1.33965281785,0.99172912289,0.0,-0.844202346461,0.974259472707,0.0,-0.536358391232,0.0,0.0,1.01831904108,1.8574549532,-3.94876550288,-2.27296139415,0.0,0.0,0.0,0.355155436185,-4.3446583122,0.0,0.0,0.0732614070524,-3.22033244183,-0.931521169092,0.0,-0.58735452293,-1.02036322278,0.0,0.0,-3.10609769446,0.0,0.0,0.0,2.54099558464,-0.530718953236,0.0,0.0,-1.08039342155,0.0,-1.74635600147,-0.985133916589,-2.12587623807,4.77724736251,0.0,0.909191070698,2.04576919003,-3.82421307866,0.0,0.0,0.0,-0.0992313103064,0.0,0.0,1.88453982017,0.0,2.86842921951,-1.09674273867,-2.27891323358,0.0,0.0,-2.71703428752,-1.5737299485,0.0,0.0,0.0,-0.354089227138,0.0,-1.89388796395,-0.315600634803,0.0,0.0870672969218,-1.183169229,-0.0901513315526,-0.853813819878,-0.854512990186,-0.884680830731,-2.12806088956,0.0,-2.83243012425,-0.94692615973,0.0,1.11208637712,0.191127541992,-1.98666773965,-1.97307447095,0.0,-2.08398438023,0.0,0.0,0.0,2.80567715118,-0.966585394246,1.45735163233,0.0,0.0,-1.08052826135,0.0,0.0,1.28451103168,0.0,0.0,1.7476677117,0.0,-3.74186278742,2.02658434777,0.0,0.0,0.0,0.0,2.50387413609,0.0,-2.14945833727,0.0,0.9804110199,2.34709134436,0.0,0.0,0.0,2.14127528196,-0.93487684804,-2.57980450897,-1.69610000662,0.0,-0.654125748002,1.31674769785,-1.32071208511,-0.542183816086,0.0,0.0,0.266107060789,3.03204096422,0.0,3.85795966534,0.0,0.0,-3.72715498257,-2.83205953335,2.8129334483,-3.02475465412,-0.865679330899,-1.36784332971,-2.63156336783,-2.73426224397,0.0,-0.0966614964884,0.0,0.0,-0.385193483667,2.23553332029,-1.45401222287,2.61627326998,0.57409251269,0.0,-0.271055448314,0.0,-0.0371782859124,-3.61113739032,0.0,-1.98434653815,1.14995147877,-0.908864317798,0.0,0.0,0.180472537394,-2.1967723953,0.0,-2.40790801988,2.64092404511,3.25015010802,-0.415423042937,1.73366514206,-1.43800772652,0.0,0.0,0.116589356713,-1.98069003644,0.0,-0.428348597376,-2.2160138692,0.0,2.88332979169,0.728768243117,-0.648672287932,2.42340459114,-1.54647184017,0.0,2.57062748694,0.567113842815,0.0,0.0,0.0,0.0,1.37816073805,0.0,0.0,0.0,0.0,2.91447208166,0.0,-0.895812109463,0.0,0.99756611688,0.0,-0.123237249603,0.0,-0.135033394242,-0.465263409968,-1.55090965238,2.53449017296,-1.45903283044,0.0,0.0,-0.275411940934,-1.45137753548,0.0,0.0,0.0,1.01047990657,0.0,-0.117661813847,2.20244448596,-1.1093897586,0.855517703747,0.0,0.0,0.0,-1.63740643528,0.0,0.0,0.0,-1.88214530686,0.0,0.411900036537,0.691687621194,0.0,0.0,1.01012903567,1.28996146158,-2.55765343558,-0.856008877499,-0.464046140649,-0.732404503586,-0.88202134132,-3.8863437168,0.0,0.0,-0.411165087138,0.0,0.0,-0.283596866183,0.503157334843,0.0,0.0,0.0,-0.419207845798,0.363100420878,0.0,0.0,-4.54536869752,0.0,1.71756747571,0.0,0.0,0.0,-3.63413505812,0.0,0.0,0.0,-1.05965463805,-2.2735405868,-0.301177906994,-0.715516433921,0.0,0.0,0.937592758762,-3.88817960455,1.68528859836,0.0,-0.636709667104,0.0,-0.590776970781,0.536743604937,0.0,0.0,0.0,0.0,0.0,0.0,0.0,0.0,0.0,1.27401918889,0.0,4.86529604306,2.58429730207,-1.62185993576,-1.7365289467,1.67202487422,0.0,0.0,0.572453771164,-2.60661087384,2.65156355818,0.0,0.0,2.14246950275,0.0,0.0,2.73313299393,-0.813877459941,-0.521302555364,0.0,-0.818813997365,-0.87952837865,0.0,0.0,1.93211679477,-1.56545861349,-2.81276042097,-0.409790184673,1.64606610113,0.188502718107,0.0,-2.86613109245,0.63633374668,0.0,0.0,0.0,1.85123454918,0.0,-2.11376166279,0.231026065054,-1.40696097207,0.0,0.981124518291,0.0,0.405517765126,0.0,-1.99084983687,-0.257419854431,-0.520287929586,0.0,0.0,0.0,0.0,-0.0362742971288,0.0,0.0,0.0,0.0,0.0,0.0,0.855410822698,0.466514337873,-0.706304786121,0.0,-0.765022542872,-1.97819768085,0.521696844611,0.681751860114,0.0,0.0,0.0,-0.191270545727,0.0,4.04763081562,0.0,0.0,0.0,0.914831940615,-1.53373726945,0.0,-0.391794200078,-2.21629976932,-0.875083149873,0.0,0.914284852192,-1.28017272299,0.0,-0.290244183575,0.0,0.0,0.0,0.0,0.0,0.0,0.0,0.0,0.0353193261483,-1.60506067683,0.0,0.0,0.0,-2.72485692764,0.0,2.86471535508,0.0,0.0,0.0,3.21539147446,-0.853320509411,0.0,0.0,0.0,3.21481615426,1.46400831264,-0.1268885959,-3.80405428286,0.301702677322,1.99177480669,0.0,-0.223227163795,0.0,2.86035325103,0.589943809923,1.79962242584,-2.32354687763,0.0,-4.07843947183,1.69610602002,0.0,3.79471164453,0.0,-2.18547150367,0.0,0.51422165008,0.144803971879,-1.02797032325,-0.928347072458,-1.16568038073,2.60778213431,0.0444406143606,0.0,-0.57922636869,0.0,0.0,0.0,0.0,2.02315749763,0.0,0.0,-2.92360418497,3.88563369096,-2.19022257067,0.514197572176,1.49816293111,2.28491777219,0.0,0.0,-0.694349192283,0.0,0.0,1.66252026576,0.901195812756,0.860031353812,0.0,0.0,0.207052300439,0.416841991788,-1.20009283526,0.0,-0.65188303767,0.0,0.0,0.0,-2.89200549297,-3.75809630858,-0.554971967753,0.0,0.0,-0.223685540617,0.0,2.30559919762,0.0,0.572997142187,-0.252175632075,0.0,0.0,1.17745166778,0.0,0.0,1.44812676933,2.13239699867,2.95670468866,0.0,0.0,-1.2306505453,0.0,0.0,0.0,-0.290549217998,0.0,0.166171297393,0.0,0.0,1.68442003924,0.0,0.0,0.0,0.0,0.0,0.0,-0.333365439417,0.0,2.64918120556,0.0,0.0,0.0,0.0,0.0,1.75129087214,0.0,-1.82538437126,3.85356268017,0.0,-1.50442600633,0.0,-3.452842048,0.0,-2.72485692764,0.0,-0.973502044104,0.0,0.0,0.0,-0.536358391232,2.8520945576,0.0,0.0,0.0,0.0,-2.22602980376,0.0,0.0,1.94412870597,1.64695966059,0.0,-2.26295131921,-2.06917608013,0.0,-0.677342601024,0.0,1.85156081011,-4.08205057269,-0.735443689067,0.92007878039,-3.13955054446,-0.201993206656,0.0,-1.38534763059,0.913736721952,0.0,0.0,0.0,-3.89590800191,0.0,5.6376716688,-0.579280000437,0.0,-0.285944614511,-0.888840392069,-1.46215048479,0.0,-1.7583802775,0.0,0.0,0.0,0.0,1.00005209087,0.202933615555,-0.6787279016,-2.71675351697,0.0,0.0,-3.84340343833,0.0,0.0,0.0,-1.19145676117,-0.717883626749,0.0,2.58745972331,-0.663137439048,0.0,0.0,0.0,0.527681574742,-0.974400316885,2.01007712728,0.681751860114,1.45040649929,-2.52360937028,0.0,0.288959234079,-0.727994857149,0.0,-2.87704294525,-0.409865329652,0.0,-0.912598311634,0.0,0.307479095408,0.992453146815,0.446825073416,-0.84594705453,0.0,0.363508842999,-0.27269045967,-1.63084916508,0.109100320059,-0.871108771009,0.0,0.0,1.40744477752,0.297167035794,0.0,0.759157209344,0.450417256913,0.0,3.43563261566,0.0,0.0,0.737757894557,0.0,-1.46892209742,0.0,0.0,-0.624906422676,-1.44234922093,0.0,0.180102698469,0.102507569897,-0.699478921697,0.0,-1.82769646726,0.0,1.94802106122,1.87267034843,0.0,-2.71938458696,3.01870328864,0.0,0.0,-0.904112320941,0.0,-0.740868348552,2.31911328418,0.0,0.0,0.0,-0.80836465268,0.0,0.0,1.76359854013,1.00843238082,-2.20695342274,-2.22312332559,0.0,4.05660205442,-1.97051883698,0.0,0.0,-0.470203691061,0.0,0.0,0.0,0.0,-0.284207847448,2.26473053292,0.0,0.0,0.0,0.0,3.99187700434,0.0,0.0,0.0,-1.65790636025,0.0,0.576626204762,0.0,-0.704470375622,1.32057580434,1.44800545637,2.87036633997,0.0,0.0,0.0,-1.02075850684,0.0,3.04616107333,0.0,0.0,-2.19078908478,-2.08601885352,0.0,-2.18400454895,0.0,2.25959849849,0.0,-0.446284133797,0.0,0.51422165008,0.0,0.0,0.0,0.641376747587,-3.1078259494,0.0,0.0,-1.82661743787,0.0,0.188182189176,0.183415410306,0.0,0.0,0.0,0.0,-5.53137303217,-1.34365281917,0.0,0.0,0.0,0.0,-0.695172250972,0.0,3.88197601022,-1.3307604774,-0.194046917748,0.0,0.0,0.0,0.0,-0.486818028333,0.0,0.528557408647,0.0,-0.395530244588,0.0,0.738888799486,2.62516832252,0.0,1.16646766972,0.0,1.56269723795,-0.657007476733,0.0,0.0,0.0,0.164449814093,0.0,-2.40971470703,-1.55675030869,1.41121096989,2.35224054675,0.0,0.0,0.0,1.51734751304,-0.0379174085304,-0.713670491195,0.0,0.0,-2.14487239424,0.0,0.0,0.0,1.13590777479,0.0,0.0,1.7679571751,-0.548143904835,0.0,0.0,0.0,-2.06926092368,0.0,0.0,0.0,0.0,0.0,0.0,1.91770980192,0.0,0.0,0.0,-3.13824611677,0.0,0.607819737323,0.100984641823,3.99058183795,0.0,0.847575983367,1.3987622174,0.258285924478,-4.30697430752,-1.32756289516,0.0,-1.42608777688,-1.5490188387,0.0,0.0,0.0,1.03781038723,1.67407386656,-0.714564185806,0.4079308234,0.0,-0.151182026243,0.0,0.0,0.0,0.0,0.0,0.0,1.49437086378,0.0,0.0,0.0,1.08602688924,-2.20295558713,0.0,-0.776119616703,0.0,0.0895174930265,0.607485497802,0.294523484947,0.0,0.0,1.56843330107,0.0,0.0,-0.822614355818,-3.31826540976,1.40069865204,0.0,0.0,0.680454376196,1.59657187369,0.0,0.0,0.284444399358,-4.36496083413,-2.08934923764,0.0,0.0,2.55246543214,0.0,-1.37434825512,-0.377133269164,0.0,0.0,0.0,-1.17108044059,0.0,0.0,0.0,-0.0549137073216,0.0,1.41900647576,2.45515328228,-1.0555109634,0.0,0.0,0.0,0.0,0.0,-2.77319227862,0.0,0.0,0.737539826293,1.98277240998,1.84486760329,0.0,3.16536169769,0.0,0.0,0.0,0.0,0.0,-3.78184603301,2.51314046458,0.0,2.34679742238,0.0701202806612,0.0,0.0,-0.484101824172,0.0,-0.999423510011,-2.18547150367,1.81053413182,-0.912598311634,1.08402159946,3.00870108457,0.0,-0.515641908028,0.0,2.56248337926,2.5498277495,1.8327165426,0.0,0.0,-2.82556306604,0.0,-1.18002198318,0.0,0.0,0.0,0.0,0.0,0.0,-1.74885404305,-2.34265122434,0.0,-0.803128950252,0.0,0.0,-3.1807653555,2.36062210058,0.0,0.0,0.0,0.0,0.0,0.0,-1.80818885137,-3.8504390976,-2.03086319954,0.0,0.31841092635,-0.377218791549,0.431047783628,-1.04047115165,0.0,0.0,0.0,0.415345075748,-2.91749273308,0.792861363814,0.0,0.0,0.0,0.0,0.0,0.945510072798,-1.2049842834,0.0,-4.37763268399,1.9954078007,0.0,0.0,4.38725334031,1.40245858275,0.0,0.0,-2.17968383459,0.693324717813,0.0,0.0,-0.728675026408,-0.921140793664,0.0,-1.83325209991,0.0,0.0,0.0,0.0,-0.371333850228,-0.71671931111,-2.1219130912,0.0,-2.54660268565,0.0,0.0,0.0,0.0,0.0,3.32780738291,0.576626204762,-0.75155917661,-1.45405627943,-0.0416223290672,2.02541670152,-0.933998248319,0.0,0.0,0.0,4.63264279003,0.0,0.13956699895,0.0,0.0,-1.20194187256,-0.470419956322,4.52671978561,-1.57505229477,0.0,0.0,0.0,0.636880803804,0.0,0.0,-0.757278570868,0.0,0.0,0.0,0.121290602227,-2.38823669824,0.0,-1.23714812572,0.302381226415,0.0,0.697610286343,0.0,-0.162128826424,-0.772296501924,0.0,0.0,-1.31890598527,1.53963431795,1.5563134676,0.0,3.3016685111,-1.52064085312,0.0,-2.59899289084,0.0,0.0,0.0,0.0,0.0,0.0,0.0,0.624510205431,-0.71797527551,0.0,0.0,1.83692703814,0.0,0.0,-0.290040693837,-2.10597566855,-0.538793021721,0.0,-1.1038173993,0.0,-0.700086428531,0.0,0.0,0.0,0.793069372605,-4.3770929462,1.51914191877,0.0,-0.816211502204,0.0,0.682600352587,2.88964883692,-0.337115010255,0.0,-2.05070458091,-0.503315591322,0.0,0.0,1.06271201137,1.74951063412,0.0,0.0,1.04964197886,0.0,0.0,0.0,-0.1268885959,0.0,0.0,1.34223921098,3.6719158697,-0.878639475108,2.43601584073,1.67295260916,-0.892698684683,0.0,0.0,0.0,-0.276249015441,0.0,-3.40728476218,0.0,0.0,0.0,0.913152341971,0.0,-0.248544546378,-2.6476697531,2.04226126443,-2.91249735061,0.563238046686,1.66167452418,-0.525489409239,0.0,-0.0204265505219,-3.13436061909,-3.06981929073,0.943011770363,0.0,0.537779482358,1.66167452418,0.0,0.0,0.0,0.0,-1.69610000662,-0.957080920455,1.23614800495,0.0,-1.32243995291,0.0,0.0,0.0,0.0,0.0,1.18642705755,-2.49954037327,0.0,0.0,-0.01999484969,0.0,0.0,0.0,0.0,0.0,-1.81995321882,0.0,0.0,0.0,0.0,0.0,0.0,1.87740297856,-1.14564522422,2.53132618407,-1.47536612734,0.0,0.0,0.0,3.58234290816,0.0,1.44531996025,1.86794265237,0.0,0.0,0.0,-1.41663348945,-1.65517563327,-2.17296536778,0.771884557851,0.0,0.0,0.0,0.0,-2.51813262621,-0.482618576337,-1.47718277474,0.436388033293,0.0,0.0,-1.08362886082,0.0,-3.5907527172,0.0,0.645534381162,0.0,1.72937178319,0.881434964366,0.0,0.0,0.0,0.0,0.0,0.0,1.25142961527,-0.963547943355,0.0,0.387631826012,-1.93314184493,0.0,0.0,0.0,-1.21083088238,-0.299303310856,0.0,-2.07712339639,1.81734830685,1.5384408196,0.0,1.14946845879,0.0,0.322900186067,0.0,0.0,0.0,1.12721295779,0.476703957673,-1.80818885137,-0.1560519321,0.0,2.78608042258,1.08941766603,-1.40424853276,-1.59291473956,0.0,0.0,0.0,1.16909673971,0.0,0.0,3.5143758569,0.0,-0.751953393465,0.0,2.25397253322,0.0,1.5347153076,0.0,0.485382268406,2.35181453996,-1.19254907886,0.0,0.468322443262,-2.7125864107,2.85434895031,0.0,0.0,0.0,0.0,-1.879979737,0.0,0.0,0.0,0.0,0.0,0.0,-2.16469590752,0.0,1.75784448705,3.50993924272,0.0,-1.07209563176,0.0,-1.87113113528,-3.12633450555,0.0,-0.531706212001,0.0,-2.32882519231,0.0,0.0,0.0,0.0,0.0,0.0,2.06187945147,0.0,0.0,0.0,3.6500533006,2.21565532872,0.0,-1.17771914866,0.0,0.0,0.0,-2.33383951039,0.0,1.15532666087,0.0,-0.628518581994,0.0,0.0,0.0,0.0,-2.96167705035,2.17371083969,0.0,0.0,0.0,0.0,3.48166919372,0.0,-3.54963733228,0.0,-2.25950388522,0.0,0.115013627828,0.0,0.0,-0.0694012045924,0.0,0.0,-3.34182651362,0.0,-3.01706668825,0.0,0.0,-2.94954878733,-0.283596866183,0.0,0.0,0.0,0.0,-0.362448818775,0.0,0.193355267228,0.0,0.0,0.897408796037,1.24730250292,-0.206660207341,-1.76413700797,0.222815910914,0.974759127519,0.0,-0.134203940575,0.0,0.0,-0.875415013059,-2.51095122867,1.9025218122,0.0,-0.11715544582,0.0,0.0,0.0,-4.33259883872,0.0,-1.95979822978,1.63655775733,-2.25912869713,0.0,-2.70051639197,0.0,0.0,0.0,0.0,0.0,0.0,-0.0549920223839,0.0,0.180134530704,0.0,-0.235914840221,0.0,0.0,-3.88746742159,0.0,2.88719317542,0.0,0.0,0.440372790499,-0.45632920124,-0.671020400459,-2.09985000047,-0.412713518117,0.0,-0.173417804633,0.0,0.158582705258,0.0,0.0,0.0,0.0,0.0,0.073558003393,0.0,0.0,0.0,0.0,-0.764333103473,0.0,5.85412256585,0.0,0.0,0.0,-2.1053250275,-1.13915321445,0.0,0.0,0.0,0.0,0.121290602227,-0.461357071859,0.954972615876,0.0,-0.0624046971348,-0.192230936736,0.0,0.0,2.27941689016,0.0,-2.08570356832,0.0,0.0,-0.354371172731,0.0,0.0,0.0,-1.38479176567,0.0,-1.31976304574,0.0,0.0,-3.31204613252,-2.03414960289,-0.739674120902,0.0,-1.86791095072,3.58434623867,0.0,0.203939174328,0.7839639342,0.0,-0.0803121959736,0.0,0.431407787239,0.0,-0.0880677555117,-2.55818238048,0.0,-2.93067088393,1.89945969523,0.0,0.0,2.17842280862,0.0,0.0,1.85694796457,0.0,-0.00949403069088,0.0,-2.4168675427,1.03245332538,-0.198575243552,-2.78301898645,0.0,0.0,1.85694796457,0.0,0.0,0.0,0.0,-1.93460826589,-0.422296708151,-2.002380884,-0.438577635479,1.17127875918,-4.24181066125,-0.427743385565,0.0,2.65930095592,0.0,0.0,0.0,-2.29270911946,0.660748331299,1.58141875923,0.0,-0.494674491097,0.0,0.0,0.0,0.0,0.465573734464,0.0,0.0,-2.31565158568,0.0,-2.87301256681,0.0,0.0,-3.824664483,0.0,0.0,0.0,0.0,2.1566862115,1.26719283001,0.0,0.0,0.0,1.20750701216,0.0,0.0,-3.30881466362,0.0,-3.80249519201,0.0674811014822,1.69363734685,0.0,0.0,0.0,0.0,0.777506951894,0.0,0.0,0.0,-0.0243257201849,-0.155521387268,0.0,1.08576592401,0.0,-0.338194283739,-0.210932976735,1.13678940313,0.0,0.0,0.0,-2.83851563924,-0.745203922217,3.41707420418,2.4072175676,3.36580451987,0.0,0.0,0.0,0.0,0.0,0.0,-0.194707109394,0.51422165008,1.78428324899,-0.79962049284,-0.312536879067,0.0,0.0,0.0,-0.856303955419,0.0,1.06433229539,0.0,0.0,-1.37264724798,0.0,0.583586273536,1.66202705043,0.0,0.0,0.0,-1.52350532847,0.0,0.0,-1.06719597236,2.37691417654,0.0,-2.64800311612,0.0,0.0,0.0,-0.979154856496,0.875302016368,3.579128224,-1.60619527723,0.548054256276,3.09352275343,0.176962460389,0.709713731953,-2.18547150367,0.0,0.0,0.0,-0.115330140454,-1.8202758019,-3.12734718882,0.0,0.0,-0.62813383064,-1.12820809874,-1.66740913556,1.18083856867,0.0,0.0,0.0,1.56896924481,0.0,0.0,0.0,-2.64318235252,0.0,0.0,1.77884942436,0.0,0.399737410488,0.0,-2.59885292738,-1.55795113384,0.0,0.0,0.0,0.0,0.0,0.0,0.0,-2.19516228429,0.0,-1.49014104836,-1.63125877062,0.711793208718,1.32335018801,-1.18257547171,0.0,0.0,0.0,0.0,0.0,1.16131242394,0.0,-3.84132259487,-0.989487981592,0.0,0.0353193261483,0.0,2.03707112741,0.0,0.0,0.0,0.469008150458,-0.17467257957,0.0,-0.530572226259,0.569164619383,0.0,-4.0626865992,0.0,0.0,1.33049840303,0.0,-2.40941311741,0.0,0.253834158463,0.569164619383,0.373470725573,1.67429361787,0.0,0.0,-0.659115505082,-2.80413836456,0.0,1.62559370407,0.0,-0.380935666013,0.0,0.0,-1.45137753548,0.0,0.592316625721,0.0,0.719917329886,1.11766541539,0.0,0.0,3.33857761948,0.0,0.0,1.8312322419,0.0,0.0,0.0,3.30212863802,-2.04127931026,-2.149819092,0.0,0.0,0.0,0.0,0.0,0.0,0.0,0.0,0.0,1.31563405097,1.56432373912,0.0,-0.714681948252,0.806487799218,0.231490008425,0.53060649738,-1.73742719727,0.0,0.0,4.60306538374,0.0,0.458880216109,0.0,0.284444399358,0.0,-0.950410741969,0.960732496411,0.0,-0.995312475635,0.0,0.0,0.0,0.0,0.0,0.0,-2.41290740974,0.70481141954,0.0,0.0,2.29346153869,0.0,0.0,0.0,2.78154511559,0.188502718107,-4.26200196139,0.0,0.0,0.0,0.0,-0.570260152969,-0.848842352175,-1.65707732086,-2.07020956756,0.0,0.0,0.0,0.499887228108,0.957525254767,-2.18095820645,0.106195719591,0.0,0.0,1.44531996025,0.0,0.0,0.0,0.0,0.0,-0.836974952233,-0.0620607063467,0.0,0.0,-0.922595381812,0.0,1.83359392497,0.0,0.0,0.0,0.0,-2.6599090226,0.0,0.0,0.507965395813,1.34734689137,1.56535732639,0.438865026165,0.752364928439,1.81796107894,-1.36578634684,-0.626316415662,-1.52472075524,1.12549833849,0.0,-0.62813383064,0.0,0.0,0.0,2.98961703739,2.80389976262,1.59667451256,0.0,4.33607415422,-0.724781501781,0.0,0.0,0.0,-2.6232704793,0.0,-2.5233671345,0.52630649536,0.450684785738,-0.848842352175,-0.353569843303,0.0,0.0,0.0,-0.58324369795,-2.40436346099,-1.22024856588,0.0,0.0,-2.70542820557,-1.01212670895,0.0,-1.13553646838,0.0,0.076687180482,0.0,3.63850274413,0.0,0.0,0.0,0.0,0.0,0.0,-0.0893766356524,-4.1663522954,0.0,0.0,-2.86789042928,0.0,4.51268098618,-1.46211028301,0.356988562476,0.0,1.64958399923,0.0,-3.0951787015,0.0,-0.301498568764,0.0,0.0,0.0,0.0,0.0,0.214506880322,1.99948613003,0.0,2.66290642707,0.0,0.0,2.3188947817,0.0,-0.536485252656,0.0,0.0,0.0,0.54695390818,-1.16786220289,0.0,0.615062461289,-0.0199404517174,0.0,0.0,0.0,0.0,0.408005338345,1.96060292005,0.0,0.0,0.0,-0.638688656636,0.0,0.0,0.719733397901,-3.09357808196,0.0,0.0,-2.69145046513,-0.464046140649,0.0,-0.127889923218,0.0,-0.537181205474,-3.00579409857,-0.784112214046,0.0,-1.53320014868,1.32335018801,0.0,0.514872756774,2.72142112158,-3.11551906127,0.0,0.342721603555,0.0,-3.97690640455,-2.18547150367,0.408005338345,0.414601105085,-0.264585188087,1.37793368789,1.41222720918,0.0,0.794631881676,0.0,1.42872143298,0.0,0.0,0.0,0.0,-1.73188400313,0.0,-1.24865425885,-1.9288724402,-0.359762714069,0.0,0.0,0.0,0.180134530704,0.0,0.0,0.0,0.0,0.0,1.1420230581,1.63604401438,0.0,0.0597116654324,0.0,-3.48497260255,-1.489759195,0.0,-0.919168757196,0.95677895417,0.977316774372,0.0,-3.49954944786,0.0,2.78593449932,2.08904999865,-1.0558872628,0.456743304321,0.755803539459,0.0,-1.01507122874,0.0,1.79646617221,0.00392052204057,0.0,0.0,-2.87686945979,0.0,0.0,0.0,0.0,0.633881597356,1.73669120622,0.0,-2.45352759412,2.53806608374,0.0,-0.311789851638,0.0,0.0,0.589283693327,0.0,-2.67003481558,0.0,2.27573576888,1.05581353716,-1.74304948547,0.0,0.0,0.0,2.05663022396,0.0,-0.430461093462,-2.95738769433,-1.43353982234,-0.944503797188,-2.91998009984,0.0,0.1344127622,-1.7564451218,-0.0133704687197,0.0,-0.290040693837,0.0,-2.99359158213,-2.37253625917,-1.72715245033,0.251216893258,0.0,0.0,0.0,0.0,-1.20529321912,0.0,-1.2120466948,0.0,0.0,0.0,0.0,0.0,-1.6602482652,-0.906104487346,0.0,0.0,0.0,0.0,0.841804751992,0.0,-0.350947308348,0.0,3.65524224431,0.0,0.0,1.3774417169,0.0,0.0,-1.36098683119,0.0,-0.336629343246,-2.66651880646,-0.757318083598,0.0,0.0,-0.706304786121,-2.95379593456,-2.08596319786,0.0,0.0,0.0,0.196066029023,0.0,2.0254739716,0.0,0.0374168967321,0.0,3.08601004368,0.150000547164,0.0,0.0,0.0,0.0,0.0,0.0,0.0,0.0,0.0,0.0,0.0,-3.49422110002,-1.19145676117,-1.03795846462,0.0,-0.642705706067,-1.5470860593,0.0,0.0,2.0466654224,-0.943767696602,-1.86110062662,0.0,2.1608983917,-0.240900398787,0.0,1.9280507996,-0.915262972717,0.0,0.0,0.0,0.0,1.05732427107,0.0,0.0,0.0,0.886735304348,-1.90500227346,0.0,0.0,2.20183328902,-1.73201292771,0.0,1.11202931421,0.0,-0.494410363566,0.0,0.0,-2.01394903805,1.31167148438,-0.938472629545,0.0,1.08223301965,0.0,0.0,0.408542878401,0.0,0.0,0.0,0.0,-1.89553845409,4.2716709207,0.291725393801,0.0,2.25988174024,0.53060649738,0.0,0.0,0.0,0.451567781545,0.0,-1.36819971292,0.0,1.03245332538,0.0,2.68213509391,1.78423652035,0.0,0.0,0.0,2.67109679092,0.0,0.0,3.17437633453,0.51422165008,0.0,1.889448943,0.0,0.0,0.0,-2.35205142018,-2.70088753605,0.212316907445,-4.34403481667,-1.18590352282,0.0,0.37745731523,0.0,0.0,0.556127792366,0.0,1.75129087214,0.0,0.0,1.93068624248,-0.650564403679,0.0,0.0,0.0,0.0,0.0,0.0,0.0,3.99768247525,2.08153626372,3.99187700434,0.0,-0.00881042126804,1.24928131415,0.0,1.18143332934,0.0,0.777689376697,-0.713775355642,0.0,0.0,-1.52322384078,2.16516569661,0.0,3.36791610373,-1.42873938873,1.88341357224,-2.51623285836,0.0,1.67034884969,1.57430032084,0.0,0.0,-1.62332105156,0.0,1.56388116624,-3.34613382225,3.2779579757,0.0,0.0,-0.933998248319,0.647388772591,-0.0291813273147,0.0,0.0,0.868794729337,0.523971804501,0.0,-3.4160037184,0.0,-0.0291522669985,0.0,0.476407851118,0.0,0.0,0.337573920929,0.0,0.0,1.45864618353,0.0,0.890661330256,1.582659253,-2.38817545934,2.43327759024,-0.470260094018,1.23234176408,0.0,0.0,-0.257955452582,-0.846878071282,-1.29969786827,0.0,0.0,0.0,0.0,1.39766109347,0.0,1.47538732463,-2.05797764711,0.0,-0.394799907049,0.0,0.0,0.0,0.0,0.711868228892,0.0,1.02745300514,0.949769715933,-2.48927589996,0.0,0.0,0.485382268406,0.0,0.0,1.25815686144,0.750150018393,0.373031020343,0.204959310214,0.0,-2.51199285227,0.0,0.0,-1.41018576023,0.0,0.0,0.0,0.0,0.409570789958,0.0,0.0,0.0,0.0,-2.18547150367,0.0,0.0,0.0,0.0,0.0,0.343952789897,-2.76602925107,1.14176467525,0.0,0.0,-1.4452930129,0.0,4.02449176673,0.076401895789,1.11380918417,0.0,1.02770802054,-3.72940174468,0.0,0.0