0.590635759362,0.0,0.223004821993,-0.373518483846,0.445902708569,0.0,0.0,-0.269260657321,-0.166918744229,0.0,0.354459430484,0.0795941938189,-0.419368894015,-0.790038006585,0.56346094024,-1.98322097875,-0.175308658531,0.841782265965,0.0,0.703117045348,0.0,1.12075849446,0.0,-0.0745566510895,0.438171495964,0.0,-1.01677057179,-2.14882803228,-0.636605794647,0.190925767702,-0.149569802052,-1.39703304589,1.07370136968,3.88501818394,0.405144140057,0.605291433774,-0.0605415003263,-0.817179916529,0.0,0.0856414061647,0.479530237622,-0.531375168275,0.403227594161,-1.46905775612,-0.250949639608,-0.00805153253811,0.0,0.0,0.691613529889,0.0,0.812011419622,-0.126818024291,0.520083622114,-0.0512963385617,0.0,0.0,-0.464973698825,0.724973947175,0.861755152787,1.84853789501,-0.937687137181,0.0,0.0,-0.609602217866,0.0,-0.00511094588225,-1.07023155056,0.0,0.912692469064,-1.29017118011,0.37300626441,0.974129915791,0.0,0.94996158167,-0.0460694779398,0.0,0.67270343504,-0.378302802888,1.58816478799,-1.43588153849,1.20419846071,-1.47865091048,0.234056213818,0.0,0.0,-0.12739963775,0.052757416752,0.0,0.0,1.43780233231,-0.193080405707,1.30889013687,-1.6574049148,-3.46649560355,0.625258450912,0.0,-0.417784062013,-1.11641605613,0.490059001611,0.923490950362,0.112971630138,0.0,-1.06295445235,-0.12369173222,1.22513283713,-0.00221917067663,0.0,-1.52444599914,0.560391275397,-0.0348898403649,0.487245787436,0.0,-0.263051409344,-2.31428438663,-0.680827939772,1.02172282345,0.0459225415597,0.0,0.238740924035,-0.283001752591,0.559179391054,-0.163936905149,0.0,-0.116086341333,0.0,0.0,-0.943333956186,0.0106717355304,-0.544823546998,-0.209700161874,1.46020783715,0.877906481581,0.770952141857,-0.956900495143,0.222304217482,-0.50576442054,0.0,0.387760404483,0.377371172759,0.0101171120126,-2.83946103081,2.53094723231,-1.02840246523,-0.528225905074,1.1182798086,-0.691758069557,0.0772215430682,0.0,0.0,1.31355315507,-0.978591528863,1.73965206945,0.39800496777,0.276671918508,-0.124812757689,0.0,0.0,-1.15530950803,0.603795180872,-0.870628064328,0.16803561453,0.0,-0.383090938479,0.0,0.0,0.0,0.134202173286,0.23970218845,2.61710004001,0.0,0.0,0.0,0.0,0.579253671614,0.0,-1.39573782694,0.0,-1.48957402197,0.0,0.705169617133,0.998660571703,0.0,-1.07040195315,-0.369707128609,0.0,0.0,0.0,0.0,0.707350505334,0.700051024108,3.02522615706,1.65562051653,0.253997694747,-0.873479973458,1.46909183563,0.0,0.494750638202,0.234644141834,0.0,1.02938438353,0.149091097811,0.0,-6.23769788096,-0.232648234894,-3.32069426626,0.0,0.198833237335,-0.617258044979,-0.399347289086,-0.824496809053,0.134183040013,1.34549271932,0.283472035867,-0.402940941552,0.516493596237,0.0,1.58232018612,0.0,-1.06720625167,0.0,0.0,0.0,0.26956819218,0.0,0.0,0.132482818344,-0.579540535323,1.35710648201,0.0,-0.571415567117,0.942643692297,0.0,-1.40803456716,0.221265319446,-0.128966269662,-0.810718464543,0.5081827637,1.35432479354,0.0,-2.0183476774,-1.52855978783,0.0,0.242661486794,-1.83358745344,-2.19424339311,0.65204354381,0.0,0.0,2.52499943366,0.0,0.0,0.85685754834,0.46028058682,0.0,1.56548459177,-1.69418615022,0.238138459204,0.0,-0.310734216895,0.0,0.0,-1.0804949057,0.289442739857,-0.0509135036878,0.0227200685511,1.55760768152,0.586305852181,-0.300820025698,-0.685258761471,1.08459073459,-0.467123020054,-0.884521684995,0.0,-1.70905258285,-1.8973253715,0.430861335175,-3.13739382701,0.0,-1.62042106081,0.823360894668,0.0,0.0,-2.22664346946,0.185034217054,-0.473163692791,0.0,0.0,0.700232014834,-4.20475828438,0.0,0.111934975516,0.185634250453,0.0,-0.806499793413,2.64100928331,0.0,-0.493647154008,0.0,0.833952243222,0.16371490407,0.0,0.05755974075,0.156265414474,0.0,0.0,-1.21727379742,0.57284399325,1.12115439999,-0.447534368226,0.897530483553,-0.494337702372,0.0420888993256,0.104717007447,0.0,1.66593207188,0.0,0.336890669452,1.85873706111,-0.319062563602,1.86836442679,0.0,2.46660126133,1.09168534046,0.905085046091,-1.07934487988,-1.69852633271,2.00047017853,0.00970900016666,0.11417156581,1.25164276029,0.233064576701,-0.889354383815,0.165508633232,-2.83927725843,0.163296514445,1.16005252312,0.0,0.473989537963,0.837373773971,0.631000095638,2.05368939003,0.540844362202,0.0,0.0,-0.0868841568912,0.0,1.73801455252,0.0,-0.864346280004,-0.123252875,0.0,-0.409167897362,-1.20804807592,2.18389238583,-3.95218928446,-0.829865152919,-2.358203332,0.0,-2.1969943078,0.0,0.0,0.0,0.286386260111,-2.62555995423,-3.30359805051,0.275154387362,1.81947764741,-0.0360084087379,0.0,0.0,-1.08312015082,0.667362851615,0.0,0.0,-2.28659934459,0.0,0.0,-3.4940542694,0.0,-1.28110248632,-0.101951250189,-0.615585961809,1.16614135931,-0.529266568402,0.0,0.0,0.0,0.0,-0.430481313431,0.0,-0.98822427296,2.33537315308,0.934713887321,-2.72625582199,0.252827967031,-2.74606199214,0.0,0.354834417377,0.0643114456663,0.0552094221178,-1.56468818275,-0.649030770755,3.3555916978,-0.104615745131,1.25807644374,1.18725560864,-0.657051763007,-0.604478807068,0.731948036379,1.11866915992,-0.216993760692,0.0,1.58407610576,0.53995182083,-0.500350321474,0.893551234948,-0.624022228435,0.572966465021,-0.780060744441,-0.923684806264,2.39034370548,0.258760583918,0.0,-1.09263227804,-0.609201221386,0.0,0.380102320186,0.0,0.0,-1.21412140254,0.0,0.483070569496,-0.564279050879,-3.45860037562,-0.606882838632,-0.584746781101,1.08999612104,0.0,-0.654076852752,1.32172696911,-1.8880874313,0.0,-1.91183630325,4.25756581857,-1.51096430639,0.0,4.35023048342,0.0,0.284800056417,0.0,0.748654375691,1.56442524207,0.963179502273,1.01255119852,0.505516538181,0.0,0.510681481827,0.191673739125,1.4221083569,0.786295478509,0.0,1.66228951135,-0.0392027587969,-1.55328447883,-0.454478775784,1.86059334395,-0.28530515918,0.0,-1.37176385468,-0.21801158264,0.623876371785,-0.50203499891,0.391014217427,-0.994907205475,0.0,0.0,0.0,0.364728924994,-1.40526916664,0.0,-0.410527978556,-0.419678169061,1.58012608693,0.0,0.0,-2.46188107031,0.989420416407,0.0,0.0,0.0,0.0,-1.06383701171,0.0,0.0,0.0,1.30785843159,0.0,0.4289577161,0.0,0.330065977984,-0.933957725639,-0.977908616098,0.992212975502,0.0,3.32820303328,0.657338490819,-0.333841041827,-1.19409464268,0.0,-3.07858806663,0.0,0.347168648855,0.0,0.0,2.73282219331,0.0,0.209954949948,-0.040841286158,3.15706435817,-0.787925267667,0.0,-1.72521089201,-0.256875349603,-0.79546383273,-0.417897756746,1.10486010235,0.577260740313,-1.85704004848,2.42440633714,-0.329733274516,1.61847399,-0.669040813757,0.0,-2.64947567401,1.32529720045,3.30758756315,0.340528627688,-4.16490354789,0.0,-3.21721570515,0.0,-2.70235356839,3.25741069871,0.0,-1.8069266761,-0.736565420742,-2.53001949792,1.29884184936,0.0,1.29735126904,1.45197503465,0.0752360095005,1.02409262897,0.0,0.0,0.0,0.0,-0.0630450157183,-1.04278670904,2.87113300972,-0.454542350069,-1.18713666707,0.760828953121,-0.482714699383,0.0,0.0971616136836,0.0,0.213751103569,2.00719923795,0.0,0.0,-1.09153089035,-1.91652405749,-1.02521662142,-1.12096825728,0.0,0.343646080456,1.52886719236,-1.73247780887,-1.55542322093,2.36732275984,2.3209333342,0.0,0.689342292184,0.00995371565714,-2.35813369004,2.38589899902,0.0,0.0,0.0,-0.90516900859,0.106388643512,-0.579972045445,1.21515313614,0.0,-0.15474940437,0.0,1.23100023318,0.0,-1.04974451892,0.403894600485,0.21572341662,-0.998314689262,-1.83052667833,-1.3238352837,0.0,-1.49179954065,0.276080703164,0.0,0.719466948467,-4.83839242284,-0.3340264526,-0.190169016726,-0.486028685557,0.0,0.0,0.0,0.0,1.86962550794,0.0,-0.257103201185,0.0,0.0,-0.136081910698,-0.374370102671,1.79687075111,-0.53453434983,0.494046292854,0.0,0.684172954368,-1.60255472762,0.677070484777,1.00016592289,0.644762051209,0.0,0.0,0.0,-4.42561254107,-2.44169234197,4.04399024688,-1.92116554985,0.0,0.0,1.02265197487,0.0,0.293516595435,0.0,-1.99177083278,-0.863993742748,0.0,0.0,0.0,0.0,2.28713640145,0.0,-1.94330664511,-0.586596545926,0.0,0.0,-0.271326675573,-0.670076162742,-0.882648762807,-0.512672001522,4.33940006047,0.0,0.0,-1.38900627819,0.0,0.0,0.0,-0.423633190283,-1.39535307895,0.0,3.65999097458,0.975112195626,2.83536147725,0.0,1.30278225382,0.0,0.0,-2.14290338427,0.0,0.0,0.163683326518,-2.92318235432,-0.736150483026,-1.02245681286,1.09425405438,2.32354062547,0.449391253684,0.200097144686,-1.57176624546,0.0,-1.76868067514,0.0,0.0,-2.20645047678,-1.48218407712,-0.176401377476,-3.69350562612,0.544371753293,1.33810020871,0.0,0.0,0.94901499717,0.0,-1.69220977215,0.0,0.869692986119,0.0,0.839767305338,0.0,2.37019502567,0.0,-0.840679259553,-0.994416907249,0.0,0.106785795399,-0.0287876300567,0.0,0.0,-0.67016969304,-1.10617351089,0.0,-0.0854353845876,0.0,0.0,0.0,-1.10903412242,0.0,0.0,2.09030389412,2.75987407197,-1.20795665886,0.0,0.0,-1.21870192175,2.09126787448,0.0,0.0,0.300293930053,0.0,0.0,2.1674256813,-1.71940440532,-2.14059847512,0.191067154314,0.0,0.323873770561,0.0,0.0,0.00960817785679,-2.45553764989,1.17137483552,0.0,-0.520038711765,0.0,0.0,-0.139922823391,0.634543318254,2.02441366868,0.754471576378,-0.13061422056,-0.419820265105,0.0,0.474381624374,1.79068198709,1.70055048505,0.0,-0.210287439203,-2.81815210375,0.707290168539,0.0,0.232197266624,0.376824905672,0.786243370187,0.0,0.0319947128909,-0.597155025825,2.97406896895,-2.01428703564,0.496332391996,0.29939559541,-0.531460655094,0.0,0.0,-1.10513513246,0.452697709509,0.0,0.0,-0.53581964203,1.20604422968,-0.668658623983,1.05666233791,2.37785087531,0.542512476071,-1.98139340405,-1.5642884485,0.476378260388,0.13269261607,-1.88012790237,3.44765121933,1.41784463893,0.0,-1.61121180805,0.171286756972,0.0,-4.68108440246,0.114226563081,1.29824253662,-3.8919234645,0.401115058792,-0.558381799547,2.96804829251,0.87647313931,0.0,0.0,-2.68808711087,0.0,0.874110137313,0.986588394836,-0.604522327197,-0.528726861885,-1.10662473947,0.0,3.60330581936,0.618721521834,2.4377131551,0.0,1.29064828186,0.0,1.78358313244,0.0,0.0,0.0,-1.70899957737,1.50539552133,0.000649586951984,0.0,0.851380643937,1.63759997704,0.0,-5.07433714147,1.58852700014,0.0577288318044,0.0,0.0,0.591696320248,0.0,0.0,0.0,0.0,0.245787578827,-0.754565946023,-1.12409600858,1.16073731302,1.40330371277,-0.590597891342,0.0,-1.33878766746,0.789806367399,3.29542098636,0.0,0.0,0.0,-0.0873332786986,0.0,0.0,2.00203476,-1.45397769895,-0.529324310178,0.840949312533,0.0,2.28402620459,-1.51728768164,0.0,-2.5894090773,0.0,-0.0725434473112,1.86618262755,0.14439429632,-1.33839162449,-0.414274963193,0.0,-3.57843832442,2.51600974591,0.0,0.146565734302,-5.82332884546,0.0,0.0,1.44968566765,2.51202194637,0.0,0.279433008607,0.0,0.218577939039,0.0,0.0,0.0495291574026,-3.27385471949,0.0,-1.45968209737,0.0,-0.298703276272,-0.254357363256,-2.49775949221,0.0,0.0,-1.34132470832,-0.999902129957,-4.12537450717,0.0,0.0,2.47587917749,0.281068315388,1.43334393232,-1.54880139151,0.0,0.0,0.0,0.0,1.84438166105,0.0,1.77324844573,0.0,0.0,3.35124297626,-2.33499201178,-2.13866160931,0.0,-1.04993568513,0.0,-1.54539035408,0.857483797006,0.0,1.36235061411,-0.238562533733,0.0,0.0,-1.5995064208,-3.58321052879,0.0,0.0134327399767,1.74201031398,0.0,-2.10941979003,0.881803914263,0.0,0.0,-2.48250330681,2.94657569721,-0.413169940601,-2.71676322297,-0.204328769005,0.0,0.0,0.0,0.934496984232,-1.18321136723,0.0,0.132490563712,0.0,0.0,-0.0042184566038,1.36672790027,0.156561211217,0.0,0.0,0.0,0.0,3.10099417754,0.0,0.0,0.0,0.0,0.0,0.0,-0.712437564127,2.36768278967,4.40701274942,1.1696505256,-0.0510697250539,0.0,-1.91536192315,-0.0697792658126,0.469817903164,0.0,0.938118850405,-0.590487355315,1.27655206809,-0.0296463198051,1.60965193326,1.83201005081,0.0,-1.96073132894,-0.771991294244,0.0,0.163356201885,0.0,-0.270903633956,0.799000755198,-0.100124174886,1.75844517462,0.85247192723,1.90438248079,0.0,-4.75623647209,0.0,-0.252567720928,0.199013653635,-1.1964671042,0.0,1.04813511852,2.04240900634,0.0,0.0,0.943053311875,0.0,0.0,-0.197040860268,-3.0913887541,0.0,-0.872834738293,4.1794049276,0.0,3.05684280274,0.0,0.0,0.0202240394356,1.58369397368,2.3174206581,-2.48772110686,1.00470361632,0.0,1.01859935757,-0.583755972182,0.681295245407,-1.84633461581,0.0,0.0226808687564,0.0,0.0,2.17399605676,0.0,-0.600389919219,-1.13009931564,2.29152184433,0.0,0.0,3.82245668159,-1.06012813005,4.16338856406,1.45989219322,0.0,-1.59266616664,-1.49809233465,1.24881951737,0.0,-2.5105515001,-0.372721533418,-2.2712771616,0.0,1.14112966109,0.0,0.0,4.07002684891,3.48480236485,0.487681518439,-3.19263447129,0.0,-3.59762853767,1.36862630076,-1.9153493908,3.91086397756,0.0,0.0,0.0,0.0,0.0,1.80411825304,0.0,0.0,1.06334020195,0.301745315967,0.0,-0.766982420183,-1.49202229723,0.0,0.0,-0.431401579755,0.717029728778,-3.90905699197,-0.396431111811,2.27425792492,0.641128348835,0.0,0.505783600548,0.0,2.63384177491,-1.12598963428,-0.0214777374105,2.8378540972,0.0,-3.57993375243,-1.34390279019,0.0,1.27190591609,-1.91871107241,-0.368027435962,-1.89441203392,1.15722464513,0.0,0.0,2.22167131616,0.814455472457,0.0,1.84502248428,-0.535003054443,0.612710868695,0.535319348911,0.0,0.0,2.63753091449,0.881826471693,-1.03879178562,0.0,0.0,0.0,0.0,0.0,0.286517420404,0.0,1.56287760805,-1.3853369692,0.810862815466,-1.77469629788,-1.83670883627,-0.371908090606,2.81453844435,0.0,0.0,-1.62984733477,0.0,0.0,0.266766103292,-0.475991407342,0.0,1.26952468834,1.96099561558,-0.132216296487,0.165181491331,0.154212226344,1.15104190762,-0.318417645463,-1.89257602545,0.775881698601,1.56550864789,0.0,0.0,-0.971359452014,0.0,1.11680044187,0.0,0.0,0.9954855642,2.20299463717,1.29070676198,0.0,-1.95522716124,0.0,0.0,1.54638776591,-1.41789808452,1.46758037946,0.0,0.0,0.0,0.0,0.863290665614,1.56423892182,0.0,-0.353416285041,-2.47617392739,1.01522957662,0.15995562076,0.0,-2.88628946992,-1.37640336903,0.0,0.314714530287,0.0,0.0,0.0,0.0,0.275654319617,-1.08755849228,-0.880574737089,-0.872696982573,-4.93028630277,0.0,0.135171771817,1.92758717414,-2.87258834071,-0.405804857262,0.0,0.339346478246,0.0,-3.82126001187,0.0,-1.51505137359,1.62102343634,0.0,0.0,0.528849652005,-2.84416608554,0.0,0.360498615541,0.484647432626,-6.690301929,2.89992743,0.453787935286,-0.264705004079,-1.9948219133,-2.77995065311,4.18608637123,0.0,0.219812453452,-6.1482340168,0.0,1.05868028653,0.0,-0.518795307532,0.0,0.0,-0.305258893388,0.0,-1.75473301497,1.7268008439,0.224434395759,2.1202743931,-0.621658686184,-1.46711293049,-4.03209352798,0.0,-2.67647850193,0.831518908822,0.0,0.0,0.586608734074,0.0,0.0,0.933527019983,1.34143174067,0.0,0.0,0.358774595539,-0.424343070522,0.0,0.0,-1.70792881949,0.0,0.0,0.980350256741,0.0,0.0,-1.34594390656,0.0,0.0,0.0,-3.4211372522,0.583668137673,0.0,1.7651878411,0.0,-1.1688853837,0.85286136205,2.15009178156,0.0,1.02199033949,0.0,-0.927900295499,0.0,0.0,-0.45001694944,0.0,-0.78023405952,0.0,0.0,0.954161351437,0.0,0.18256310353,3.4974329796,0.0,-1.55760516287,0.0,0.0,0.694478117939,-1.77554013004,0.0,0.0,0.0,0.956749970617,0.0,0.354209591552,-3.98957154585,0.69165270867,-0.931437775914,0.0,0.0,0.769842114777,0.0,2.87783893891,0.524053931563,0.979179624564,-0.446159861069,1.03893163121,-2.7855333165,-2.86847243198,0.972452060023,-0.539395794902,-0.628000541995,0.438710043661,0.0,0.0,2.49844004406,0.582987456921,0.0664275262417,0.730202366239,0.327623363931,0.0,0.0,0.0,-2.56849141668,0.0,0.0,0.0343242982895,0.0,0.0,-1.18271439206,0.0,5.78048448781,0.0900322595639,-0.12549687338,0.969195505833,0.00978085700648,-2.4313194884,0.0,-0.376815176771,-0.913235557796,0.0,1.91435006621,0.0,0.0,0.0,1.06065077535,0.0,0.0,0.0,0.0,0.0,-1.70263913024,0.0,0.431291600099,-0.521658028943,0.0,-1.30245570644,0.63472848294,-2.90871361982,0.0,2.85142337503,1.14962540902,0.0,0.916710935123,0.0,0.793507775902,2.28577486551,2.55546325683,0.100811811533,0.0,0.375635029385,-1.54044126207,0.635335897214,-0.0840565431106,2.91630101991,0.0,3.01237178835,0.0,2.01836169567,-0.0810695307785,0.0,0.0,-1.47376532049,0.375593495643,0.0,0.0,0.865774560075,0.0,-2.0692229558,-3.71611996932,0.0,2.50245524849,0.0,0.0,-3.73646003656,0.0,0.0,0.89492303955,0.0,0.0,1.59427731681,-1.89487580802,0.0,0.747930391802,1.51381196611,1.98643312044,2.49397376636,2.74000708129,0.613325040511,-4.96713967383,0.0,0.0,0.0,0.969850274784,-3.3072164419,-2.09955970946,0.0,0.563843764988,-1.94275181575,-1.13336285239,0.0,0.0,0.0,0.996668754643,1.01725142127,-3.48529429813,-1.63891061333,0.0,2.86165921726,-1.46137379995,0.0,-1.33233211771,1.46874154285,0.394428767338,0.0,-0.182512100368,3.8361752507,0.298083146659,0.0,-0.595077401486,-1.66569405598,-2.62668993969,0.0,-3.26150266175,0.0,-0.259553108248,0.0,-2.1191921161,0.0,0.0,-1.01417903268,0.0,0.0,-0.702795386318,1.73787943361,2.91807023879,0.856498832771,2.51821432915,0.0,0.0,0.871839729469,0.0,-3.82295475768,1.02325308227,0.0,1.43598440083,-2.05482646219,0.0,0.751345470725,0.51646093761,-1.43232407047,-2.90551309289,0.0,0.51764484173,0.0,1.44015590385,0.0,-4.01186200579,0.624179793027,1.43591808206,0.0,1.40221135966,-2.94843146349,0.0,-0.505312123859,-1.94791977307,-1.89838348235,0.0,-2.68359098091,0.916986274477,0.741226991213,0.0,-2.20937876595,-0.266725862956,0.0,-1.16124667639,-4.23401330506,0.0,0.64593719225,0.0,0.0,1.38136668166,1.4701199582,-0.0487769824166,0.0,-0.578216397949,-2.88217110266,-3.59860453635,0.0,0.0,0.0,0.0,1.80265799112,0.162105991236,0.0,0.0,0.0486301924125,1.0715175578,-1.36141496531,0.0,0.174293348168,0.0,0.0,0.0,0.668981224793,0.0,0.0,0.0,-0.626280145397,0.0693898709023,-0.00892401809145,1.32999622427,0.323623966407,3.23001899666,0.371767195751,-2.21160583881,2.16561306175,-0.353310247956,-0.59154066076,-1.24709153264,-0.87708607253,-2.93980694423,0.0482461611514,0.0,0.0,-2.04028319263,1.20822224861,-1.60365391437,1.35236881366,0.0,1.91310666419,-2.88618298983,0.0,0.0,0.801754108808,0.0,-3.27188080883,-0.141555104381,0.0,0.0,-1.58935505684,0.553252154741,-2.28809880755,0.0,-1.68076509792,2.44700805148,-0.863368379121,0.0,0.427396440673,0.0,-5.84198237935,1.60229118443,5.56520292999,-4.87272804964,0.0,0.0,2.09213616319,-0.320098413349,0.0,-0.275524919725,0.280093802135,-2.46053805345,0.309650009704,0.0,0.0,2.89934545204,0.0,0.0,0.636377517474,0.0,-0.216999252792,0.0,0.646533782723,0.0,0.189334133048,-2.61211890375,0.176546209866,0.0,0.0,2.62987812011,-1.60000824758,-1.86319467826,1.41531797847,-0.325830235232,-0.81282249363,0.0,-2.48995761411,0.0,2.68067378279,-1.30219672948,-1.87651716731,-4.78913887458,-0.727211363904,-2.56634607099,0.0,-1.06332956714,0.0,0.0,0.162170982352,0.0,0.0,-1.93091830591,1.88526047782,1.38379637572,0.942875764864,0.0,0.0278695522147,0.0,0.753605165142,1.1904697933,-1.14150208241,4.74800034386,5.62492252493,0.222984735386,-0.219434918486,0.0986814041902,0.0,0.245307526184,-2.95203448082,-1.04157923427,-0.0190127013267,-5.00062654297,0.11956609334,0.919720449204,-3.05396249864,0.0,-2.07909008883,-0.97938583586,0.0,0.0,-0.558700237537,0.983078554486,2.74938049817,-1.87988703097,-0.227239041019,4.07403501342,-1.96854842916,-0.830322607445,0.863198298546,-1.95966483468,0.112250570667,-0.0974987524317,0.383867851806,2.5500811852,0.0,0.0,0.0,-0.401748959848,0.0,-4.43763239805,-0.125015481897,0.0,1.66789505078,-0.227204984181,0.0,0.0,1.94831225114,-2.1780601012,-0.306407982154,0.0,-0.315359559181,-2.49092598953,4.82274560231,1.73780167206,2.091128297,0.0,0.0,2.04270466207,0.0,-1.70235320732,0.0,1.50234517612,1.34864535924,0.0,-0.907701506605,2.91575529501,-4.27470461559,-0.473649187002,3.71247530913,-0.501993353142,0.0,0.0,0.553678198627,0.182224637288,0.0,0.0,-0.376949695827,1.84471849692,2.4124820037,0.0,-1.83311689842,2.28099529718,-0.4457342725,-1.01384729266,0.0,0.0,0.0,-0.968648899025,0.185609620555,0.0,1.24404252932,0.0,0.600036139578,0.0457116291234,0.0,-0.332050970687,0.0,0.0,-1.05248693598,-1.84210830259,2.6348886815,1.22640520021,-0.818637193194,-1.8309130965,0.0,0.0,-2.28810796223,-1.24981649817,0.0,0.0,0.199385762633,3.25989173815,0.0,1.51689098159,2.53317944391,-0.362787493499,-1.0707897021,0.0,0.0,-3.36861107423,0.635573194024,0.0,0.0,0.0,-1.79755946966,-0.416873494627,-4.67213620662,0.0,-0.172790391347,0.0,0.0,-0.0227522231217,-0.710407103889,-0.100911595143,2.77009380466,0.732733953243,1.86083576559,0.0,0.0,0.671026427046,2.65132998048,1.58241905677,0.0,-0.159748217229,0.0,0.0,-0.504011443458,-0.062196471936,3.58417481886,-2.15514927131,0.0,-2.50199380222,0.0,0.0,0.0,0.0,0.0,0.0,0.0,-0.824136941283,0.0,-3.39318722278,0.0,0.0,-0.866808732372,0.0,0.966689735297,-1.22232627411,-1.7455234682,0.0,0.574144026989,2.32920602076,0.0,0.0,0.271638062165,2.0905567804,0.0,0.680369767711,-5.67721485829,0.0,-0.423729594881,0.0,0.0,0.0,0.0,0.0,0.0,0.236629135799,0.781828484836,0.0147869967916,0.0,0.0,-1.4404938686,0.0,0.465032732472,0.0,0.0,-2.3910059298,0.0,2.44145629227,0.0,-0.105482544522,4.06699009704,0.26159288905,0.0,0.626646113319,0.0,0.903426869646,0.0,-1.70147640397,-3.09628219459,-0.643664567645,3.65808983632,0.0,-0.974024020875,0.0,1.28857335459,0.122228278524,0.0,-0.378775472554,0.0,0.898398815579,-1.22563019872,0.0,0.0,0.0,-2.01013349215,0.0,-4.28116644673,0.0,0.0,0.0690873019261,0.0,0.628668580542,2.5075383235,-2.61716055362,-3.51808537361,2.05611070067,-0.269195124896,-0.627648854526,0.0,0.0,0.0,0.0,0.0,3.15373296444,0.0,0.0,0.0,0.0,0.293869841566,0.0,0.0,-3.25131465545,-2.92989091996,2.97179722962,0.0,0.0,-0.597586933121,-0.974860112779,0.79687393802,0.440050831407,0.106657227009,0.0,1.56418630492,0.0,2.40325933035,-1.02129827054,0.0,-1.78693951171,0.0,-0.0711758625905,0.195659548274,1.17453790839,-1.66357750226,-1.658492452,-3.00692547558,0.0,-4.05123479543,0.0,-3.09881884069,0.329613265245,-0.102917461402,-1.26626873254,0.0,0.0,1.09001716342,0.0,0.0,1.23736623496,-1.8017610418,-0.906919982557,1.95373851677,0.910716288241,0.0,0.0,0.0,0.0,3.21845602254,-0.72434283792,-1.00180018014,-2.33447369301,0.0,-6.69614332017,-0.598044296102,0.0,0.0,3.21090576481,0.0,0.0,0.0,0.0,2.48139565451,0.0,0.0,2.57683256841,-0.802621298202,0.0,3.37701875265,-0.714221826503,1.30861235087,-1.12493990202,-0.515777488492,-1.99947394839,4.37113942385,0.119302200329,0.0,0.0,-0.779932002706,0.0,0.0,0.956563098631,-0.780802423599,-2.81955251848,-1.37980160595,0.0,4.42722975871,0.0,0.0,0.0,0.0,1.86671926184,0.0,0.0,0.0,0.0,0.0,-2.12085332579,2.58553776932,0.0,-2.12619536039,0.437999301592,3.06317314372,-2.23446914327,1.20753025759,0.158967464887,0.0,0.0,-0.221655494186,0.0,0.0,-3.28480191441,0.0,0.809294007852,0.0,0.0,2.16761403149,-1.86116652829,-2.94483623508,-4.49485537124,3.82926024498,0.111426235702,-4.04402897963,-2.69969577876,-0.0973427323533,0.0,1.73672124465,0.0,-3.14861201665,4.47994912473,0.0,0.251010540114,-0.464395318045,0.0,2.0547138732,-0.59014249191,0.0,0.0,-2.58369650913,0.0,0.0,0.0,2.21276635377,-2.03754558772,0.0493088240093,0.8065776657,1.54854410736,2.12094055736,-1.33106905316,1.45156361321,0.0,0.0,1.50924706696,-1.2150226323,0.835515712922,0.0,0.0,0.0,0.473386482611,1.60676167105,0.518409534632,0.0,0.0,0.0,-2.73010575622,0.0,1.7392507862,-5.53850811121,0.0,2.96749330083,0.0,-5.20041637279,-0.300742998688,1.75488745022,0.0,0.0,0.0,-2.38041201184,0.115412163303,0.0,4.32517744272,-1.48295662257,1.72254944329,-1.76987152747,0.0,-5.53490911349,-3.67096487023,0.968830033685,0.0,1.08516789612,-1.22328471303,0.0,-3.1289765472,0.0,1.35744496633,0.0,0.0,-4.42236089411,-1.62578669395,-3.21549329305,-0.834132627804,-1.26508629877,0.0,0.0,-2.43968798302,0.592857530057,-5.63609011698,0.0,-4.37192879531,0.0,0.0,-1.84816568336,0.0,0.0,-1.00144506715,2.70250596607,3.12877960175,-3.20271264858,0.0,-0.526866167875,2.51606467038,-1.93456791564,0.0,0.0,0.567178173283,-4.30284113564,0.0,0.465385040286,0.0,-2.14668490139,3.69436008924,0.0,0.0,0.0,-0.307125930573,0.0,0.0,3.79077623618,0.0,0.0,2.9609103361,-1.82495140502,2.13637191713,0.0,0.0,0.0,0.0,-1.67167192491,-1.27399220613,0.0,0.0,-3.6392691938,-3.64590038815,0.0,0.0,0.0,0.0,-0.991251446563,0.782508233023,1.53186171937,-0.29487757965,0.0,0.0,-0.597452958685,0.0,0.0,3.96151479867,1.59122672047,-0.040120929481,0.0,0.731630588999,3.53258897492,-1.3680170214,0.0,0.0,0.0,0.0,0.631193287411,1.37191032042,0.669944041824,0.0,0.0,0.0,0.123221190492,0.0,0.202228835421,-4.62384002232,-1.85860391054,-1.73511650219,0.0,-0.599649469597,0.0,0.0,1.10063932426,-0.557366039778,0.736194862298,0.0,0.0,5.02624518186,0.0,4.23432753232,0.0,0.0,0.0,0.0,0.865148278748,0.0,0.729705008251,0.0,1.88084172857,0.0,-1.99221672972,0.0,-1.41406172977,2.03341024665,-1.66364497275,0.0,-2.34999083135,2.04535010895,0.0,0.0,1.09778857106,0.343109623834,0.608718749655,1.65140958122,0.0,1.79631600814,0.0,0.0,-4.21734936166,-1.74316389626,0.104209004197,-0.128706999869,0.487821662443,-1.02247583896,-0.983323130951,0.0,1.33494856171,0.0,-0.972322104811,-0.147997432991,0.0449591772056,0.0,-3.87360542496,-0.237543685303,-0.373670194336,-0.330990689622,2.53361074754,0.0,-0.276260992981,0.0,0.0,2.32075035406,2.14942267085,0.0,0.0,1.65526866927,0.0,-0.484717658953,0.0,2.41846634888,1.56965208012,0.0,-6.15303681345,-4.48741050846,-3.0686885655,0.0,0.0,0.87005865023,0.0,0.0,3.38906206588,3.51477795319,0.0,0.288863919917,-3.23335802745,-1.3968763869,-0.786336047841,0.0,-3.64280483496,0.07633015591,0.0,-1.28504456165,1.21657646525,0.0,1.20385313666,0.0,0.0,0.0,0.0,0.0,0.0,0.154864117098,-2.42733481801,3.72864995324,0.0,0.0,0.0,0.0715072738562,0.0,-1.12093772755,-0.689238622131,-4.13612933576,0.0,1.15897048856,0.0918083014705,0.0,-2.71125074213,-4.01448736929,-5.89267385629,0.0,0.253228644666,0.0,0.0,0.0,-1.76563684267,-0.976668682216,3.62952982288,-2.89534105996,3.2424329795,0.0,0.396029815673,-3.46956003348,0.0,2.4981239493,-0.540027043332,-4.42845229602,-0.742881869227,-1.52047399615,0.0,-1.90771660577,0.115300064888,-2.8037860176,0.561405078347,0.0,0.0,-1.72588924394,0.843374981554,0.0,2.78024737108,3.71818958956,3.31891369333,0.0,0.0,0.0,1.34281738119,0.0,0.0,0.0,0.0,-1.99880616845,0.0,0.236683366856,3.23845288948,0.0,1.08123269254,0.0,0.347330862713,0.0,0.0,0.0,2.61505557966,0.509606484316,0.0,-0.129657604511,0.0,-0.961679429339,0.0,-2.78544586602,0.0,0.0,-1.85573423242,4.09419997349,0.913634359329,0.129834986195,-1.74627489825,0.0,0.0,-4.04036910686,-0.280172679136,0.0,3.05127826949,-0.307895162942,0.0,3.32354744848,0.430717246543,0.0,0.111598510837,2.50657359078,-2.37445839868,0.0,2.46523113157,0.0,-0.388420807939,1.41625421889,1.17974994607,-0.156037740032,0.0,0.0,1.73339031794,0.0,1.40301749588,0.0,0.0,0.0,-3.19831851853,0.517012914482,4.5669877938,2.05921610784,0.0,0.790047464458,0.0,-0.493052664421,0.445255851633,-0.770331523668,0.173293448865,0.0,-2.68038997991,4.13464040204,0.0,0.0,0.0,0.777638983848,0.0,0.0,1.86149096138,-1.05641059569,2.5788524093,0.0,2.85101777807,0.0,-2.73739542932,2.26035862037,0.0,-2.97492729626,0.0,0.0,-0.495833798714,-1.05787621086,0.0,0.0,0.0,-0.833361039472,0.0,2.58057838625,0.0,0.556333084793,-1.39808664848,0.0,3.49103315432,0.0,0.0,0.0,0.0,2.8193417056,-1.15316794736,0.0,2.98210248056,-1.44591895871,0.0,2.25523093267,0.0,0.0,0.0,0.0,0.0,2.53361662608,-0.626629295212,-4.03191539299,1.84733277416,-3.06122509589,-2.56131063558,0.0,0.0,-1.69813140829,0.0,0.0,2.83084642483,2.76875621251,0.0,0.0,0.0,0.0,0.0,0.0,3.39332339635,-0.0885743335174,0.0,0.0,0.0,-1.17218748073,0.0,-2.57478704706,-0.124595737828,-0.612433328923,-0.946527055036,0.365544180398,0.0,1.28835290594,0.685254195341,-5.84467801155,2.27136651647,-3.73623038973,0.0,0.0,2.09774321985,1.79537181287,0.485213405538,-3.73345222734,-3.3394827417,0.0,0.0,-1.73231655466,0.0,0.905894942264,0.0,0.0,0.0,-0.850331089108,1.31685460489,0.0,1.04970969304,-0.647202353639,0.0,-3.6230282968,0.0,1.85023433448,0.0,1.97549304871,-0.711667924951,0.104050860928,-0.186552999679,-4.16123878171,0.0,0.746520156989,-2.66807208587,0.0,2.88469450376,0.188373483692,0.0,0.238290491549,-0.664954679354,3.10541377715,0.0,-2.00124255874,2.51678887513,0.0,0.0,0.0,1.49900558725,-1.29526574332,-0.750729150418,-3.94483972168,0.0,0.0,0.0,0.0,-0.809838648379,0.0,-2.70960834865,1.30877175111,1.19448541334,0.286609315795,-0.164496664867,4.46312704937,0.0,-0.648628283964,-1.66335606943,-2.570188571,-0.69486256146,-0.245286966824,0.0,2.01187168733,-3.46973732486,0.0,-0.253124740771,0.0,3.9347679888,-0.993638780623,0.0,0.0,0.0412352415305,0.680911051759,-2.23595743151,0.0,-3.02555240408,0.0,0.0,-2.53558542695,-0.059527497815,0.376281724266,0.25964085614,1.16218162474,-2.87103516066,-1.45059354917,0.0,0.0,0.0,0.0,0.0,0.517585261144,0.0,0.0,0.0,0.0,0.0,0.535260547326,-1.04410579929,-2.79866554439,0.0,0.914745569692,-2.32687898508,-1.10321229381,-1.8499222444,0.0,0.0,-3.55337560937,0.0,-3.66178133465,0.0,0.930190893555,-0.558780932048,0.0,-4.12060145375,0.0,-0.0908454489997,2.10820655107,0.0,-1.53336672255,-2.8517795627,0.0,0.0,0.0,0.0,0.0,0.0,0.254255345967,0.0,0.0,-2.08013582031,0.0,0.0,-0.791009486491,0.0,0.0,0.945924635187,0.433499726844,0.0,0.192413672681,-0.577772348745,-4.74221657086,0.0,-0.936753082204,0.0,0.0,-2.79437579738,0.0,0.0,0.0,0.0748849583708,3.22308297673,0.0,0.0,1.79771034835,0.0,0.0,-3.30834901496,1.94141034918,0.0,1.97804924467,-3.31178421343,0.0,3.27070203725,0.238675113647,0.0,0.0,-3.04420054497,1.63617789905,0.485715580949,-1.96309953777,2.38971091527,1.65618777742,3.61121155869,-3.28357986609,1.64787170038,-1.90649034461,-6.18782891063,3.01638306896,-1.94086273323,0.0,0.0,-2.28443532547,0.285738303665,-2.98353289351,2.18547150367,0.0,1.67525842859,-0.211271533507,2.03997725037,0.0,0.0,1.9132144803,0.0,0.0,2.44742163907,0.0,3.26076217974,0.0,-0.873643061996,1.93264559477,2.2382492098,-1.62035834414,-0.202544383347,-2.16230549463,1.97551903645,3.37011791923,0.0,0.0,0.0,0.0,5.30299833019,0.0,-0.422102271618,2.87402847809,0.0338567195056,1.76824983879,-0.24417596032,0.0,-2.1155733847,-3.93012919691,0.0,2.10526316075,-4.37707176289,0.542849448032,4.31325410509,-3.80184035872,-3.04917474679,0.0,-2.08270622903,0.0,-3.93312288569,-3.36097451352,2.08826909649,0.0,1.99796038481,0.167194663855,-0.945751399378,0.0,0.0,-0.325446936939,0.0,0.0,-1.03081319724,-0.981825355702,1.09691977937,0.0,0.0,0.0,-3.33316868238,0.0,0.0,-0.676050733167,-5.10772698083,2.62560683596,2.77233459023,0.0,3.8899879276,0.0,-0.688879047904,2.305703704,0.0,0.0,-1.10977035708,0.0,3.92690089895,1.54603449195,-1.97825128633,-1.66614820514,-0.676576496728,4.33802792516,0.0,-0.127277568661,0.0,0.0,0.0,0.0,0.615412251269,0.0,0.0,2.72113362713,-1.51027457471,0.0,0.0,0.0,-1.63713520898,2.07772441992,-1.5363573814,-2.94929783925,0.0,0.0,0.0,0.0,0.0,2.27282303414,0.0,6.55813276674,0.0281363123725,-0.597586933121,0.0,-0.0536943804861,-2.36767188963,0.0,-1.57426168093,-2.81709322227,1.29423264788,0.0,-0.236017485939,0.0,-2.24933379105,0.0,-0.963095709221,0.0,-4.06838482554,0.0,-0.179996311106,-2.14092938798,0.0,-1.88613657963,0.0,-1.20746136087,-1.60932491486,3.47990375285,-1.7800878872,-1.38520859246,0.0,1.20320356764,0.0,0.0,-1.53406665293,-0.777402243227,1.67164782348,-1.74093214064,0.0,-0.279233390656,0.0,0.0,-1.67208624202,0.0,-1.14560164927,0.0,0.039712651328,-1.68741474242,2.18078705369,-3.38088799463,2.11320976855,4.08307978507,0.813703423651,0.0,0.0,0.0,1.76690665641,-0.351691810334,-1.7368574927,-2.92564757769,0.0,0.0,3.34000735649,-1.27134706077,-4.5694451962,-0.844665045724,1.99687069848,0.332286686026,0.846697708569,-5.36495778933,0.0,-1.16556634395,0.0,-2.21318266875,0.0,0.89555088311,0.0,-0.76761864001,2.91353520237,2.91315286863,1.68952812988,-1.30346801219,0.0,-4.266634418,0.0,0.0,-0.755063808692,1.49934960014,1.13716376878,-1.03072081921,-1.94653946808,-0.503154346434,0.0290475030005,3.60239415897,-2.60450077726,0.0,0.0,0.0,1.34803328646,2.24311617376,0.0,0.0,2.21843834315,0.0,-2.43886685367,4.17667668192,-3.78710700553,0.0,1.90319150158,3.29028861803,-0.316999140284,2.60808640278,-0.139679867012,0.0,-0.576556893261,3.48652556631,0.724476568414,0.0,-1.80248535174,-0.921027123964,0.0,0.461111036066,0.0,0.0,0.0,-2.45234309287,3.28603944428,2.64160311793,0.0,-3.10097905073,0.740516387309,0.0,0.0,0.0,0.617654176347,-2.78643579465,0.0,-0.8795542651,-0.443253688411,0.0,-0.967099233253,1.12028330792,-0.187768892017,0.0,0.0,-1.44919782737,-1.7055172109,1.24897148785,-1.89383993333,0.0,0.0,0.0,0.0,0.0,1.89364342564,-2.55413259157,-2.38856181419,2.08895420437,0.0,0.0,0.540166292721,0.0,-2.73253615556,0.0,0.0,0.0,0.55688488014,0.0,-0.513965924494,2.66355698592,-0.491028893498,-1.26246810954,0.0,-0.469488444269,0.0,0.0,-3.04563883937,0.0,0.0,0.0,-3.92142914585,-1.97745137383,0.0,0.0,-1.10988749499,3.82020999354,4.15925439139,0.510210662033,2.65087982215,0.0,4.27669002528,0.0,-1.79960085531,-2.59710194778,4.00011915831,1.67967156361,0.0,-0.615036114051,-1.74187273995,1.99423948365,1.0494463983,0.0,-1.63883095369,0.0,1.87486517531,0.0,-0.63486875775,-2.36547749651,0.0,5.04457444562,0.0,0.0,2.18547150367,-2.25146820232,-0.506137975061,0.0,0.0,-0.826347435486,-0.727416439591,2.46112521768,-2.5937412818,0.0,0.0,0.0,0.0,0.0,0.0,0.0,0.0,0.0,1.92819337628,1.38774061828,0.689284725394,0.0,0.0,1.00004467489,0.0,0.968867187524,0.0,0.0,1.60212873297,0.717433156438,-4.06320441516,-2.09175069182,0.0,1.57404453798,3.62302970762,-5.51092887768,0.0,0.0,-1.40728835493,0.443785754523,-0.229951131111,0.95428773919,0.0,0.0,0.780027758713,0.0,-3.8873400079,0.0,0.0,-0.00873733435101,-2.12918182678,-3.97491515118,0.0,0.0,4.39354937626,1.38287222709,1.8272372489,0.0,-2.69910854227,0.0,0.19056174212,0.0,-0.257103201185,-1.01622407634,-2.71515147712,0.0,-2.54350783579,0.0,6.42493213514,1.28321058724,-2.1378421743,0.0,0.0,0.0,-0.438235058485,3.21459387957,-1.8714261257,0.0,2.59431677447,-1.8532169033,1.38276234419,-0.1557829875,-5.988967513,-0.960696169638,-0.0300556299954,1.31590306337,-2.11541185811,0.0,1.0415165336,-1.20746136087,-3.69162913627,0.0,0.0,0.0,-1.47663169322,0.0,0.0,0.0,0.0,0.909373428181,0.0,0.0654879505754,-3.64706283569,-0.854995899278,1.16929139382,-0.675519609603,-1.10989009638,0.0,0.0,0.0,-1.66644383235,2.69079743448,0.0,0.20817280324,-3.66614093594,0.851897451892,0.0,0.0,2.57651233521,4.04957865849,0.0,-1.17033513635,0.282328476905,4.19392020944,0.0,-2.04757164501,0.0,0.183321935355,0.0,0.434279696082,1.29300278616,-0.285384486858,0.0,-1.59579600421,3.16441193309,-1.30693088589,0.0,0.0,0.0,0.0,0.254890607964,0.0,1.40690984954,0.0,-1.12892570893,-0.129009210115,0.0,0.0,2.11888035106,0.337758717657,1.92695173409,1.3982652134,0.0,0.0,-2.48803136602,-1.734654473,0.0,2.67400313614,2.30311187454,-0.717725142177,0.0,0.0,0.0,2.13642451371,-2.28981391301,-3.39366773445,0.662883308529,0.0,-0.24366389978,1.11858212366,0.0,-0.294178722882,-0.73431029753,1.08115098014,0.863894835855,0.0,0.0,1.34247576195,0.0,-1.52864660201,0.0,0.0,0.0,0.0,1.85364453213,0.0,0.0,3.03882408084,0.0,0.0,-1.70085794268,0.0,0.0,0.0,2.90119340452,0.0,0.0,2.31057960715,2.09081373688,0.0,-0.867045255254,-2.60589959274,0.0,1.83627335203,0.0,-2.82024751765,2.39657939633,0.0,0.0,-0.586655792942,0.0,-3.71029098451,1.34983496998,1.28776492851,0.0,0.0,0.312146874326,0.0,0.0,-1.0081937796,-2.01887640047,4.3784215675,-2.60841224196,0.0,1.73506100905,0.0,1.87634684935,0.0,1.00964511881,-0.997055023207,0.0,-3.86681279906,0.0,0.358191896167,0.0,0.0,0.0,3.19975468062,0.596025773012,1.11545738074,0.385071670171,0.0,0.0,0.0,0.0,0.0,0.0,3.09321415609,4.88079611079,0.0,0.0,0.0,3.48944276007,-2.9413316319,0.0,0.789478128212,0.0,0.630416658977,-5.23965961251,1.75706117624,4.42591460793,0.0,0.0,0.0,0.0,0.0,-2.97966170227,-2.08737538463,-1.19090745897,0.0,-3.82914428886,0.170489910975,0.284953256291,0.0,0.0,0.0,-2.19004816414,0.0,-3.09074188965,1.53541669316,0.0,-3.84310481059,0.763222904823,0.0,0.0,0.0,0.0,0.0,0.245318976312,0.0,2.01795038292,-0.539887543447,0.0,1.4031261686,1.4902537518,-0.97318452158,0.0,1.30130758287,0.0,0.123302109105,-0.445348491374,0.0,1.06310895344,1.43050435959,1.50420979709,0.0,0.0,0.0,0.0,-0.0473967483214,0.0,-2.49895557214,-1.51812855811,-1.79993736854,0.0,1.49361879022,2.02462671287,0.0,0.285179984201,-1.07734743146,1.08850119243,0.179197280832,0.0,0.0,-3.5587181211,-0.688413047539,0.0,-4.23064537154,1.23153938089,0.0,0.0,-2.64418534574,-0.189255437651,1.33494196376,0.0,1.38430109248,-1.50624341878,0.0,-2.01161736761,0.0,0.0472970114266,0.0,0.0,-1.02421862651,0.0,-2.61442375471,0.0,0.465156710409,0.0,0.1741623564,2.61850454169,0.0,1.55717206877,0.0,-1.97637910364,-3.16401944826,-2.12967814218,-1.0081937796,-0.364217805809,0.0,0.0,0.0,0.0,-2.88614401088,0.0,1.14726164172,2.33773172068,0.0,-0.66018730554,0.0439813487113,2.83253878433,-1.07482318006,-0.458247308938,0.0,0.0,1.90477936948,0.282663598074,0.0,-2.81769306564,0.0,0.0,-4.00652194521,0.0,0.0,2.46358568999,0.0,0.0,0.0,0.0,0.0,1.18404219463,-1.88359705996,0.0,0.0,0.893185381545,0.166033887964,0.0,-0.353823039613,0.0,1.83329212448,0.0,1.83374391988,-1.17524562459,0.0,1.37812346863,0.0,0.340883698903,0.39367569557,-1.0209664945,1.01628109627,1.81665563895,-4.75152180325,0.0,0.0,-1.82183607949,0.0,0.0,1.47556533768,-2.93636526117,-0.450513347608,2.83727076879,0.250216422685,0.84427623236,0.0,0.385315480747,0.0,1.89386267327,0.0,0.0,0.0,2.63844256667,-4.10913453988,0.0,0.0,2.13208398389,0.578345653218,0.634284650919,0.0,-1.37433247282,0.0,1.6102031682,-0.0943446877323,-0.720844738971,-1.12798950377,0.0,-1.60515513184,0.0,0.0,3.6674672981,0.0,-0.290108653222,0.0,0.0,0.0,0.0,0.166067020332,0.593334039878,0.0,-2.13772786407,2.69521611951,1.44297159199,-0.489802360773,1.3442174174,0.0,1.50786244153,0.0,0.0,-1.27135984704,0.0,0.0,0.0,2.53501698862,1.77711601898,1.04684571493,4.81137379166,-3.46638831877,-1.46561008879,0.0,0.0,1.98126982209,2.22901046812,-4.53476900364,0.0,-0.452600436928,3.79815938053,-2.87879185488,0.0,3.60319077145,-3.12436088326,-0.208751719894,-3.3734512453,0.0,-3.85094470615,-0.43694404182,0.0,0.0,0.0,0.0,0.0,0.0,0.0,-1.58190981351,3.41196356765,0.0,2.67063692956,-0.220990534972,0.0,-1.17857730824,0.448382893385,0.0,0.0,-0.576239915767,0.0,-1.3529007376,0.0,1.94993973778,-2.29274220719,0.0,0.0,0.221282200205,0.0,0.0,-4.53811132972,0.0,-0.0078804751842,0.0,-1.84065065465,2.06126025252,-2.00082808652,0.0,0.0,-2.85355942855,0.0,0.414007167395,0.0,0.0,-0.878263901426,2.90017543724,0.0,0.0,2.66993266087,1.49177118261,0.0,0.942777397314,0.0,2.27681212273,1.0436423996,0.0,-0.53397885226,3.2823540878,-0.0543181726004,1.31851568747,0.0,0.0,0.0,0.0,0.100732532354,0.0,0.0,-0.134910559249,-3.65825193934,2.36564834268,-3.66505802307,-4.84536969788,-0.03625137881,1.74779781443,0.0,1.79474410312,0.0,0.0,0.0,2.97589258176,1.498441735,-1.79924508539,0.0,0.0,-1.45482026602,0.0,-2.80037326582,0.0,-4.30875530139,3.7476622275,-0.224037960363,-1.22107717937,2.58937205173,0.0,0.0,0.790181723694,0.0,0.0,0.440372782662,-2.04020964282,0.0,0.0,1.69980876493,-0.598824424602,0.0,0.0,0.0,-1.91432461369,2.17515322626,-0.282750924831,-0.671055345573,-0.116950369611,0.0,0.0,0.0,-0.850628742054,0.381464878663,0.276191828582,0.0,-0.772213032409,0.0,0.0,0.0,2.22259876155,0.0,3.79082005385,0.0,0.0,1.24629958355,3.19459026486,0.038195437737,-0.125194696568,0.246116873114,0.0,1.93996775584,0.0,5.4676024023,-2.01055121181,-1.6033327269,-2.40556873534,4.04386284063,0.0,-2.0621095889,1.28166925335,0.0,0.0,-3.02358228941,0.0,-2.60419321107,0.0,0.0,0.0,0.0,-1.9210515528,0.747296147418,0.0,0.0,-0.430423920163,0.0,-0.643103405758,0.0,0.0,0.0,0.422193093162,0.0,0.0,0.0,0.0,-2.72417031037,-3.95179936136,-1.02396205009,-1.2922546634,2.56448981972,-3.39358224275,4.18233510697,4.52724719447,-3.04240614802,0.0,0.0,0.0,-0.871606185718,0.164893038577,0.0875822806899,-0.595889762582,-4.72474719849,4.79878475799,1.27162406677,0.0,2.04312310619,0.809941694178,-2.47516558703,0.0,-1.01893403097,0.0,-2.53106102642,0.0,1.52469793214,1.95322148172,2.19696304842,1.03965101099,-0.725249463201,0.0,0.0,-4.31748732807,0.0,0.0,0.0,-0.985838910078,2.61035762644,-0.563790143908,0.0,0.0,0.0,3.0473205279,-3.95903444833,0.0,0.0,0.0,1.7559982749,1.10490529184,0.0,-1.22247240767,-1.38918973815,2.3471021813,0.0,-0.0737480486124,0.0,3.62398126155,1.66245939617,1.05761845574,0.0,0.0,2.02642396228,-1.19763203186,0.517932466787,0.0,1.16929139382,0.0,0.0,1.45662643985,-2.17610264522,0.0,0.0,0.0,0.0,1.84980508322,2.64005097551,0.0,0.0,0.0,0.0,3.03651356669,0.0,0.0,-2.26758871726,-0.301223370491,0.0,2.46879059736,0.0,0.0,-3.48140268859,-3.0553461669,0.0,0.0,0.0,-1.80436297754,1.87092534468,0.0,3.54388342625,0.0,-2.44854569491,0.0,0.0,0.0,-0.730355476997,0.0,0.0,0.0,0.0,0.0,0.0,-2.84161992314,0.0,1.77992547667,-0.862029945332,0.0,-3.13560769479,0.730817481128,-0.197091852507,0.0,-1.20570179007,1.20553186673,-0.139106553019,0.0,0.0,0.0,-2.90962030833,4.00708374276,-1.58911453193,0.0,0.0,-3.61576292356,1.26251604872,0.0,0.316978672161,0.0,0.0,-3.94788462038,0.0,2.46722912623,-0.118524261109,0.0,-1.42161206671,0.0,0.0,-0.142401908922,1.71567847542,1.54500185202,2.71015318761,-1.87863885076,3.39180408703,-1.68846951697,0.0,0.0,-5.65001914312,1.04121534905,-0.246512708538,-1.3126999344,-0.904311460378,-1.04017642339,0.0,-2.31804023432,1.7754789962,0.0,-1.77511600015,0.0,0.0467730709375,0.0,-2.08534994759,0.0,-2.63696337641,0.0,0.0,-1.18200327359,-3.79663030485,0.0,0.595385404968,0.0,0.258007720714,0.0,1.54968729163,0.99390823444,1.96677811729,0.0,-2.03499672461,2.40784468434,0.364459948816,-1.49407175315,0.0,0.0,0.0,0.0,0.56104267755,1.43226748407,1.79486689961,-0.721773832239,0.0,0.0,-0.905127717725,-1.78732700126,1.19085051344,0.0,-0.199947994191,0.406827311678,0.0,-1.83980136748,2.04478507227,0.0,0.0,1.17826375188,1.40083356493,-2.00887397056,0.0,0.0,0.0,2.16861306807,-2.28944231136,0.0,0.0,0.0,0.0,5.10151055712,1.48903031027,-0.771324344079,-3.89146422824,0.0,0.0,0.0,0.0,-0.633366447899,0.0,0.0,0.0,0.0,-0.745173232443,-0.0816956884595,-3.8595308732,-2.05069120832,0.349559706345,-2.37081856152,-2.99609441397,0.0,0.0,0.0,0.0,-5.73517343462,-3.04339185519,-3.93235431245,-0.847473142104,0.783877271246,-0.577092725201,-0.998916193026,0.664516759564,0.0,0.0,-3.57146409664,0.0,0.0,0.0,-4.15978586478,-2.80853806655,0.0,0.0,1.9945349401,1.30710509938,0.0,1.44243114909,1.02004732125,0.0,0.0,0.0,-0.714191647411,0.0,1.85583661147,0.0,0.0,0.0,1.04546605836,0.0,1.22221070527,0.0,-1.16519376931,1.0548023645,0.0,1.58927600623,3.43705847268,1.78540754039,0.0,0.0,2.04548052642,0.0,0.0,1.35229017852,0.0,-3.38687473924,1.68357307069,-1.01780157987,0.731987042443,-1.17915573653,1.17763445778,0.0,-1.67696902277,0.0,3.73752014623,-2.40077359362,0.0,3.39083563968,-0.73220931237,0.0,0.802089562324,0.0,0.0,0.193162872163,0.0,-0.840403562268,3.0966030476,-4.8363459374,0.0,0.0,0.0,0.0,-2.27631887179,0.0,-2.45653472795,0.0,0.0,0.0,2.3443080953,0.0,0.0,0.0,0.0,-3.30680406956,-4.13937527309,0.0,0.0,0.0,0.0,2.65182659206,0.0,3.42431547558,0.0,1.01727250774,0.0,-0.123617746883,0.0,0.0,1.48983098601,-1.89661603397,-5.05445825194,-1.22689803516,-0.845425268468,2.18547150367,0.0,0.0,-2.71201416929,0.194183699261,0.0,1.24501139983,0.0,2.25388628196,-1.72857380553,-1.16691443964,0.0,-0.637190495862,-0.483471536569,0.0,-1.74587810314,1.74648355218,-3.53415583413,0.137711851437,0.0,-0.928847091306,0.785669887048,-2.92052204951,0.0,-2.73374389421,2.18391856953,-0.713732042489,1.69386234278,0.0,0.0,0.0464288201788,0.945451219357,0.0,2.07493591377,0.0,0.0,0.0,0.0,3.78308885878,0.0,3.69407581545,0.0,0.0,0.394826048179,1.44471966285,0.849173263865,0.969337318918,2.41955839775,-0.621548511866,1.59425281614,1.22804677306,0.0,0.0296724626213,0.0,-0.457916815174,0.0,-0.274565705125,0.0,-1.51751085527,0.0,0.0,0.0,-2.18073900572,1.72240105335,0.0,1.35947104317,0.0,0.0,-3.22946807046,0.0,0.0,-0.755329739118,0.0,0.687655746249,-0.407682787822,-3.4280649171,1.48413123627,-2.76541159145,-0.543194571306,-0.735519364982,0.0,2.03068229593,0.0,-3.879200479,0.0,1.01926370947,-0.355224902206,0.0,0.0,3.04477692918,0.0,-4.19484075646,-1.20867840173,-1.59947399506,0.0,1.26823823205,0.0,0.0,2.02965450974,0.0,0.0,0.0,-1.93806352119,-0.563024224733,0.0,0.0,0.0,1.5082720214,0.0,-3.36160997645,0.0,2.41278912698,0.0,2.66056635425,0.0,0.0,-0.493438028901,0.183321935355,0.0,0.0,2.25283362917,-2.39363494797,0.0,1.43332233852,0.0,2.65753921144,0.0,0.0,0.0,-0.359827607368,1.46580661684,0.0,1.42796772788,-0.791723512468,0.0,0.0,0.0,1.01778106949,-1.89727207989,-2.71405765296,-2.25884935482,0.0,0.0,0.0,1.12949018024,3.68745045439,0.32316229772,-0.456274693475,0.148565328505,0.0,-2.61389168581,1.42519493144,0.0,0.0,0.0,0.0,-1.26237278222,0.0,-1.69359961045,0.597298747883,1.23589286881,0.0,1.28257773168,0.0,1.64277277417,0.0,-1.18311574528,0.0,3.4020391735,1.2836220108,0.0,0.0,-2.12713890106,0.0,0.0,0.0,0.0,0.0,2.5243407058,-0.312198327851,0.656117067681,0.0,-3.71542441423,-2.88145709695,-1.86355680532,-0.171631468524,2.27254052053,0.909075014845,1.40878617403,1.28723552416,-2.47745836406,0.0,1.29680617446,-1.1813356337,0.0,0.0,0.219474744318,0.0,-2.46676661706,0.0,0.0,0.0,0.800235739529,-2.10209520515,0.0,0.0,-3.10970910915,-2.97299277993,3.02398270576,1.87901770255,-0.192365352214,0.0,0.0,-2.40220700631,-2.40896928152,-1.49177295449,0.0,2.94181413931,0.547584327193,1.23997687647,0.0,0.0,-3.96402800015,3.38388456564,-0.566825917795,0.750154281088,-0.592014199276,0.0,0.814264630311,0.0,2.58458199204,0.0,-0.337568950623,0.0,-1.56421459109,0.0,-1.78963282741,1.43045176374,3.58672290197,0.0,-1.67023121283,-3.23997867967,2.27289801554,0.0,0.0,0.0,-3.07043988676,-0.879025988387,0.594332663217,2.41406069701,-0.420248174739,-1.66393834989,0.0,0.0,-0.896891358549,-0.605064938502,0.0,-1.63121365399,1.04566706668,0.0,-1.15287456843,-0.301761954045,0.0,3.05001971471,-0.718238107814,2.39755463155,-0.861884203009,-1.59419316339,-0.689923909309,0.0,0.0,2.16336319029,-1.41711467979,0.0,0.0,2.36425161341,-3.38212040117,-0.534849410818,0.0,-1.42118951718,0.0,0.0,0.779663004777,-0.75482303218,0.0,0.0,0.361461795189,0.0,0.0,0.0,0.0,0.0,-1.43362498587,-0.15612410532,0.414711111371,-3.58420482348,0.210722524499,0.0,1.74697337806,1.67480454105,0.2734777652,0.0,0.0,0.0,0.0,3.01989726754,-4.09167127807,-2.0580149381,-1.02124435154,0.0,-1.76020316433,0.0,0.0,2.21169788537,2.66077025545,0.0,0.0,2.83591031492,3.54439558017,-0.894838537864,-0.418830939747,-0.308888810006,0.0150197443368,2.4792671913,0.0,0.0,0.0,0.0,2.7473554683,0.0,0.0,0.0,0.593284460063,0.0,0.0,1.13327499423,-1.00894217035,0.0,0.18442016109,0.0,0.0,-1.70602895204,-3.25693724168,0.0,-1.16735383714,1.37063866264,0.0,1.99135759218,0.0,-0.905305490438,0.0,1.45684797401,1.0566946156,-0.684846747416,2.28080222156,0.0,0.0,2.47375838123,0.0,0.0,0.0,0.0,-2.4409498323,0.0,0.0,0.0,-0.146864037643,0.0,3.16893480095,-1.17350660809,-0.866926890015,-2.44498507266,0.0,1.73404697901,-1.45396527953,0.53686495154,0.0,2.13315108038,-0.631072680874,0.148695100079,1.63133055909,0.0,0.0,0.0,-1.5469004898,-2.85578914927,0.0,0.0,0.0,3.8618833917,0.0,0.0,0.0,-1.38029384965,-0.738059680916,2.32186624142,0.0,-2.58040570156,0.0,0.0,-3.15421894805,0.0,-0.702191193802,0.0,-2.95199971672,-3.56849589529,0.0,0.0,0.0,0.0,3.1720604122,0.0,-2.52415596611,-1.94630051193,0.0,0.0,4.22921631262,0.0,1.83303491856,0.0,-2.42768492785,0.384588157793,0.0,-1.04620977218,1.35980543262,0.399458558967,0.0,1.19460113121,0.331265866542,1.93010307456,0.213077905343,0.0,3.3578498686,2.28905270865,0.876665613676,0.687340731689,-0.371870368166,-3.92651801882,-0.202269748082,0.0,0.0,0.0,-0.383454364678,0.0,1.61339674037,0.0,0.0,1.11841446618,-1.34126086569,0.0,0.0,1.40213024794,0.0,-5.50069627381,0.0,0.0,0.0,0.0,0.0,3.15553946418,-0.938859425253,0.0,1.89390526983,0.0,0.0,0.0,-0.1778943487,0.0,-0.59958629864,0.0,0.0,0.0,0.0,0.0,0.0,-0.99478283414,-0.501821829499,-1.01133846783,2.76005710214,-1.84888826025,-0.90728604187,0.0,0.0,0.198768978909,0.0,0.0,0.0,0.0,0.171693183063,0.0,1.67369619407,-0.503430597109,1.27665305419,1.56819849928,0.191673739125,3.06397482257,0.0,0.0,1.87082881008,-1.64593098121,0.0,0.0,-2.0820316932,0.0,1.94380088608,0.0,-0.179960790096,0.0,-0.0312044645455,0.0,-4.33410582922,0.0,0.0,-1.32938952644,-1.95085796515,0.0,0.0,0.0,0.0163355531806,-0.106752720163,0.0,4.33356928855,0.0,0.0,0.352822435091,0.0,0.0,1.38459675865,0.0,-0.59175575796,0.083347813474,0.0,2.44961033833,-3.20220571718,0.0,0.0,0.0,0.0,0.0,-0.262040252967,0.0,0.0,1.39415863984,-0.571894002089,-1.86989574971,0.0,0.0,0.0,-1.2220323222,2.9429543134,-1.93417949587,-2.70668830998,0.0,0.0,0.0,-0.64973730032,0.0,0.0,-0.556053372172,-0.521195862492,0.0,-0.47215358684,0.0,0.0,-0.358335461715,2.41275245413,0.0,0.0,1.16437082198,3.27963211033,0.0,0.0,0.0,0.0,0.0,0.0,0.0191435709996,0.0,0.0,-0.679666378021,0.998003964425,0.0,-1.80125724565,0.0,0.615412251269,0.0,0.0,0.0,1.55860217076,1.17545055253,0.0,0.0,0.0,0.0,0.0,-0.828396490956,0.0,-3.966612402,3.34380499345,0.0,0.0,1.17826375188,0.0,0.0,-0.275710956761,0.0,0.631529410229,0.0,0.0,-1.63116731239,0.0,2.35862972012,0.0,-1.01331062213,0.0,0.0,0.0,0.0,-1.93613174359,0.0,-0.206533135784,1.74377441908,0.0,0.0,-1.74122908388,-3.3291803421,0.0,-0.267058633681,0.0,-3.49237448511,1.99682029915,1.14311196116,1.11026448564,0.0,0.0,-1.63320658282,0.0,-1.54363032623,-0.414001110663,0.0,0.0,0.0,-1.70429050783,1.88604506372,1.37911360359,0.0,-1.26964896262,0.0,0.0,0.0,0.0,0.0,1.04634626124,3.67461153179,-1.41383325819,-3.89172621925,0.0,0.0,0.888290291566,0.0,-3.02878762273,3.08305821106,0.0,0.822751468887,0.0,0.152818914805,0.0,0.0,0.0,1.56280375847,2.44537044169,0.0,0.0,0.0,0.0,0.0,0.0,0.0,0.0,0.0,0.0,1.68357307069,3.19725691445,0.0,-2.61079873067,3.09470211907,0.0,0.0,0.36635119958,2.60753178443,0.223983708945,0.0,2.61104968713,0.0,0.0,-1.92074873414,0.0,-0.287367568283,2.89984319219,4.39291813433,0.694799489506,-1.13901354082,3.20219072314,0.0,0.0,0.872609957056,0.0,0.0,2.02911567671,0.0,0.0,0.892478415342,0.0,-0.292268790584,0.0,0.0934924007545,0.0,0.0,0.0,1.76213123554,3.54766511877,0.0,-1.51207821448,6.05148100325,0.932915859688,-0.160647927363,0.0,1.77350368941,-1.16782872111,0.0,0.0,-1.01403558238,0.530521170472,1.38627731718,3.18761190309,0.0,0.770784335293,-1.36357768845,0.0,2.96018671412,1.15641656782,1.50705220639,0.263903721248,0.0,-3.36457802076,5.40544249213,-0.688648778539,0.0,0.0,0.0,1.55191934936,-0.387014861639,-2.88296939556,-0.781721785537,-3.47491632241,0.0,-1.60730764903,-1.07867251958,-0.463466885964,1.63453319517,-0.947399877035,0.0,-1.14859855229,1.56001717793,0.77965935043,3.6246798558,-0.236588600251,0.0,0.0,0.0,0.0,1.86229649001,1.30515906118,2.03163381243,0.0,0.0,-0.207852899252,0.0,-1.2720513302,-1.67295391641,1.94396685936,0.0,0.0,0.0602985328069,0.0,0.113006371963,-2.35586129826,-4.02888763597,0.712874905274,0.0,0.0,0.0,0.0,2.23583853402,0.0,2.12185143941,0.0,2.18547150367,2.35174181653,-2.43906561997,0.0,1.68555629521,-0.769240590733,0.412710152527,0.0,2.33860519915,2.25271793749,0.0,0.0,-1.96475506803,-0.388145797944,0.0,0.0,0.0,0.0,0.0,0.0433157643612,-1.63921501615,-0.000461469916907,-0.30526215065,-1.02462375975,0.0,2.58002501308,0.0,0.0,0.0,1.25026258035,0.490903249267,0.0,-0.128706999869,-3.23419129307,0.250936752632,0.0,0.0207008236144,0.0,0.0,0.0,0.0,-0.610757532507,0.0,-4.08356228902,2.77776755313,0.0,1.69127825152,1.08925863077,0.0,0.0,1.80657884307,0.0,0.0,2.78931759814,0.607133417284,2.47029469178,0.0,0.0,-2.89108349764,-2.03224567007,0.0,0.0,-2.52014041931,-1.34733125183,2.39795096668,0.0,0.0,2.75676297653,1.50619532263,0.0,0.0,0.0,0.0,0.0,3.86229986281,1.79398617253,0.0,0.0,1.08165334174,-1.3274501183,0.0,-1.75833874889,2.71599237414,0.0,0.0,0.0,-1.45401222287,0.61035979917,1.70461653812,0.0,1.60729329648,0.0,-2.64600613241,-4.01080615858,0.0,-1.59044139159,0.0,0.637117576912,-2.33925512324,-1.33180885758,0.0,0.0,0.0,0.796004022659,1.88585392071,2.04172538929,-2.90985332685,1.49631163437,0.0,0.0,0.0,0.0,0.484403308507,0.0,1.0757034052,-3.29885546225,1.32191108239,0.0,0.0,-2.37027831738,-0.591475369536,0.0,0.0,0.0,0.0,3.4663609773,0.0,-4.69730953042,0.0,0.0,0.0,-0.463466885964,0.630394052822,-0.702834033396,0.0,0.0,0.0,0.0,-0.318981476839,0.0,-1.42551624918,-3.3597853588,3.75813391909,0.0,0.0,-3.49265036366,0.0,-1.01788423459,0.0,0.0,0.0,0.400127727523,-0.10355266183,-2.37073039761,0.0,0.0422425342033,0.0,0.992889097197,0.0,3.82794060465,0.0,0.0,0.0,-1.28531562853,0.0,-2.51378360055,0.0,0.795330907088,0.0,1.03117706043,0.0,0.0,-4.45268703434,-5.09020937887,0.833778907454,0.0,5.37938052236,0.0,-3.95688968689,0.191326215949,0.544910774109,-1.63876493971,0.0,0.0,0.188030095239,0.30279427791,0.387715337187,-2.79981597645,-2.5554069423,0.0,2.75427124144,0.0,0.0388276799052,0.0,-0.242779708941,0.0,0.0,0.0,2.54384802319,-0.837810633044,-1.68691951836,2.65989163349,0.727860137426,0.0,0.287564259805,0.0,0.0,0.999756051444,0.0,0.0,0.0,0.934617614219,0.0,0.0,1.20101654836,-4.05194796614,0.0,-1.50594592359,0.0,0.0,0.0,0.0,2.01829234764,0.0,0.558654479118,0.0,2.58863012763,2.66534178225,-1.05094505513,-0.581610547532,0.0,0.0,-0.128706999869,0.0,0.0,0.0,0.0,0.0,-1.83781519568,0.0,0.0,0.0,-0.176783186985,0.174198136864,0.0,0.0,2.32557784562,-2.64655998284,0.0,0.0,-2.42570820097,0.0,-0.430659674229,0.0,-2.82883242206,0.0,-3.26153672272,0.0,1.64171269059,-2.57767670263,0.0,0.852791532469,0.0,0.0,-0.388145797944,0.0,0.0,0.0,0.0,0.0,0.0,-3.44639688885,0.0,-3.55039227416,0.0,0.0,1.37569259237,1.10750166848,0.0,1.43116805577,-0.397779958285,1.59498307515,0.0,0.0,-2.81990097886,0.0,0.0,0.0,0.591212347208,-1.1146829026,0.0,0.0,-0.103459980498,0.0,1.2819683857,0.0,0.379139096668,3.04269471474,0.0,0.0,0.592529170744,0.0,0.24209101728,-0.270247557152,1.29604731332,-0.398538178913,0.0,0.0,1.06578031055,-1.12803362563,0.0,-2.85317494525,0.0,0.0,-2.22536610549,-0.0702469822234,-0.404205705601,0.0,-2.09638055575,-0.706412588782,0.0,0.0,-0.607777050698,0.418636319252,-0.418592543779,-1.46014872005,0.0,0.0,-2.55301042191,0.903807279338,-3.57854093857,0.0,-1.14730836279,0.706759585204,0.0,0.0,-2.70171318153,0.0,1.31149038663,0.0,2.23429170866,0.0,-1.22289364878,0.0,0.0,1.27073862535,-1.30607439015,-0.930730233881,0.0,1.38392465113,0.0,0.502916895882,-2.18547150367,0.0,0.0240745254837,1.45671861225,-0.123311455741,2.73026171715,0.0,0.0,-3.01278353731,0.0,0.0,0.0,-1.9353216423,0.967522950476,0.0,0.0,0.0,0.0,0.0,3.67575097246,0.0,0.0,2.20984869321,0.0,0.911200288776,0.0,0.0,1.74825720761,0.0,-1.56071651754,0.0,0.0,-2.86734838485,-1.67416222055,0.907469107012,0.0,-0.190978147264,0.0,0.0,3.75814977193,3.06299268752,-1.51278497343,-0.910196709585,-3.69548731468,0.743278195241,-2.31184312706,0.0,0.0,2.69300844813,0.0,0.0,0.0,0.0,0.0,1.63647093845,0.508551221784,0.0,0.0,0.0,0.0,0.0,0.0,-0.33402100202,0.36635119958,0.490903249267,0.0,-1.30345977464,0.0,-1.16775324776,-1.29354392954,0.0,1.28807261032,-0.00554852395718,1.55663243097,0.0,0.0,0.0,0.0,-2.02139624414,0.0,0.0,0.0,0.0,0.0,-0.393032845701,3.08132928449,0.0,-1.08132899466,0.0,-4.28709265938,0.0,0.0,-3.48598216154,0.497628895404,2.46290349636,-2.24054901368,0.0,0.0,0.100831495498,0.0,-0.840761741146,-0.0395388781686,-1.51962374425,-1.50289851632,-1.85398247673,0.0,0.0,-0.532728542607,0.0,-4.08481138453,0.0,0.374111190984,0.0,0.0,-1.27133269238,0.0,-2.41919825744,0.0,2.93408000171,-3.28408070742,-0.00530094554726,0.0,3.53382939352,0.0,0.997356969226,0.912571913655,0.0,-0.303157202349,0.602423108787,0.0,0.0,2.5946180126,0.0,1.34496085635,0.0,-2.32397781568,0.0,0.0,0.0,0.0,2.94032631312,1.12982946721,0.0,0.0,2.22499627734,0.0,0.157792447122,0.0,-1.54569158531,0.0,0.177180678864,-2.79292072541,0.243078594974,1.20873334554,2.58126141744,0.0,0.0,0.0,-1.58345239679,-0.33802055551,0.0,0.0,0.0,-1.54421257976,0.560097441849,-1.46599723129,-2.27703490608,0.0,0.21689503459,0.0,0.0,-2.197915279,0.0,0.0,0.0,-1.2607453833,0.0,0.0,0.797920653969,0.0,0.0,0.0,1.11467716949,0.36635119958,0.96586687942,0.0,-4.13635629904,-0.643619234788,-0.206425627968,0.0,-2.44093886206,0.754390515277,1.1190709406,-1.34124265891,0.0,0.0,0.0,0.487595151876,0.0,0.0,0.333832117849,0.0,0.0,0.0,2.67266176464,1.74706136674,-2.57882994703,2.73034180171,-0.210787561824,-1.56664157315,2.0905826994,2.38237830919,0.0,0.0,0.0,-1.99288611748,0.0,0.0,0.0,0.600236074906,0.0,0.0931241912528,2.81457974547,-2.667942154,-0.941125026161,0.0,-0.938615464785,0.805374928341,1.16211635781,0.0,4.07542779994,0.0,0.0,0.643575569284,0.0,0.0,-0.74023207141,-0.985323830287,-1.49205372388,0.0,1.77785461434,-2.35691188926,0.0,-1.93261269326,-3.81400008072,-0.426411608037,2.73134628563,0.0,1.79250287391,1.49775689471,-0.430710855029,-1.08338543309,-2.30056119437,0.382512744118,-2.90962030833,0.0,0.0,-2.56490749258,1.50152034157,0.0,0.0,-2.70224619895,-1.81409108917,1.93976530585,0.0,-1.72933946846,1.56178001399,0.0,-0.575506290154,0.0,0.0,0.994951072655,1.53921171641,-3.16743351622,-4.39373961672,0.0,0.0,0.0,-0.269887688368,-3.25370689391,0.0,0.0,1.05267692318,-2.1167933098,-0.0909115591713,0.0,-0.585849819399,-1.22709755833,0.0,0.0,-1.43494615127,0.0,0.0,0.0,2.5016245263,-0.561003878913,0.0,0.0,0.249760136536,0.0,-1.905132253,-1.09206304175,-2.88042632463,5.15305319407,0.0,1.61573835111,2.66766920734,-2.80405780054,0.0,0.0,0.0,-0.0468681529778,0.0,0.0,1.95798122441,0.0,-1.33340476772,-1.00885615708,0.0,0.0,0.0,-1.68651187453,-0.322416824226,0.0,0.0,0.0,1.12004823335,0.0,-2.04017417489,-0.811657434288,0.0,-0.281243552607,-0.857800459835,-0.147997432991,-1.44348095639,1.69560741387,-1.02861480878,-2.33676577791,0.0,-2.09916508408,-0.672180654772,0.0,0.349410090077,0.329296681363,-2.35808953234,-3.78085287501,0.0,-1.54387505429,0.0,0.0,0.0,0.343934439087,0.361695440707,1.64128230158,0.0,0.0,-0.789833020408,0.0,0.0,1.95040343043,0.0,0.0,1.03722779819,0.932641882771,-3.26123763435,4.03871047252,0.0,0.0,0.0,0.0,2.71642997221,0.0,-2.05004081224,0.0,0.842310036117,0.455490595003,-0.464994164261,0.0,0.0,1.21464341393,-1.46892078958,-1.61666223838,0.0,0.0,-1.46160689821,2.22619572143,0.612356824226,-0.28986468091,0.0,0.0,-2.43925693857,1.42633855144,0.0,3.14801294034,0.0,0.0,-1.25917646614,-2.84613373382,3.56767818999,-2.21769050326,-0.984929760735,0.290001897216,-1.59098862428,-3.36649609142,0.0,2.15898653498,0.0,0.0,-0.572652544399,2.96465720835,-1.45401222287,1.2802592754,-2.0107904646,0.0,-0.750383016293,0.0,-0.0450746829379,0.0,2.04347482362,-0.603653457091,1.17955670694,1.09319041198,0.0,0.0,0.574505103458,-1.3939871159,0.0,-2.19578159508,2.61163750394,2.94595397367,-0.457934686338,1.33332171296,-2.41091767179,0.0,0.0,-0.450263806507,0.132881532402,0.0,-0.597155025825,-4.29124986302,0.0,1.44016288512,0.22631352159,0.366835595837,6.01820670328,-0.729006567067,0.0,2.47029469178,0.0,0.0,0.0,0.0,0.0,0.0,0.0,0.0,0.0,0.0,2.97511455684,0.0,1.0941529771,0.0,-0.436435062632,0.0,1.08165334174,0.0,-0.179563503499,-2.59550396367,-1.66160997913,2.39094046814,-1.4383968645,0.0,0.613748168239,-0.24257272639,-1.22066363746,0.0,0.0,0.0,0.91525054707,0.0,-0.151138977432,2.3720589534,0.0,1.3442174174,0.0,0.0,0.0,-1.06571695218,0.0,0.593501941778,-1.13901354082,-0.211827511326,0.0,0.827245534613,0.713430949572,0.0,0.0,0.0,-0.832474533364,-3.51819800034,-1.30019453371,-0.47673947286,-0.731933090044,-0.144248142542,-5.22036140663,0.0,0.0,0.131386645835,0.0,0.0,-0.463914610209,-1.49565899942,0.0,0.0,0.0,0.0366583914187,0.22184576102,0.0,0.0,-3.91841080444,0.0,1.39727988156,0.967355750518,0.0,0.0,-3.48079323516,0.0,0.0,-3.25398159661,-1.77859824013,0.562655935211,-0.249690136307,-0.961973213362,0.92761050817,0.0,0.635800437744,-2.65088359157,2.37367774385,0.0,-0.954477593767,0.0,-2.01033932334,-0.821970572316,0.0,0.0,0.0,0.0,0.0,0.0,0.0,-1.18169538981,0.0,0.731091816366,0.0,1.47928239659,1.12606734837,-1.05979936014,-2.05083727379,1.16451294339,0.0,0.0,0.542089407401,-1.1136013329,3.08876449794,0.0,0.0,2.7264601401,0.0,0.0,0.608437096249,-1.64014040395,-1.20359435461,0.0643627341483,-0.935344899225,-0.599780105713,0.0,0.0,1.96393560041,-2.84168575777,-3.31680588344,-1.52487649164,0.893234253146,0.526202514658,0.0,-1.92939716363,0.911780436487,0.0,0.0,0.0,0.570668282094,0.0,-1.76302753887,0.626217497963,-1.81574054144,0.0,0.0,0.0,-1.57576787314,0.0,-3.03286827674,-0.486966940917,1.64324908469,0.0,0.0,0.32609335953,0.0,-1.54786114997,0.0,0.0,0.0,0.0,0.0,0.0,0.539860219788,0.481099471143,-1.22813637789,0.0,0.0,-2.10537143565,1.06673995163,0.702818489962,0.0,0.0,0.478677022395,-2.12572913685,0.0,2.15261218775,0.0,0.0,0.0,1.01113878072,-1.59389400895,0.0,0.0,-0.37695612798,-0.779765825363,0.0,1.22025258187,0.0,0.0,-0.249217741286,0.0,0.0,0.0,0.0,0.0,0.0,0.0,0.0,0.176137792622,0.0,0.0,0.0,0.0,-2.921206694,0.0,4.33831193192,0.0,0.0,0.0,2.45251262412,-1.17256458013,0.0,0.0,0.0,0.159782381064,1.76984030978,0.283660508044,-3.72329335731,0.0,1.49638932564,0.0,-0.0834378799054,0.0,3.92083630276,0.303167719181,1.58624810181,-1.38796468146,0.0,-3.59914610603,0.0,0.0,0.0,0.0,-3.19881373138,0.0,0.715612316104,0.0881086791093,0.318138430095,-0.500123566691,-3.33169465904,-0.21338474577,0.12055830709,0.0,-1.19376386288,0.0,0.0,0.0,0.0,2.24389850887,0.0,0.0,-2.96132439875,2.97600596857,-1.66337041406,0.719538505762,1.70603970296,1.1730942244,0.0,0.0,-1.05247663359,0.0,-0.649426547828,1.81808358207,1.22964669563,0.801207106779,0.0,0.0,0.426754837179,-0.0399085771862,-2.95862146565,0.0,-0.4279855011,0.0,0.0,0.0,-1.62038037522,-3.79503789596,-2.75719007009,0.0,0.0,-0.0594908764416,0.0,0.426737970596,0.0,0.472896363147,-0.50049085199,0.0,0.0,-0.597155025825,0.0,0.0,4.43721825448,0.0,0.0,0.0,0.0,2.06293622983,0.0,0.0,0.0,0.0,0.0,0.635854532279,0.0,0.0,0.0,0.0,0.0,0.0,0.0,-0.722928495577,0.0,-1.21926741606,0.0,1.61349343396,0.0,0.0,0.0,0.0,0.0,0.0,0.0,-0.508889733986,1.74156504296,0.0,-0.539464658223,0.0,-1.95682890306,1.54409167059,-2.921206694,0.0,-0.460315920723,0.0,0.0,0.0,-0.459030535185,3.72628548618,0.0,0.0,0.0,0.0,-1.54515160082,0.0,0.0,3.43413480248,0.857836715827,0.0,0.226573011836,-2.06876872544,0.0,-1.99535062735,0.0,1.20743028437,-4.0939781809,-0.330357944324,0.511614392145,-1.83503363534,-0.479105463497,0.0,-1.3022672971,0.427372088865,0.0,0.0,0.0,-3.71053044139,4.22921685565,5.17103104417,-0.992915936919,0.0,-0.449625834382,-0.499536487065,-0.945908100613,0.0,-2.23036740263,0.0,0.0,0.0,0.0,2.13980655083,0.0330739245564,-0.319345811531,-2.05243752763,0.0,0.0,-4.58344170929,0.0,-1.48887479936,0.0,-1.60729738978,-1.28279538345,0.0,2.73127917218,0.766636325884,0.0,0.0,0.0,0.522989135447,0.439899749517,2.26929061158,0.702818489962,2.36804494684,-2.36777965569,0.0,0.394826048179,-1.02597265707,0.0,-3.5883684425,-1.02713927846,0.0,-1.43616486059,0.0,1.22180303549,1.20193197678,1.00444363186,-0.616945069749,0.0,0.616933576219,-2.57864433307,-1.63116731239,-0.307835710254,-0.772580196508,0.0,0.0,2.01001859807,1.00839839615,0.0,-0.450263806507,0.351652774105,0.0,1.6497011883,0.0,0.0,-0.730183908886,0.0,0.0,0.0,0.0,-0.451075518157,0.0,0.0,0.462492996918,0.123474634554,-0.824189792941,0.0,-0.990302179796,0.0,1.90477936948,1.76871048152,0.0,-3.61246812176,2.88145255618,0.0,0.0,-0.590881818198,0.0,-0.305264149299,1.86848683017,0.0,0.0,0.0,-1.74803315692,0.0,-0.652123573402,1.89206610156,0.893910918548,-2.21911230424,-2.25384951991,0.0,3.55380897054,-2.8752119154,0.576755112477,0.0,-0.526558406225,0.0,0.0,0.0,0.0,-0.807889232706,0.967363398727,0.0,0.0,0.0,0.0,0.629927673713,0.0,0.0,0.0,-1.97852968914,0.0,1.13211753928,0.0,-1.40054390183,-0.733917895537,1.3168414756,2.15938704672,0.0,0.0,0.0,0.0,0.0,3.2600492788,0.0,0.0,-3.3343707621,-1.43560925854,2.5974687439,-2.18547150367,0.0,2.51874172685,0.0,1.92467465254,0.0,0.715612316104,0.0,0.0,0.0,0.279751985421,0.0,0.0,0.0,0.0,0.0,0.480664212232,0.478447984056,0.0,0.0,0.0,0.0,-3.40547294597,-1.32106411364,1.4687853871,0.0,0.0,0.0,-1.01889904928,0.0,4.07373310541,0.764854032804,-0.466807935252,0.0,0.0,0.0,0.0,-0.0901660165064,0.0,1.2739892046,0.0,-1.29754397768,0.0,0.950650337193,2.60469793854,0.0,0.6940943075,0.0,1.61863432342,-0.6512145017,-1.36264718385,0.0,0.0,0.0,0.0,-3.11873407485,-1.84787328025,1.29055193568,2.18547150367,-1.00180018014,0.0,0.0,0.132881532402,-0.187902049643,-1.65782504731,0.0,0.0,-2.01444608385,0.0,0.0,0.258007720714,0.45680223512,0.0,0.0,-2.86317599302,-0.502805516575,0.0,2.20786580738,0.0,-3.29619282934,0.0,0.0,0.0,0.0,0.0,0.0,2.14195058567,0.0,0.0,0.0,0.0,0.0,0.331021165053,0.147303031211,0.0,0.0,0.820277666913,1.27680231379,0.479022988476,0.0,-1.98387847868,0.0,-1.45004366372,0.0,0.0,0.0,0.0,0.0,3.15287400702,-0.416987817772,0.625387879614,0.0,-1.44390612376,0.0,0.0,0.0,0.0,0.0,0.0,0.766319997397,0.0,0.0,0.0,3.3912515566,-2.19056683521,0.882245214312,-0.50112951422,0.0,0.313209537364,0.340844769853,1.18404219463,-1.25605540993,0.0,-0.653671879087,0.0,0.956019222917,0.0,0.0,-0.9333951486,0.0,0.0,0.777657298618,1.59425281614,0.0,0.0,0.0,-0.113292462833,-3.147856319,0.0,0.0,0.384761515266,0.0,-0.780192703262,1.26690629753,0.0,0.0,0.0,-1.31708021327,0.0,0.0,0.0,-0.210376757435,0.0,-0.930720269852,0.683019639745,-1.47490850699,0.0,0.0,0.0,0.0,0.0,0.387715337187,0.0,0.0,1.45280215988,1.73938939266,0.100008840837,0.0,0.0,0.0,0.0,0.0,0.0,0.0,-3.41203181687,3.79701904657,0.0,2.52147303732,-1.11873772513,0.0,0.0,-0.481896423056,0.0,-1.2539443136,-2.18547150367,3.15155960681,-1.43616486059,1.07381529022,1.69560741387,0.0,-0.384032952909,0.148695100079,2.49654833454,2.44776912848,2.25839556394,0.0,0.0,-2.43629394305,0.0,0.258734259278,0.0,0.0,0.0,0.0,0.0,0.0,-1.28479856107,-0.536332801671,0.0,-0.555205125857,0.0,0.0,-2.93869688306,-2.44704323093,0.0,0.0,0.0,0.0,0.0,0.0,-1.61280361058,-1.64740164598,-2.62569912487,0.0,0.462307101098,-0.532715708484,1.19165095847,0.154176388718,0.0,0.0,0.0,1.13598458289,-1.32244185395,0.794433005393,3.75113737021,0.0,0.0,0.0,0.0,0.725523111103,-1.54765414131,0.0,0.0,1.99983878455,0.0,0.0,2.15904256033,1.05147461193,0.0,0.0,-1.75584937691,1.22808816117,0.0,0.0,-3.75790979073,-0.967197763322,0.0,-2.5361328606,0.0,0.0,0.0,0.0,-0.172120327701,1.39942508757,-1.17656725324,0.0,0.0,0.0,0.0,0.0,0.0,0.0,1.93515793898,1.06835523016,0.0,1.92935280784,0.193129699584,0.0,-1.30832713355,0.0,0.0,0.0,0.332276201112,0.0,0.0526694554091,0.0,0.0,-0.619156329013,-0.230218659282,4.26183944807,0.0,0.0,0.0,0.0,0.926667225422,0.0,0.0,-1.19100667247,0.0,-0.717072047347,0.0,0.164053068307,-0.204230349693,0.0,-1.59436124604,-0.33684410239,0.0,0.666003388875,-0.317455740404,-2.44125880527,-0.456087512571,0.0,0.0,-2.63105720867,1.09289239645,1.70723852776,0.431825267346,0.0,-3.13282521109,0.0,-3.50257029799,0.0,0.0,0.0,0.0,0.0,0.0,0.0,1.3193716331,-0.493223906314,0.0,0.0,2.00636320508,0.0,0.0,-0.418095799078,-0.992456094238,1.7126289057,0.0,-0.267885955713,0.0,-1.91642364846,0.0,0.0,0.0,1.52850982648,-3.64181566011,1.25374850323,0.0,0.0,0.0,0.822751468887,3.38261066258,-0.536173729843,0.0,-2.20907301062,-0.597716739423,0.0,0.0,1.79680125015,0.0144916090936,0.0,0.0,1.04505088748,0.0,0.0,0.0,0.283660508044,0.0,0.0,0.644182164905,0.0,-0.97097216182,2.52183792863,2.04234903477,-1.83448026501,0.0,0.0,0.0,0.0,0.0,-3.43644378687,0.0,0.0,0.0,0.0,0.0,-0.990011655039,-3.31544220871,1.81432777753,-3.14788521293,0.0,0.975292832485,-1.09801245213,0.0,1.37569259237,-2.92606826195,-4.13043222446,1.1707296858,0.0,-0.0449792484745,3.09782557067,0.0,0.0,0.0,0.0,0.0,0.0,0.393833249498,0.0,0.0,0.0,0.0,0.0,-2.23480905065,0.0,1.76227375763,0.0,0.0,0.0,-0.621196593476,0.0,0.0,0.0,0.0,0.0,-1.19786417568,0.0,0.0,0.0,0.0,0.0,0.0,2.82569385839,0.0850944969848,2.52391565388,-1.32488769717,0.0,0.0,0.0,2.90617501817,0.0,-0.579133529805,2.08037750318,0.0,0.0,0.0,-1.04508294647,-2.09685018809,-2.26799797627,0.715205216494,0.0,0.0,0.0,0.0,-1.93259116897,-0.516933956815,-4.67109488043,0.251608512678,0.0,0.0,-1.4081095384,0.0,0.0,0.0,1.71630693313,0.0,1.80669826706,1.17196328332,0.0,0.0,0.0,0.0,0.0,0.0,0.247475857692,0.0,0.0,0.56631607446,-1.85294187904,0.0,0.0,0.0,-0.55626116495,-0.910255843343,0.0,0.0,3.79389056963,0.0,0.0,1.85138932482,0.0,-1.68911878099,0.0,-3.36589390263,0.0,1.67605744636,0.373428157293,-1.95283085125,-1.19434575788,0.0,1.59763177424,3.54111001635,-0.956097628632,-0.833218466733,0.0,0.0,0.0,1.01552938322,0.0,0.0,2.52381715939,0.0,-0.99924618661,0.0,2.52381715939,0.0,2.25435236215,0.0,0.794433005393,2.86676755287,2.34207901549,0.0,-0.56677273329,-3.40174106074,2.81004859452,0.0,0.0,0.0,-2.37315235682,-1.10240412284,0.0,0.0,0.0,0.0,0.0,0.0,-3.21141420943,0.0,2.31298612923,2.54202620187,0.0,-1.03143811616,0.0,-1.21214465866,-2.58923141867,0.0,-0.655537321904,0.0,-2.04979639473,0.0,0.0,0.0,0.0,0.0,0.0,0.0,0.0,0.0,0.0,1.65378862015,2.41706035344,0.0,-1.68138209079,0.0,0.0,0.474704459072,-0.19065261107,0.0,0.0,0.0,-0.472063826429,0.0,0.0,0.0,0.0,0.0,0.524053931563,0.0,0.0,0.0,0.0,3.60877578911,0.0,-2.28471067922,0.0,-2.85503413485,0.0,-1.25766219628,0.0,0.0,0.131482319101,0.0,0.0,-0.503991686572,0.0,-2.18547150367,0.0,0.0,-2.62834819308,-0.463914610209,0.0,0.0,0.0,0.0,-0.320918228763,0.0,0.806353236028,0.0,0.0,0.483668549153,0.945323583658,-0.17667008622,-2.4860905071,0.197087417495,1.02333525368,0.0,-1.7380055802,-0.267680479527,0.0,0.0,-1.84085706611,1.92675463703,0.0,0.584099576539,0.0,0.0,0.0,-3.49074036135,0.0,-1.96401596031,1.28332300473,-2.4247739337,0.0,0.837443624836,0.0,0.0,0.0,0.0,0.0,0.0,-1.19221913122,0.0,0.239145774709,-1.41651014409,-0.672344134009,0.0,0.0,-1.98503584761,0.0,2.98993550275,0.0,0.0,0.304550135172,0.400825331015,-0.781721785537,-0.093224753169,-0.492807080941,0.0,-0.774027908956,0.0,-0.633536088009,0.0,0.0,0.0,0.0,0.0,-0.474237721905,0.0,0.0,0.0,0.0,-0.802413083055,-0.173579431193,4.88162543403,0.0,-1.31061010228,0.0,-2.06565364578,0.0,0.0,0.0,0.0,0.0,0.164053068307,-1.95207094572,1.02202948756,0.0,-0.215514773251,0.490393631769,0.0,0.0,2.25994673822,0.0,-1.91029532336,0.0,0.0,-0.0844882127485,0.0,0.0,0.0,-2.18547150367,0.0,-0.350235084899,0.0,0.0,-3.30414389035,0.0,-0.649525633843,0.0,1.74239003107,-0.957852242755,0.0,1.72731548258,0.241149610407,0.0,-0.080625571421,0.0,0.195533147412,0.0,0.479130543794,-1.94395560568,0.0,-3.29761265871,3.36439052678,0.0,0.0,1.78952338534,0.0,0.0,0.385880326464,0.0,2.63110758852,-0.360351391203,-1.03381271897,2.02781675371,-0.678374410728,-2.89491379429,0.0,0.0,3.7878520141,0.0,-1.34126086569,0.0,0.0,1.97935663673,-0.0236303970239,-0.260707290018,-0.778980829663,1.05846112792,-5.99741573745,1.26542026231,0.0,0.38758414041,0.0,-2.96172373017,0.0,-2.25787264548,-0.506331083742,0.225680629632,0.0,-0.654567625881,0.0,0.0,0.0,-0.326485588462,0.811464119207,0.0,0.0,-1.41870720234,0.0,-1.42312389824,0.0,0.0,-1.76209483578,0.0,0.0,0.0,0.0,2.05241604611,-1.08473981025,0.0,0.0,0.0,0.541031099524,0.0,0.0,-3.83154443795,0.0,-3.74225005114,2.22824925837,1.23425669219,0.0,0.0,0.0,0.0,0.343934439087,0.0,0.0,0.0,-0.0914591576097,-1.18466047539,0.0,1.22855245716,0.0,-0.107910682976,-1.5315106811,-0.407881783713,0.0,0.0,0.0,-1.63699566451,-0.381057584193,3.73685552131,0.22728433242,1.86922387959,0.0,0.0,0.0,0.0,0.0,0.0,-0.0986926982516,0.715612316104,2.31332202818,-1.5183260796,0.0,-2.56610105398,0.0,1.78952338534,0.0396030953104,0.0,1.24067413473,0.0,0.0,-1.33519034634,0.0,0.729849629877,0.961641351293,0.0,0.0,0.0,-0.818409533681,0.0,0.0,-0.610112932942,2.99172528158,0.0,-0.755102602255,0.0,0.0,0.0,-2.01542290869,1.6295620612,4.86749971623,-0.620541487222,1.26863182339,1.29117974359,0.0,1.00344370661,-0.450624490859,0.0,0.0,0.0,-0.0433038070429,0.848604088662,-1.96257094932,0.0,0.0,0.0,-1.22798336774,-2.18547150367,0.550159712395,0.0,0.0,-0.768915176901,1.17266629093,0.0,0.0,-1.63218413928,-3.75903623743,0.0,0.0,0.71614362922,0.0,0.80412041528,0.0,-2.89170766922,-1.38575846561,0.0,0.0,0.0,0.0,0.0,0.0,0.0,-2.64022775578,0.0,2.81422705634,-2.66726307783,0.0,1.5356109203,-0.400354427052,0.0,0.0,0.0,0.0,0.0,0.499571321976,0.0,-5.52237203972,-0.754197164481,0.0,0.176137792622,0.0,0.41800068528,0.0,0.0,0.0,1.85155035735,-0.0422608198708,0.0,-0.64346135547,0.931251626683,0.0,-4.73488257161,0.0,0.0,0.731795099082,0.0,-1.97112988537,-1.00180018014,-0.497248489724,0.931251626683,0.369800143745,0.712650424101,0.0,0.0,-0.755329739118,-1.98076624515,0.0,1.26301999884,0.0,0.0,0.0,0.0,-1.22066363746,0.0,0.126916317098,0.0,0.490555308389,0.102099405068,0.0,0.0,2.44257272908,0.0,0.0,-0.108625633775,0.0,0.0,0.0,3.37722022824,-2.09231752515,0.399275580999,0.0,0.0,0.0,0.0,0.0,0.0,0.0,0.0,0.0,1.22808711049,0.456302361734,0.0,-0.614022588532,0.930189722456,0.326879273994,0.818831701126,-2.00814064464,0.0,0.0,-0.0897416895677,0.0,0.0,0.0,0.0,-1.04332392134,-2.20961712676,0.963897545201,0.0,-1.04728776364,0.0,0.0,0.0,0.0,0.0,0.0,-2.37478438339,0.734319821054,0.0,0.0,0.0,0.0,-0.380132860817,3.02499489555,0.329296681363,0.526202514658,-4.01175233943,0.0,0.0,0.0,-0.020436242937,-0.504332308696,0.447013156753,-1.76124635468,-2.92582468155,0.0,0.0,0.0,0.309650009704,-0.277133861369,-1.59299561685,0.449726649535,0.0,0.0,0.0,0.0,-0.775511889855,0.0,0.0,0.0,-0.613198315633,-0.036448650152,0.0,0.0,-0.578837186161,0.0,0.789478128212,0.0,0.0,0.0,0.0,-3.95590945246,0.0,0.0,0.529693116232,2.46974264537,2.84111021332,0.439763067273,0.553803149032,0.774974173606,0.0,-0.548696363209,-1.20438479241,1.50619532263,0.0,0.0,0.0,0.0,0.0,3.12350618681,3.53505060556,1.45892840972,0.243285081932,4.09190375634,0.415781856237,0.0,0.0,0.0,-0.323713969253,0.53919797339,-2.35586129826,0.27374145485,1.60489363604,-0.304715719842,-0.349935120826,0.0,0.0,0.0,-0.401290030793,-1.36012108187,0.0230459319108,-1.44035226081,0.0,-2.50114416254,0.478121115596,0.0,-0.581484377499,0.0,1.28089622088,0.0,1.47365398077,0.0,0.0,0.0,0.0,0.0,0.0,0.189884372263,-3.33322986913,0.0,0.0,-1.01047223713,0.0,4.92822763038,-1.56993492096,0.389470799517,0.0,0.74229640498,0.0,-2.68190118187,0.0,-2.8293360434,0.0,0.0,0.0,-0.662105223112,0.0,0.332276201112,2.00266605425,0.0,0.361876380006,0.0,0.0,3.14652175514,0.0,-1.28639016755,-2.79139708279,0.0,0.0,1.38122457931,-1.77106722289,0.0,3.13048899574,0.170489910975,0.0,0.0,-0.667908413788,0.0,-1.42513634523,0.0,0.0,0.0,0.0,-1.03955108541,0.0,0.0,-1.00661834135,-3.18460590802,0.0,0.0,0.0,-0.47673947286,0.0,0.500363337085,0.0,0.444710339567,-0.70594881578,0.213531782107,0.0,-1.32073825656,1.5356109203,0.0,0.367610118193,1.22258099663,-2.78907039211,0.0,0.257616077963,0.0,-2.28643114676,-0.451098176403,0.762865093103,0.268612659579,-1.89502255099,1.23068426268,-1.29657245583,0.0,0.81220285392,0.0,1.11024419123,1.23985048853,0.0,0.0,0.0,-2.23903146355,0.0,-0.882575582108,-1.66783649027,-0.116430409877,0.0,0.0,0.0,-0.690395230499,0.0,0.0,0.911885603448,0.0,0.0,-0.269936096093,1.43116805577,-1.29354392954,0.0211819864337,0.0,-3.29194034492,-1.6217156011,-1.6682888538,-1.82252016534,-1.16761597379,-2.43964432045,0.0,0.640791663791,0.0,1.79733358446,1.77828404465,-1.8856351057,-0.891229101827,0.895776956137,0.0,-0.481552570295,0.0,1.3378767742,0.203238557796,0.0743302082846,0.0,0.0,0.0,0.0,0.0,0.0,-1.50498636528,-0.175883913543,0.0,-2.56796447388,0.733222898982,0.0,2.09066110247,0.0,0.0,0.87114585103,0.0,-0.569504032095,0.0,2.18547150367,1.01207948649,-0.285299297442,0.0,-1.50005131414,0.0,0.537395860835,0.0,0.0,0.0,1.43188755127,-0.528438839872,-0.875742334778,-4.01132736593,3.45025171613,-4.73306825111,-0.849616077475,0.0,-0.418095799078,0.0,-1.2479911644,-1.66855288481,-2.15409169282,0.208816742044,0.0,0.0,-0.290108653222,0.0,-0.5040422379,0.0,-2.57589344913,0.0,0.0,0.0,0.0,0.0,-2.09574966603,0.0,0.0,0.556333084793,0.0,0.0,0.143954077276,0.0,-0.294404292982,0.0,0.117206354509,0.0,0.0,1.09112875568,0.0,0.0,-1.56496115841,0.0,-0.132837511271,-1.79808198789,-1.38877911575,0.0,0.0,0.00886694838419,-3.14753538537,-2.29891441334,0.0,0.0,0.0,0.0,0.0,3.97213736913,0.0,-1.00789217915,0.0,1.49361879022,0.115955950951,0.0,0.0,0.0,0.0,0.0,0.0,0.0,0.0,0.0,0.0,0.0,-1.19281913858,-1.60729738978,-2.24770115665,0.0,-0.906677790789,0.835720477745,0.0,0.0,2.0599417459,-0.206519930916,-0.861884203009,0.0,2.24482137673,-1.84739067105,0.0,1.82048833093,2.18960098915,0.0,0.0,3.02226088274,0.0,1.45757939436,-0.132258772098,0.0,0.0,0.978834614695,-2.97531965867,0.0,0.0,0.36635119958,-0.607293442706,0.0,0.530455084018,0.0,-2.01673638211,0.0,0.519862795534,-2.39436632371,1.35388059609,2.87108993683,0.0,0.154541027676,0.0,0.0,0.128292487324,0.0,0.0,0.0,0.0,-1.39374117996,1.40079885933,0.000896852465668,0.0,2.48385232099,0.656457043362,0.0,0.0,0.0,1.10421636994,0.0,-0.294601787752,0.0,-1.7530361213,0.0,3.31696211523,1.60195516528,0.0,0.0,0.0,2.43837995523,0.0,2.66129895227,3.89591575519,0.715612316104,0.0,1.82167652061,0.0,0.0,0.0,-2.08732679596,-2.00709750987,0.0777835695195,-4.7189506289,-0.972438903385,0.0,0.868475614259,0.0,0.0,0.0,0.0,0.0,0.0,0.0,1.99180783493,-1.09255729115,0.0,0.0,0.0,0.0,0.0,0.0,0.0,0.337403780862,1.98417914244,5.23095367467,0.0,1.15139962181,1.65545947795,0.0,0.116522613351,0.0,0.970753568684,0.586956180903,-1.39448869758,0.0,-1.09981296565,2.18411357839,0.0,3.6766076813,-0.937698593857,3.26443278389,-2.59419680497,0.0,-1.03955108541,0.0,0.0,0.0,0.146759107616,-0.962983622213,1.93268664806,-0.324377583212,1.79440156671,0.0,0.0,-0.368573362312,0.521040052561,1.03561155913,0.0,0.0,0.0,0.0,0.0,-0.878479377491,0.0,-0.510158657968,0.0,0.00395128003912,0.0,0.0,0.0748849583708,0.0,0.0,0.944782883899,0.0,0.402315590639,0.672425069192,0.0,3.09773899399,0.0,2.25430617524,0.0,0.0,0.0708931200639,-0.962983622213,-0.849616077475,0.0,0.0,0.0,0.0,1.12416859138,0.0,1.10579889536,-2.04793842197,0.0,-4.49373709631,0.0,0.0,-0.730355476997,0.0,0.68245754257,0.0,0.371302710636,-0.203840518952,-0.721548091078,0.0,0.0,1.39685611418,0.0,0.0,1.06564020886,1.16620988833,-0.506213324068,-0.838022539039,0.0,-2.36701217285,-1.22064503846,0.0,-1.40545930265,0.0,0.0,0.0,0.0,0.382328805537,0.0,0.0,0.0,0.0,-2.18547150367,0.0,0.0,0.0,0.0,0.0,-0.970269034196,0.0,0.991329042166,0.0,0.0,-2.25253700529,0.0,3.82767897318,2.05138650353,0.877808269185,0.0,2.23083672842,-3.70383322116,0.0,2.1691500485