0.354302033254,0.0,0.306969665387,-0.302851124008,0.574280656875,0.0,0.0,-0.281125562071,-0.672914097515,0.0,0.460720142572,0.203281670515,-0.730467247159,-0.302203898565,0.518039999709,-2.5582358824,-0.0159170530762,0.34500931785,0.0,0.749523495017,0.0,0.990547273689,0.0,-0.0275066798276,-0.686475452372,0.0,-0.411419434353,-2.52668420828,-0.759193535563,0.323426573353,0.038678032677,-1.57088063957,1.3618940509,3.55318190042,0.501697701383,0.335715879827,-0.108153883252,-1.21144678381,0.0,0.0949638910312,0.467081509735,-0.70134090673,0.38669058877,-1.14733795465,-0.461529486891,-0.234232744247,0.0,0.0,1.06199875545,0.0,1.176627261,-0.345562897563,0.612753101623,-0.460576522099,0.0,0.0,0.532325880523,0.527454222134,0.650419748296,1.22434196,-0.690858016137,0.0,0.0,-0.993351698988,0.0,0.397347899071,-0.593120600108,0.0,1.17275779197,-1.39105050202,0.352885986746,-0.078086389762,0.0,1.34288064704,0.0238187367796,0.0,0.974588154386,-0.580165041603,0.912482045935,-0.92247701107,0.241168171012,-1.56094190792,0.325224883934,0.0,0.0,-0.839294984585,-0.467293691541,0.0,0.0,1.10588125332,-0.400886734481,1.01311877742,-0.291633999656,-2.4882037332,0.465171636514,0.0,0.279994415179,-1.2732121947,0.73594319158,1.03372515107,-0.431947300114,0.0,-0.35301682117,0.42255632267,1.12310771431,-1.13902432415,0.0,-1.84082072166,0.422139448049,-0.794210940216,0.516744701428,0.0,-0.0911116735177,-2.0453653976,-0.838848633261,0.354171745735,0.712359728751,0.0,0.229834486701,-0.619070150273,-0.405825103546,-0.501748902665,0.0,0.546461761781,0.0,0.0,-0.955721369411,0.286308893868,-0.279506847762,-0.327844574574,0.838967166281,0.172198700049,-0.0112676906332,-1.29999735381,0.596612697073,-1.15929772984,0.0,0.653187978794,0.843886655676,0.303053249151,-1.50632414706,2.09116268233,-0.691727365158,-0.626926856069,0.674307658903,-0.0555415890171,0.289974882963,0.0,0.0,1.29997771555,-0.643795776815,1.667189134,0.530486832189,1.43287665702,-0.159822625534,0.0,0.0,-0.879293060796,0.469614218032,-0.0624200679673,0.580008990925,0.0,-0.661951721188,0.0,0.0,0.0,0.383105179127,-0.107557497277,2.82126453702,0.0,0.0,0.0,0.0,0.641514943734,0.0,-1.13741080518,0.0,-0.0365153444316,0.0,0.681046696576,-0.477714091958,0.0,-0.265669974336,-0.276480116891,0.0,0.0,0.0,0.0,0.989577254901,-0.24758179801,3.09759024617,2.77352374402,0.232343006861,-0.626738447459,2.11595416237,0.0,0.279570526115,0.23025099922,0.0,1.33972081632,0.493344090858,0.0,-5.55611344968,-0.85326044665,-3.0594151229,0.0,-1.3898560071,-1.07199800349,0.262713620125,-0.883568255942,0.179597096664,1.27081608888,0.219068099228,-0.338038242693,0.110551812034,0.0,0.784966464741,0.0,-0.464665592208,0.0,0.0,0.0,0.841829647807,0.0,0.0,1.21567685826,-0.699438036985,1.20639609289,0.0,-0.620050819745,1.11319171581,0.0,-1.59215059359,3.40709526681e-05,0.256035120819,-0.0503097047156,0.639190982477,1.07403345229,0.0,-2.49767358908,-1.26451567631,0.0,-0.136587052709,-1.47679468927,-1.56726668314,0.172736736516,0.0,0.0,1.213773861,0.0,0.0,-0.762386062522,0.718884940988,0.0,0.988378213293,-4.22357183327,0.621144539452,0.0,-0.0597786806282,0.0,0.0,-1.48007023137,-0.402566974076,-0.202469528846,0.231892272176,0.651222325174,-0.689237508375,0.0181596781921,-0.972476037586,1.31635904514,-0.241148899491,-1.21820118407,0.0,-3.32355029471,-1.48798543303,1.03655358828,-3.24380596955,0.0,-1.26405379234,1.89614011433,0.0,0.0,-1.31383917796,0.566738095643,1.26536246549,0.0,0.0,0.856009783251,-4.31845942162,0.0,-0.0833112808543,0.138934421291,0.0,-1.5865247355,1.68055921333,0.0,-0.54031605649,0.0,0.562050388548,0.872564652127,0.0,-0.549801127347,0.527103449983,0.0,0.0,0.179056486743,0.661782331886,1.81636703879,-0.723868516004,0.289094549458,0.493897793225,0.366534408395,0.239106037127,0.0,0.446570006634,0.0,-1.10620027996,1.73976336377,0.466577035326,0.833058127291,0.0,3.61495424297,0.520925115141,1.1801318921,-1.61550499256,-1.04815621976,1.95893927467,0.474894639598,-0.317109194638,0.4919960169,0.633471610684,-0.764630871901,-0.71786639873,-2.57804455492,0.021387885752,1.28998037577,0.0,0.674612369319,1.08006696597,1.7008909025,1.32948259545,0.377995078642,0.0,0.0,-0.479704385918,0.0,1.15093438861,0.0,-0.310460589519,0.829457985462,0.0,-0.262626545601,-0.721153813731,2.41263682152,-2.29743611504,-0.340465080368,-1.73739719412,0.0,-0.417427538539,0.0,0.0,0.0,0.153442445187,0.0,-4.39544618602,0.574030021321,0.472487394025,-0.334328953786,0.0,0.0,-0.950832214023,0.862015171017,0.0,0.0,-1.01197102652,0.0,0.0,-3.11677584455,0.0,-1.9378994405,-0.37988388954,-0.599476554272,1.25910173913,-0.625114665651,0.0,0.0,0.0,0.0,-0.709390071982,0.0,0.188967858408,2.3036132451,1.22869404159,-4.59534799929,-0.812217430087,-1.47549774169,0.0,0.57811923836,1.22868010248,0.14697226648,-3.26748076568,0.241243739797,2.7622128852,-0.0778584861007,0.463575548401,0.816687502409,-0.753277857414,-0.0184316591014,0.709470746486,0.404873902941,-0.389765274566,0.0,3.39865350309,-0.0164346379067,-0.268727445054,-0.508523761898,-1.17996781993,0.276135453191,-1.53563529352,-1.40235245233,2.78603586029,-1.12590423799,0.0,-1.59414631174,0.444856010971,0.0,-1.39477831183,0.0,0.0,-0.912400147495,0.0,0.435650496007,-0.89169383231,-1.97640301187,0.84791158117,-1.9041741328,1.4243772179,0.0,-1.75722221051,1.61324134553,-2.40032208955,0.0,-1.18340380163,1.91158216875,-2.18764130639,0.0,3.645452079,0.0,1.34376329627,0.0,0.656826795441,2.6538259421,0.487782446553,0.771963849562,0.522996655945,0.0,1.15483796344,0.340326042702,1.11554173593,0.819771586611,0.0,1.38599245237,0.0883893591218,-1.71990793672,-0.670657667377,1.38764479788,-1.07351641777,0.0,-0.817161909423,-0.210140026651,0.0592374927295,-0.404684706999,0.954780298478,-1.15319818596,0.0,0.0,0.0,-0.190050883804,-1.24516130443,0.0,1.05334993949,0.122671325015,1.8850119729,0.0,0.0,-2.89233009655,2.45222075551,0.0,0.0,0.0,0.0,-0.628177979881,0.0,0.0,0.0,1.07529185988,0.0,0.149696894503,0.0,0.159908719265,-0.962007074663,-0.712609601353,0.0,0.0,2.67830624438,0.166991401762,-0.61672328458,-1.20655482715,0.0,-3.93386090794,0.0,0.639052038179,0.0,0.0,2.54983339408,0.0,0.586610972142,-0.603183152761,2.29453167614,0.530134045138,0.0,0.058897983442,-0.480460726279,0.225990427027,-0.835107901732,-0.26494499127,0.215067475441,0.07676313578,1.8902847656,-0.331827017211,1.53052306148,-0.186218262219,0.0,-2.58417486596,1.38157458831,1.58396531959,0.410792172227,-2.75200461045,0.0,-2.42436941079,0.0,-3.35005308547,2.25222164647,0.0,-0.539787965824,0.0859470011675,-1.64905345207,0.139421200839,0.0,-0.679637044812,0.494199630424,-1.70910078917,0.414373846904,0.0,0.0,0.0,0.0,-0.494687568258,-2.03022574204,3.75289895304,-0.844111902985,-2.18127015714,0.868375835268,-0.141266026589,0.0,0.982291127721,0.0,0.881924853362,1.65215798099,0.0,0.0,-0.322214023499,-2.10847897425,-1.25181383074,-1.24342815171,0.0,0.543095723617,-0.614071864448,-1.42643094918,-1.1809039146,0.840583939813,1.60365418815,0.0,0.57591855974,-1.33133869161,-1.94573539198,1.62444284293,0.0,0.0,0.0,-0.954687156292,1.37339568369,0.185104023621,1.02707095289,0.0,-1.15076474178,0.0,2.12942195444,0.0,-1.06393087935,1.69970202587,-2.11536920576,-1.6781628514,-1.7099655313,-0.694871729096,0.0,0.254557182859,0.873662053818,0.0,-0.0884674069376,-2.84035826365,0.549297822829,0.786419582825,-0.38926012935,0.0,0.0,0.0,-2.26384473137,2.29764881089,0.0,-0.529468599952,0.0,0.0,0.600131421093,-1.70372578442,1.19631440671,-0.354012611378,0.159158764991,0.0,-0.222077528388,-1.25512484222,1.80652266653,0.0,1.24712182236,0.0,0.0,0.0,-1.16577420722,-1.54243841359,2.84049542587,-0.496899483676,0.0,0.0,2.31700864625,0.0,0.139907472017,0.0,-2.47924990865,-0.171764690793,0.0,0.0,0.0,0.0,3.1134690512,0.0,1.64847524147,0.0348021168457,0.0,0.0,-0.274700119933,-3.09267223214,-0.440692754902,-0.680503958663,2.4866771566,0.0,0.0,0.793965314259,0.0,0.0,0.0,-0.571736319522,-0.106761283676,0.0,5.01026489253,1.08299831785,0.402331219098,0.0,0.943984580873,0.0,0.0,-1.82636646697,0.0,0.0,0.0633153202149,-1.87971794913,-1.06868386799,-1.38069189213,0.779037368112,2.48756655279,0.100285094878,-1.05747073602,-0.433130447321,0.0,-1.72457717975,0.0,0.0,-0.25865566817,-1.20084291693,2.10550245534,-1.26523532225,-0.342423288665,1.53612914838,0.0,0.0,2.102945787,0.0,-3.20802459332,0.0,1.1174641828,0.0,1.05931870176,0.0,2.38805900869,0.0,-1.19501868665,-0.218637375217,0.0,0.0754265919038,-1.05134054079,0.0,0.0,0.16503628481,-1.34005136223,0.0,1.49939849328,0.0,0.0,0.0,-2.31481138297,0.0,0.0,1.23636521545,1.56841516638,-1.30388028035,0.0,0.0,-1.43758285861,-0.523978241945,0.0,0.0,0.820254107976,0.0,0.0,3.51993410171,-0.972604684226,0.201219087067,1.62417490229,0.0,-0.118242809993,0.0,0.0,0.323175310834,-2.37936538269,0.658149733245,0.0,-0.286985198361,0.0,0.0,0.143557141535,2.2153847635,3.61633897196,0.709985492838,-0.405438345063,-0.325881875635,0.0,0.0433986866697,2.31020793591,2.35025294333,0.0,-0.349412267026,-2.44728875729,3.07449716164,0.0,0.573313686225,0.885536015774,2.48178680363,0.0,-0.750611819511,-4.49822518087,0.778633205759,-2.65447862409,0.637293073466,0.0109510947007,0.918983294304,0.0,0.0,-0.111897550904,0.825287168591,0.0,0.0,-0.368603476282,0.538385486172,0.120980337272,0.127485795846,1.46141851905,0.397951133991,0.426869860138,-2.98243331946,0.256259769247,0.411331875821,-0.837431663498,2.62331297016,1.0938944529,0.0,-0.616511197581,0.995820044491,0.0,-5.54774151206,-0.615013452839,2.03273052418,-3.6377566041,1.87396262295,0.274547433932,3.11100348534,1.53224210769,0.0,0.0,-1.95847530317,0.0,-1.7548073144,-0.86574230689,0.998291170661,-2.06535768268,-0.879322157723,0.656622383559,2.47500931395,1.78140285878,1.29686849653,0.0,1.23548230152,0.0,2.17668028398,0.0,0.0,0.0,1.5906659025,2.26207762261,1.29906569739,0.0,3.33421563317,0.985149308357,0.0,-5.46405450693,0.284325706653,-0.259721498936,0.0,0.0,-0.259696089473,0.0,0.0,0.0,0.0,1.00344771452,0.769527598951,-1.65313667162,1.38472528447,0.692879573944,-0.986311141786,0.0,-1.85582189637,1.42865925632,2.13809288037,0.0,0.0,0.0,-1.45664478667,0.0,0.0,2.56347026507,1.2490698184,-0.471856614202,0.258665567485,0.0,-1.19915027355,-0.248889141139,0.0,-3.20491730102,0.0,1.71763046142,2.30018448892,-0.625691338007,-0.862057894977,-0.577490580733,0.0,-2.22859323427,1.59677665549,0.0,-0.171013083939,-3.04969778126,0.0,0.0,0.222176440241,1.75647430947,0.0,-1.29402212065,0.0,0.952286741913,0.0,0.0,0.367224139981,-5.60320827836,0.0,-2.24576941011,0.0,0.027014019884,-0.425282200124,-1.91059070323,0.0,0.0,-0.976643274253,-0.78050655531,-3.53853500252,0.0,0.0,0.454316185059,-1.16769818351,0.749079939048,-0.547988757927,0.0,0.0,0.0,0.0,1.81256428146,0.0,0.674934017469,0.0,0.0,2.79110106334,-2.02922589279,-1.23945265383,0.0,-1.31800622216,0.0,-0.281069612043,-0.984124692186,0.0,0.740204132554,0.152311711005,0.0,0.0,-1.07195573595,-3.10404660214,0.0,-0.546400741525,2.42780876352,0.0,-2.92725035171,-0.317281763589,0.0,0.0,-1.84422466799,1.06985608247,0.163163438143,-2.85545744838,-0.742249249355,0.0,0.0,0.0,-0.0803771580439,-2.60017559686,0.0,0.719850793167,0.0,0.0,0.234798744067,2.45678875916,0.0567028809334,0.0,0.0,0.0,0.0,2.83838588708,0.0,0.0,0.0,0.0,0.0,0.0,0.612740356193,1.09728088495,3.00192200171,2.26106813692,0.339757639051,0.0,-2.33572372683,-0.565782703206,-0.666387480761,0.0,0.883197260533,0.234731494409,0.967864600141,0.299089736214,1.81522142567,1.52787525937,0.0,-3.44128214004,0.671873740233,0.0,-0.668418696748,0.0,-0.10821543929,0.43890770956,-0.456020213182,2.24334689934,-0.74808960488,1.24053574076,0.0,-5.07726869765,0.0,1.25679197341,0.357236082701,-2.10598210607,0.0,0.14098763425,2.88128521959,0.0,0.0,0.0829535245108,0.0,0.0,-0.861766889324,-2.79631310169,0.0,-1.79276267338,2.71321991728,0.0,2.74284858649,0.0,0.0,0.639834522603,1.00744301592,3.44111019025,-2.18547150367,3.62210513978,0.0,-1.02852580252,0.775704462951,-0.716492568438,-1.07308136834,0.0,0.805800567372,0.0,0.0,1.80745309728,0.0,-0.276372880926,0.53748967067,0.323727047179,0.0,0.0,1.35122888741,-0.71824484432,1.99205784634,1.60726952924,0.0,-0.747985555234,-0.97643721635,1.87189786434,0.0,-0.561969820853,-0.407462847849,0.0,0.0,1.97924714408,0.0,0.0,4.0136234525,1.79198984796,-0.872940936197,-3.42795231272,0.0,-2.00702966808,2.21236536154,0.0,3.61429589858,0.0,0.0,0.0,0.0,0.0,1.18391057892,0.0,0.0,-0.560421231225,1.15901197578,0.0,-2.47249572104,-0.401121948988,0.0,0.0,-0.676320732767,2.31278558388,-3.34337486394,0.0346707378695,2.41140001872,0.774061909385,0.0,1.19169816489,0.0,2.26079996117,-0.411653554213,0.090034691913,1.92021095424,0.0,-4.1660032014,-2.26240585583,0.0,-0.501972611477,0.500060554647,-0.355163190817,-0.0657759641789,0.492270552373,0.0,0.0,2.13599330012,1.37638132086,0.0,2.62767487012,-0.611189668638,1.17376576646,0.030804929488,0.0,0.0,1.83733371958,-1.38162818165,0.174785175153,0.0,0.0,0.0,0.0,0.0,-1.04724370102,0.0,0.594514678069,-2.38153371964,-0.233583534312,-2.23631083337,-1.37350961586,0.764527465743,2.90546304062,0.0,0.0,-1.67956086022,0.0,0.0,0.598729152969,-0.126650825239,0.0,0.431224211709,2.37067004397,-1.51335067273,0.0813825576648,0.0,0.719207928706,-1.57221167914,1.13861586626,0.809590968371,1.6650371745,0.0,0.0,-1.86589995648,0.0,-1.27693550646,0.0,0.0,1.56202869942,-0.946938910741,-0.706900954288,0.249147717925,-0.224415520607,0.0,-0.460224980794,0.50219993742,-1.19420453249,1.22539553695,2.23938303445,0.0,0.0,0.0,1.6042198836,0.852912503333,0.0,0.186385932047,-1.97782775557,1.02543953696,-1.68305753012,0.0,-4.947038627,-2.80042191258,0.0,1.55547967475,0.0,0.0,0.0,0.0,1.56172735621,-1.07483822719,-0.460088199169,-1.42626345834,-4.13066748089,0.0,-0.0170603491277,1.14630151558,-1.55602206388,0.148181608767,0.0,0.21193050141,0.0,-3.64797339055,0.0,-2.24047255132,1.74935075795,0.0,0.0,0.77446002343,1.45039211425,0.0,-3.65451304808,-1.12617611156,-5.38124126508,1.72510282591,-0.227957913397,1.51743599319,-2.81121067852,-2.63605724146,4.18498034413,0.0,3.07276210111,-4.16217236131,0.0,-0.0248192543266,0.0,0.121697657818,0.0,0.0,-0.777119967913,0.0,-2.83942290111,0.0728559406634,-0.836708076537,2.26622930064,-1.93090602409,1.73106339238,-3.79581712274,0.0,-2.4831173674,0.171703850145,0.0,0.0,1.19055066217,0.0,0.0,1.0633830246,0.360594399349,0.0,0.0,0.321005528453,-0.376869360413,0.0,0.0,-1.26943025949,0.0,0.0,-0.77352314479,0.0,0.0,-2.52763215948,0.0,0.0,0.0,-1.60320851213,0.683296858058,0.0,1.71850485551,0.0,-2.63015453333,-0.14093549398,0.641261141751,0.0,0.836508557662,0.0,0.88815703296,0.0,0.0,-0.61173492359,0.0,-0.915240277042,0.0,0.0,0.558627821194,0.0,-2.09770169705,3.0729801481,0.0,-0.545868272184,0.0,0.0,1.33738399448,-2.02506863238,0.0,0.0,0.0,0.227145537775,0.0,-0.248260516806,-3.27894317095,0.633248438541,-0.822887329831,0.0,0.0,2.12565566916,0.0,2.25253995468,0.71777389489,0.382945947524,-0.975913942102,1.10924974911,-1.17377500646,-2.31369235425,1.22491221869,-0.58765564446,-1.46859893096,2.22860949393,0.0,0.0,2.70248808277,-0.237385519981,-0.17332524175,0.858396773745,0.313131797707,0.0,0.0,0.0,-1.62837995608,0.0,0.0,0.483117332387,0.0,0.0,-0.20002111441,0.0,2.6416617561,1.5977422803,-0.289359823835,-1.42489907052,1.36167023822,-4.16587970007,0.0,-0.974221957937,-1.07857714741,0.0,-1.19548338098,0.0,0.0,0.0,0.683650164562,0.0,0.0,0.0,0.0,0.0,-0.928262062849,0.0,-0.791973020659,0.0665851474094,0.0,-0.61830922697,0.760985751036,-2.84938925348,0.0,2.46849161552,0.144366364167,0.0,1.93856933341,0.0,0.213952449455,0.685830693038,0.489163257802,0.683299407051,0.0,0.0,-2.19204788762,-0.542105869553,-0.540464054435,0.790291869059,0.0,2.76123101421,0.0,3.054215918,-0.243462078198,0.0,0.0,-0.397784213333,-0.378516701751,0.0,0.0,1.23648127015,0.0,-3.72589602257,-2.91165546414,0.0,0.4785403354,0.0,0.0,-2.77506858334,0.0,0.0,0.725223322202,0.0,0.0,-0.705238245397,-1.82270599033,0.0,-1.00496020351,2.16210499738,0.81795913365,2.03982497245,-0.418055470651,2.03346167638,-3.89775284999,0.0,0.0,0.0,0.841169423972,-3.48334937494,-0.539200416515,0.0,-0.75261226223,-2.30595452953,-0.244531845485,0.0,0.0,0.0,0.542344806687,0.741077312112,-1.27974910452,-2.15315764688,0.0,1.69083866388,-1.53680192267,0.0,-0.166071640387,2.12667673775,-1.74100211505,0.0,-0.721617274021,2.12823752308,-0.88045586932,0.0,-0.383651471967,1.09338126465,-2.90787804695,0.0,-2.63037529342,0.0,0.270401911153,0.0,-2.01343663755,0.0,0.0,-1.04601913193,0.0,0.0,0.177358130524,0.0328448106986,2.12609332141,0.422053352342,0.281883778712,0.0,0.0,-0.495628269572,0.0,-2.50775886839,0.929787868404,0.0,1.5075504521,-2.7703713754,0.0,0.0,-0.618331571237,-1.91328136371,-2.38725300292,0.0,0.82963765044,0.0,0.523505954283,0.0,-4.70121821094,-1.2431830302,0.694460882056,0.0,0.814807356309,-1.23226107092,0.0,-0.560737887232,-0.625840522645,-2.90149616654,0.0,-1.70507577836,0.497089067898,1.46558949869,0.0,-1.23802075361,1.4638137854,0.0,-2.46474305554,-1.70090452767,0.0,-1.58361084098,0.0,0.0,2.33428748763,-0.113201674309,-0.12969252229,0.0,-1.04636322536,-3.71053415225,-3.83466638223,0.0,0.0,0.0,0.0,2.37379608045,-1.48819014164,-2.76788707069,0.0,2.20791708988,2.11281345859,-0.572809868672,0.0,-0.0211889185751,0.0,0.0,0.0,2.4215737473,0.0,0.0,0.0,0.63719769141,3.41892975776,0.874980738689,1.9016383671,-0.76421683648,-0.22973374999,1.44089436839,-1.96488694319,0.61127437389,-1.18307929962,-0.77051691265,-1.93894627992,0.0,-1.67618613811,-1.30601117832,0.0,0.0,-3.21372143962,2.41401323637,-0.68510156937,3.48687979815,0.0,1.46935235838,-1.08777736263,0.0,0.0,1.91485514042,0.0,-2.79788410732,-0.47121130134,0.0,0.0,-1.93127507432,0.23278911104,-1.98864156599,0.0,-1.94651742843,2.46628192018,-0.680818089821,0.0,-0.605241257787,0.0,-6.19653054896,1.88513115564,5.2929911204,-0.929050596575,0.0,0.0,2.09953488619,-1.73402728384,0.0,-0.85332976822,1.57187330218,-1.47547035412,0.312563416143,0.0,0.0,3.75872088276,0.0,0.0,0.184371408758,0.0,0.0760222612871,0.0,-0.262961513725,0.0,1.7219489922,-1.81510680477,2.94140131416,0.0,0.0,1.69322137264,-0.823138519326,-0.253948883245,0.374103288825,0.331525381871,-0.530081141049,0.0,-0.819004447985,0.0,2.11498173727,-1.58703325526,-0.802293931931,-2.75742675291,-2.86493770908,-0.939201186831,0.0,-0.235879268244,0.0,0.0,1.08883065016,0.0,0.0,0.288947171218,-0.312776976284,1.63379741285,1.07910594032,0.0,-0.689392184719,0.0,-0.0769469224698,0.915745595664,-0.69745528495,5.02418253526,5.15928188573,0.31119670698,-0.501140215569,0.396210762697,0.0,-0.818017083071,-2.86095553323,-0.130787264972,-0.250423712724,-4.58742459507,0.782702304297,-1.23869538472,-1.33419422836,0.0,-1.15118308123,-0.634545842656,0.0,0.0,0.457568205903,2.06709539781,2.63101121031,-2.64701369201,1.97050812125,3.96226251174,-2.63710003621,-1.12779840276,1.19351179642,-1.77669450457,0.691394753061,-1.80621316695,-0.0461014253352,2.55438068808,0.0,0.0,0.0,-0.464478082784,0.0,-1.06051009823,-1.60775655891,0.0,3.59514000292,-1.54779754529,0.0,0.0,0.88675007105,-2.08782106835,-0.809094532671,0.0,-0.287268724843,-1.33694833081,1.43056680699,0.441718010436,2.21084922283,0.0,0.0,1.4250628015,0.0,0.437447623955,0.0,1.33037418357,1.07402898926,0.0,-1.34787043034,0.942814548182,-5.2708241391,-2.29583876574,5.33499044634,-0.66097863829,0.0,0.0,0.345135154686,-2.65101825425,0.0,0.0,0.644070314884,4.91755132666,1.96285713486,0.0,-2.49996145048,2.23608717347,-1.21963267894,-0.749111764164,0.0,0.0,0.0,0.691251732099,0.504197508746,0.0,0.848546109165,0.0,-0.454220845473,0.058342810849,0.0,-0.324160986983,0.0,0.0,-0.615855809135,-1.5703426463,1.72288783874,1.01740781371,-1.03178171312,-1.52716447904,0.0,0.0,-0.306926109385,-2.24589301649,0.0,0.0,-0.554573753503,4.93341095123,0.0,-0.369901037754,1.79028989876,0.372675445125,1.99510002304,0.0,0.0,-3.17651766261,2.08580612882,-2.37761989085,0.0,0.0,0.0,-1.01409711378,-4.21444182861,0.0,-0.0974104589809,0.0,0.0,-0.492460195527,1.34894225016,-0.411444973965,0.124236720766,-0.0909997832467,-2.74445803212,0.0,0.0,0.389523527572,2.98704224134,2.5029343838,0.0,-0.286871454533,0.0,0.0,-1.46590480821,1.98007661173,2.76864405847,-1.22735100688,0.0,-2.07799443925,0.0,0.0,0.0,0.0,0.0,0.0,0.0,-0.533146598968,0.0,-4.38111867436,0.0,0.0,0.361077746125,0.0,0.664865442365,-0.403991015738,-0.848583894529,0.0,-1.74064560563,1.86728381525,0.0,0.0,1.1179551803,2.29436783125,0.0,0.772103807375,-4.16379557291,0.0,0.179447899284,0.0,0.0,0.0,0.0,0.0,0.0,-1.05632843582,2.26164889568,-2.20745348602,0.0,0.0,2.40369016724,2.62534628228,2.46215531253,0.0,0.0,-1.19221810951,0.0,1.33979304613,0.0,-3.03730272465,3.40456324156,0.210349494823,0.0,0.0648964701723,0.0,1.74012701634,0.0,-0.0394495513506,-3.350292134,-2.05649803657,2.99347881449,0.0,0.323895197029,0.0,0.763499176906,0.789429816081,0.0,0.65648804801,0.0,0.789328439712,0.219586845666,0.0,0.0,0.0,-0.58012535009,0.0,-3.55756717935,0.0,0.0,0.515061957861,0.0,-0.0644008701792,3.13157385732,-1.94602657828,-2.11580382482,-1.53892329229,-1.81226243392,-0.336635555637,0.0,0.0,0.0,0.0,0.0,2.76710728559,0.0,0.0,0.0,0.0,-1.51921477101,0.0,0.0,-2.43718861047,-2.62381035172,0.0249723541503,0.0,0.0,-1.25958312861,-0.640124758966,-0.967473370715,0.965057595874,-0.405575984249,0.0,2.56574112945,0.0,4.62930804015,-0.160926885882,0.0,0.256478855324,0.0,-0.730436369444,1.17249281367,-0.673298162904,0.488671342904,0.00427890715718,-2.38415189311,0.0,-3.3061925604,0.0,1.23111749846,-0.378311547328,1.17788521048,0.073263607211,0.0,0.0,3.1855564982,0.0,0.0,2.1209506104,-1.06620464959,-2.09724080194,1.76507140168,-0.6498188914,0.0,0.0,0.0,0.0,1.2201180254,-0.837310728173,-1.12076024928,-2.61513086095,0.0,-3.25203640662,-0.161336560853,0.0,0.0,1.30061490534,-0.0394936606293,0.0,0.0,0.0,1.089084905,0.0,0.0,1.80899389951,0.0200744143379,0.0,3.51251131967,1.03813374804,2.19034626474,-1.35992767901,-0.538399175218,-3.78844837761,3.4878724197,0.0351234155633,0.0,0.0,0.0824532279408,0.0,0.0,-0.0952168247274,-0.907797965904,-1.5538126152,-0.225370394164,0.0,1.4853892849,0.0,0.0,0.0,0.0,2.34435764362,0.0,0.0,0.0,0.0,0.0,-1.34376828418,-0.59712992905,0.0,-1.58030674875,1.72975551102,2.73998712839,-1.2257947905,1.70215047941,-0.907316186699,0.0,0.0,-1.37582389153,0.0,0.0,-3.38023557591,0.0,1.33768882533,0.0,0.0,3.20834348624,-1.39781495847,0.92725894574,-3.14545323452,3.80224433474,0.166875168403,-3.56139958205,-0.761982345734,-0.384389416781,0.0,0.803112919346,0.0,-3.53528198384,0.120613661796,0.0,1.67183747088,-0.521616480307,0.0,2.11539428205,-0.906146588179,0.0,0.0,-2.47357313152,0.0,0.0,0.0,2.57381484248,3.17847453978,3.92662875516,0.940147701849,0.169197929811,1.63397183344,-2.53988335961,1.14423454822,0.0,0.0,0.818586552489,-0.0952231943631,-1.23074768361,0.0,0.0,0.0,0.84384413473,0.663507166744,0.44338590883,0.0,0.0,2.97607130239,-1.67391284062,0.0,1.10865716464,-3.82742464016,0.0,2.68070995109,0.0,-3.86362118973,0.743762607469,-0.455027064478,0.0,0.0,0.0,-1.05588654539,-0.466236417231,0.0,3.28807580921,-1.36426794799,3.41016922029,-0.467694910358,0.0,-3.49477439254,-0.842590003834,-0.536767123356,0.0,-3.28211726699,-1.54753042059,0.0,-1.70080498768,0.0,1.33166316505,0.0,0.0,-2.83049354448,-2.05630480444,-2.49556331007,-1.95366256752,-2.53990568742,0.0,0.0,-2.01050451315,2.94707512723,-5.33557191632,0.0,-1.8473360916,0.0,0.0,-1.24178501285,0.0,0.0,0.486887304089,2.8549092813,2.37786569396,-4.02367492969,0.0,-0.232091407914,2.48052461902,-0.889212772033,0.0,0.0,-0.0901053032555,-3.85439369699,0.0,-1.01073312479,0.0,-3.43667537636,3.7549531652,0.0,0.0,0.0,-1.32237169368,0.0,0.0,0.898396709368,0.0,0.0,1.75365963071,-1.3854343783,1.26905338238,0.0,0.0,0.0,0.0,-1.23837861626,-0.150731882029,0.0,0.0,-3.75533170164,-3.0999238486,0.0,0.0,0.0,0.0,0.097177067241,2.14471362787,1.84315153864,2.12430060965,0.0,0.0,-0.685237290034,0.0,0.0,3.23912976936,2.12881121963,-0.977289235356,0.0,0.708137464474,4.69552303448,1.0524571675,0.0,0.0,0.0,0.0,1.41040911253,0.0459082366676,2.0478003613,0.0,0.0,0.0,-2.51314983605,0.0,-1.36858081997,0.787932421395,-1.35901569932,-1.80254970079,0.0,-1.3547025576,0.0,0.0,2.39604835942,-2.50700031129,-0.410098483068,0.0,0.0,2.31796388449,0.0,3.2363661871,0.0,0.0,0.0,0.0,0.962780955828,0.0,0.533826006618,0.0,1.32367762373,0.0,-1.78083656726,0.0,-0.843577369295,0.146293431434,-0.114287848653,0.0,-2.29102479113,2.61670321612,0.0,0.0,2.25322208202,0.399973073696,1.04599986026,2.81206563495,0.0,3.0947285215,0.0,0.0,-4.06004225513,-4.89741709409,0.242116719143,-0.112585582715,0.507653098866,-1.07006417121,1.87398778539,0.0,-1.46103484556,0.0,0.362972367882,1.02056135226,-1.42360859947,0.0,-2.11846551248,-0.984861128052,-0.650819152418,-1.27432843861,4.33392363008,0.0,-0.70658798253,0.0,0.0,1.43659458706,3.47134446947,0.0,0.0,2.75848520102,0.0,0.704525539401,0.0,1.62852165912,2.14261926696,0.0,-4.74492759259,-4.32857914856,-1.65808787202,0.0,0.0,1.0582665404,0.0,0.0,3.53065992614,3.67457115557,0.0,1.11181748802,-2.59763148156,-0.739698722133,-0.34692913854,0.0,-4.0293266175,1.19657182808,0.0,-1.09594614321,2.64040529044,0.0,-0.0718409382063,0.0,0.0,0.0,0.0,0.0,0.0,2.47332405198,-2.22350871352,3.15102805877,0.0,0.0,0.0,-0.433440679871,0.0,-1.69273259233,-0.656231101637,-2.88693179045,0.0,1.11353249973,0.0401184340165,0.0,-0.279527858667,-3.51458958377,-4.65637606046,0.0,0.647541536792,0.0,0.0,0.0,-1.34036334135,-3.7546088775,2.89173689991,-4.58976369755,0.779080987702,0.0,2.00965186653,-2.13948615532,0.0,0.910947904645,-0.517431823352,-2.80901402686,-0.951273032982,-3.62447117483,0.0,1.70983473227,3.45638469972,-2.35720334195,2.39340486859,0.0,0.0,-1.67587480939,0.269564122137,0.0,1.28882069207,2.98158956004,1.6392350965,0.0,0.0,0.0,0.225873144461,0.0,0.0,0.0,0.0,-2.34134690878,0.0,1.79546895008,3.2124953633,0.0,0.833700778542,0.0,-1.27341733268,0.0,0.0,0.0,-0.524423248624,0.405139260406,0.0,-0.301046274862,0.0,-1.32024328753,0.0,-4.34711448934,0.0,0.0,-2.41641058799,3.07005952975,2.22885273766,0.509208106893,1.91954503884,0.0,0.0,-4.48328220464,-1.75289076196,0.0,-0.893856481885,-1.43196141651,0.0,3.76424099129,1.10463478451,0.0,0.912313067864,1.63828059259,-1.91218367171,0.0,1.10807027401,0.0,1.60127231199,2.70418195393,0.691828172015,-0.183737978745,0.0,-0.51899554689,1.08164528384,0.0,2.54638566681,0.0,0.0,0.0,-1.60011732958,0.86549470284,4.72801035693,1.32499620603,0.0,3.19130943684,0.0,0.935974025976,-0.443632603953,-0.387907666137,2.51338086722,0.0,-4.20811272588,2.31316857617,0.0,0.0,0.0,1.87735392667,0.0,0.0,-0.339569431485,-0.989215939342,2.86394001959,0.0,2.28477882365,0.0,-3.52103791587,0.679171458296,0.0,-3.16146463269,0.0,0.0,-2.27346220617,-0.969900251444,0.0,0.0,0.0,-0.785219090588,0.0,1.89233711247,0.0,2.31457044958,-2.39461030597,0.0,2.76714935265,0.0,0.0,0.0,0.0,2.84447139384,-0.950188074576,0.0,2.67222106315,-0.422320860593,0.0,2.18547150367,0.0,0.0,0.0,0.0,0.0,-0.710625126344,-1.15830608491,-5.44534362975,2.59151786382,0.407080219273,-2.85381193531,0.0,0.0,-0.991759107715,-0.402175338029,0.0,-0.532125274129,2.00850600732,0.0,0.0,0.0,0.0,0.0,0.0,2.23692221266,-0.522768502182,0.0,0.0,0.0,-1.08805090311,0.0,-1.16297211618,-0.141893079152,-0.57246651255,-0.482687123774,1.50659694015,0.0,0.838447865864,2.95759368696,-5.10219882286,0.955459004997,-3.21148612854,0.0,0.0,0.405196410832,2.83585295685,2.4384420581,-3.45516481024,-3.80395779486,0.0,0.0,-2.16776949588,0.0,1.1127401848,0.0,0.0,0.0,-1.67137082887,3.30097606261,0.0,0.272486850122,-0.444500764906,0.0,-3.10950404108,0.0,-0.861752518757,0.0,0.534331130715,-0.275425198848,-0.423158130061,-0.854114649267,-3.24197083375,0.0,-1.09991401553,-0.432904685958,0.0,2.58022559457,1.57251093024,0.0,1.82257493782,-2.12678709049,2.08058687035,0.0,-0.806459377534,-1.09622849105,0.0,0.0,-2.18547150367,1.25882284456,-4.26610773478,-1.14020209776,-2.28917601485,0.0,0.0,0.0,0.0,-2.73912709285,0.0,-2.3683788572,0.790133551295,2.36080380501,0.0647986875131,-0.857262778609,3.98998723619,0.0,-1.88475320825,0.621826526021,-3.88846482529,-1.55409607324,1.776614698,0.0,2.70013176282,-3.17419468567,0.0,-1.4580246936,0.0,4.91993480309,0.683271636548,0.0,0.0,0.0352755537982,-0.498487178466,-2.28715637807,0.0,-1.28904598486,0.0,0.0,-2.74036475275,-3.66035222729,0.573456218169,0.276152284036,1.61234392604,-2.52124339204,1.5379723508,0.0,0.0,0.0,0.0,0.0,1.46507037104,0.0,0.0,0.0,0.0,0.117594323012,1.15365760726,-1.55120923963,-1.11057131609,0.0,-0.370196805338,-2.28416540678,0.841323180745,-2.33747230285,0.0,0.0,-4.67623444415,0.0,-5.00896261447,0.0,-1.28433690983,0.127224931024,0.0,-2.85511469686,0.0,1.39345936474,-0.78626674842,0.0,-2.58878730296,-0.0919583274972,0.0,0.0,0.0,0.0,0.0,0.0,-0.622966473789,0.0,0.0,-2.62221172198,0.0,0.0,0.503637190001,0.0,0.0,0.985309532772,1.37723388666,-0.160774807539,0.192970573444,-0.504249438305,-5.02698216068,0.0,-0.917381092941,0.0,0.0,1.19642733974,0.0,0.0,0.0,1.2816358157,2.67651813777,0.0,0.0,0.76273380456,0.0,0.0,-0.249775913717,1.3178243213,0.0,0.824204862075,-4.50551442649,0.0,0.526970843846,-0.406355960916,0.0,0.0,-2.76038946941,0.10899888391,-2.58275618277,-1.03874798119,1.95869035959,-0.745573337092,2.6939336327,-2.86183694389,2.56643155378,-1.21166947111,-4.22888535385,0.749747212652,0.683259288997,0.0,0.0,-0.419906155197,-0.171706349051,-5.2673404275,2.18547150367,0.0,1.32465229799,1.00289841814,2.02409290385,0.0,0.0,2.03600300312,0.0,0.0,3.26021875494,0.0,0.928160940626,0.0,-0.432079599895,2.57404025253,3.54940247101,-0.244991193013,-0.18933516738,-3.50641573021,1.72260636915,1.21113736159,0.0,0.0,0.0,0.0,4.26730243513,0.0,-0.059381536532,3.01542850982,-0.24944775785,2.1667896954,-0.540191239836,0.0,0.562801027368,-3.75264333824,0.0,1.79546254141,-3.82602234594,-0.309316984569,2.31276567874,-2.75606286384,-0.893728897634,0.0,-2.16063000657,0.0,-4.15033209937,-2.53483372492,2.37912516532,0.0,2.18333718455,2.86268072907,0.536848704275,0.0,0.0,3.15672881285,0.0,0.0,-2.10113741803,-1.76469268146,1.72394731834,0.0,0.0,0.0,-5.05662275842,0.0,0.0,-1.71463554692,-3.07310094956,0.140684125839,3.30651590596,0.0,0.935002130152,0.0,-1.18442364584,1.79315172178,0.0,0.0,-0.711589751772,0.0,4.16749966958,1.29160899938,0.0,-1.34825251801,-1.63038089957,3.00983611008,0.0,-2.97648386521,0.0,0.0,0.0,0.0,0.0,0.0,0.0,3.64733546684,-0.528322666777,0.0,0.0,0.0,-1.60195044539,0.629388623313,-2.21336833461,-3.82900635214,0.0,0.0,0.0,0.0,0.0,1.73081069533,0.0,5.6202194454,0.424109986588,-0.753152232859,0.0,-0.384450071812,-1.68738003353,0.0,-1.2298462427,-4.26140326867,0.690309551408,0.0,-0.00928090363068,0.0,-2.57838047103,0.0,-0.0326780574549,0.0,-3.08793732622,0.0,0.935675629057,-2.09957387094,0.0,-1.68633031436,0.0,-0.670211561604,-0.824212189786,3.11813144127,-1.00478346761,-1.28277714838,0.0,0.516820882811,0.0,0.0,-1.57890415905,-0.867911910262,2.70691332349,1.59610672682,0.0,2.23621034554,0.0,0.0,0.0865343147439,0.0,0.800233928277,0.0,-1.02485678801,-1.72133613919,-0.138865991597,-2.11989670626,1.66839142751,6.41624351357,-0.324472699959,0.0,0.0,0.0,2.26760190267,0.252526259989,-1.28176533734,-0.411362957956,0.0,0.0,4.19360706923,0.0,-1.20770409577,-1.76212316548,1.7527475806,-2.37535354645,1.20130464781,-2.35433999576,2.18547150367,-0.566088620867,0.0,0.0,0.0,-5.00712908028,-0.501859494603,-0.707485203981,0.712072473958,3.37834010112,2.75006951415,-4.45670560311,0.0,-2.61256576245,0.0,0.0,0.507070832515,1.14622413893,3.47419317329,-0.0358827310939,-5.09409109723,-1.16639364999,-0.332230253154,4.08421598314,-1.48234153205,0.0,-0.959258956997,0.0,1.5335393471,3.83929139441,0.0,0.0,3.13211475779,0.0,-2.13729717653,3.65195942715,-2.44114460218,0.0,0.0,0.0,0.118055931737,2.1258898715,-1.69868828697,0.0,-3.72013718647,3.0952731408,5.50741636953,0.0,-1.41300445346,-2.84110736551,0.0,1.63747615965,0.0,0.0,0.0,-0.16369052593,1.19572352889,0.74619171567,0.0,-3.29056155813,0.459071031755,0.0,0.0,0.0,1.55835312513,-2.59965710064,0.0,-0.310471327779,-0.240949506899,0.0,0.0,2.12356361814,-1.02370791093,0.0,0.0,-0.729345647637,-0.342112809764,1.58654658171,-0.287555263178,0.0,0.0,0.0,0.0,0.0,1.37019703147,-2.41729777217,-2.65890038274,-0.603553200054,0.0,0.0,-0.118204062315,0.0,-2.09531496952,0.0,0.0,0.0,0.307697254026,-2.18547150367,-2.2276407937,2.44757923447,0.00935379590965,-0.395157941701,0.0,-0.370507767323,0.0,0.0,-2.73009877026,0.0,0.0,0.0,-4.55939323047,-0.965207121848,-2.50188047728,0.0,-1.10009986908,0.391072805021,4.17952981383,0.496365897032,1.18263492453,0.0,3.09814830004,0.0,-0.542449904847,-4.28369525271,3.2052512717,1.53123355194,0.0,-0.280062657237,-1.29630179415,2.59592101053,1.36596543999,0.0,1.23847578792,0.0,1.53529739417,0.0,-1.48954516275,-1.26169999525,0.0,5.14892484022,0.0,0.0,0.443461329983,-2.98532741095,1.17013136889,0.0,0.0,0.785989392617,-0.633711688067,-2.4411681907,-2.67787973496,0.0,0.0,0.0,0.0,0.0,0.0,0.0,0.0,0.0,1.09341852027,2.96581327653,2.2595400317,0.0,0.0,0.962398061541,0.0,0.313418298704,0.0,0.0,2.516575532,-0.662564695351,-3.14616830505,-0.788141690917,0.0,0.595980169182,0.118827659967,-3.42419401196,0.0,0.0,-2.0442415152,-0.707734202969,-0.203977473459,4.11250083049,0.0,0.0,0.561675909678,0.0,-2.41260765441,0.0,0.0,-0.712266352944,-1.91109498506,-3.79676218908,0.0,0.0,5.67877232773,4.36447062803,2.29525441965,0.0,-2.51108607473,0.0,0.0569286102846,0.920987159295,-0.529468599952,-1.35816421177,-0.646725036525,0.0,0.0,0.0,4.10467757795,0.567708443796,-1.60301880403,0.0,0.0,0.0,-0.673869990208,4.70405477822,1.42396375535,0.0,1.58066405313,-0.170172694285,2.47675225516,1.33204414291,-1.78832364606,-0.79977178144,1.56957548778,0.514228388581,-3.3021879213,0.0,1.81667114653,-1.13319937536,-4.44436685092,0.0,0.0,0.0,2.4270991625,0.0,0.0,0.0,0.0,0.527727680737,0.0,-2.45705225935,-3.66731983441,2.30085120078,1.22556466428,0.954318317535,-0.863746997744,0.0,0.0,0.0,-0.442527949813,2.90310010599,0.0,-0.487445054345,-3.76016675861,-2.1198224646,0.0,0.0,-0.04329221257,3.11832647269,0.0,-1.36684364572,0.303443671323,5.1100983232,0.0,-1.75284202471,0.0,0.630634634573,0.0,0.342465323405,0.762213136441,-2.41444280068,0.0,1.24302003139,-0.351803556627,1.09184056847,-1.68720744834,0.0,0.0,0.0,4.26353075228,0.0,-1.54697587225,0.0,-1.09157060105,-0.558162797432,0.0,0.0,2.10607489766,-0.0570290235954,3.53071451256,1.38462787846,0.0,0.0,-3.06294038874,-0.762769166114,0.0,3.18153938789,1.51454923131,0.0,0.0,0.0,0.0,-0.464649286597,0.635341238412,-3.49943650875,0.612797016988,0.0,0.628842288006,2.44632305935,0.0,-0.793438194005,-1.59435109641,-2.11604132926,-1.7212406681,0.0,0.0,-0.569785902073,0.0,-0.618175742013,0.0,0.0,0.0,0.0,0.691468513813,0.0,0.0,3.06267589483,0.0,0.0,-1.43373993378,0.0,0.0,0.0,2.59379883428,0.0,0.0,3.03898679477,1.25081189609,0.0,-2.16134237693,-2.80620185706,0.0,2.53385907223,0.0,-2.41309898339,0.0,0.0,0.0,0.346613147087,0.0,-6.07157754792,1.81652716661,-0.0170896217404,0.0,0.0,-2.31839064279,-2.94320746191,0.0,-1.46270140748,0.885317436851,1.58788144338,-1.62790310946,0.0,-1.58409162112,0.0,-0.396070035065,0.0,-0.676127707703,-1.48392298587,0.0,-2.28095504556,0.0,-0.128259169663,0.0,0.0,0.0,3.82380642323,-1.18236705248,2.58024856125,-0.992574243707,0.0,0.0,0.0,0.0,0.0,0.0,3.40560719275,1.22083223543,3.18384226012,0.0,0.0,4.55727808733,-1.45029760048,0.0,-1.31758589852,0.0,-0.525458329673,-5.57681713318,-1.3091486967,1.75566553458,0.0,0.0,0.0,0.0,0.0,-5.05391130182,-0.232522274282,-2.1498695291,0.0,-3.07958826278,1.79495599056,0.815284346418,0.0,0.0,0.0,-2.70240416,0.0,-2.74465307237,1.8928077606,0.0,-3.82918806413,0.92183815399,0.0,0.0,0.0,0.0,0.0,2.33158919537,0.0,3.54156929479,-0.312141609838,0.0,-0.272583263045,-0.342799955139,-2.6331733818,0.0,0.56784802231,0.0,-0.308702611659,-0.112329583654,0.0,0.0279023554339,2.76734797839,0.373548634474,0.0,0.0,0.0,0.0,-0.257063708989,0.0,-1.55900843869,-1.88177006187,-0.074183138541,0.0,0.0,1.82275033611,0.0,0.170457797181,-1.61430118622,1.12024882887,0.181991788526,0.0,0.0,-2.38422475134,-0.635594264278,0.0,-3.39058252673,0.151926721734,0.0,0.0,-1.02419803324,0.126873897578,2.16721180709,0.0,1.34255178091,-1.48815336488,-1.63892367692,-3.36607249929,0.0,-2.98687750982,0.0,0.0,-1.19100251561,0.0,-0.570293655092,0.0,-2.25262692693,0.0,-1.31510484132,3.02789746682,0.0,-2.01942204567,0.0,0.928791173408,-3.67191527928,-2.01436896294,-0.527476373076,-4.39592341068,0.0,0.0,0.0,0.0,-2.59487658748,0.0,-0.136752457692,-0.736633491713,0.0,-2.47426474157,-3.31948975961,0.825201569906,-2.48311737373,-2.36053939065,0.0,0.0,-1.81023850822,-0.406107211746,0.0,2.19481149962,0.0,0.0,-3.30184879948,0.0,0.0,0.744700073245,0.0,-1.03065281815,0.0,0.0,0.0,1.29905899169,-1.37617746809,0.0,0.0,1.64538137337,0.3630153376,0.0,-0.22861250921,0.0,2.91931801346,0.0,1.82582509551,-0.865972501487,0.0,2.64835921793,0.0,2.69867843418,0.586772483113,-1.2946167486,3.20892435813,-1.96854980633,-1.33752986776,0.0,0.0,-3.16796784946,0.0,0.0,1.3423172323,-4.16477921506,-0.402708792984,2.65216806845,1.3073367371,0.265557307921,0.0,2.8340141142,0.0,2.21832619323,0.0,0.0,0.0,2.04662667787,0.0825342406711,0.0,0.0,1.57978230059,0.786831920571,-0.304295887884,0.0,-1.92905633375,0.0,0.0,-0.133953679667,2.69074499269,0.246506069866,0.0,-0.0165805022419,0.0,0.0,2.55518580804,0.0,-0.133815424762,0.0,0.0,0.0,0.0,-0.772598568814,0.146471433661,0.0,-2.75383183807,1.63556961079,2.67636050003,0.308424415285,1.67949809213,0.0,2.03443748239,0.0,0.0,-1.85410625271,0.0,0.0,0.0,1.31980722664,-0.415410102502,3.82542546578,4.97228504321,-2.93889865336,0.0,0.0,-1.90406256259,1.94620149173,2.55482338479,-4.60722785937,0.0,-0.954678917614,4.09850510558,-1.53110531427,0.0,0.978645930852,-3.4095276853,-0.0968516280619,-3.89022541461,0.0,-2.95049723858,1.31755282763,0.0,0.0,0.0,0.0,0.0,0.0,0.0,-1.71276878221,4.38378184761,0.0,1.01833952015,-0.759488837731,0.0,-1.1687367849,1.73664769039,0.0,-0.472491304167,-0.809991436195,0.0,0.956489335621,0.0,1.99939357212,0.0,0.0,0.0,-1.66184017823,0.0,0.0,-4.72362579636,3.18384226012,-0.85626611915,0.0,-1.93160114171,0.0,-3.27450629786,0.0,0.0,0.0,0.0,2.78691935305,0.0,0.0,-1.19236305462,-0.7488997553,0.0,0.0,2.98369910947,0.597889576263,0.0,-1.64623540121,0.0,3.82913236925,1.89444670898,0.0,-0.915255052011,1.3154519254,0.605283382596,2.08938306877,0.0,0.0,0.0,0.0,-0.510669184054,0.0,0.0,0.134251949877,-0.75149352115,2.99505549014,-3.48769690326,-4.30946946713,-0.0240188605012,2.20537031517,0.0,1.99039972365,0.0,0.0,0.0,2.13751634947,3.17260395051,-1.98262831644,0.0,0.0,-2.36039357651,0.0,0.990727561347,0.0,-4.05707590796,2.05055198846,-0.146937113161,-0.555527166577,3.33669885805,0.0,0.0,1.50246580351,0.0,0.0,0.318433190796,-1.94688571756,0.0,0.0,0.572500966292,0.0152895081802,0.0,0.0,0.0,-0.680217317432,2.44936986707,0.0392701571843,-1.12782648996,-3.13408224899,0.0,0.0,0.0,-1.2217311251,0.320845283117,0.17404419838,0.0,-1.42240663209,0.0,0.0,0.0,4.18525812774,0.0,3.66833784925,0.0,0.0,1.48956192159,3.09913104328,-2.01968606909,0.414278814846,0.267092806837,-0.493925523145,1.62927219011,0.0,2.4876092153,-2.17039509088,-2.22266047089,-0.299984891404,2.62216203287,0.0,-1.91462930224,-0.368743260337,0.0,0.0,-3.49878437924,0.0,-2.24367399852,0.0,0.0,0.0,0.0,-2.69200344285,0.914088178393,0.0,0.0,-1.61747739816,0.0,-0.176513025573,0.0,0.0,0.0,-0.782993757759,0.0,0.0,0.0,0.0,-2.53750295336,-1.84810517817,1.68997966575,-0.935673500987,-0.176706106274,-2.49278547962,4.47936855244,3.73811508223,-0.285311199558,0.0,0.0,0.0,2.3632637774,-0.156122613486,-0.943863950466,-0.618261702914,-4.46830205824,4.87718111432,0.569041015726,0.0,4.01441280325,0.437917732148,-4.87699020217,-2.56203881071,0.0,0.0,-3.59755800079,0.0,3.4499661496,2.67051204777,2.77813256104,-0.312719431634,0.900471907623,0.0,0.0,-3.72546139945,0.0,0.0,0.0,-0.579969820186,2.33049887521,-0.16709912817,0.0,0.0,0.0,2.05440692124,-2.23049177138,0.0,0.0,0.0,0.433735231424,0.0794013122738,0.0,-1.41922661198,0.817197291708,0.574380377593,0.0,0.492912227802,0.0,0.630717905281,-0.118061721973,0.274420604538,0.0,0.0,1.5962373662,-0.87611336801,0.548750236305,0.0,1.22556466428,0.0,0.0,2.65158101661,-3.29341753644,0.0,0.0,0.0,0.0,0.282365629093,5.46445194317,0.0,0.0,0.0,0.0,0.91331275322,0.0,0.0,-2.65719825461,-1.08065989938,0.0,3.60680628653,0.0,0.0,-3.17406818929,0.775555906823,0.0,0.0,0.0,-1.15336459317,0.494220070243,0.0,3.6531100342,0.0,0.0,0.0,0.0,0.0,0.896371826966,0.0,0.0,0.0,0.0,0.0,0.603282303585,0.0,-0.332338735486,0.646317591342,1.16662197183,0.0,-3.46712156986,-0.0650865440854,-0.278736092703,0.0,-1.47181905907,2.27641301266,1.27086219782,0.0,0.0,0.0,-3.32394644415,4.69978744586,-2.16856941483,0.0,0.0,-3.52962679557,1.77105739613,0.0,0.975171997843,-1.51923326399,0.0,0.108369696537,0.0,2.1845923391,-0.845472707901,0.0,-2.72845482867,0.0,0.0,0.704148440264,2.03108546707,1.73796820994,1.64235304717,-2.66276983356,2.79836402496,-2.9931505218,0.0,0.0,-6.51482300602,1.41224229813,-0.134096088667,-1.24748193842,0.0,-1.78917778477,0.0,1.10651886299,0.336082207328,0.0,0.917093517713,0.0,0.526750862569,0.0,-0.611556050121,0.0,-3.20851413123,0.0,0.0,0.0,-0.920149005974,0.0,1.35563731779,1.76002250573,-0.50063923444,0.0,2.78282700531,2.26603212206,2.37517527797,0.0,-0.984885875804,1.37489804894,1.8107120708,-2.16532303575,0.0,0.0,0.0,0.0,-1.18211965176,-2.25471863367,1.57441560566,-2.74814981136,0.0,0.0,-3.44553834402,-4.68633587428,1.50477246946,0.0,0.0,0.449167374642,0.0,-3.09426479047,2.27208495137,0.0,0.0,0.0815193161877,1.05383090143,-2.05099232499,1.64591715138,0.0,0.0,2.51852849027,-1.93307237874,0.0,0.0,0.0,0.0,4.4170322937,0.332779344512,-1.56395276947,-2.30608062771,2.80116181417,0.0,0.0,0.0,0.489545528234,0.0,0.0,0.0,0.0,-0.202728666547,0.623505506852,-3.0554890539,-1.04626958025,-1.11647204487,-0.472988999834,-2.82224848871,0.0,0.0,0.0,0.0,-5.37695487336,-3.04532806709,-2.40373875329,-0.671554120889,-0.653060965991,-0.557643314362,-1.20821930175,-2.59592133624,0.0,0.0,-3.20443484923,0.0,0.0,0.0,-3.23623347967,-0.173976303213,0.0,0.0,-1.85326680459,3.48784875769,0.0,-0.625483570032,1.30657998857,0.0,0.0,0.0,-1.24156808589,0.0,1.8598803479,0.0,0.0,0.0,1.67817419237,-2.43981289771,1.20505505344,0.0,-2.12751025294,-0.266118802844,0.0,-0.200412180676,2.71259444548,2.84958600127,0.0,0.0,2.54144236967,0.0,0.0,2.04724108168,0.0,-2.39231197111,0.0,0.767360313227,-0.553228758023,-3.06968944002,2.50128232777,0.0,-1.43080091137,0.0,3.24199436875,-1.47352223442,0.0,1.9811224668,0.679942880131,0.0,1.15996620469,0.0,0.0,-0.0728476193165,0.0,-0.739928662681,2.74369629236,-5.95070951042,0.0,0.0,0.0,0.0,-0.230373769247,0.0,-1.56843117498,0.0,0.0,0.0,-2.8661158959,0.0,0.0,0.0,0.0,-2.78920197463,-3.5410107756,0.0,0.0,0.0,0.0,2.25902679677,0.0,1.72825681507,0.0,0.907831681449,0.0,1.64301702803,0.0,0.0,2.34268395444,-0.292983980277,-4.86767449765,-0.307666002493,-0.0510941176279,-2.56808290934,0.0,0.0,-4.83098790368,0.296530999093,0.0,2.51590555732,0.0,-2.65919154927,-3.5008901831,0.403381713703,0.0,0.769959157549,0.65009698759,0.0,1.74769222361,1.67708395728,-2.04122426739,-0.314852589663,0.0,-0.451427536658,0.970779909313,-3.42353112752,0.0,-3.00431182985,3.18879001573,-0.677662901895,-0.478101089603,0.0,0.0,-3.23450777955,0.216097884959,0.0,0.290132304633,0.0,0.0,0.0,0.0,2.05504419346,0.0,5.0970945,0.0,0.0,1.28869600279,1.70521716674,-0.0325216275655,2.00254315863,0.786722234437,0.43621369981,1.66298161592,4.90475792232,0.0,-1.40579387161,0.0,0.898367429949,0.0,-0.432858839929,0.0,0.0,0.0,0.0,0.0,-1.57894109642,2.35456794309,0.0,-2.26375616454,0.0,0.691509333273,-2.47101867155,-0.019376126288,0.0,0.557025373201,0.0,0.923701654623,-0.25242308976,-1.16148632707,0.847629370422,-1.70764599531,0.288947171218,0.0,0.0,-0.953668778976,0.0,-0.986840174853,0.0,2.22651373149,-0.363455578792,0.0,0.0,3.6077621158,0.0,-3.89560351298,-2.03617095637,-0.719853845556,0.0,2.60422415905,0.0,0.0,2.58781202372,0.0,0.0,0.0,-1.28996960792,-0.0574411161196,0.0,0.0,0.0,-0.126405006685,0.0,-0.391106304556,0.0,1.00151119199,0.0,1.6520097529,0.0,0.0,0.970988374076,1.61827771433,0.0,0.0,3.25495503497,-3.26140355904,0.0,4.48115623914,0.433924691435,3.6973436177,0.0,0.0,0.0,-1.68238403924,1.81998891245,0.0,-0.168226847349,-0.743482891742,0.0,0.0,0.0,-1.30013958774,-4.2922133872,-0.14677123899,-2.43978859381,0.0,0.0,0.0,-2.17218619371,3.68453128085,2.7792043529,0.483478548617,0.154921896272,0.0,-1.6714107434,1.22899512474,0.0,0.0,0.0,0.0,-0.841149610327,0.0,0.254979154317,-2.73323584898,1.25276083738,0.0,1.15683684112,0.0,2.92548053346,0.0,0.570891022373,0.0,0.271341278563,0.705744625468,0.0,0.0,-1.89670980568,0.0,0.0,0.0,0.0,0.0,2.69117422328,0.591624715855,0.518132322566,0.0,-3.04288578233,-3.06049675325,-2.4092347695,-1.07729347038,3.32443265217,2.50441111822,1.50071827178,1.15268314023,2.84081582186,0.0,0.0,-0.772486333539,0.0,0.0,0.0,0.0,-4.20963979774,0.0,0.0,0.0,1.35535031348,-1.73767079745,0.0,0.0,0.408934957988,0.416036343143,2.95838224727,-0.178789946017,1.45715023624,0.0,0.0,-3.42331665507,-2.70874629584,-3.25978677703,0.0,-2.446646168,-1.15715727385,0.264857728278,0.0,0.0,-2.9001267331,2.48682332808,-4.2144492859,0.789771195012,1.94792100617,0.0,0.0241745440231,0.0,0.22948045664,0.0,0.950571414533,0.0,-0.668495717999,0.0,-2.05312227598,0.182918472828,1.18827386309,0.0,1.35948507039,-3.05391282839,1.74667334344,0.0,0.0,0.0,-2.02657214462,3.5127655179,0.786270369816,0.0,-1.97897396765,-2.83747583437,0.0,0.0,-0.592433303634,1.79735367985,0.0,0.0463504173938,0.920598089315,0.0,-1.08550634085,-0.755163141583,-2.70388010246,0.0,1.12848263571,4.11274890001,1.50664932058,-1.7919515227,-0.593402609513,0.0,0.0,-1.66766562895,-3.65942407278,0.0,0.0,0.0,-4.01372658416,-0.195119087171,0.0,0.0,1.60416436263,0.0,0.362373656952,-1.12430797492,0.0,0.0,1.01230378864,0.0,0.0,0.0,1.73830257824,0.0,-3.21052452255,-0.202407661374,1.30392043388,-1.85649589568,0.665262724733,0.0,1.26779890269,1.02365038362,0.0,0.0,0.0,0.0,0.0,1.67741699521,-2.69740259685,-2.35186663893,0.865967183838,0.0,-0.625430632844,0.0,0.0,1.69401369508,2.19232566412,0.0,0.0,1.89972313476,3.97006375626,-1.21714820112,-0.607196692342,-0.146705372001,3.57187615405,4.36164007784,0.0,0.0,0.0,0.0,1.83665826217,0.0,0.0,0.0,-0.487043148832,0.0,0.0,0.89332169812,-2.04283200412,0.0,0.835946833314,0.0,0.0,-0.750965970052,-3.70546290992,0.0,-0.519946235736,1.37042451229,0.0,0.369320014007,0.0,-1.38307178064,0.0,0.894863818692,1.49152314894,-1.13268032952,0.644263029089,0.0,0.0,1.67631056582,0.0,0.0,0.0,0.0,0.307478949574,3.60262426116,0.0,0.0,1.96234330947,0.0,0.84843243876,-0.0767435991946,-0.418204904584,-1.5699136904,0.0,0.944573166954,-2.31083060025,-1.66843604266,0.0,1.77739817749,0.0,1.22812548781,1.31976908354,0.0,0.0,0.0,-2.00396414763,-3.03773207625,0.0,0.0,1.42653432985,5.22093976629,0.0,0.0,3.29057120123,-0.698627902091,-2.53389777062,2.0554992907,0.0,-1.30892844268,0.0,0.0,-0.886461769077,0.0,-1.43199050805,0.0,-2.85685334223,-3.00402322434,0.0,0.0,0.0,0.0,4.49223752971,0.0,-2.6777266061,0.554569482297,0.0,0.0,4.32605874569,0.0,2.86059662796,0.0,-0.914045255296,0.169452573764,0.0,4.97533340913,2.13879862807,-1.6299762161,0.0,0.881460058621,0.0911313645676,2.35074684496,0.119381379642,0.0,0.765975990834,2.13760079567,0.478026687728,-0.705128985973,0.995314480618,-3.40231755433,-2.06770325961,0.0,0.0,0.0,-0.183725791231,0.0,3.16338317464,0.0,0.0,1.12193393195,-1.37164810346,0.0,0.0,1.22796989513,0.0,-5.77088242488,0.0,0.0,0.0,3.25376277621,0.0,0.987646660521,-1.35159391229,2.96420407718,1.99800309835,0.0,0.0,0.0,-0.212235227513,0.0,-2.57171549977,0.0,0.0,0.0,0.0,0.0,0.0,-0.521279694092,3.32776093937,-0.548416802638,3.3240654098,0.48402311371,-0.034619385538,0.0,0.0,0.0,0.0,0.0,0.0,0.0,-0.548743473355,0.0,0.0,-1.62015477047,0.0,1.16944863999,0.340326042702,0.185063041994,0.0,0.0,1.58469781567,-3.6394679318,0.0,0.0,-1.79869650539,0.0,1.76329782185,0.0,1.03506008141,0.0,0.0,0.0,-3.03423109637,0.0,0.0,2.43346731799,-1.15458807319,0.0,0.0,0.0,-0.829699383435,-0.11467006505,0.0,0.152389278721,0.0,0.0,0.879005989833,0.0,0.0,-1.09298428285,0.0,-1.99111369409,0.0,0.0,1.45401222287,-3.16055905823,0.0,0.0,0.0,0.0,0.0,0.381930393632,0.0,0.0,1.70196942907,-1.63295531752,-1.50962074619,0.0,0.0,0.0,-0.879072600259,1.80279108167,-2.38499288959,-3.0169749349,0.0,0.0,0.0,0.285693515332,0.0,0.0,0.223225917411,0.541878548881,0.0,-0.663805425856,0.0,0.0,0.0863643627222,5.52876423386,0.0,0.0,1.68586861339,4.59352805129,0.0,0.0,0.0,0.0,0.0,0.0,1.97080017432,0.0,0.0,2.00168828816,-0.448889061131,0.0,-1.09331803339,0.0,0.0,0.0,0.0,0.0,1.80941900931,1.86940481562,2.28216381273,0.0,0.0,0.0,0.0,-1.85593805034,0.0,-2.41299708048,1.07376386557,0.0,0.0,0.0815193161877,0.0,0.0,-2.16390362102,0.0,1.47481574118,0.0,0.0,-0.788630402401,0.0,1.0233986936,0.0,-0.223904012754,0.0,0.0,0.0,0.0,-0.0779640277003,0.0,-0.935225034399,1.62419555385,0.0,0.0,-0.896042187905,-4.10388868804,0.0,-2.68718505635,0.0,-3.39223791516,0.0,1.71977941308,0.757635886153,0.0,0.0,0.95413931799,0.0,-1.7767753957,-0.483954534139,0.0,0.0,0.0,-1.58870307692,-0.846234180793,-0.868021517806,0.0,1.53201961712,0.0,0.0,0.0,0.0,0.0,2.68599723917,2.47911131068,1.26779890269,-4.35712244958,0.0,0.0,1.31549186306,0.0,-2.31301760047,0.0,0.0,0.510735434478,0.0,1.79365379442,0.0,0.0,0.0,0.277482788628,2.45102347488,0.0,0.0,0.0,0.0,0.0,0.0,0.0,0.0,0.0,0.0,0.204730685831,0.951617048573,1.1768089214,-2.91996115584,0.637818533331,0.0,0.274420604538,0.810999262578,1.2311840294,0.844364939093,-0.768324321395,2.42042583297,0.0,0.0,-1.09217675792,0.0,-0.978595625654,0.548384010887,3.84916291568,0.784234547237,-1.08511555889,-0.0451968669106,0.684188149894,-0.66936983121,0.799124640165,0.0,0.0,2.24828832268,0.0,0.0,3.74782042625,0.0,-1.87696791098,-0.556200779513,1.49273030095,0.0,0.0,0.0,2.15454265269,4.03548036533,0.0,-2.18624010933,5.63415468271,0.0,-0.220273151363,0.0,1.89484997995,0.761587520953,0.0,0.0,-0.611635650519,0.0,1.8208320662,3.48917305654,0.0,0.872007467546,-0.28378776215,0.0,3.36489819784,0.407097453943,1.79177280765,0.603308138229,0.0,-3.44612385053,4.6117673257,-1.6277248358,0.0,0.0,0.0,0.451638939028,-1.1560968972,-0.027542630259,0.0,-0.120625710039,0.0,-1.81869374556,-0.79740339327,-0.157430612204,0.236594283309,-0.933656111087,0.0,-1.00303119602,2.04761951743,1.25163856012,2.61710411885,-1.25430328196,0.0,0.0,0.0,0.0,0.0,2.39961321024,0.512094773555,-0.0687094573417,0.0,0.0,0.0,0.415785348728,-2.28537250493,0.858322190845,-0.532578950142,0.0,-0.255239091516,2.07503724182,-0.189020470438,-0.181246007411,-0.220014270143,1.04002157184,0.0,0.0,0.0,0.0,2.89018585812,0.0,1.19615345137,0.0,0.0,2.48230938428,-0.861593299733,0.0,1.74134053581,2.03491133157,-0.685080900315,0.0,1.6044425888,4.22780559344,0.0,0.0,-2.88289102545,2.62100978236,0.0,0.0,0.0,0.0,0.0,0.0,-1.97683571868,-1.86047380383,1.10432137694,-1.6618850153,0.0,2.80045468665,0.0,1.70601943236,0.0,0.398879975135,0.4458713695,0.0,0.0,-3.93070616262,0.867754415431,0.0,1.69681699397,0.0,0.0,0.0,0.0,0.13356484285,0.0,-4.63582372298,3.02352108614,0.0,3.10077569332,0.0,0.0,0.0,1.08368486909,0.0,0.0,4.52348421383,0.0,1.75792878137,0.0,0.0,0.0,-1.83402260684,-1.59342846354,0.0,-2.09744421975,-1.91774097758,2.3976322108,0.0,0.0,-4.94732459443,1.18044780989,0.0,0.0,0.0,0.0,0.0,-3.17309364371,0.0520918767023,0.0,0.0,1.18299895926,-1.59626545527,0.0,-0.364253726,2.61823940982,0.0,0.0,-2.23902262553,-1.45401222287,2.00341834213,0.54861347662,0.0,1.30210399644,0.0,-0.109404487323,-4.56461147938,0.0,-2.16803003714,3.61941787239,1.7233131897,-2.32473823713,-1.13717572584,0.0,-2.9990803712,0.0,0.298253557202,1.71166908855,0.0632248109064,-1.71486513059,1.2237302235,0.0,0.0,0.0,0.0,0.0,0.0,1.55136829083,-2.97451900959,0.244257176152,0.0,0.0,-2.36686917167,-1.14974708451,0.0,0.0,0.0,0.0,2.55664279764,0.0,-2.70826912283,0.0,0.0,0.0,-0.157430612204,2.36782688834,-0.820131136586,0.0,0.0,0.0,0.0,-1.05219841346,0.0,-1.13050463419,-3.37328326659,-1.29298065579,0.0,0.0,-3.07216083117,0.0,-1.98651055499,0.0,0.353419667269,0.0,0.125739479629,-0.566869308443,-2.73787310151,0.0,0.369142513724,0.0,0.0479752187554,0.0,2.08754826458,0.0,0.0,0.0,-0.8223983415,0.0,-1.42736676265,0.0,0.943929958166,0.0,1.0319314142,0.0,0.0,-4.86429179305,-3.32906955933,-0.284256120052,0.0,5.30730028501,0.0,0.605228501397,-0.375138312332,-0.88804475307,-2.2182227344,0.0,0.0,0.0,0.250163132487,0.592995775484,-1.84938293747,-3.72838965737,0.0,1.64353014389,0.0,0.073256610391,0.0,-2.75170175078,0.0,0.0,0.0,-1.71237150762,-0.0280825037767,-3.31614142139,2.7942840832,1.46004762523,0.0,1.21625933786,0.0,0.0,1.83062034871,0.0,0.0,-3.49863682783,0.0,0.0,0.0,-1.15416179118,-3.79244511029,0.0,-3.75537436933,0.0,0.0,0.0,0.0,1.33595212629,0.0,0.607508612219,0.0,3.05899276308,3.63184605314,-1.25799915445,-1.43315728311,0.0,0.0,0.0,0.0,0.0,0.0,0.0,0.0,2.88533252653,0.0,0.0,0.0,2.23161176989,1.79510203175,0.0,0.0,-1.14403698306,-2.77635905071,0.0,0.0,-2.63319067957,0.0,0.0,0.0,-2.52368237806,0.0,-2.04614614756,0.0,1.91005346936,-3.69163792663,0.0,-0.0458489542697,0.0,0.0,-2.73321911311,0.0,0.0,0.0,0.0,0.0,0.0,0.2656301874,0.0,-3.03490694835,0.0,0.0,0.833010335565,1.55068853566,0.0,1.17859641068,-0.543159014756,-0.000586131633489,0.0,0.0,-3.52470307717,0.0,0.0,0.0,1.47886602291,-1.94078868274,0.0,0.0,0.175273630583,-1.37412356119,1.35425084569,0.0,1.00192087596,0.70850382339,0.0,0.0,1.64190211846,0.0,0.471246639078,0.0,1.7304575562,-1.18721466362,0.0,0.0,2.21299093341,-1.33227977594,0.0,-2.08932471327,0.0,0.0,-2.88202407414,-0.74251771753,-0.294862094996,0.0,-0.773844445081,0.0,0.0,0.0,0.389568826173,-0.216927164204,2.29868971225,-3.57166569454,0.0,0.0,-1.3914930084,2.88273342275,-1.88227234208,0.0,2.05563620793,0.443391221369,0.0,0.0,-0.628687845829,0.0,0.684188149894,0.0,2.91303031201,0.0,-0.520436292783,0.0,0.0,4.34414461741,-1.22059323536,-0.714752002961,0.0,1.21846193041,0.0,0.54267706894,-0.565258042269,0.0,-0.290987754482,0.62774111097,0.81427047051,2.05265510559,0.0,0.0,-5.22530716749,0.0,0.0,0.0,-2.38687852902,1.07815875249,0.0,0.0,-4.30992870361,0.0,0.0,3.89993073952,0.0,0.0,0.996438650959,0.0,1.12332835496,0.0,0.0,-0.649191532619,0.0,0.0103871703308,0.0,0.0,-2.14830194845,-0.882117190085,1.58998744681,0.0,-0.126390778531,0.0,0.0,0.323336729623,3.96820526173,-1.26453543392,-0.167945553326,-3.46209500338,-1.50836242341,0.0,0.0,0.0,2.64988073885,-0.158813126084,0.0,0.0,0.0,0.0,0.356657275407,1.91836805933,0.0,0.0,0.0,0.0,0.0,0.0,-0.0809379288315,0.810999262578,0.4458713695,-1.61809040898,-1.37868798696,0.0,0.0,-0.789932686438,0.0,1.80631986279,-1.25250751627,-0.11843647876,0.0,0.0,0.0,0.0,-1.6715160025,0.0,0.0,0.0,0.0,0.0,-1.38427472985,1.25247020087,0.0,-2.83955498464,0.0,-1.26765822128,0.0,0.0,-3.99645364666,2.86841216255,2.78118133554,-0.142812362811,0.0,0.0,0.123158599845,0.0,0.0,0.0532238802675,-1.40215270615,-0.10514747468,-1.4668763854,0.0,0.0,0.757329261835,0.0,-5.32905901339,4.43411479743,0.479402061428,0.0,0.0,0.575540254807,0.0,-2.17027987126,0.0,3.1816528876,-2.26248353166,0.574400842223,0.0,2.63927225254,0.0,1.3510911846,1.27501147509,0.0,-1.77805620118,0.758071116527,0.0,0.0,2.47623759659,0.0,0.630634634573,0.0,-1.88763784677,0.0,0.0,0.0,0.0,0.0,0.925837242582,0.0,0.0,2.34900502583,0.0,-1.94872344893,0.0,-0.996200499316,0.0,-2.0104194915,-2.33416367601,-0.259749612884,0.979560055453,2.10305113603,0.0,0.0,0.0,-0.456694270784,0.779144181046,0.0,0.0,0.0,-1.05836575466,-0.312025406296,0.0,-3.76974920146,0.0,0.811144638874,-1.74965705079,0.0,-1.77051486401,0.0,0.0,0.0,-2.22963425077,0.0,0.0,1.30555582872,0.0,0.0,0.0,-2.66626238399,0.810999262578,1.12879826197,0.0,-4.06528327283,1.88546478037,-0.0453612946985,0.0,1.51753467274,-0.87691942993,0.943642903698,-0.305183110645,0.0,0.0,0.0,1.90521592985,0.0,0.0,-0.15135474759,0.0,0.0,0.0,0.213061011874,1.01590052502,-2.59893849897,2.6530090544,0.558313435462,-0.823209120574,2.65999198825,2.77489821542,0.0,0.0,0.0,-1.90365985453,0.0,0.0,0.0,0.388291510741,0.0,0.138012220037,-0.0875366170019,-3.24371044448,-0.650684733668,0.0,-1.42531999934,-0.0685217337304,1.73053322701,0.0,2.57281303866,0.0,0.0,0.737810955347,0.0,0.0,0.427130071792,-1.16489711568,-1.97684194706,0.0,0.550122501894,-2.34824250126,0.0,0.0,-2.2934165704,0.0,3.8856361399,0.0,-1.65181746943,1.83062034871,-0.933970018266,-0.607042564736,-0.834081048107,0.311962204597,-2.2048436276,-2.28031049437,0.0,-2.00703350958,0.219032563329,0.0,0.0,-1.01154132447,0.0,0.955413281509,0.0,-1.9926150418,1.8897668847,0.0,-0.538242342867,0.0,0.0,1.2493460926,2.08410608955,-3.54556230083,-2.62542621999,0.0,0.0,0.0,-0.814509344945,-2.86230657992,0.0,0.0,0.0,-2.8810721098,-2.14777530878,0.0,0.810395858351,-1.48742860363,0.0,0.0,-2.00081963495,0.0,0.0,0.0,1.84640798989,0.0,0.0,0.0,-1.20891741902,0.0,-1.9370209079,-1.13483608334,-2.70890633318,2.14093062017,0.0,-0.262227138161,2.53009445725,-3.30953592666,0.0,0.0,0.0,-2.03650125609,0.0,0.0,1.30885072566,0.0,2.70045834504,0.0,-2.37822114291,0.0,0.0,-2.61903996596,2.31507451373,0.0,0.0,0.0,2.08079079459,0.0,-1.79416020279,-0.451720154163,0.0,2.61624454599,-0.470626305178,0.0,-1.71952246344,-0.810114240203,-1.89342672019,-2.34333351674,0.0,0.512094773555,1.16431866725,0.0,2.27830511262,0.165330349887,-1.91948440388,-5.52498639507,0.0,-2.64592807976,0.0,0.0,0.0,2.20101896377,-0.724321863108,1.67373025771,0.0,0.0,-0.401830930388,0.0,0.0,1.7465882461,0.0,0.0,1.53493242721,0.894303907258,-3.03786935222,2.71535055887,0.0,0.0,0.0,0.0,0.430110414802,0.0,-2.11685923387,0.0,0.854025710108,2.28941989632,-0.920512677755,0.0,0.0,2.47197814265,-1.09313862941,-2.83952036512,-1.1063567331,0.0,-0.845628439831,2.86358780817,-0.177071550524,0.0,0.0,0.0,0.549015058475,-1.51810491344,0.0,3.38668969406,0.0,0.0,-3.5146366458,-0.909048440449,2.95849796903,-2.01547618088,-1.37347590215,-0.173503424547,-2.81166379632,-2.24848759571,0.0,0.92182725031,0.0,0.0,-0.430949691521,2.26700442667,-1.45401222287,2.26423603543,-1.13674152289,0.0,0.0,0.0,0.0,-4.07379898104,1.62421446709,-1.87785455351,0.932725293522,0.74260271352,0.0,0.0,0.3713617679,-1.23646703079,0.0,-0.524805763947,0.2859223884,3.5868033716,-0.548901129451,1.63370322049,-3.20447406282,0.0,0.0,0.0924514412598,-2.75115269242,0.0,-0.591799090054,-3.70282875851,0.0,0.982592778345,0.612036371902,0.476401341664,4.82424796519,0.0,0.0,2.20600830375,0.880727791907,0.0,0.0,0.0,0.0,0.997513483917,0.0,0.0,0.0,0.0,0.0,0.0,0.632586805589,0.0,-1.4361881078,0.0,1.18299895926,0.0,0.0,-2.28285157603,-1.49376144582,-0.394376118655,-0.268405206192,0.0,0.428675563077,0.0,-1.11771513135,0.0,0.0,0.0,2.02739260703,0.0,-0.198737376288,2.91453921889,-1.14735088395,1.67949809213,0.0,0.0,0.0,-1.03266336145,0.0,1.51242566301,-1.08511555889,-1.59103172115,0.0,0.0,-0.06710814398,0.0,0.0,0.10211537581,-1.63509632589,-0.29129705537,0.0,0.0,0.0,-0.780687919478,-2.96682388861,0.0,0.0,0.45094599164,0.0,0.0,1.25685916787,-2.01560495296,0.0,0.0,0.0,0.23164600875,0.580336783711,0.0,0.0,0.0,0.0,1.77329194637,0.80055421693,0.0,0.0,-3.64845866745,0.0,0.0,-2.57327825122,-0.0952534439707,-1.01648581251,-0.178585710569,0.0,0.280441971335,0.0,1.43675061307,0.0,1.90418847283,0.0,0.417755914651,0.0,-0.35684183411,0.158489769843,0.0,0.0,0.0,0.0,0.0,0.0,0.0,-1.37068177557,0.0,1.41755519029,0.0,4.26979467344,2.20331225578,-2.74972156907,-2.28544979088,2.02618981653,0.0,0.0,0.581519795869,0.594924742725,0.0,0.0,0.0,2.20749860282,0.0,0.0,0.98872310071,-1.82362219484,-1.04091417117,-0.599551798303,0.0,-0.258899224867,0.0,0.0,1.59350720709,-2.10613753007,-2.0173445613,-1.35577766106,1.54918983422,0.170667622411,0.0,-3.06511859125,0.165526568986,0.0,0.0,0.0,0.853592003974,0.0,-1.70213927853,0.250765310357,-1.43452469258,0.0,1.48815698687,0.0,0.809006153733,0.0,-0.295998852646,0.0,-2.66629573128,0.0,0.0,0.49306932211,0.0,1.01515319742,0.0,0.0,0.0,0.0,0.0,0.0,1.01646936805,0.0,-1.54390593776,0.0,-0.960735355638,-2.43705285332,0.677650992885,-0.278736092703,0.0,0.0,0.739920705643,0.048947085769,0.0,1.28175021177,0.0,0.0,0.0,2.83800654609,-1.60262350802,0.0,-0.158675198504,-0.906426375212,-1.05442681683,0.0,0.0,-1.07140498502,0.0,-0.378873459522,0.0,0.0,0.0,0.0,0.0,0.0,0.0,0.0,-0.3826810125,-1.36200026865,0.0,0.0,0.0,-3.14881860124,0.0,3.90492600666,0.0,0.0,0.0,2.37517527797,-0.498113718149,0.0,0.0,0.0,2.36502676742,2.21599983981,0.586092515595,-4.0306447829,1.00929592185,1.37864199878,0.0,0.0,0.0,0.904600816045,0.450497833469,2.30231527745,-3.29557640749,0.0,-4.31515903704,0.30498604668,0.0,3.74409056215,0.0,-2.9231119745,0.0,0.722631556278,0.121889203497,-1.41167122867,-0.572361989424,-1.31896172174,-2.26114644617,0.0,0.0,-0.844218744887,0.0,0.0,0.0,0.0,1.1127401848,0.0,0.0,-2.3630844806,3.56297587792,0.0,0.308124570003,0.758807292548,0.837921578576,0.0,0.0,-0.852145474944,0.0,-1.00289103244,2.46843349822,1.88041927273,0.5807822455,0.0,0.0,-0.728538967417,0.468022845003,-2.07309017494,0.0,-0.692684001405,0.0,0.0,0.0,-1.78270372305,-2.25703774454,-2.29133662339,0.0,0.0,-0.208072505415,0.0,3.1018130757,0.0,0.412684734714,0.944573166954,0.0,0.0,1.65156347907,0.0,0.0,3.05938808706,2.18188864059,2.00918182789,0.0,0.0,-0.0316921323039,0.0,0.0,0.0,-0.352643809203,0.0,1.19569760469,0.0,0.0,1.71164992395,0.0,0.0,0.0,0.0,-0.799958532101,0.0,-1.89000351755,0.0,1.82811732104,0.0,0.0,0.0,0.0,0.0,1.37586526811,0.0,-0.153552529945,2.61140981084,0.0,-2.61981343941,0.0,-4.20380349718,1.63904893916,-3.14881860124,0.0,-0.753771266071,0.0,0.0,0.0,-0.425679996369,1.95723639445,0.0,0.0,0.0,0.0,-0.969193544031,0.0,0.0,3.7119784141,1.57361432714,0.0,1.5859810375,-1.65482174755,0.0,0.628338269327,0.0,2.5541995715,-3.60431786285,-0.349897979096,0.803944186647,0.0,-1.37495646926,0.0,-1.23618179299,0.0257211488839,0.0,0.0,0.0,-3.71854652814,3.96296801726,1.98711054564,-1.57235762137,0.0,0.0,0.0,-0.734269631069,0.0,-2.32152853472,0.0,0.0,0.0,0.0,1.20853611831,0.0671621837032,-0.700517828105,-2.40009152441,0.0,0.0,-5.21893792611,0.0,-0.921273314181,0.0,-1.74466542988,-0.718498913346,0.0,0.0,-0.963951315949,0.0,0.0,0.0,-0.254574834237,-2.2630842322,1.56617422182,-0.278736092703,2.26674424213,-1.69018485341,0.0,-0.0668187360632,-0.4221807753,0.0,-3.12131587722,1.20320909917,0.0,-0.780824717677,0.0,1.4709870873,0.979128560235,0.773085868854,0.0,0.0,1.13112964645,-2.45705225935,-0.788630402401,-0.579330308513,-0.884092063039,0.0,0.0,0.696551330351,1.57153208022,0.0,0.599187362062,1.62060569419,0.0,3.64049371632,0.0,0.0,-1.35774315007,0.0,-1.24987963148,0.0,0.0,-0.552771857452,-0.511778636202,0.0,0.0,0.0,-0.347981594836,0.0,-0.50326873265,0.0,1.30881195885,2.10444907829,0.0,-2.10025915094,3.12557567707,0.0,0.0,-0.790922443481,0.0,-0.341516533763,0.324512164661,0.0,0.0,0.0,-1.34477478119,0.0,-0.951439497139,0.0,0.340169502244,-2.18547150367,-2.32218006152,0.0,3.7325882188,-2.38200484432,1.00360260841,0.0,-0.614576531411,0.0,0.0,0.0,0.0,1.45401222287,2.53407559759,0.0,0.0,0.0,0.0,1.89409015412,0.0,0.0,0.0,-1.20715202858,0.0,0.0641759701727,0.0,-0.587714312975,0.837275998367,1.25685916787,2.12368177726,0.0,0.0,0.0,-0.775006353685,0.0,2.80772457256,0.0,0.0,-3.43512055773,0.603282303585,2.26511908644,-3.06598481927,0.0,2.52776064243,0.0,0.978699883622,0.0,0.722631556278,0.0,0.0,0.0,-0.661439219456,-3.41293793684,0.0,0.0,-2.50728491014,0.0,0.626421339015,1.0823359041,0.0,0.0,0.0,0.0,-3.02686289648,-0.531056279014,2.3528516639,0.0,0.0,0.0,-1.0131758777,0.0,3.9785778238,-2.19202459488,-0.528168507505,0.0,0.0,0.0,0.0,0.473166769999,0.0,2.28320256975,0.0,-0.108143259114,0.0,-0.683618307114,2.55614919074,0.0,0.788981309466,0.0,-0.133936345802,0.0,-1.63509632589,0.0,0.0,0.166179428398,0.0,0.0,-2.67753877505,1.17631099109,0.625093948467,-1.12076024928,0.0,0.0,0.354384563077,0.424379497692,0.437040673734,0.0,0.0,-2.55569707881,0.0,0.0,0.54453892159,0.515360832015,0.0,0.0,0.523862349495,-0.257161136462,0.0,1.56237104783,0.0,-3.21990720293,0.0,0.0,0.0,0.0,0.0,0.0,2.41518739327,0.0,0.0,0.0,-4.07488034901,0.0,0.0,0.128856383014,2.80735835039,0.0,0.745671735004,0.981953838686,0.500019261232,-4.71128510083,-0.972641472306,0.0,-1.31777924762,-1.03506768143,0.0,0.0,0.0,1.4523059675,2.75226300983,0.259222630132,-0.16104830991,0.0,0.0485736403273,0.0,0.0,0.0,0.0,0.0,0.0,2.24660366552,0.0,0.0,0.0,2.69085368354,-2.19474035675,0.615702529775,-1.4026748139,0.0,0.632563151671,0.0,1.04724597791,-1.35787836622,0.0,-0.160453778656,0.0,1.29345338166,-2.60704653487,-1.90691354143,0.973091338223,0.0,0.0,0.304155974734,1.66298161592,0.0,0.0,0.581986249154,-4.09086997712,-0.733505458453,0.0,0.0,-0.11880838562,0.0,0.0,1.59281424218,0.0,0.0,0.0,-0.912694901609,0.0,0.0,0.0,-0.292954499841,0.0,-0.441494785597,2.5656739699,-1.35775404681,0.0,0.0,0.0,0.0,0.0,-1.93965389471,0.0,0.0,1.96653032561,2.91723261645,1.51955589498,0.0,3.47010195488,0.0,0.0,0.0,0.0,0.0,-2.11237226695,2.38867399388,0.0,1.58819812813,-0.857415349225,0.0,0.0,-0.462400881322,0.0,-0.249261833918,-2.18547150367,3.39102326666,-0.780824717677,0.321432682287,2.36080380501,0.0,-1.66905440221,0.117098203388,0.0,0.0,1.79406453461,0.0,0.0,-0.82115413805,0.0,-0.833748519703,0.0,0.0,0.0,0.0,0.0,0.0,0.0,2.74344146732,0.0,-1.0598900035,0.0,0.0,-2.49969633275,0.7267989259,0.0,0.0,0.0,0.0,0.0,0.0,-1.72555632691,-2.42353098619,-2.61441259504,0.0,0.534421730937,-0.824841948708,0.0,-0.120745381061,0.0,0.0,0.0,0.456525356841,0.0,0.872059192487,2.61461627878,0.0,0.0,0.0,0.0,1.40284959243,-2.44989803125,0.0,-4.81449664736,0.380571768155,0.0,0.0,3.29857715484,0.803944186647,0.0,0.0,-2.51714379888,1.32733607727,0.0,0.0,-3.55427414882,-0.844043071918,0.0,-1.94597116176,0.0,0.0,0.0,0.0,0.0,3.58107020086,-1.75643308293,0.0,-2.5565820011,0.0,0.0,0.0,0.0,0.0,0.0,0.0,-0.344521870267,4.13003709196,-1.1074129105,1.39689209478,0.0,0.0,0.0,0.0,3.65053470375,0.0,0.67952519246,0.0,0.0,-1.73555389234,-0.599730471936,4.08294653567,-2.42614103536,0.0,0.0,0.0,2.04271614375,0.0,0.0,-0.756390871927,0.0,-0.0906442989186,0.0,0.200368789127,-2.78199214629,0.0,-1.05278445969,-0.498113718149,0.0,0.705700369375,-0.44238550248,-1.68766477506,-0.566201642993,0.0,0.0,-2.54698938838,1.51014522281,1.90932455135,1.14461088667,3.40700543416,-1.42520609501,0.0,0.302978279304,0.0,0.0,0.0,0.0,0.0,0.0,0.0,0.365021854412,-0.793707924631,0.0,0.0,1.65393861777,0.0,0.0,-0.337917572246,0.0334974960745,2.68700490321,0.0,0.0,0.0,-3.58688790104,0.0,0.0,0.0,1.15475290181,-3.76052902869,1.81531881965,0.0,-1.45973508733,0.0,0.510735434478,2.35745669249,-0.72874220769,0.0,-2.08058504418,-0.68510156937,0.0,0.0,2.95770613484,-1.09218838569,0.0,0.0,-0.114996763186,0.0,0.0,0.0,0.586092515595,0.0,0.0,1.45331839062,3.1473444051,-1.49584960486,0.200185471897,0.0,-2.02013451421,0.0,0.0,0.0,-0.321943021977,0.0,0.0,0.0,0.0,0.0,0.935058645817,0.0,0.0,0.772774498501,1.78462001554,-2.40468464592,0.950920272804,-1.9212903316,-2.06840425113,0.0,1.59348548858,-3.16964182872,-3.59053807676,1.17098521211,0.0,0.0,3.07321356306,0.0,0.0,0.0,0.0,-1.1063567331,-0.782488444228,0.0694127572326,0.0,-1.82967492516,0.0,0.0,0.0,-1.42506266525,0.0,3.31316336364,-3.29387240744,0.0,0.0,0.324215576874,0.0,0.0,0.0,0.0,0.0,-1.43595959527,0.0,0.0,0.0,0.0,0.0,0.0,-0.125160140512,-1.30847243917,-0.129034869133,-1.19268328826,0.0,0.0,0.0,-0.619491896699,0.0,0.685564162895,2.33573368482,0.0,0.0,0.0,-0.370274191249,-1.96996446557,-2.37547736748,0.945515942291,0.0,0.0,0.0,0.0,0.0,0.0,-2.77663991743,0.485958671261,0.0,0.0,0.0,0.0,-1.94621142512,0.0,1.54227527284,0.0,0.0,1.8391834593,0.0,0.0,0.0,0.0,0.0,0.0,1.72825681507,-0.947875999576,0.0,0.00212441428383,-1.9576111621,0.0,0.0,0.0,-0.327591132515,-0.609336796604,0.0,-2.10923574288,0.0,2.11786959994,0.0,1.14321357402,0.0,-2.66289042796,0.0,-1.30235163331,0.0,1.19378661503,0.361906337805,-2.6172552104,-1.13785348004,0.0,2.32642570498,2.38330050538,-0.57246651255,-1.22709883355,0.0,0.0,0.0,1.29642954694,0.0,0.0,3.44237818069,0.0,-1.46615426632,0.0,2.80661284527,0.0,0.535111134134,0.0,0.488303101412,2.73967923112,2.32432940372,0.0,1.75495288591,0.0,2.35251849536,0.0,0.0,0.0,-2.75910431488,-1.75066910076,0.0,0.0,0.0,0.0,0.0,0.0,-2.47772512586,0.0,2.47095248087,0.0,0.0,-0.681912018747,0.0,1.11229552418,-3.45883730716,0.0,-0.261293466627,0.0,-1.40215270615,0.0,0.0,0.0,0.0,0.0,0.0,2.53833494886,0.0,0.0,0.0,3.52476274295,2.1798489528,0.0,0.0,0.0,0.0,0.350977874009,-2.47193416185,0.0,1.3667915944,0.0,-0.338765851653,0.0,0.0,0.0,0.0,-2.42870089976,2.38368309588,0.0,0.0,0.0,0.0,1.83213444992,0.0,0.674276744254,0.0,-0.875457628721,0.0,-2.58569135526,0.0,0.0,-0.106025330513,0.0,0.0,-3.37191565706,0.0,-3.08982572843,0.0,0.0,-2.83871634007,1.25685916787,0.0,0.0,0.0,0.0,-0.307824769378,0.0,0.146471433661,0.0,0.0,1.1969783577,-0.0504196735486,-0.19650668111,-1.37162233479,0.140246520661,-0.566992446026,0.0,-2.96058185176,-0.300415152738,0.0,-1.34411825918,-2.28441975549,1.1180080911,0.0,-0.669103419562,0.0,0.0,0.0,-3.47202968164,0.0,0.0,1.83321005914,-2.20892413218,0.0,-4.07381861388,0.0,0.0,0.0,0.0,0.0,0.0,-1.3202623261,0.0,0.434527935328,-0.881737420584,0.899184089858,0.0,0.0,-2.6570309519,0.0,3.05826569231,0.0,0.0,0.296822433541,-0.424180016007,0.0,-1.44205814834,0.0,0.0,-0.384818248143,0.0,1.19118667631,0.0,0.0,0.0,0.0,0.0,-0.738959929288,0.0,0.0,0.0,0.0,0.0,-0.0947957919308,3.48030639824,0.0,-1.92746556655,0.0,-1.99272127388,-0.954993230754,0.0,0.0,0.0,0.0,0.200368789127,-1.60113349084,0.463684387119,0.0,-0.402010042066,0.24346707142,0.0,0.0,1.23735189674,0.0,-1.95393001147,0.0,0.0,-0.297724136006,0.0,0.0,0.0,-1.65896824491,0.0,-1.04454845864,0.0,0.0,-3.02148210402,-2.15214676716,0.0,0.0,2.30214795438,-2.55979553539,0.0,2.37001045849,0.999661124638,0.0,0.0,0.0,0.336270782172,0.0,0.375414945334,-2.34160821536,0.0,-4.24688327094,3.46134840116,0.0,0.0,3.14281547379,0.0,0.0,-0.0247170491653,0.0,3.77164296559,-0.441176888225,-1.93258991874,2.02357913353,-0.475259163336,-0.732319885204,0.0,0.0,4.06126527638,0.0,-1.35017069869,0.0,0.0,-1.57614073584,-0.226964700074,-0.15641458717,-1.04641906199,1.35395231996,0.439481997037,-2.36417340552,0.0,2.66264706417,0.0,-3.08166809695,0.0,-0.166068734214,-0.167151067728,1.75200969886,0.0,-0.466859095689,0.0,0.0,0.0,-0.189059613615,0.0,0.0,0.0,-2.23612340423,0.0,-0.547725429445,0.0,0.0,-1.97257079022,0.0,0.0,0.0,0.0,1.83075695013,-1.01395232922,0.0,0.0,0.0,-0.351998433352,0.0,0.0,-3.23294553813,0.0,-3.95263346464,1.23491231308,0.0,0.0,0.0,0.0,0.0,1.74549171439,0.0,0.0,0.0,-0.0241881738429,-1.3463694407,0.0,-0.36873929494,0.0,-0.106630330578,1.15130549268,1.44630259315,0.0,0.0,0.0,-2.92192341125,-0.512064735794,3.3396757233,2.47370842013,0.872126977195,0.0,0.0,0.0,0.0,0.0,0.0,-0.113681549447,0.722631556278,2.27450171274,-1.17636578675,-1.5754901413,-2.70634810145,0.0,2.33361983262,-0.0641183134914,0.0,0.392208712935,0.0,0.0,-1.45293824194,0.0,0.922850348718,0.471139500303,0.0,0.0,0.0,-0.883026513888,0.0,0.0,0.903558891698,1.78738054412,0.0,-1.20237563531,0.0,0.0,0.0,-0.931029127071,2.1899085509,4.99633120565,-0.835923073515,1.01231802704,2.70087318432,0.449894478794,0.758586023864,-2.2808674177,0.0,0.0,0.0,-0.220078843728,-1.47267802046,-3.9968868517,0.0,0.0,-0.80626371351,0.0,-2.57150508917,0.956074547072,0.0,0.0,-0.803177003086,0.915258560893,0.0,0.0,-1.57901220468,-4.3431767653,0.0,0.0,1.58209135464,0.0,0.414278814846,0.0,-2.48988038875,-0.747748837988,0.0,0.0,0.0,0.0,0.0,0.0,0.0,-2.0096068445,0.0,-0.482483824323,-2.67985262096,0.797508985808,0.84189565435,-1.24358021488,0.0,0.0,0.0,0.0,0.0,0.694630691193,0.0,0.0,-1.32868058248,0.0,-0.3826810125,0.0,1.48857585571,0.0,0.0,0.0,-0.211720311878,0.0,0.0,-0.597539510152,0.827519260333,0.0,-4.15686921634,0.0,0.0,0.963002923974,0.0,0.0,-1.12076024928,-0.390990929181,0.827519260333,0.477227386476,-1.10236459808,0.0,0.0,-0.542469241659,-0.744108665323,0.0,1.19855518332,0.0,-0.445031358881,0.0,0.0,-1.11771513135,0.0,1.08307786019,0.0,0.365021854412,1.34780639487,0.0,0.0,2.6767449137,0.0,0.0,3.13606510435,0.0,0.0,0.0,2.06624441992,-2.48230449895,-1.61544483074,0.0,0.0,0.0,0.0,0.0,0.0,0.0,0.0,0.0,0.977005636076,2.05563620793,0.0,0.154533132726,0.0,0.6790082231,1.15788721191,-2.42744327799,0.0,0.0,3.91650459979,0.0,0.342316442623,0.0,0.581986249154,-0.994662442547,-2.07409388513,1.72699944091,0.0,-1.10772080545,0.0,0.0,0.0,0.0,0.0,0.0,0.147355939628,0.0,0.0,0.0,1.93061484575,0.0,-0.184128038175,2.96177182423,3.20798680522,0.170667622411,-4.64836015278,0.0,0.0,0.0,-0.385314776846,-1.21605856846,0.676594234229,-1.73457199555,0.466331228427,0.0,0.0,0.0,0.312563416143,-0.905870873627,-2.14702732341,-1.7631193742,0.0,0.0,2.50128232777,0.0,-0.840936004843,0.0,0.0,0.0,-0.684090057,-0.10514747468,0.0,0.0,-3.51221753302,0.0,1.35459003809,0.0,0.0,0.0,0.0,-5.05776040146,0.0,0.0,0.0,1.91234527132,1.73928262044,0.0,0.188924695149,1.05450918554,-1.01379783551,-0.258396459131,-1.11242176157,0.878905150776,0.0,-0.80626371351,0.0,0.0,0.0,2.55544091225,0.980909944729,2.25033942163,0.11118748486,1.4523059675,-0.695591761776,0.0,0.0,0.0,-0.10162979789,0.88661952781,-2.6466794481,-0.0499761388317,-1.63437858223,0.11963017121,-0.646334766766,0.0,0.0,0.0,0.0,-1.24390530632,0.440614689028,-0.864239794669,0.0,-2.85689789069,-0.874674363553,0.0,0.0,0.0,0.749747212652,0.0,1.93838333539,0.0,0.0,0.0,0.0,0.0,0.0,0.0,-2.96473562505,0.0,0.0,-2.71205579832,0.0,2.06552213856,-0.42215347712,0.0,0.0,1.12991556287,0.0,-4.14316601113,0.0,-2.12937277537,0.0,0.0,0.0,-0.376632545753,0.0,0.0,1.85957108755,0.0,2.90293889966,0.0,0.0,0.134036060461,0.0,-0.967869611438,-2.84886093321,0.0,0.0,1.74002495521,-1.2092396911,0.0,2.93669518644,-0.345160061699,0.0,0.0,-0.866657517642,0.0,-0.607087595711,2.19409132134,0.0,0.0,0.0,0.0,0.0,0.0,0.231932039346,0.0,0.0,0.0,-2.78026518316,0.0,0.0,0.401839172044,0.0,-0.253557965935,-3.56952094887,0.375218031852,0.0,-1.6173931111,0.84189565435,0.0,0.0,3.52302797472,-2.95938184026,0.0,0.991621838989,0.0,-3.49682819476,-1.6011974475,0.53534572464,0.318810860107,-0.625124506512,0.96180801792,-1.04794299796,0.0,-1.49402254257,0.0,0.0,0.492912227802,0.0,0.0,0.0,-2.32601150263,0.0,-1.64170797899,-1.45879297127,-0.394618903196,0.0,0.0,0.0,0.0895129308773,0.0,0.0,0.376263274031,0.0,0.0,-0.219538695923,0.834062672026,-0.789932686438,1.02180210421,0.0,-1.8625571839,-1.8450998196,-1.24929037883,-1.24567364149,-0.619025637878,-2.88946407065,0.0,2.36586515063,0.0,3.20159822217,1.81925683655,-1.04790429612,0.280308693396,0.634770283776,0.0,-1.29634025291,0.0,1.39519684892,3.48030639824,0.073756602234,0.0,-0.953211564253,0.0,0.0,0.0,0.0,-0.795600473975,-0.266118588485,0.0,-2.12013895318,0.775032433886,0.0,2.48201444293,0.0,0.0,0.276024449466,0.0,-3.00286979296,0.0,0.66365659049,0.0,-0.793463788269,0.0,-1.46185181574,0.0,2.2012484978,0.0,-0.112585582715,-2.77984302429,0.0140514190161,1.1127401848,-2.5965319508,-4.01802419292,2.5931696433,-3.66701565837,-0.00352302875378,0.0,-0.337917572246,0.0,0.847629370422,-2.08898075325,-2.29296155144,0.30439444933,0.0,0.0,-0.133815424762,0.0,-0.76956380492,0.0,-3.14630492949,0.0,0.0,0.0,0.0,0.0,-0.242577554846,-0.661433093853,0.0,0.361779179801,0.0,0.0,0.0,0.0,-0.311878359455,0.0,5.24138838316,0.0,0.0,0.0,0.0,0.0,-1.52896277473,0.0,-0.3765014753,-1.93127562827,-0.0868067977429,0.0,0.0,-0.103471515549,0.0,-2.14870644281,0.0,0.0,0.0,0.108546652464,0.0,1.79880480545,0.0,0.0417886844816,0.0,1.51235115078,0.126398027669,0.0,0.0,0.0,0.0,0.0,0.0,0.0,0.0,0.0,0.0,0.0,3.33901667473,-1.74466542988,-0.597619249918,0.0,-0.751870118868,-4.36639907903,0.0,0.0,1.16431866725,-1.29923941229,-1.37518135153,0.0,0.961885654177,0.366434777447,0.0,-0.239780933026,-1.49935269474,0.0,0.0,1.72496193962,0.0,1.00742978849,-0.113966139605,0.0,0.0,0.936528540482,-2.16695702427,0.0,0.0,1.12944910584,-0.903320723645,0.0,2.3330844674,0.0,-1.77055508252,0.0,0.440908959437,-1.60163174704,0.0,2.66504571328,0.0,0.0,0.0,0.0,0.463290588046,0.0,0.0,0.0,0.0,0.900028838506,2.17275497344,1.60816437225,0.0,0.0,1.29525428301,0.0,0.0,0.0,1.0377506742,0.0,-0.577053598385,0.0,-2.45780929914,0.0,2.65537987518,2.38497898052,0.0,0.0,0.0,2.5492810459,0.0,3.532200989,2.32993603729,0.722631556278,0.0,0.518753091312,0.0,0.0,0.0,-2.89619244081,-2.19941333634,0.168523652921,-2.98808194784,0.0,0.0,0.892220592507,0.0,0.0,1.76734024642,0.0,1.37586526811,0.0,0.0,1.71952839108,0.148038177147,0.0,0.0,0.0,0.0,0.0,0.0,0.0,2.49499351646,1.6939678492,5.74644735625,0.0,1.98298231109,2.12238309578,0.0,0.420478997036,0.0,1.38358838934,-0.465698620681,-1.27295597581,0.0,0.119574644701,1.72253858225,0.0,3.60945116814,-0.684784390654,2.53097945657,-2.65578976958,0.0,3.38855040685,1.56935758888,0.0,0.0,-1.48290932232,-1.28349118289,1.09653592537,-3.47651324402,1.50734129392,0.0,0.0,0.483139165494,0.870888464177,0.283714811921,0.0,0.0,0.688005587138,0.369626031204,0.0,-0.575633973648,0.0,-0.305460037477,0.0,2.33827428867,0.0,0.0,0.383756091075,0.0,0.0,1.69804618264,0.0,0.720968934364,1.59915165088,-2.97720486195,2.61928023409,-0.544152229377,2.31372786909,0.0,0.0,0.257604266593,-2.03664341575,-0.936730058769,0.0,0.0,0.0,0.0,-0.348447613457,0.0,0.889428525759,-1.80459349087,0.0,-1.30556699578,0.0,0.0,-1.14685369067,0.0,1.59350720709,0.0,-0.415410102502,0.612642558316,-1.53161382587,0.0,0.0,1.24637421794,0.0,0.0,1.19223071165,0.770370940796,-0.0981454421781,-1.57901220468,0.0,0.0,-1.06767587456,0.0,-2.48270438745,0.0,0.0,0.0,0.0,0.239566572514,0.0,0.0,0.0,0.0,-2.18547150367,0.0,0.0,0.0,0.0,0.0,-1.71799701808,-3.44383826482,0.509725091821,0.0,0.0,0.433086019183,0.0,3.28729176764,2.0041700049,0.936918159285,0.0,1.25301716265,-4.05518870779,0.0,2.39137332054