0.656154914925,0.0,0.429909328835,-0.391100357844,0.368768653662,0.0,0.0,-0.0971774386431,-0.160341740597,0.0,0.519587059837,-0.3677860869,-0.31876443177,-0.747571950261,0.470706023443,-1.01325955071,-0.213880531593,0.965346533352,0.0,0.646762712043,0.0,0.69854990381,0.0,0.498482757778,0.28307702143,0.0,-0.94538944028,-2.15451631208,-1.30933935152,-0.372825458963,-0.0794718669148,-0.901444934365,1.56112945101,4.43768378694,0.391031215662,0.740287039154,-0.284334311906,-0.777909812329,0.0,0.468239451622,0.422889885064,-0.88330407006,0.453232833281,-1.16419911397,0.0746675713146,0.535833523362,0.0,0.0,1.27794717564,0.0,0.99370432012,-0.289083051072,0.483574213463,0.0209187042756,0.0,0.0,0.193041273942,0.537352211247,0.449748676877,1.55504537087,-0.571982509098,0.0,0.0,-1.18779383486,0.0,0.657422318429,-0.426744453056,0.0,0.993803370668,-0.696086163058,0.279094056726,0.408433333991,0.0,1.4536286675,-0.124261468809,0.0,0.970603612491,-0.762843005587,1.64433041773,-1.30974876605,0.825214137778,-0.703264194412,0.0728348072005,0.0,0.0,-0.53112914842,0.000884014956812,0.0,0.0,1.52403109034,-0.11519150569,1.21944799201,-1.5537966181,-1.71307597912,-0.133893194155,0.0,-0.245737061303,-1.00275820804,0.470885511567,1.12042199925,-0.16769791676,0.0,-0.0199857825653,0.335478894075,0.986476989319,-0.754244761577,0.0,-1.57212589211,0.450034058355,-0.71971774747,0.431141943638,0.0,-0.152396511145,0.0,-0.385314023115,0.849735279283,1.12554444958,0.0,-0.155059153497,-0.0503670601472,-0.285969100244,0.0430209331742,0.0,0.197342759154,0.0,0.0,-0.868585111157,0.585858361726,-0.182374050728,-1.08955225042,1.59900927816,1.20579538562,0.188634100317,-0.610569354702,-0.141757699377,-0.341245646779,0.0,0.00101111596383,0.349771539802,-0.084924113654,-1.90490138455,1.71996034028,-0.882117956487,-0.517065687034,0.488541724997,-0.60133910646,0.465461798656,0.0,0.0,1.5211644591,-1.3855045286,0.601643196705,0.869243557926,0.49296654264,-0.294601109167,0.0,0.0,-1.49632169258,0.933849763527,-1.09658313682,-0.14436247838,0.0,-0.698928422845,0.0,0.0,0.0,0.58677370961,-0.231179201247,2.14705399852,0.0,0.0,0.0,0.0,0.0187140008664,0.0,-2.05960476337,0.0,-0.377702818403,0.0,0.711873518852,1.11916030468,0.0,-1.18884079452,-0.820638553078,0.0,0.0,0.0,0.0,0.971805802234,0.239963859734,1.71674018,2.78865814386,0.706528458861,-0.725418916314,1.24681383212,0.0,-1.18460552454,-0.184565490463,0.0,1.25189627237,0.463128735577,0.0,-6.90037192213,-0.815634611407,-3.46747324208,0.0,-0.466120131536,-1.01883587505,-0.254667762565,-0.78946086197,-1.20484714695,0.742224122106,0.44724321164,-1.00060526958,0.0289069375368,0.0,0.657463093036,0.0,-1.65840078079,0.0,0.0,0.0,1.16359866754,0.0,0.0,0.868570396413,-0.454274062972,1.25011359594,0.0,-0.395015222718,1.07133731639,0.0,-1.74765137577,-0.191248558243,-0.636303522913,-1.04851090058,1.37487300737,1.47754307253,0.0,-1.89110947427,-1.47574900249,0.0,-0.166774820843,-0.431290938177,-1.38699719775,0.0288612296658,0.0,0.0,1.52653008614,0.0,0.0,0.315511823881,-0.0656441396835,0.0,1.28695400881,-1.94834827928,-0.0493450086786,0.0,-0.0287077177306,0.0,0.0,-1.97589107538,0.628126445858,0.0634720743532,0.445270404718,1.46668954539,0.492537287936,0.337404636786,-0.856421931122,2.02770459403,-0.575879894199,-0.961991046709,0.0,-2.56571442931,-1.92053503858,-0.450920445358,-4.55811925742,0.0,-1.3070830119,0.62269704788,0.0,0.0,-1.36702236655,0.419206573496,1.03790094642,0.0,0.0,1.11317494176,-4.5035770397,0.0,0.0524491721416,0.0257128286391,0.0,-1.84559157221,2.77365755977,0.0,0.0801662281805,0.0,1.54137869242,0.812703748181,0.0,-0.629685074451,1.19872237806,0.0,0.0,0.0428865534406,-0.453842741222,1.14324484249,0.474863967733,0.257256761907,-0.536407935066,0.196420707388,0.669164015106,0.0,1.38302178225,0.0,-0.71711546663,2.38735894632,-0.0279514212797,2.37362684329,0.0,2.20496307662,1.53008924524,0.689573201886,-1.03772444327,-0.815924192313,2.19116331745,0.773126512377,0.629709644181,0.539563047245,0.608106688506,-0.377223826441,1.42442981193,-2.87551536825,0.0759243160011,2.10044612068,0.0,0.390403735878,1.48575034382,1.23523098719,1.12117317197,0.641152843131,0.0,0.0,-0.179310595566,0.0,1.51299895241,0.0,0.214833607957,0.901877987255,0.0,0.132966096231,-0.975899891562,2.70440087359,-2.04006945605,-0.921959690953,-1.52554874637,0.0,-1.37663367278,0.0,0.0,0.0,-0.264739318955,-3.26798566802,-2.40348854509,0.282712909089,1.45900837624,-1.20585529634,0.0,0.0,-1.40844771463,-0.106031076252,0.0,0.0,-1.75700354899,0.0,0.0,-3.47708559253,0.0,-1.66881285858,-0.438000043255,-1.23508628112,1.72336234344,-0.496883754078,0.0,0.0,0.0,0.0,-0.324819336348,0.0,-0.255248524678,1.84243646135,-0.260941423785,-1.95572534074,0.363724061002,-0.805834425091,0.0,-3.28285127007,1.53119487681,0.522128130067,-0.807095817533,-0.752834339807,2.40937150248,-1.05998889999,0.0389497096801,1.26157602417,-0.576166167527,-0.898838259871,1.45157136115,0.908419443481,-0.216053858569,0.0,1.59023347158,0.50534359797,-0.418579026406,-1.34841555642,-0.542958659711,0.414661226349,-0.429611162191,-1.70605579383,2.28179852663,-0.681867391365,0.0,-0.151656411391,2.3657552522,0.0,0.177560617219,0.0,0.0,-0.35332940192,0.0,0.960873037606,-0.909422246753,-2.00687663307,0.102004667526,-0.0938196560513,3.94509284633,0.0,-1.30161047987,1.43744478012,-1.41460548994,0.0,-3.19745398916,2.31133419902,-1.56164386118,0.0,4.56072857037,0.0,-0.11273078307,0.0,0.419416371174,0.731348789345,1.17022025374,1.40313805177,-0.060335891453,0.0,0.718624282577,0.0,2.76611486755,1.19390418746,0.0,2.08836452092,0.911476987076,-1.61362272908,-0.456583556074,0.341955381859,0.220160813768,0.0,1.09197821855,0.396105057353,1.52617918211,-0.282743250544,0.445757883143,-2.06089059097,0.0,0.0,0.0,-1.07735091754,-1.8574533178,0.0,-0.947104690845,-0.56095758742,0.671584414562,0.0,0.0,-2.40037012432,1.26884770738,0.0,0.0,0.0,0.0,-0.49246885947,0.0,0.0,0.0,0.353778510587,0.0,0.210917506287,0.0,0.253054086659,-1.72663858518,-0.189801880322,0.219803953535,0.0,2.92468300746,-1.09557411041,-3.15913419982,-0.805704173182,0.0,-3.02467114129,0.0,-0.560549568503,0.0,0.0,1.81506659405,0.0,1.00509398609,0.48909400093,0.0,0.501615803997,0.0,-0.110164711274,-0.791640894596,-0.502712161917,-1.03252934639,0.765346377939,0.0659583951209,-0.684187979538,2.66111280798,-0.119258766919,1.02973743905,1.1955252276,0.0,-3.4769192381,1.36759131979,0.547844204754,0.370590249039,-3.71853861304,0.0,-3.2492558553,0.0,-3.23650192719,1.20614752542,0.0,-2.33516420569,-0.400046463359,-1.14787255124,1.43137141336,0.0,1.85029407419,1.52743477653,-3.0548121184,0.498427900661,0.0,0.0,0.0,0.0,-1.54042863649,-0.672715190472,2.75836612694,-1.35204186,-1.14716203458,0.824079183991,-0.247245192998,0.0,1.02445119779,0.0,1.39519199631,2.48028825677,0.0,0.0,0.0115948714126,-1.90768596465,-2.06661188867,-1.36053132741,0.0,0.577037269328,0.550873225826,-1.71030051743,-1.3369125455,1.11825813912,3.58567985023,0.0,-0.467285929417,-1.11201774737,-1.77839709081,3.9534014571,0.0,0.0,0.0,-1.11356329818,1.07032682667,2.11563803091,0.684186783238,0.0,-0.480428461602,0.0,0.537965838667,0.0,-1.13782167459,1.03556345857,0.00967411438168,-1.5311275434,0.108819505088,-0.831978610073,0.0,0.199310916703,0.345675533137,0.0,-0.055531439019,-3.98297756318,0.592761863046,2.81253881687,-0.0102728216005,0.0,0.0,0.0,-2.12807255808,2.23481357981,0.0,-0.928650672351,0.0,0.0,0.375340754928,-2.96119449704,1.61548406142,-1.31475127978,-1.4938889794,0.0,0.375588849412,-0.863815026863,1.76343824777,1.26284901246,0.468639605407,0.0,0.0,0.0,-0.949000321361,-2.92436529146,3.36108896767,-3.05043134654,0.0,0.0,1.45765837388,0.0,0.228778463987,0.0,-1.42293257379,-0.312532475469,0.0,0.0,0.0,0.0,2.33066759216,0.0,0.185972138028,-0.831146626879,0.0,0.0,0.355182000877,-1.00560152597,0.395233404244,-0.711064610252,2.16262947564,0.0,0.0,-1.0956070136,0.0,0.0,0.0,-1.29135452633,-0.606773795951,0.0,4.1327188822,1.51479343876,2.22575029358,0.0,1.62395951804,0.0,0.0,-4.91584337694,0.0,0.0,1.16352126389,-2.18894698138,-1.19906259849,-0.564139512779,1.39993824321,0.649012759921,0.0724458889292,-1.07622105949,-0.189077745874,0.0,-1.25822632597,0.0,0.0,-1.34807543422,-1.70287305805,0.0381476499687,-1.20575521096,0.557882843461,1.51611032774,0.0,0.0,0.388786987063,0.0,-2.92637204119,0.0,0.507262322078,0.0,2.43399013635,0.0,2.04386704506,0.0,-1.30521534256,-1.02107046195,0.0,-0.695343708583,-1.71676902277,0.0,0.0,-0.412674667526,0.531228632191,0.0,0.301724533441,0.0,0.0,0.0,-0.79297208266,0.0,0.0,1.2098006611,2.44276055922,-0.403729722406,0.0,0.0,-1.83229829836,-0.797234216476,0.0,0.0,0.144236746213,0.0,0.0,2.07061589188,-1.23840034951,-3.99319378748,1.15988657538,0.0,-0.0054482031254,0.0,0.0,0.316648364282,-2.0647149498,-1.010528657,0.0,-0.708175421775,0.0,0.0,1.14792352959,0.221074836574,3.16952327974,0.274896264266,-0.405932959895,0.79310844942,0.0,2.60982496394,2.40462692493,1.39166312876,0.0,-1.1756179944,-3.14465629459,1.72201502195,0.0,-0.0690102527065,0.110290945503,1.30231520657,0.0,-0.0737302148337,-4.02337618201,1.20193887548,-4.32965192622,0.462228575299,-1.48957724928,0.279744767496,0.0,0.0,-1.08273044372,0.319418963914,0.0,0.0,-0.457313051666,0.701538916697,-1.18935798634,0.422832406764,-0.374103074573,0.784294812582,0.311726214824,-1.64564247162,1.47318300568,1.11736573414,-1.41705790634,3.8350436103,1.01375382655,0.0,0.178168770061,0.619799248157,0.0,-5.0414098363,0.310119853115,2.36325289951,-3.4358436478,0.842817701783,-0.841622231625,3.4565157211,1.33980665228,0.0,0.0,-1.7789727397,0.0,-1.17189053382,-0.621576645107,-0.476502053507,-0.51008263328,-0.23766585737,1.00303104618,2.65196874973,0.967316703266,-0.252838814546,0.0,-1.97512009765,0.0,2.03352825018,0.0,0.0,0.0,-1.14186096208,1.34391694006,0.13952851122,0.0,1.88830458907,4.66181336848,0.0,-4.76615460291,0.383763956848,-0.00251356539245,0.0,0.0,0.863151607055,0.0,0.0,0.0,0.0,0.427423576298,2.15790758155,-1.06061114015,1.94269285232,-2.1756373873,-1.68498380165,0.0,-2.85329648434,1.23343274504,1.75041167683,0.0,0.0,0.0,-0.36692624123,0.0,0.0,3.36237975789,0.572125865756,-1.36034759114,0.144219926494,0.0,0.222932859446,-1.22522606799,0.0,-1.64103156306,0.0,-0.0654050754317,2.31424274705,1.44931267172,-2.70725218945,0.499733924378,0.0,-4.40446051712,1.8541480098,0.0,-0.341490220661,-4.66592728239,0.0,0.0,0.681814963981,2.28953612783,0.0,-0.839762254705,0.0,-0.339425191173,0.0,0.0,-1.11091897065,-5.27045592254,0.0,-2.09823792296,0.0,-0.570099514485,-1.28043261857,-0.737041509747,0.0,0.0,-1.07136498094,-0.750125337916,-3.7680403199,0.0,0.0,0.388801293536,-0.298108179913,0.228546316683,-2.00775012548,0.0,0.0,0.0,0.0,2.20026466764,0.0,0.876218629238,0.0,0.0,2.53956545612,-3.53094934883,-1.22078578083,0.0,-0.722912889567,0.0,-2.06962975337,0.181847087738,0.0,0.93409218271,-0.48783914706,0.0,0.0,-0.264755499116,-3.28726299038,0.0,-1.33013020527,2.77731397805,0.0,-1.69912022593,-0.183541550648,0.0,0.0,-2.24491147691,1.92028074856,-0.293300707959,-1.75149818767,0.204845203235,0.0,0.0,0.0,-0.473374796983,-0.459857051492,0.0,-0.645939790772,0.0,0.0,0.750765876997,2.2703535317,-0.294014704217,0.0,0.0,0.0,0.0,3.98811709099,0.0,0.0,0.0,0.0,0.0,0.0,1.23843667788,2.9799145158,1.89889303465,2.38859075149,-0.302039333723,0.0,-3.1195801335,-0.644900770035,0.617505078455,0.0,2.20349225601,0.0781393139873,3.03902693172,-0.593110678124,0.0,0.668206888214,0.0,-2.173648912,0.595324500284,0.0,0.712448109783,0.0,-0.877374006607,0.695186249946,0.12136632411,0.88809593358,0.694103932305,1.16217497998,0.0,-3.67943627641,0.0,1.90158351911,-0.107414064667,-1.47970128531,0.0,1.60343880688,2.17983384393,0.0,0.0,1.58843380821,0.0,0.0,-1.73768306336,-3.04530406441,0.0,-1.10320682564,3.34205108423,0.0,2.66240819078,0.0,0.0,0.0433097869867,1.48801583045,2.66238641857,-2.47186543432,2.82125092435,0.0,0.205886386615,-0.774029322134,0.387219708835,-1.39982443627,0.0,1.09261062902,0.0,0.0,1.86205995012,0.0,-0.0893330242512,-0.603893445711,2.33489476867,0.0,0.0,1.89556295572,-0.608547190532,2.07859568912,1.60207469446,0.0,-0.722366727336,-0.83080192754,3.12036640885,0.0,-1.37888254706,-0.6142866628,-1.96473601464,0.0,1.12321811628,0.0,0.0,2.87618833109,2.35580562585,-1.01162897027,-3.42588171685,0.0,-3.11168117016,1.57479568611,-2.98180194541,2.36208117875,0.0,0.0,0.0,0.0,0.0,1.14425296453,0.0,0.0,0.667293629897,1.44939065325,0.0,-1.06423240104,-1.01830797312,0.0,0.0,-0.102609362671,0.679374917189,-4.25460393041,0.970532073648,2.0264436869,0.208643454854,0.0,0.250898473211,0.0,4.53661941758,1.26634052098,-0.903882823032,1.96566070975,0.0,-2.75872086796,1.98473371039,0.0,-0.576661423331,2.80131587506,0.0,-2.40286951127,-0.74252724678,0.0,0.0,1.01596858903,-0.604084686855,0.0,2.91990012504,-0.128953930787,1.08186229277,-0.0845311779271,0.0,0.0,2.40984510953,0.0756567386357,-0.462601224113,0.0,0.0,0.0,0.0,0.0,1.18804569091,0.0,0.144184906869,-0.969281637466,0.768224991298,-1.26705938034,-2.88944897369,-1.57449400721,3.00475840731,0.0,0.0,1.86378124503,0.0,0.0,-0.952006459668,-0.640624808727,0.0,0.861213320307,3.44474569926,-0.721976325453,0.371239169497,0.161564744125,1.2882971325,-1.66908347199,0.421849329613,1.3046400244,3.3483703316,0.0,0.0,-0.577938401519,0.0,0.299380972726,0.0,0.0,1.15440224275,-0.0419656063745,0.822176584267,0.170488939686,0.379798156712,0.0,-0.538779575138,0.587534713772,-1.11484901601,1.0398459064,2.42051152488,0.0,0.0,0.0,1.45666404145,1.4086575657,0.0,-0.718607024176,-3.00118419846,2.85193419033,-1.0250880528,0.0,-3.04915642171,-1.54620131334,0.0,1.36010646884,0.0,0.0,0.0,0.0,1.40653191837,-0.183460756536,-0.745705132151,-1.1114366044,-3.22147030891,0.0,-0.709125606444,0.800540246147,-3.44737673768,0.587514347354,0.0,2.06865949594,0.0,-3.77599425904,0.0,-1.02467956333,1.70679202626,0.0,0.0,0.764625910959,-0.633712543308,0.0,-0.630600768313,-1.28783689761,-5.20891074469,1.65232607851,-0.719815977225,2.43212537738,-1.24792624513,-3.75285467613,4.44354751189,0.0,-0.390999704915,-3.85459064305,0.0,0.648680415858,0.0,-0.749091916716,0.0,0.0,-0.771060772618,0.0,-2.04420362876,1.27538344589,0.107479599756,1.8516599236,-0.500453582439,0.340522978314,-5.4408322371,0.0,-1.80420297453,0.253968692646,0.0,0.0,-0.0612858907461,0.0,0.0,-0.281107585688,1.01658703571,0.0,0.0,0.670108415393,0.50963331048,0.0,0.0,-2.1617339514,0.0,0.0,2.35216623528,0.0,0.0,-0.251378455513,0.0,0.0,0.0,-2.00140384184,-0.29741375041,0.0,0.431602074951,0.0,-1.34824521572,0.575508713348,0.875345000502,0.0,0.782138681389,0.0,0.226601894929,0.0,0.0,0.413533024811,0.0,-1.06310256335,0.0,0.0,0.765306530836,0.0,-0.852555648925,1.95225024571,0.0,-1.15369384035,0.0,0.0,-0.118240511076,-0.370410145931,0.0,0.0,0.0,-1.31861626609,0.0,0.684888147054,-1.83635091507,0.744683485929,0.525574847648,0.0,0.0,1.41410841161,0.0,2.94472519853,0.77314721289,0.335782628995,-1.46319444781,1.03162768919,-2.55340419343,-1.80592973224,0.220903395914,-0.5685798893,-0.396980048381,-0.637822001619,0.0,0.0,2.64715671778,-0.575054503191,-0.318373380164,-0.521111262383,2.30948549441,0.0,0.0,0.0,-1.82320642004,0.0,0.0,0.0846639587418,0.0,0.0,0.0279609203133,0.0,2.69929875706,0.542566517525,1.39661693055,1.00268113871,1.49796874035,-3.85983288736,0.0,3.72323053397,-0.535125825625,0.0,-0.1226763542,0.0,0.0,0.0,0.527879399825,0.0,0.0,0.0,0.0,0.0,-1.89204566378,0.0,-2.35387982486,-0.967687545013,0.0,-0.191954658875,1.63045366814,-3.3804959978,0.0,2.74760069479,0.923259366003,0.0,-0.0189520639617,0.0,-0.859330804777,1.29443400984,2.23821333773,-0.566035992976,0.0,0.321121022863,-1.56247608454,0.297455911892,0.294362815997,-0.436340102082,0.0,2.79715197169,0.0,4.53267812549,-1.74128258018,0.0,0.0,-0.622685833976,1.33187752251,0.0,0.0,1.09990654855,0.0,-0.264665683598,-1.14630769416,0.0,0.812978691201,0.0,0.0,-2.99713851922,0.0,0.0,1.23626552999,0.0,0.0,0.0839681574275,-2.25667610542,0.0,-0.137721047768,1.80703344006,0.762235373563,3.4498021601,0.232790143698,0.0324633264056,-3.89513174871,0.0,0.0,0.0,0.0,-3.79328462876,-1.33107802605,0.0,0.485376941654,-1.85956201257,-0.313481766821,0.0,0.0,0.0,0.67665519707,1.0097987206,-0.925650771177,-2.38258233046,0.0,2.52183171631,-0.928943421482,0.0,-3.1084173486,2.83149754837,-1.98972135593,0.0,-0.845460235523,1.60400531139,0.3259690295,0.0,0.689849441631,-1.2102973564,-2.25488256711,0.0,-2.23323922279,0.0,-0.633478123195,0.0,-2.35061615642,0.0,0.0,-1.34111142427,0.0,0.0,-0.486430672319,0.667921075402,3.24907470169,0.582868433606,0.542452951306,0.0,0.0,-0.18056857643,0.0,-4.00076655664,2.64862440739,0.0,2.79102381025,-2.21107438797,0.0,1.13428974557,0.0541182729445,-0.181283021635,-2.58304389894,0.0,0.225809750151,0.0,1.33439433143,0.0,-4.21473823412,0.87807206435,1.67463302445,0.0,0.973864128241,-1.20275862825,0.0,-1.32736927878,-1.80206056182,-4.10807010756,0.0,-1.35026432875,-0.00486621331149,-0.881786180781,0.0,-0.750670460323,0.78991833164,0.0,-1.43347730352,-3.31673380953,0.0,-1.90990339716,0.0,0.0,0.256688615694,-2.69275307436,-0.0429424629134,0.0,-0.93786100979,-1.83953132197,-4.08924291025,0.0,0.0,0.0,0.0,0.934861096496,0.23024160659,-0.741224632301,0.0,0.523747847346,0.279140445533,-1.1462539232,0.0,0.670825552656,0.0,0.0,0.0,1.93640374742,0.0,0.0,0.0,-0.907388926992,1.88728718164,0.180886720271,0.0,-1.11067129806,0.112717567348,-1.12074132527,-0.355810135554,0.994930039156,-1.55412312476,-0.977542961755,0.0,-0.934354589283,-2.94741365906,0.357195027703,0.0,0.0,-2.9830473158,3.90619723094,-2.13363258662,2.43418257957,0.0,1.22243857209,-1.39699611019,0.0,0.0,4.39930329427,0.0,-2.70739501252,-0.025457223759,0.0,0.0,-2.20229035505,0.167921451867,-3.7783682449,0.0,-1.77868285324,2.3068588879,-3.29027265798,0.0,1.68153674724,0.0,-3.30990272333,2.18842698222,4.64604843841,-0.743277738268,0.0,0.0,3.90097518474,0.584338257965,0.0,-0.2625478167,1.3525976507,-1.21801202263,0.475400768065,0.0,0.0,3.89201568512,0.0,0.0,0.767081120579,0.0,0.327747418143,0.0,-0.0762610548124,0.0,1.30074880798,-1.14689761469,0.203989887483,0.0,0.0,0.54558737026,-1.21928065843,-0.362133726717,0.427968104696,-0.484324883198,-0.306974751557,0.0,-2.27600137831,0.0,2.47951682286,-1.44748673532,1.36350673849,-2.07655222901,-0.86836853435,-3.06210705258,0.0,-0.403380078987,0.0,0.0,1.65674539435,0.0,0.0,-1.30605950936,0.331226661512,2.39209315545,2.41227014913,0.0,0.578956644695,0.0,-1.53045455636,0.14256382819,-1.78951296421,5.91337009251,5.79873374848,0.0,-0.206282003663,-0.56969028028,0.0,0.67996801726,-3.06353081058,0.603211869807,0.175589110919,-4.91571318393,0.3159145099,-0.955919407369,-0.876129472636,0.0,-0.938649205034,-0.373422862678,0.0,0.0,0.138063914998,3.97505641483,1.33288448788,-1.04849908827,0.458249217728,3.03700963607,-1.46798278521,-0.681291736664,1.49032008538,-3.02435162611,0.431355605263,-1.75983267722,0.518852493777,1.43718503868,0.0,0.0,0.0,0.6218834724,0.0,1.88974612118,0.747902006493,0.0,3.8926927373,-2.84107181,0.0,0.0,1.87945625569,1.10729451123,-0.27794521979,0.0,-1.05844861259,-2.52453380621,5.21314039224,1.70537826937,2.28416405382,0.0,0.0,3.53782216134,0.0,-1.24233025832,0.0,1.58786333946,0.734220029752,0.0,-1.51887714504,0.350382649607,-5.24167803119,-0.389959470654,3.44025832519,0.213268432144,0.0,0.0,0.216342721237,-0.863032299482,0.0,0.0,1.86816972895,3.09245879423,0.935273288601,0.0,-1.74750932309,2.52369240704,-1.04785588092,-2.23557995935,0.0,0.0,0.0,-0.628390092876,0.0482628824519,0.0,0.370037695539,0.0,-0.589487374872,0.49660387188,0.0,0.635143606074,0.0,0.0,-1.59040784221,-2.24344121156,3.14629871266,2.35669324906,0.33560031706,-1.44859352154,0.0,0.0,-1.5269505391,-3.44385099067,0.0,0.0,-1.98690451813,3.63456972272,0.0,0.116176038956,3.74039923189,0.475196317005,2.14062408317,0.0,0.0,-0.987936092222,0.772973289559,-1.63087423689,0.0,0.0,-1.43796193846,-0.777198270694,-4.5618427658,0.0,-0.11944498514,0.0,0.0,0.243965918218,0.929857151961,-0.184009842816,-0.571458929381,1.57692322784,-1.18610467496,0.0,0.0,0.316262056768,2.08620359957,2.15497130518,0.0,-0.584692284509,0.0,0.0,-2.06938488227,1.71997803141,2.59648867154,-0.394841503782,0.0,-2.54244305197,0.0,0.0,0.0,0.0,0.0,0.0,0.0,-0.719186127409,0.0,-3.50561704445,0.0,0.0,-0.631944645421,0.0,0.883447894928,-4.25783786571,-0.109969341105,0.0,-1.84941374285,1.9094191346,0.0,0.0,2.14407003123,2.69486487761,0.0,-1.87917532114,-3.76801485196,0.0,0.651509738728,0.0,0.0,0.0,0.0,0.0,0.0,-2.23848979334,2.01650185217,0.654352524647,0.0,0.0,-0.652894322538,3.59442629387,-1.06460128828,0.0,0.0,-1.04598289395,0.0,0.0,0.0,-1.69090463214,4.66945807213,-0.0721059110832,0.0,-0.528415424916,0.0,1.39098841855,0.0,0.546263016365,-2.48554433139,-0.95362252784,3.17367684552,0.0,-0.259896431977,0.0,0.943026840995,0.669094199781,0.0,0.667383513183,0.0,0.789041941479,-0.295380132099,0.0,0.0,0.0,-2.1862117996,0.0,-4.33272036348,0.0,0.0,-1.67010725303,0.0,-0.53748660694,2.81565881262,-1.55654874408,-1.54952195376,0.690699190216,0.525993829777,-0.516346978392,0.0,0.0,0.0,0.0,0.0,2.92427111623,0.0,0.0,0.0,0.0,-1.41651287972,0.0,0.0,-2.46035376241,-4.21182661221,0.388948464667,0.0,0.0,-1.45335305001,0.347630108276,-0.504349105501,-1.08352542031,1.53830126813,0.0,-1.08328083893,0.0,4.33515646938,-0.740071531815,0.0,0.623197055443,0.0,-0.426770742882,0.503379494061,-0.964435981616,0.365891777802,-1.15002394123,-3.01873946648,0.0,-3.20788606276,0.0,-2.69573664756,0.324914339727,-1.65506370657,-0.129121876998,0.0,0.0,1.0969225247,0.0,0.0,3.51512592984,-1.5151459312,-0.167880949097,1.90155497247,-0.56385372185,0.0,0.0,0.0,0.0,2.45423189695,-1.04659833546,-1.04208122589,-1.72951260038,0.0,-5.30993295636,-0.182105778779,0.0,0.0,0.804503286789,-0.0411095219658,0.0,0.0,0.0,2.2060615009,0.0,0.0,3.50343167776,-0.226649205893,0.0,3.22165059404,0.386729601919,0.483744409871,-1.48800443632,1.02546775399,-4.22664707606,4.25126859733,-1.17422532614,0.0,0.0,-0.915931103519,0.0,0.0,-0.125514242556,-4.37154556384,-2.31281352,-0.559144286287,0.0,1.21268828307,0.0,0.0,0.0,0.0,1.36387792839,0.0,0.0,0.0,0.0,0.0,-1.18707920386,4.0437037703,0.0,-1.49587228766,-0.181533411405,2.78036758869,-2.74666739482,1.05956813666,-0.770801344415,0.0,0.0,-1.00181346476,0.0,0.0,-3.4356412802,0.0,1.16814939235,0.0,0.0,2.36809876432,-0.556932793437,-2.0636103671,-4.13428272865,3.7473057025,-1.57156371666,-3.78866932716,-1.33558754251,-1.68453260729,0.0,1.27268019604,0.0,-3.9077911877,2.03570636045,0.0,0.377077267333,-0.552660545456,0.0,4.23218686485,-0.923019815487,0.0,0.0,-1.69018440876,0.0,0.0,0.0,2.91510007581,-0.598394491527,0.101968848009,0.865007131814,-2.0873958361,3.92748416999,-4.4696605788,1.53782611501,0.0,0.0,-0.0951111127041,0.542976610787,-1.082021094,0.0,0.0,0.0,0.705577720237,0.238668527569,-1.59697566837,0.0,0.0,2.04406327734,-0.635941750208,0.0,1.34426003623,-5.17752879757,0.0,2.41699268961,0.0,-5.85401184188,1.07618108294,-1.79503808642,0.0,0.0,0.0,-1.70797884057,1.29878030281,0.0,4.87320782421,-1.18776891981,1.30136388239,4.08598297451,0.0,-3.51525058851,-0.946303342888,-0.819858341789,0.0,-1.19261198694,-1.93555049018,0.0,-2.84541334037,0.0,1.27390793872,0.0,0.0,-4.30915245941,-2.3437570593,-4.12857328336,-0.522834571247,-3.93772970813,0.0,0.0,-2.62838325716,1.87014892101,-2.81299016624,0.0,-1.38238347884,0.0,0.0,-1.59852986543,0.0,0.0,-2.78288134377,1.30152834306,3.49685723549,-3.90045097384,0.0,0.450585439514,3.03783376331,-1.79091910581,0.0,0.0,0.028253154919,-2.63665532477,0.0,1.34218055504,0.0,-2.11842647923,3.49985151115,0.0,0.0,0.0,-0.226670518955,0.0,0.0,1.66670252528,0.0,0.0,2.5159810636,-1.37098596498,1.73500452272,0.0,0.0,0.0,0.0,0.0,-1.80321574426,0.0,0.0,-3.24819946117,-3.763468678,0.0,0.0,0.0,0.0,1.89017545849,2.12308292981,-0.173312829046,2.48588891949,0.0,0.0,-1.63390456192,0.0,0.0,4.26407938611,0.339184159143,-0.472107839317,0.0,2.15422542613,4.4272685989,-2.00605758804,0.0,0.0,0.0,0.0,3.01723418468,-1.05371010707,2.67200630049,0.0,0.0,0.0,-1.95249290672,0.0,-1.92512500017,-1.36133582029,-1.74127879938,-1.5032099585,0.0,-0.0593246978797,0.0,0.0,2.18163120526,1.84978758122,1.19556111041,0.0,0.0,2.21144124907,0.0,1.60686626496,0.0,0.0,0.0,0.0,1.45887298038,0.0,0.0,0.0,1.27346424449,0.0,-1.28325469931,0.0,-3.40665994293,0.428162019327,1.15767486531,0.0,-0.747189052364,1.25412464851,0.0,0.0,0.113454641944,0.581416844355,-0.813732935431,2.26666694127,0.0,1.95268796991,0.0,0.0,-3.98065871113,-1.30559028122,0.182355262668,-0.507084977053,-1.27719089442,0.0,-1.62941817878,0.0,-2.92354696701,0.0,1.09073280314,1.14767116136,-2.29396790188,0.0,-2.22652530127,-0.665231446518,0.270340870453,-1.07622054693,2.84159110405,0.0,-1.76430931631,0.0,0.0,2.13553682704,2.6127372684,0.0,0.0,3.05868073061,0.0,1.80068359932,0.0,2.5276458617,1.10301497774,0.0,-5.88910548525,-4.76945296947,0.441352134057,0.0,0.0,0.893993690666,0.0,0.0,0.853095827864,2.1054282562,0.0,-2.12289356827,-3.25112267264,-0.935607361676,-0.0652484267529,0.0,-3.76897702378,-1.13422534416,0.0,0.0143392291013,0.949871682476,0.0,-2.88352157341,0.0,0.0,0.0,0.0,0.0,0.0,1.60795032855,-3.83753859045,1.89525625834,0.0,0.0,0.0,-0.849414870595,0.0,0.280765403624,-0.286880746271,-4.63173985573,0.0,1.32520757469,-0.0194191790445,0.0,-2.42578222889,-3.72596715069,-2.91266065522,0.0,-1.8631089537,0.0,0.0,0.0,-1.26077486829,-3.37359791891,3.09464587561,-4.45700929208,1.84934099084,0.0,1.27309834554,-1.61408443444,0.0,0.747916022596,-0.214221635622,-2.37796981501,-0.92034035684,-3.70787171848,0.0,-2.95585912721,0.0640138541649,-2.43234291724,3.74602625311,0.0,0.0,-1.82963895026,1.01693979417,0.0,1.94727928499,3.50204637851,3.26458119217,0.0,0.0,0.0,0.852845609781,0.0,0.0,0.0,0.0,-0.197418236919,0.0,-0.24108147458,3.32648752361,0.0,1.19271544101,0.0,-0.437126573515,0.0,0.0,0.0,4.0666876136,0.553799416758,0.0,0.539928086447,0.0,-0.849111595474,0.0,-2.75081833165,0.0,0.0,-3.30427928483,2.9353493917,2.46024431367,2.78598311899,-1.41805433743,0.0,0.0,-4.65188653659,-2.64971742457,0.0,0.302797008357,-1.36803094479,0.0,2.27484657312,0.292314700419,0.0,-0.455650841265,2.31745813942,-2.48498033919,0.0,0.710619358741,0.0,0.14651240255,5.42377314265,1.04881164156,0.171168204545,0.0,-0.599454592461,-0.470395259809,0.0,4.09946048449,0.0,0.0,0.0,-0.0937027495287,-0.122750727491,3.02979768818,0.953527979551,0.0,1.44160110393,0.0,-1.45651211627,1.49526288769,-0.571169062173,-0.549478985517,0.0,-3.43835328847,3.80592686919,0.0,0.0,0.0,-0.402785316768,0.0,0.0,0.057883982737,-0.793878367358,3.60749975664,0.0,3.24611272441,0.0,-2.4350691464,-0.595173803205,0.0,-0.257163693139,0.0,0.0,-0.880154932843,-1.89189156165,0.0,0.0,0.0,-1.5076703762,0.0,2.08580216375,0.0,2.36758331897,0.87147826765,0.0,1.42449392814,0.0,0.0,0.0,0.0,1.79779133323,-0.119786132597,0.0,-2.13664627812,-1.13494463721,0.0,0.354696554619,0.0,0.0,0.0,0.0,0.0,1.15001911993,-1.34930906815,-3.38047697561,2.55652004962,2.22405382209,-1.79099267825,0.0,0.0,-1.58560888136,-0.895934118047,0.0,-0.137071504946,3.08901575669,0.0,0.0,0.0,0.0,0.0,0.0,3.08714129084,-0.143176371227,0.0,0.0,0.0,-0.885793904035,0.0,-0.0361081995404,-2.07878531707,-1.14978462395,-1.0655166931,0.754575498066,0.0,0.947122584516,3.90037325025,-5.42669368018,-2.01199433088,-3.24875614805,0.0,0.0,2.18926154398,1.69916813189,2.67809979668,-3.59974778287,-3.4024599304,0.0,0.0,-1.84382690577,0.0,0.84668866431,0.0,0.0,0.0,-1.81921173925,0.934839954599,0.0,0.428051160579,0.0,0.0,-3.31904490112,0.0,-1.69556562335,0.0,3.6699176516,-0.443906463028,0.510976018267,-0.117021119681,-2.92218502645,0.0,5.18326085721,-1.54836410241,0.0,1.6298779899,-2.92742830942,0.0,1.17357148278,-3.22053000993,2.39966487286,0.0,-2.57156617921,0.246070115928,0.0,0.0,-2.18547150367,0.995514193702,-0.713052456208,-0.863553648201,1.7028664012,0.0,0.0,0.0,0.0,-2.81381462214,0.0,-2.71642236759,0.669417372612,-0.130820392075,-0.586491104118,-0.999684027958,4.34751040948,0.0,-0.808505814146,-2.51728394011,-2.71344804486,-2.08402818341,-1.1168689963,0.0,1.09500624621,-2.76025282175,0.0,-1.51614641602,0.0,5.18349627129,-1.56931728501,0.0,0.0,0.0,-0.561416479721,-3.04401885539,0.0,-3.24007678989,0.0,0.0,-1.72968756882,-0.231407199578,0.456046613899,0.893354444891,0.495068381559,-2.53387521909,0.407851468667,0.0,0.0,0.0,0.0,0.0,1.19629705957,0.0,0.0,0.0,0.0,0.284561159072,0.405901762568,-0.292571524727,-2.09001311332,0.0,-0.773499598875,-2.21905199482,0.909958559867,-2.35842675869,0.0,0.0,-3.96426428499,0.0,-2.02180811579,0.0,-0.494088689595,0.639403027326,0.0,-3.34878615759,0.0,-2.86086400972,3.06156947055,0.0,-1.12494509325,-0.120086410955,0.0,0.0,0.0,0.0,0.0,0.0,0.152667669381,0.0,0.0,-3.15371854975,0.0,0.0,2.26213527712,0.0,0.0,2.19243176236,1.22794978228,0.436068486709,0.138828089624,-1.40724498014,-2.50807433715,0.0,1.20119382813,0.0,0.0,0.739947256931,0.0,0.0,0.0,0.844779976377,2.05098192462,0.0,0.0,0.726588002662,0.0,0.0,-2.5548858257,1.32448347302,0.0,1.24789682448,-3.37550400517,0.0,-0.110549309006,-0.655169976923,0.0,0.0,-1.67443735921,0.171876407948,0.0485691686641,-0.822057455891,2.66568009207,0.820221762856,2.57470498061,-2.57675678174,2.13169634874,-0.205807720628,-7.95754996171,2.86401499189,0.0633053542294,0.0,0.0,-1.63224517805,0.124514517815,-4.76649110496,0.0,0.0,-0.00542527472982,0.701221814126,2.36256334272,0.0,0.0,1.75654556404,0.0,0.0,2.04624053659,0.0,1.37050846642,0.0,-0.332605581655,0.699797350935,2.31799140953,-0.974631199351,-0.119886046668,-2.91248853501,2.5271307986,0.56273115324,0.0,0.0,0.0,0.0,5.0833371289,0.0,-0.166790388338,2.85215604244,-0.385989349789,0.886970687147,2.57939023982,0.0,-2.78031487791,-4.11149713261,0.0,1.67414347919,-0.42912329287,0.64616104053,1.29241914621,0.4505928998,-2.06988272662,0.0,-2.03158208251,0.0,-4.85905619516,-5.43650241732,3.05128835497,0.0,2.17531079219,0.245198406443,-2.07301668707,0.0,0.0,-0.129854371146,0.0,0.0,-1.88829833942,-1.25782233085,2.79350917871,0.0,0.0,0.0,-2.688464086,0.0,0.0,-0.914518266049,-3.9575006793,-0.683286250531,2.64388765835,0.0,3.46012161064,0.0,-0.888019517272,1.32599277203,0.0,0.0,-2.21478190593,0.0,3.40074044913,0.889106162254,-2.33062235738,-1.06811333908,-3.15023031431,-1.36859123194,0.0,0.191314671161,0.0,0.0,0.0,0.0,0.236140102709,0.0,0.0,3.38446853472,-2.24485631809,0.0,0.0,0.0,-1.72189006737,0.513145989804,-2.71432432711,-4.11987157664,0.0,0.0,0.0,0.0,0.0,1.45106407386,0.0,4.76133604833,0.540295221397,-0.910370973323,0.0,-0.497802558738,-2.10054298093,0.0,-2.73829220268,-4.94530962239,1.51889145276,0.0,0.0947391366318,0.0,-0.648703504484,0.0,-0.5944272613,0.0,-3.61486713079,0.0,0.482763143696,1.45536174728,0.0,-1.59387247913,0.0,-0.735040632946,-1.23301647631,4.72463144067,0.254096378956,-2.09539198545,0.0,0.422764709271,0.0,0.0,-0.89523149903,-1.122439257,1.64648857667,2.31556952593,0.0,0.865863579956,0.0,0.0,0.903275723242,0.0,3.65748068148,0.0,0.784910442155,-2.26726770946,1.79646068619,-1.18931497043,2.18547150367,4.69781296046,-0.886604407443,0.0,0.0,0.0,1.45496777074,-0.205498708457,-0.321640188103,-0.777501018652,0.0,0.0,3.36850531403,-1.04206704563,-2.05987352842,2.66840460388,1.5796788879,-0.551656384012,0.886067394218,-3.27625138894,2.18547150367,-2.26090203915,0.0,-1.98366778694,0.0,-1.5987506655,-0.575877496874,-1.58033184535,0.253152950987,3.49683040756,1.6830542703,-4.53680666859,0.0,-3.95951708935,0.0,0.0,-0.266707814138,2.47637411634,2.65701220599,-1.04195243226,-1.65867960338,-0.965448446836,0.127750272285,2.86853685777,-1.32286661566,0.0,-0.951128785924,0.0,0.70088316425,2.53934155664,0.0,0.0,0.980812526175,0.0,-1.628689532,1.76327941399,-1.69232330246,0.0,1.60095092408,1.37492632239,-1.35130613862,2.15399591583,2.60655752076,0.0,0.744735409815,1.8236469884,4.41779920701,0.0,-0.619442595657,-2.58027121936,0.0,1.32682139353,0.0,0.0,0.0,-2.4098574863,3.08239295985,1.44627884322,0.0,-1.39574251073,1.98857748073,0.0,0.0,0.0,0.655959421143,-0.460717755865,0.0,1.2779837014,-0.837316315638,0.0,-2.31314134911,2.29563282891,-0.155803717185,0.0,0.0,-2.29708256608,0.203572318855,1.28870710931,-1.10264162535,0.0,0.0,0.0,0.0,0.0,1.32560269865,-2.65514261018,-1.75199736105,3.53504994562,0.0,0.0,-0.142763539169,0.0,-2.83614024463,0.0,0.0,0.0,0.321949319015,-2.18547150367,-0.890204892811,0.26185414925,-0.716414883391,-0.943543365633,0.0,-0.462889279334,0.0,0.0,-2.32279722461,0.0,0.0,0.0,-2.82340149083,-1.53674670408,-3.1127208455,0.0,-3.37597280927,1.18921480051,2.93433236966,0.441452357791,1.38733197564,0.0,3.27002702057,0.0,-2.59470649632,-2.47498739651,4.2323016298,1.08887586021,0.0,-0.263207656431,-2.14146489005,2.98233798559,-1.11161243233,0.0,0.0928086682511,0.0,2.04775773412,0.0,-2.53427765731,-2.4547330364,0.0,3.17963177133,0.0,0.0,0.557085230167,-1.58804120829,0.00368016461344,0.0,0.0,1.18388672014,-0.282314276665,-1.20916176521,-2.09866401231,0.0,0.0,0.0,0.0,0.0,0.0,0.0,0.0,0.0,0.69636802666,2.38434495844,3.22055931479,0.0,0.0,0.671783462052,0.0,0.820974381498,0.0,0.0,0.326087700683,0.715173426612,-3.07373641596,-0.00797646526335,0.0,1.25162133305,2.86470518008,-3.962862373,0.0,0.0,-1.61662867276,0.793922333473,1.56986452886,3.60812618536,0.0,0.0,0.0,0.0,-4.30552633842,0.0,0.0,-0.337648026745,0.0,-3.4093920052,0.0,0.0,1.52584858596,3.75776018015,2.66493621144,0.0,-2.680307686,0.0,1.06538000928,0.808886072332,-0.928650672351,-0.614735667129,-2.07910564285,0.0,-2.42870661493,0.0,5.42587559773,0.0,-0.841861632996,0.0,0.0,0.0,-0.648606724229,4.24819115027,-3.83787115571,0.0,1.84786763535,-0.978965062365,3.46752911713,0.144901005425,-0.474453791576,-1.07454487561,1.41775115569,1.12934961941,-1.57694604123,0.0,1.59252436804,-1.19605222343,-2.96840325764,0.0,0.0,0.0,1.4302470164,0.0,0.0,0.0,0.0,-0.568946352046,0.0,0.38325693522,-3.18917239894,0.781847674679,1.64804861536,-1.76480084193,0.581560443065,0.0,0.0,0.0,-0.876328730029,1.61668073724,0.0,0.686558022231,-2.53083745212,-1.09330327649,0.0,0.0,-3.10390871257,5.26932670509,0.0,-1.15683998548,-0.832179907327,2.51126335719,0.0,-2.06196718824,0.0,0.142792288598,0.0,1.2074979484,1.36277426293,-0.65447464825,0.0,1.37357096335,0.932817544568,-2.52762473686,-1.43421117398,0.0,0.0,0.0,2.26622842212,0.0,-0.890636869924,0.0,-1.48657743291,0.382061679806,0.0,0.0,1.92477021461,-0.0556130193886,-0.229922474822,2.98752857139,0.0,0.0,-2.22591354426,-4.19468196482,0.0,2.76573027152,1.80728751615,-0.832922225764,0.0,0.0,0.0,1.31004964667,-1.83604726466,-1.35959046806,-1.97294908607,0.0,1.97920056859,0.615811426763,0.0,-0.47775939118,-0.543480058066,-0.727810689528,-0.437353952935,0.0,0.0,3.24211852793,0.0,-1.15607117233,0.0,0.0,0.0,0.0,1.15077606258,0.0,0.0,2.89811038519,0.0,0.0,-2.12633272926,0.0,0.0,0.0,2.11873851622,0.0,0.0,2.69114090017,1.80604720059,0.0,-1.77659456241,-3.12925595314,0.0,0.294654612407,0.0,-2.23493029275,2.34556492661,0.0,0.0,1.04149637414,0.0,-5.06914441655,1.2252779319,0.329088738429,0.0,0.0,0.532841760966,-3.27314068528,0.0,-1.62287727781,-0.370984736048,4.15050351821,-1.31624635856,0.0,-2.69076981504,0.0,0.826829829556,0.0,1.33028656149,-1.58283547787,0.0,-1.77948706834,0.0,1.62286222274,0.0,0.0,0.0,1.23958511443,0.601821905376,1.91615899062,-1.76315937433,0.0,0.0,0.0,0.0,0.0,0.0,6.15333338928,-0.419386998516,2.95540957973,0.0,0.0,4.46796252439,-1.74130134761,0.0,-1.53359931609,0.0,-0.182371239352,-4.33890915123,-0.250845685109,-2.18547150367,0.0,0.0,0.0,0.0,0.0,-1.70622890428,2.01275945037,-2.89752980186,0.0,-3.90866208722,2.24381342582,0.4171271769,0.0,0.0,0.0,-1.34512947745,0.0,-1.73558743853,0.0748228463368,0.0,-2.45145521898,0.830469882197,0.0,0.0,0.0,0.0,0.0,0.131655586336,0.0,2.69081522434,-3.11545713907,0.0,0.861284089344,-0.301269048523,-1.97240941774,0.0,1.29456851676,0.0,-0.103941120289,0.00723011790314,0.0,0.675158040845,0.935758502995,3.88374354238,0.0,0.0,0.0,0.0,-0.591243563017,0.0,-1.40996655199,-1.67923235442,2.8520371164,0.0,1.03227902454,1.34786650889,0.0,0.0,-2.60411996552,1.32963458897,3.21289700039,0.0,0.0,-1.89602190361,-1.68330205557,0.0,-2.53912110737,0.241749095132,0.0,0.0,-3.1754854825,0.127174804644,-0.010125893101,0.0,1.70068143654,-0.146508912371,-1.3909705506,-3.74278688276,0.0,0.917950766435,0.0,0.0,-2.23361300857,0.0,-2.33514025379,0.0,-1.73861774406,0.0,-0.0297485532703,2.25701006723,0.0,3.23839767861,0.0,-1.79381806658,-4.38937627256,-0.853078576368,-0.7807118878,-2.46359803099,0.0,0.0,0.0,0.0,-2.84518394529,0.0,3.03589953603,-0.669357134702,0.0,-0.182589533333,0.466436619514,0.818308554317,-2.70855823971,-0.858168723086,0.0,0.0,-2.91158932787,0.0810823256473,0.0,-0.0560321494871,0.0,0.0,-3.71425606878,0.0,0.0,1.32071960257,0.0,-0.78656113046,0.0,0.0,0.0,2.06184973785,-2.43700985223,0.0,0.0,1.44999547556,0.861778207445,0.0,-1.05187491077,0.0,1.29128881132,0.0,0.233341721406,0.772758714231,0.0,2.29122581015,0.0,-0.479117204218,0.246412834724,-0.654898567019,3.20217608722,-1.5274874142,-1.87227512453,0.0,0.0,-3.31726375016,0.0,0.0,0.505004009921,-3.29573640746,-0.751135433012,2.68321871673,0.123280929302,1.13086391846,0.0,3.0322753419,0.0,0.0695340634746,0.0,0.0,0.0,0.129417081148,-2.96358542206,0.0,0.0,1.84140431286,0.660562435447,5.28299360175,0.0,-2.36089356732,0.0,1.89288984638,0.882489090721,0.372786130473,-0.868071981833,0.0,-2.71514442957,0.0,0.0,2.31939309988,0.0,-0.492946795166,0.0,0.0,0.0,0.0,1.34384136315,0.0,0.0,-2.19907903901,-0.0996090125012,2.51902393483,0.667615811025,0.0,0.0,1.14266602215,0.0,0.0,-1.27251344008,0.0,0.0,0.0,2.97875493851,2.58113396487,1.81896746412,3.83974664057,-2.64097952325,-2.49709599635,0.0,-2.50624082635,2.39765134335,2.52102236544,-3.11718212057,0.0,-1.36586516737,2.54135145831,-2.10355807448,0.0,-2.37707311518,-2.47372636411,2.41155390567,-3.19367201258,0.0,-2.94727878052,0.432717828993,0.0,0.0,0.0,0.0,0.0,0.0,0.0,-1.15150584148,2.95309587226,0.0,0.501608513468,-3.08240400332,0.0,-1.74922600432,1.51757026971,0.0,-0.546489648594,-0.499494638071,0.0,-1.04978527547,0.0,1.92592569219,-2.71081741575,0.0,0.0,-3.04436404899,0.0,0.0,-2.21182468331,2.95540957973,-1.23101208669,0.0,-2.17848698949,2.3087083568,-2.18311889825,0.0,0.0,-2.38940210718,0.0,-0.585277276741,0.0,0.0,-0.434146202929,-0.349812261071,0.0,0.0,2.52447999197,3.18582947199,0.0,-2.31806416853,0.0,3.52276627027,2.17926956525,0.0,-1.18160832883,0.750160168802,0.972836634733,1.7773891813,0.0,0.0,0.0,0.0,-0.965492730857,0.0,0.0,0.318919075819,-0.846648133264,3.33645248336,-1.03168018085,-5.32475953609,-0.0207105392904,1.62641619577,0.0,2.96593070205,0.0,0.0,0.0,1.68014636395,2.04635787416,-1.45803312411,0.0,0.0,1.04095096592,0.0,0.375240360109,0.0,-3.98261884848,3.5470080947,0.774252187593,-0.866391105383,-0.738011459906,0.0,0.0,0.873491824908,0.0,0.0,-0.308118728614,-1.54146038465,0.0,0.0,0.444552021338,0.312772074989,0.0,0.0,0.0,-1.9626559578,2.4569967935,0.459984759631,-0.577803175611,-3.52245168567,0.0,0.0,0.0,-1.01665547221,-0.101797626849,3.15963262702,0.0,-0.862389573983,0.0,0.0,0.0,3.56160449321,0.0,2.07554341604,0.0,0.0,0.0911373836768,0.0,-0.189676898985,-0.795534955935,0.158220358991,-0.271727646828,2.3469622515,0.0,-1.11100760785,-1.94762884884,-1.94857228063,-0.403327233135,0.576827781009,0.0,-2.35765074624,0.146967291371,0.0,0.0,-2.09649077538,0.0,-1.39834988138,0.0,0.0,0.0,0.0,-1.62739774091,0.830302043034,0.0,0.0,-2.21196899349,0.0,-1.07521189999,0.0,0.0,0.0,1.18833865654,0.0,0.0,0.0,0.0,-2.82554445893,-1.50733532766,-0.602034819679,-1.24450463983,-0.852376203262,-2.02728560495,2.1229155583,3.68124755848,-2.48340361202,0.0,0.0,0.0,1.7067638523,0.788985347843,1.69000621293,0.0847691897007,-4.44051808559,5.02847663262,0.682238769904,0.0,3.38962350669,-0.611673141894,-3.93800030539,-2.38513725868,-1.15279080525,0.0,-3.70914652256,0.0,2.88695671165,3.0173636005,3.2399972133,0.015382389147,2.4092489753,0.0,0.0,-4.11219200616,0.0,0.0,0.0,1.58933755304,3.04664707307,-1.40840612783,0.0,0.0,0.0,1.68161852013,-3.02780053134,0.0,0.0,0.0,-0.118512911317,0.516742372433,0.0,-0.628905852868,-3.08563159264,1.99652976735,0.0,-0.0460325662988,0.0,3.01764384448,0.719852564281,1.09213090806,0.0,0.0,0.792121611414,-0.660376561516,0.199784343194,0.0,1.64804861536,0.0,0.0,3.40154772191,-3.53807431575,0.0,0.0,0.0,0.0,3.15375606052,5.46145357277,0.0,0.0,0.0,0.0,0.939935855596,0.0,0.0,-2.10820718043,-1.14776527145,0.0,4.5011345732,0.0,0.0,-2.78705081474,-2.41289598144,0.0,0.0,0.0,0.0,-0.0979348887254,0.0,2.37425376512,0.0,-1.92484721544,0.0,0.0,0.0,1.69607118501,0.0,0.0,0.0,0.0,0.0,0.297198106719,-3.13979142921,-0.291980893916,0.946690961054,0.792289507576,0.0,-3.95857123048,0.723750267528,0.0,0.0,-1.47330736899,0.0,-0.428679446563,0.0,0.0,0.0,-3.69893055548,1.44910156974,-1.80106210441,0.0,0.0,-1.36762216818,-1.56700228029,0.0,-1.03738735545,-1.82223697584,0.0,-4.45654378237,0.0,2.38022703251,-0.754892682151,0.0,-0.34482413883,0.0,0.0,0.932418754351,1.40598676812,1.21949919008,2.51677674146,-2.22429246947,2.34285141595,-1.9290347509,0.0,0.0,-1.53243605326,-0.310495306011,0.0691398828132,0.0,-0.695769163644,-1.99484129503,0.0,2.4221387572,1.58890957669,0.0,0.909425567172,0.0,0.553890310835,0.0,-1.40786557247,0.0,-1.99372506456,0.0,0.0,-1.3683001105,-3.04335023673,0.0,0.679769452693,1.15968899093,-0.707287253424,0.0,2.83157393172,-0.865686956377,-0.158312998472,0.0,-2.07662912358,1.26287353296,1.9183747681,-3.27554452481,0.0,0.0,0.0,0.0,0.851790769944,0.981550248553,0.0,-2.78018411581,0.0,0.0,-4.80281522248,-1.37851295735,1.54040880289,0.0,-0.52523565172,-2.21330624512,0.0,-1.74341355735,1.74898289179,0.0,0.0,1.03734310449,-0.44331694227,-2.63291781204,2.39694056533,0.0,0.0,0.114758529813,-2.99598964206,0.0,0.0,0.0,0.0,4.00968376501,1.21817611195,-1.7912404432,-2.47199844707,3.42076276866,0.0,0.0,0.0,1.8066792636,0.0,0.0,0.0,0.0,0.0781503303619,-1.04206704563,-2.08527007033,-1.83021416489,-1.41975198598,-4.9688193756,-3.22255651583,0.0,0.0,0.0,0.0,-2.54706378394,-2.9224497415,-2.97420626264,-0.589618263663,-0.0726880459417,0.0,-1.25864545527,-3.50417624716,0.0,0.0,-3.01103230538,0.0,0.0,0.0,-4.06739528344,-3.39778640425,0.0,0.0,-1.70068848125,2.2108483978,0.0,-0.271265662455,0.247633775781,0.0,0.0,0.0,-0.752256208782,0.0,1.81515817252,0.0,0.0,0.0,1.3589836272,-1.84401297481,0.628274965493,0.0,-2.3620998018,0.0340816412574,0.0,-0.350299596298,1.83184559911,2.18776391319,0.0,0.0,2.46019687575,0.0,0.0,2.14134711476,0.0,-1.97919477969,1.63612460946,-3.83288312082,-1.21574106601,-2.88137839041,2.94794567701,0.0,-1.8477732847,0.0,3.8592415321,-1.15135370951,0.0,2.02181771028,-3.04138126201,0.0,0.17204404202,0.0,0.0,2.13109619768,0.0,-0.888145344072,1.0283030493,-3.70904263916,0.0,0.0,0.0,0.0,-0.803196262648,0.0,-1.77745797867,0.0,0.0,0.0,-0.895992352786,0.0,0.0,0.0,0.0,-1.82714707432,-2.22429282865,0.0,0.0,0.0,0.0,0.424651954615,0.0,2.52931344733,0.0,-1.62479860275,0.0,0.170865064423,0.0,0.0,1.92821425074,-1.97113303222,-2.88815041449,2.96204328123,0.702157779435,-0.324837858651,0.0,0.0,-2.16605134561,0.0,0.0,2.59564400498,0.0,-1.42996096511,-2.07714793372,-1.23127752925,0.0,-0.888803598275,-0.448822770354,0.0,0.293095684406,0.0,-1.63287954962,-0.161331054415,0.0,-0.473738299225,1.0708573457,-3.19283859906,0.0,-3.1782060967,1.15275703867,0.0,-0.0183427561333,0.0,0.0,-5.84425660645,-1.33238059715,0.0,4.26950733507,0.0,0.0,0.0,0.0,2.38339427624,0.0,1.35892354658,0.0,0.0,0.872689684,1.61140240363,0.81276477715,2.32855397645,-1.715316508,0.44509299285,1.37973463475,1.12837953329,0.0,-0.257463623191,0.0,-0.341081485056,0.0,-0.235691853478,0.0,-1.30992168699,0.0,0.0,0.0,-2.46561246329,2.06783765514,0.0,0.499536161444,0.0,1.1160213413,-2.780183702,-0.0375775696133,0.0,0.00607909913012,0.0,0.0570012817786,-0.281551255893,-3.0798993368,1.32646561104,-3.24523379792,-0.0481009292279,-0.461744128318,0.0,-0.501714169474,0.0,-3.42537041317,0.0,1.31822797313,0.364301334911,0.0,0.0,2.58968362766,0.0,-3.51907954218,-1.84641588684,-0.141528419503,0.0,0.777147667388,0.0,0.0,3.19570603244,0.0,0.0,0.0,-2.65774543317,-0.709134191012,0.0,0.0,0.0,-1.65405658792,0.0,-2.7314203672,0.0,1.86171363972,0.0,2.31764379133,0.0,0.0,-0.316781313312,0.760006765478,0.0,0.0,2.0083335855,-1.5479294355,0.0,4.82588870524,1.16447401787,1.83326861858,0.0,0.0,0.0,-4.14459795734,2.67111322565,0.0,-0.464587243444,-0.761099297526,0.0,0.0,0.0,0.843188649271,-2.89782062416,-1.03226755009,-1.6806056186,0.0,0.0,0.0,-0.503974181272,3.36234910281,0.715800961685,-0.859915603155,0.0,0.0,-2.74050350914,0.0156932011356,0.0,0.0,0.0,0.0,-1.25433967256,0.0,2.61554660817,-2.62617069298,0.0,0.0,2.99553581732,0.0,3.41836494429,0.0,-1.03049413553,0.0,2.06459562626,-0.346225880874,0.0,0.0,-1.4620132423,0.0,0.0,0.0,0.0,0.0,2.3385621425,1.22581540678,-0.108422699738,0.0,-3.76018558695,-3.50831475237,-2.83972967208,-1.27606080233,2.71012641588,2.83225764229,0.96432531028,1.4922437304,-0.131318970864,0.0,1.50715745546,-0.765888390171,0.0,0.0,1.937776475,0.0,-2.23918961065,0.0,0.0,0.0,1.95611448391,-1.54524129009,0.0,0.0,0.779384207412,2.19958641407,2.75811696828,0.522229907131,-0.209253401465,0.0,0.0,-2.80719676098,-1.11329768924,-3.18440390008,0.0,-0.241904560735,-0.869700314645,1.04822873131,0.0,0.0,-1.63389196085,0.0,-4.06809498171,2.837305402,4.11815246953,0.0,-0.140233665,0.0,2.57156764308,0.0,1.50118252493,0.0,-0.431826440838,0.0,-1.44211180078,-0.482484959232,0.590269566527,0.0,-0.126604668935,-1.93908284319,1.36492778886,0.0,0.0,0.0,-2.15190662794,3.66181234991,0.301000633435,0.730691844658,-1.08604475212,-3.18636537456,0.0,0.0,-0.471688621769,2.34773285686,0.0,-1.25740531742,0.846875202185,0.0,-1.13309394025,-0.791807967242,-2.06532574209,4.24113840708,-0.410647560466,3.16082600134,0.50525673517,-2.11269052963,-0.804717755711,0.0,0.0,0.682904457297,-3.75489062566,0.0,0.0,2.63588043247,-4.03668952163,0.00147380463732,0.0,-1.39699199466,1.95443179227,0.0,-0.24020391954,-0.812959120608,0.0,0.0,1.19552739127,0.0,0.0,0.0,2.79426859732,0.0,-3.62434405168,-0.13427957191,0.523186675804,-1.38336620346,1.40478440666,0.0,1.9151064307,2.21918526604,0.787588930682,0.0,0.0,0.0,0.0,2.28514808406,-2.58150499785,-1.3373410445,2.22144888721,0.0,-1.43222271094,0.0,0.0,2.53504981581,1.93783885152,0.0,0.0,2.34132328469,2.21853096809,0.0,0.125301100381,-0.986871215654,1.26671758246,2.65816586288,0.0,0.0,0.0,0.0,0.135748039822,0.0,0.0,0.0,-0.630713277833,0.0,0.0,0.275135030536,-0.842740587837,0.0,-0.395623204772,0.0,0.0,-1.69025645017,-4.34183443104,0.0,-0.0347356622185,1.26247241699,0.0,1.70332222172,0.0,-0.998587352231,0.0,0.874617414197,0.0,-1.46076483094,5.68306731075,0.0,0.0,1.89241837536,0.0,0.0,0.0,0.0,0.526346574148,2.16067287528,0.0,0.0,1.78087529898,0.0,2.00104376348,-0.924764724154,-0.465577533757,-2.02839308407,0.0,2.6975153811,-2.48601067112,-0.482242748876,0.0,1.73760318241,-0.264647813502,1.43192441541,1.13620677614,0.0,0.0,0.0,-0.753116926632,-2.9266770811,0.0,0.0,1.65615370272,4.18334705927,0.0,0.0,3.01283903613,-1.4077719488,-2.60046732722,2.33569953238,0.0,-3.0166273437,0.0,0.0,-1.10766549571,0.0,-1.9104300632,0.0,0.0,-1.49963031656,0.0,0.0,0.0,0.0,3.89870190473,0.0,-0.526592453776,-1.032119588,0.0,0.0,4.62945376998,0.0,2.50477348842,0.0,-0.117614692243,0.136981175042,0.0,0.98270908122,-1.80719168686,-0.255216862364,0.0,1.05599604269,-1.23219520491,2.92721743052,0.338708309552,0.0,0.75373338704,2.93623325884,0.918137625414,-0.421512515997,-0.909878458203,-3.42035661896,-2.38824611889,0.0,0.0,0.0,0.837778631023,0.0,2.00553518205,0.0,0.0,0.881068677481,-2.15401618962,0.0,0.0,1.45370141582,0.0,-1.00987411093,0.0,0.0,0.0,4.19163660081,0.0,3.27384890327,-0.674948181151,3.18866686925,0.223719238784,0.0,0.0,0.0,-0.611737312511,0.0,-1.76464604288,0.0,0.0,0.0,0.0,0.0,0.0,-0.709933392011,-0.760120035999,-1.69838462166,3.22751961802,-1.56926894649,-1.04559703998,0.0,0.0,-0.678162512676,0.0,0.0,0.0,0.0,-0.513844437734,0.0,1.26069228379,1.30812511386,1.28221156546,2.59543755791,0.0,1.36745902429,0.0,0.0,1.93347500696,-1.50124983965,0.0,0.0,-1.46365947313,0.0,0.769739153775,0.0,-0.720490495025,0.0,-0.0152119133652,0.0,-2.92106795737,0.0,0.0,-0.54129944902,-2.06285078222,0.0,0.0,0.0,-0.634157984558,-0.00302095086904,0.0,2.07890684673,0.0,0.0,1.37297204546,0.0,0.0,-0.131043557893,0.0,-2.11213764079,0.125643737421,0.0,2.36152381481,-3.29867760388,0.0,0.0,0.0,0.0,0.0,-0.947735180356,0.0,0.0,-2.36552485239,-1.17313476092,-0.367038927842,0.0,0.0,0.0,-0.783514475492,2.15974745268,0.0,-3.03623287921,0.0,0.0,0.0,0.518545786094,0.0,0.0,-0.962528962091,-0.683819241071,0.0,-0.284597567531,0.0,0.0,-0.152588716257,4.84050331066,0.0,0.0,0.256473219745,4.65114138625,0.0,0.0,0.0,0.0,0.0,0.0,-2.28442542164,0.0,0.0,2.54873515912,2.47895786185,0.0,-1.80336046101,0.0,0.236140102709,0.0,0.0,0.0,3.22555473084,1.08386916158,1.77168981455,0.0,0.0,0.0,0.0,-2.64841782123,0.0,-3.74052192373,3.89501796802,0.0,0.0,1.03734310449,0.0,0.0,0.381298482582,0.0,1.37403522984,0.0,0.0,-0.664480693715,0.0,0.729553688362,0.0,-0.471166179683,0.0,0.0,0.0,0.0,0.446118117593,0.0,-1.15347885691,0.610023454054,0.0,0.0,-0.794070002376,-0.12316038586,0.0,-3.40869628712,0.0,-3.30937836643,0.665291611571,1.425784595,1.72322647329,0.0,0.0,-0.872524589136,0.0,-1.62233769684,-0.346152437936,0.0,0.0,0.0,0.0,-2.11269302766,0.198192422299,0.0,-0.910741479036,0.0,0.0,0.0,0.0,0.0,1.04099100611,2.21420670051,-1.35306685299,-3.91653938047,0.0,0.0,1.46255726579,0.0,-3.07036839038,4.14708441232,0.0,0.657404278768,0.0,-1.37192285591,0.0,0.0,0.0,-0.0949895175819,5.08048943745,0.0,0.0,0.0,0.0,0.0,0.0,0.0,0.0,0.0,0.0,1.85984384825,1.31020249189,0.449178080828,-2.57766078975,-1.55619613683,0.0,0.127174804644,0.701468544575,2.60769235933,0.645173721274,-1.44164841281,3.16111346394,0.0,0.0,-2.60446674012,0.0,-1.93145205327,3.534027665,3.46767510769,1.68463884079,-1.06786339036,-1.0811323423,0.0931791032173,-0.853951335671,1.74587665298,0.0,0.0,1.74373155452,0.0,0.0,3.59625130425,0.0,-1.61130609281,-0.893022121028,2.41502581319,0.0,0.0,0.0,2.5916448433,5.09487943672,0.0,-0.418184764389,5.18811506878,1.46764344857,-0.17656404812,0.0,1.9777392908,-0.483707442224,0.0,0.0,-0.546624509479,0.415204764436,1.57169550486,2.294060207,0.0,0.574315924193,1.10750327928,0.0,3.57491201901,0.70540298432,1.54645369095,-0.193947279192,0.0,-1.9613323246,4.32802420755,-1.3677106501,0.0,0.0,0.0,2.03794930165,0.0,-3.28080386571,-1.86810663651,-1.95613346307,0.0,-2.65016011682,-0.709933392011,-0.384398550284,1.13142581248,-0.971003391954,0.0,-0.742082997632,0.922622468758,-0.209253401465,2.9541288822,1.92968442928,0.0,0.0,0.0,0.0,1.48734743283,2.6002995902,1.83184559911,-0.0524507396647,0.0,-0.458469819977,0.0,-0.187231866682,-1.64054613117,0.452492650074,-1.76278809262,0.0,-0.217124836298,1.96582644149,1.78861011172,0.47723236875,-2.25019096543,0.0682183930406,0.0,0.0,0.0,0.0,2.45004574486,0.0,1.50071594863,0.0,2.18547150367,0.655138252015,-1.49716777764,0.0,1.6404755425,-0.201462758085,-0.371354978831,0.0,2.40214311657,0.0,0.0,0.0,-1.53443952934,2.19721899738,0.0,0.0,0.0,0.0,0.0,0.0743387331821,1.00570875345,-0.116583343637,1.62250766251,-1.45829401196,0.0,2.82346315515,0.0,2.00488698674,0.0,1.12833551968,0.870227007718,0.0,-0.0920519503113,-4.1318719369,1.07901236452,0.0,1.33849743079,0.0,0.0,0.0,0.0,-1.27319097997,0.0,-4.69046969375,2.83450040968,0.0,2.40411460868,0.399852874184,0.0,0.0,0.630229022957,0.0,0.0,3.00541042483,-0.0480172650035,0.219453572324,0.0,0.0,-2.60687727456,-2.12689478689,-1.67921153573,0.0,-1.78929170477,-1.41389510987,3.00836301695,0.0,0.0,-2.15206116526,1.15149693465,0.0,0.0,0.0,0.0,0.0,0.364900776393,2.51242367338,0.0,0.0,1.25838284656,0.0,0.0,-0.3447194939,2.89413083822,0.0,0.0,-1.88063476221,-1.45401222287,2.3189911282,0.895775473821,0.0,1.87284623674,0.0,-2.09989607785,-2.30385145199,0.0,-1.25902397871,3.38920080024,1.40157783493,-2.34103199659,-0.781413872274,0.0,-2.91842696988,0.0,0.549356737758,0.650297379672,2.0264230822,-2.88673076403,0.916123045537,0.0,0.0,0.0,0.0,0.520522606545,0.0,1.32833789446,-3.83856773094,0.42816689999,0.0,0.0,-2.21950470425,-1.27403487525,0.0,0.0,0.0,0.0,2.90743258878,0.0,2.02644788456,0.0,0.0,0.0,-0.384398550284,2.66198701918,-0.871114613073,0.0,0.0,0.0,0.0,-0.617950893864,0.0,0.0,-3.59084344621,1.68591563545,0.0,0.0,-2.26552324587,0.0,-2.80448301887,0.0,1.59989374429,0.0,1.29630051799,-1.08217814483,-3.56442737558,0.0,0.232962303708,0.0,2.07855483477,0.0,2.14943895766,0.0,0.0,0.0,0.887355429148,0.0,-1.70771993959,0.0,0.37320936713,0.0,0.890072571295,0.0,0.0,-3.89556582574,-1.32253618068,1.68039415,0.0,1.65352243307,0.0,-2.39494630379,0.545055686901,-2.26015836958,-1.61079754345,0.0,0.0,0.186545252859,0.0,0.997561421772,-3.3325383554,-2.04993203395,0.0,2.15924466145,0.0,0.409132231264,0.0,-1.18846568152,0.0,0.0,0.0,1.67044898745,1.6729927644,-4.38060402238,2.893943462,0.674332755066,0.0,1.17282457715,0.0,0.0,0.0,0.0,0.0,-3.02902305375,0.804503130255,0.0,0.0,1.08310841408,-3.29961537852,0.0,-1.49100046107,0.0,0.0,0.0,0.0,1.16108173179,0.0,-0.430118386301,0.0,2.55049950507,2.65623244825,-0.0454337866546,1.19688130606,0.0,0.0,-0.0920519503113,0.0,0.0,0.0,0.0,0.0,0.295157147993,0.0,0.0,0.0,2.5967794801,1.6344849525,0.0,0.0,2.56222573866,-2.4486189511,0.0,0.0,-2.63106989669,0.0,-0.855924804161,0.0,-1.75293297306,0.0,-3.09665867394,0.0,2.02527199293,-3.58562132715,0.0,0.847356176894,0.0,0.0,-1.97757365894,0.0,0.0,0.0,0.0,0.0,0.0,-4.21531717719,0.0,-4.64999289024,0.0,0.0,-0.0424669278955,2.41366222396,0.0,1.19087490015,-0.567506630442,1.96584632744,0.0,0.0,-3.16167746127,0.0,0.0,0.0,2.44684730031,-1.62933439686,0.0,0.0,-0.577292620093,-0.923013177464,2.29661743444,0.0,1.71912810103,3.49905153157,0.0,0.0,0.351442331597,0.0,0.151384144024,-0.766769890928,1.55796298122,1.89410367129,0.0,0.0,2.46315771396,-0.729621012165,0.0,-2.49344131438,0.0,0.0,0.0,0.524287372192,0.154297493775,0.0,-0.828154279414,-1.06321589196,0.0,0.0,-1.89336127597,0.6637076045,-0.799844378855,-4.99558210626,0.0,0.0,-3.25865196325,3.07387315542,-3.67541288195,0.0,-3.65738662354,-0.89831677438,0.0,0.0,-1.90494921392,0.0,1.57361705652,0.0,2.81388825369,0.0,-0.316765700463,0.0,0.0,-2.02090969375,-1.85645062719,-0.77561611916,0.0,1.07705526279,0.0,0.579269205589,-2.22962873924,0.0,-0.424767929935,1.4197430313,-2.53608327724,2.1412987688,0.0,0.0,-3.53964767041,0.0,0.0,0.0,-1.56052740598,1.37038218799,0.0,0.0,-4.34679370844,0.0,0.0,3.14794485681,0.0,0.0,1.67090929213,0.0,1.3944456804,0.0,0.0,0.290575890258,0.0,-0.430451222945,0.0,0.0,-2.04525339911,-2.28441816661,-1.526700996,0.0,-2.14566671153,0.0,0.0,2.73842404956,2.06045456466,-0.308980191121,-0.391835286613,-3.32170141779,0.620241157249,-1.77372599677,0.0,0.0,3.62790052892,-0.162992201055,0.0,0.0,0.0,0.0,0.911263086421,2.50944328833,0.0,0.0,0.0,0.0,0.0,0.0,-0.134597305342,0.701468544575,0.870227007718,-1.2606622168,-1.28231235771,0.0,-1.2118639684,-0.832517741749,0.0,1.26010971332,-0.879522557126,0.218734318714,0.0,0.0,0.0,0.0,-0.0786939389263,0.0,0.0,0.0,0.0,0.0,-0.666942638013,2.97708787265,0.0,-2.7818417399,0.0,-2.33310883409,0.0,0.0,-2.59161638704,3.09786316298,2.11428636622,3.10758935814,0.0,0.0,0.099451136187,0.0,-1.24810085308,1.66916046252,-0.843115917501,-0.650163578927,-1.85896790954,0.0,0.0,-0.382535992595,0.0,-3.40450466503,4.69128227055,0.614723662849,0.0,0.0,0.798784644948,0.0,-2.31612013988,0.0,4.15143615241,-3.82644650591,-0.281018264461,0.0,2.92494080013,0.0,1.3127621748,1.26292559042,0.0,2.9805277334,0.913287158462,0.0,0.0,2.46043573798,0.0,1.6580860619,0.0,-1.57145948213,0.0,0.0,0.0,0.0,2.11783110117,1.14476931311,0.0,0.0,2.29213353276,0.0,-1.23935116668,0.0,-2.25683775164,0.0,0.26087349141,-2.36947631818,2.18845228984,0.723520516698,2.92802954765,0.0,0.0,0.0,-0.622791017875,0.0837877745149,0.0,0.0,0.0,-1.19151337418,-0.0915530673224,-1.72764167798,-0.842118748045,0.0,1.75386618672,-1.41618849372,0.0,-2.74476792561,0.0,0.0,0.0,-2.18911322112,0.0,0.0,0.506120727256,0.0,0.0,0.0,-2.85476840277,0.701468544575,0.809504236455,0.0,-4.17780811505,-0.0657413747955,1.06773760164,0.0,-1.2888418904,0.85823695619,-1.46754320947,-1.6014607335,0.0,0.0,0.0,1.85305233246,0.0,0.0,0.231758332119,0.0,0.0,0.0,0.803381749273,1.57542106786,-1.88108629401,2.09033267473,-0.0970806056387,-0.306974751557,2.60144132312,3.13192316882,0.0,0.0,0.0,-1.22393759224,0.0,0.0,0.0,0.416454948433,0.0,-0.713452847368,1.3860995823,1.22553560051,0.701117277912,0.0,0.254230998831,1.15773286594,2.27553695333,0.0,3.4162306415,0.0,0.0,3.3741099524,0.0,0.0,-0.386120186958,-1.09075907532,-2.38357344431,0.0,1.48871397186,0.855669794775,0.0,-1.88180201304,-2.71192756431,-0.354080511527,4.03916961061,0.0,0.0779648400226,1.30029709512,-1.00231756612,-0.872100432321,-0.659859484723,0.626780598052,-2.20064729278,-1.26274904488,0.0,-1.09149225593,-0.0920339197968,0.0,0.0,-1.86098291089,-2.10354543447,2.09090053497,0.0,-2.54316118769,2.28586419351,0.0,-0.823914639684,0.0,0.0,1.26460013058,2.76331717252,-3.19037294688,-1.49720368117,0.0,0.0,0.0,-0.526474070476,-3.16646525689,0.0,0.0,-0.0116409881183,-0.746844140562,-1.43906543667,0.0,-0.410182506914,-1.50416108024,0.0,0.0,0.0,0.0,0.0,0.0,2.16526764422,-0.581220751282,0.0,0.0,-0.837552612665,0.0,-1.85818521098,0.0,-0.492946795166,3.59359625679,0.0,-2.44121424928,2.30089472769,-2.58610871815,0.0,0.0,0.0,-0.353821856494,0.0,0.0,-0.691039171723,0.0,0.644613554576,-0.227039876362,-2.1909126529,0.0,0.0,-1.58629965715,1.16849515925,0.0,0.0,0.0,1.17531909675,0.0,-1.18160832883,-0.276348834307,0.0,0.233076078913,-0.709933392011,-0.248292946065,-1.30651290412,-2.6217189313,-1.96660594883,-2.27332105181,0.0,-2.2726347927,-1.72993043604,0.0,2.10211785455,0.140214081577,-3.19821228898,-4.37213400132,0.0,-1.14666374549,0.0,0.0,0.0,1.81103579597,-2.0967055852,1.52833435622,0.0,0.0,-0.635110545674,0.0,0.0,1.77426225353,0.0,0.0,1.31413305749,0.851080215472,1.37974532607,4.70695325962,0.0,0.0,0.0,0.0,2.69031545905,0.0,0.0,0.0,0.0,2.28206464249,-0.793769837211,0.0,0.0,2.50054116999,-2.12374470831,-0.253197590216,-1.50936462154,0.0,-1.9434446162,1.51067555165,-0.276669368474,-1.4010384313,0.0,0.0,1.478494597,1.2835363954,0.0,3.19430833585,0.0,0.0,-3.19951658756,-1.75872318661,2.78869661267,-2.37388278191,-0.582410028583,0.773199706166,-3.16282205415,-3.34317093448,0.0,1.32599277203,0.0,0.0,-0.614537663579,3.01369624335,-1.45401222287,1.52761756454,-1.11913902348,0.0,-0.584207679689,0.0,-0.0224740924231,-3.79038057739,1.690405148,-2.10803950988,1.0705783142,-0.504359239629,0.0,0.0,-0.988608046207,-0.274454527752,0.0,-2.04099703176,2.55462823554,2.64328800448,0.415411852533,2.03038583989,-2.45229802847,0.0,0.0,0.362623482661,-2.32754585599,0.0,0.0,-3.17485232253,0.0,3.52399908361,1.39996323547,-0.632776951681,5.40483513478,-2.36711297902,0.0,1.64723043627,1.49302794888,0.0,0.0,0.0,0.0,1.21218743905,0.0,0.0,0.0,0.0,2.82686611142,0.0,0.66841894777,0.0,0.27662512355,0.0,1.25838284656,0.0,-0.115066724454,-2.74026145677,-1.66197369227,2.23561350538,-1.28078921145,0.0,0.337244208013,-0.208942892499,0.0,0.0,0.0,0.0,1.7634169388,0.0,0.0,2.56282270777,-0.961173619861,0.0,0.0,0.0,0.0,-1.1976836259,0.0,1.15847598806,-1.06786339036,-4.00959389584,0.0,0.350769865654,0.470806494769,0.0,0.0,1.29827132727,-0.257378883381,-4.38437159171,-0.962158969315,-0.594592905806,-1.30763094368,-0.937477289417,-1.18534080285,0.0,0.0,0.172127594861,0.0,0.0,-1.45401222287,0.627565879138,0.0,0.0,0.0,0.0,0.702778425863,0.0,0.0,-3.23848424856,0.0,-0.652230113404,0.653164496729,0.0,0.0,-2.23955958367,0.0,0.0,-2.66092050504,-1.00576136781,-0.114118960199,-0.128773894777,-1.82296606872,0.635874598328,0.0,1.02723647641,-1.84994513445,1.48186799247,0.0,-0.769091172917,0.0,-1.84269454693,0.456929339645,0.0,0.0,0.0,0.0,0.0,0.0,0.0,-0.687768502804,0.0,0.0872727078566,0.0,3.04187568833,2.30543439077,-1.805627036,0.0,0.81498372864,0.0,0.0,0.880398362101,-1.99374579392,1.8957913085,0.0,0.0,0.0,0.0,0.0,-1.31587028933,-1.53282708843,-1.33453981485,-0.457888115772,-1.19197930972,-0.674081734294,0.0,0.0,1.80826333443,-2.11127367097,-1.0156241029,-1.72564601375,1.33403760151,0.501971841892,0.0,-1.65405658792,0.690696667554,0.0,0.0,0.0,0.456010503631,0.0,-0.585850805052,0.0,0.0,0.0,1.40495530395,0.0,0.423765578474,0.0,-1.10614388775,-0.236743540052,-0.761928975589,0.0,0.0,-0.0820798172619,0.0,0.172906511332,0.0,0.0,0.0,0.0,0.0,0.0,1.15389714047,0.462501628491,-1.4040476433,0.0,-1.21977157454,-1.76793383142,0.544303400315,0.698324400634,0.0,0.0,0.38301494846,-2.22981028178,0.0,1.94989249361,0.0,0.0,0.0,-0.0741447316314,-0.172847805982,0.0,-0.300255908984,-2.55792384776,-0.723813588798,0.0,0.747658134497,-1.34512947745,0.0,-0.453415694338,0.0,0.0,0.0,0.0,0.0,0.0,0.0,0.0,0.00657414694465,-0.860033040043,0.0,0.0,0.0,0.0,0.0,0.0,0.0,0.0,0.0,0.0,-0.840559731852,0.0,0.0,0.0,2.71006332506,0.0,-0.334260656437,-0.52523565172,0.767193214976,1.29810038818,0.0,-0.283935334883,0.0,3.72114475344,0.902885504791,-0.340835183351,-2.32112610365,0.0,-4.29540978043,2.32952624717,0.0,3.8397142475,0.0,-4.10384068562,0.0,0.0,0.0,0.668330534611,-0.397643488329,-1.90596542734,-1.47564576862,0.0707208826071,0.0,-0.911013126157,0.0,0.0,0.0,0.0,2.37338966031,0.0,0.0,0.0,0.301116791382,-1.94115859869,0.308502838499,0.350025248464,0.0,0.0,0.0,-0.586356691008,0.0,-0.385807748498,0.931682840699,2.56054706533,1.01019913173,0.0,0.0,0.400016796651,0.0,-2.66529840946,0.0,-0.545829150661,0.0,0.0,0.0,-0.714617125757,-3.99978736348,-2.12716148488,0.0,0.0,-0.238976971379,0.0,2.91734752425,0.0,0.199784343194,0.423132440306,0.0,0.0,1.67715955962,0.0,0.0,4.1733136571,2.12510298234,2.80329731112,0.0,0.0,-2.6023986497,0.0,0.0,0.0,-0.61798716485,0.0,0.0459828137596,0.0,0.0,1.68497359918,0.0,0.0,0.0,0.0,-0.660534600981,0.0,0.307450052382,0.0,0.0725427894992,0.0,0.0,0.0,0.0,0.0,1.68772660689,0.0,-0.640969618122,4.63312145335,0.0,-1.81134738219,0.0,-3.34373545263,1.493106418,0.0,0.0,0.0,0.0,0.0,0.0,-0.5174643377,3.40627583147,0.0,0.0,0.0,0.0,-1.17532331359,0.0,0.0,3.1722064898,0.0,0.0,0.00142981898858,-2.12707221559,0.0,-2.04518773342,0.0,0.701117277912,-4.5973020104,-0.0570445454809,0.687424406664,-2.84316262573,-0.315441742627,0.0,-0.980343935689,-0.917760955504,0.0,0.0,0.0,0.0,5.07123841356,4.73308310829,-0.367876117677,0.0,-0.248471248882,-0.582017877285,-0.819218689027,0.0,-2.58224275001,0.0,0.0,0.0,0.0,1.0524918534,0.178846483777,-0.0352739193695,-2.28060744437,0.0,0.0,0.0,0.0,-1.70580627796,0.0,-1.3151666175,-0.874900747553,0.0,2.46506560678,-0.450526333016,0.0,0.0,0.0,-0.175706984392,-1.48024895165,-0.819881910807,0.698324400634,3.51196391248,-2.44279108751,0.0,-0.773073192667,-0.825687931011,0.0,-3.71487625563,-0.978875000266,0.0,-0.949499331413,0.0,1.22583035081,1.39100624448,0.501971841892,-0.801654539704,0.0,0.945484337153,-1.69795583445,-0.664480693715,-1.39837006589,0.0,0.0,0.0,0.0,0.441182080598,0.0,1.01061840322,-0.399721247416,0.0,3.52405937071,0.0,0.0,-2.25026423585,0.0,-1.31616528417,0.0,0.0,-0.177045262011,-0.492533569775,0.0,0.17891490073,0.0870198061128,-1.08980601544,0.0,-2.5906690548,0.0,-0.0634835514159,1.93230903126,0.0,-3.06767301829,1.06503133856,0.0,0.0,0.145677343375,0.0,-0.163872190138,1.73899743877,0.0,0.0,0.0,-0.652913871151,0.0,-0.793134592346,1.61140364997,0.0959715699079,-0.320286373163,-2.09907229621,0.0,0.933732777033,-2.27893869938,0.67505305681,0.0,-0.542755533217,0.0,0.0,0.0,0.0,-0.592309420782,0.715355305959,0.0,0.0,0.0,0.0,-1.57158457811,0.0,0.0,0.0,1.4197430313,0.0,0.501454791358,0.0,0.202490397275,0.933488743063,-0.769091172917,0.0,0.0,0.0,0.0,-1.15607824216,0.0,0.315518135878,0.0,0.0,-0.221459097859,-1.56421844283,2.91107243905,-2.96519243615,0.0,1.00738170121,0.0,3.9146693169,0.0,0.0,0.0,0.0,0.0,0.634725831816,-4.05755833961,0.0,0.0,-1.94779222227,0.0,0.473766804159,0.33852458794,0.0,0.0,0.0,0.0,2.19980304777,-0.654234994419,1.59745241082,0.0,0.0,0.0,-1.21104487223,0.0,0.32265292277,-1.87277363295,0.264417643999,0.0,0.0,0.0,0.0,0.0299901187514,0.0,-0.650163578927,0.0,-0.407010022177,0.0,0.600916844057,0.0,0.0,-1.88930751573,0.0,1.47689640577,-0.968836416472,-1.72440201051,0.0,0.0,0.351395045153,0.0,-1.53511994519,-1.24806563915,0.0,2.47234552833,-1.04208122589,0.0,0.0,1.56813947665,-0.322289218048,-1.65042247363,0.0,0.0,0.0,0.0,0.0,0.545530855344,0.0,0.0,0.0,0.029200276749,-0.117980312075,0.0,2.04987580324,0.0,-2.85812382933,0.0,0.0,0.0,0.0,0.0,0.0,2.06735654239,0.0,0.0,0.0,-3.68759861284,0.0,0.161400900731,0.109546591901,2.0355007676,0.0,0.686576322641,1.69563496015,0.313436283032,-4.700509806,-0.827307541868,0.0,-0.297020958907,-1.37124651656,0.0,0.0,0.0,1.06262075687,3.70347374144,-0.0475947804911,0.507352965959,0.0,0.0352121136066,0.0,0.0,0.0,0.0,0.0,0.0,1.64499760646,0.0,0.0,0.0,3.16939552953,-2.18547150367,0.769861960247,-0.572516515888,0.0,0.365730537056,0.499016112518,1.48397501376,-1.70534731945,0.0,-2.16749818514,0.0,1.41978797738,-1.62475104848,-2.23241484918,0.977998529682,0.0,0.0,0.0238676936958,1.37973463475,0.0,0.0,0.357204280774,-4.10746542614,-2.587041305,0.0,0.0,1.04245099224,0.0,-0.949250025936,1.07781571218,0.0,0.0,0.0,-0.433410205947,0.0,0.0,0.0,-0.179122994716,0.0,0.0413477306525,2.65609510272,-0.473738299225,0.0,0.0,0.0,0.0,0.0,-1.53101226072,0.0,0.0,0.0,0.0,1.40497264337,0.0,3.53184739504,0.0,0.0,0.0,0.0,0.0,-5.29710964383,-0.612151933239,0.0,2.56106332877,-0.88150983403,0.0,0.0,0.0,0.0,0.0,-2.18547150367,3.28768053992,-0.949499331413,-0.187111867948,0.0,0.0,-0.797868287523,0.0883894149012,2.70026576006,2.7168151287,1.75040252131,0.0,0.0,-1.06619883541,0.0,-0.705638814493,0.0,0.0,0.0,0.0,0.0,0.0,-0.749560406408,-0.916584118369,0.0,-1.24814974483,0.0,0.0,-3.10922329552,0.138194839969,0.0,0.0,0.0,0.0,0.0,0.0,-1.96818407762,-3.39214677059,-2.45294018374,0.0,0.581468304714,0.469844542846,1.20948409395,0.130335836057,0.0,0.0,0.0,0.848903896797,-1.8788902604,0.587850530258,2.17903459965,0.0,0.0,0.0,0.0,0.85754929427,-1.60870215492,0.0,-4.35376066332,2.24878117489,0.0,0.0,3.22018790522,1.10995901412,0.0,0.0,-2.35396885933,0.995677084898,0.0,0.0,-3.91207029176,-1.27770636011,0.0,-1.14978462395,0.0,0.0,0.0,0.0,-0.434753518665,0.332249055085,0.0,0.0,-2.47692083955,0.0,0.0,0.0,0.0,0.0,1.68189692504,0.433730387484,-0.592021038,1.00930662682,-0.0782771896447,1.09766572719,-0.798377158334,0.0,0.0,0.0,3.25312884122,0.0,-1.790650172,0.0,0.0,-0.422817485147,-0.473704756549,5.18531132121,-1.46754320947,0.0,0.0,0.0,1.26791910353,0.0,0.0,-1.32621755703,0.0,-0.837001145438,0.0,0.145283454289,-1.38658065226,0.0,-0.677667384214,0.52481959718,0.0,0.0,-0.484523678596,-2.79332181412,0.169793530971,0.0,0.0,-1.87289069831,-0.48013595231,0.0,0.724315853168,3.30583525101,-0.514328023361,0.0,-1.24221982406,0.0,0.0,0.0,0.0,0.0,0.0,0.0,1.12901048486,-0.77396319822,0.0,0.0,0.411876002352,0.0,0.0,0.264990903505,-1.72152670242,1.98780135468,0.0,-0.769013838464,0.0,-3.17227720206,0.0,0.0,0.0,0.0,0.0,1.42214164925,0.0,-1.12982714284,0.0,0.657404278768,0.0,1.77939517619,0.0,-2.49806960935,-0.594606390464,0.0,0.0,1.26495952182,-0.488441771314,0.0,0.0,0.882040022121,0.0,0.0,0.0,-0.334260656437,0.0,0.0,1.44191896063,3.09944331278,0.0,2.19223516179,2.01941706361,-1.32862320958,0.0,0.0,0.0,-0.179682879959,0.0,-3.59510813954,0.0,0.0,0.0,0.884360373813,0.0,-0.949499331413,-1.38712647445,1.51750779501,-2.90870371963,0.807243976811,-0.158679219784,-0.852307081204,0.0,0.519567205379,-0.599441316515,-4.22043539438,-0.0695376673981,0.0,1.12612485988,3.83880016889,0.0,0.0,0.0,0.0,-1.50936462154,-1.14543828159,-0.979801339999,0.0,-1.46124289748,0.0,0.0,0.0,-2.43088859019,0.0,-0.646394541097,-1.5860294338,0.0,0.0,-0.74426602842,0.0,0.0,0.0,0.0,0.0,-1.41369204257,0.0,0.0,0.0,0.0,0.0,0.0,2.4452901032,-1.93645602321,2.84682025863,-2.01105471367,0.0,0.0,0.0,3.15810016616,0.0,0.609248111794,2.48839942553,0.0,0.0,0.0,0.863090663984,-1.61850445512,-0.367038927842,1.07705792908,0.0,0.0,0.0,0.0,-3.99644546788,-1.27770636011,-3.46836081799,0.187175901151,0.0,0.0,-1.37378191962,0.0,-2.05056157997,0.0,0.556064094334,0.0,1.44215272379,1.67971773219,0.0,0.0,0.0,0.0,0.0,0.0,0.0,-1.44832017136,0.0,0.258526789113,-1.79710986105,0.0,0.0,0.0,0.0,0.0555662784726,0.0,-1.65405658792,2.64483394518,1.82576608597,0.0,-0.201227808689,0.0,-2.24643041005,0.0,-2.62271553426,0.0,1.57381741126,0.492812205951,-2.35831124224,-1.06786339036,0.0,0.243064537185,1.9552530548,-1.43475032125,-0.102498272634,0.0,0.0,0.0,0.636121098007,0.0,0.0,2.1751046685,0.0,-1.04996305691,0.0,0.0,0.0,1.16966068715,0.0,0.394208807186,0.0,2.03597191524,0.0,0.891262869535,-1.95208204797,0.452162438495,0.0,0.0,0.0,-2.56291328458,-1.34173488021,0.0,0.0,0.0,0.0,0.0,0.0,-3.53350132533,0.0,1.06528326098,3.93240980626,0.0,-1.03273877143,0.0,0.528805185015,-2.56037022505,0.0,-0.439683309181,0.0,-2.31013904463,0.0,0.0,0.0,0.0,0.0,0.0,1.65424413543,0.0,0.0,0.0,4.81342019011,-0.22948522642,0.0,-0.602916912969,0.0,0.0,0.350985431251,-1.63087423689,0.0,1.08781099111,0.0,-0.423106315042,0.0,0.0,0.0,0.0,-2.39176488477,2.51674886887,0.0,0.0,0.0,0.0,-0.193947279192,0.0,-2.50511642218,0.0,-2.46366209727,0.0,-1.31050579134,0.0,0.0,1.32963458897,0.0,0.0,-3.73992018083,0.0,-2.57955283339,0.0,0.0,0.0,-1.45401222287,0.0,0.0,0.0,0.0,-0.246132741075,0.0,0.348700627163,0.0,0.0,0.270121474573,1.57963934478,-0.162606787328,-1.68596677676,0.133678572507,0.91332229592,0.0,-2.6560794441,-0.431392855442,0.0,-1.44421057122,-1.98837125337,0.0,0.0,-0.23479409686,0.0,0.0,0.0,-2.07168644332,0.0,-1.63292708491,0.140214081577,0.0,0.0,-3.41543519869,0.0,0.0,0.0,0.0,0.0,0.0,-0.30236253643,0.0,0.0,-0.602776393936,0.863966151849,0.0,0.0,-3.23460190297,0.0,2.32284133905,0.0,0.0,-0.544775878461,-0.429930911362,-1.86810663651,-2.20397230137,-1.2137045725,0.0,2.57301029551,0.0,-0.96729253349,0.0,0.0,0.0,0.0,0.0,0.0,0.0,0.0,0.0,0.0,-0.597560017164,-0.116996019311,5.32049424807,0.0,-1.08583815883,0.0,-2.18547150367,-2.0967055852,0.0,0.0,0.0,0.0,0.145283454289,-0.362419723368,1.10964446162,0.0,-0.28665341988,-0.609885103541,0.0,0.0,0.356386754035,0.0,-1.735451899,0.0,0.0,-0.383519169149,0.0,0.0,0.0,1.42129906603,0.0,-1.04694846834,0.0,0.0,0.0,-2.04181938323,-1.30899789376,0.0,0.87210658893,-1.35962180969,0.0,2.06070697274,0.742959507897,0.0,-0.0732553760964,0.0,0.0,0.0,0.516063411857,-2.59209835117,0.0,-2.90938716201,4.43967766245,0.0,0.0,2.86849926772,0.0,0.0,-1.32660010504,0.0,3.13165899744,-0.507844808525,-2.62864938009,2.24029833694,0.0,-2.56893428772,0.0,0.0,1.37974532607,0.0,-2.13066159541,0.0,0.0,-0.906600101608,-0.267358310442,-1.07142860176,-1.61966721604,1.19657206774,-5.05634287776,0.921532322471,0.0,2.88638322772,0.0,-1.76315937433,0.0,-1.61998920275,-1.09904661392,2.76798048027,0.0,-0.658615080894,0.0,0.0,0.0,-0.268123995777,2.26189897141,0.0,0.0,-0.846202733082,0.0,-1.83726086468,0.0,0.0,-2.76874786175,0.0,0.0,0.0,0.0,0.284561159072,-1.32398339034,0.0,0.0,0.0,1.26717838084,0.0,0.0,0.0,0.0,0.0,1.07933675041,1.97031906431,0.0,0.0,0.0,0.0,1.21514252516,0.0,0.0,0.0,0.0,-1.09075907532,0.0,1.45335931413,0.0,-0.176125749647,-0.052152061791,1.09858820978,0.0,0.0,0.0,-0.546280614703,-0.172847805982,3.4460930183,2.04775406856,2.23418500545,0.0,0.0,0.0,0.0,0.0,0.0,-0.225984942892,0.0,2.33345494536,-0.793534804804,-0.541171073632,-2.37999975123,0.0,1.71159096915,0.0,0.0,0.948185594862,0.0,0.0,0.0,0.0,0.0,1.12343839266,0.0,0.0,0.0,0.0,0.0,0.0,-0.185081534526,1.98180689278,0.0,0.0,0.0,0.0,0.0,-2.03363972557,2.54380276985,-0.0990026139155,-0.436724531,0.0,4.96823696878,1.23115857751,0.0,-2.28224969846,0.0,0.0,0.0,0.313451739443,-2.29515725046,0.0,0.0,0.0,-0.956514223662,-1.68422473102,-2.53947784229,0.0,0.0,0.0,-2.0960457419,0.0,0.0,0.0,-2.20663083524,-4.7900515054,0.0,0.0,1.16330464833,0.0,0.0,0.0,-2.54607505772,-0.291980893916,0.0,0.0,0.0,0.0,0.0,0.0,0.0,0.0,0.0,-2.85215720026,-2.26266079209,0.547115998006,0.357924849126,-1.14438648102,0.0,0.0,0.0,0.0,0.0,0.0,0.0,-4.37114944688,-0.773073192667,0.0,0.00657414694465,0.0,1.68179178699,0.0,0.0,0.0,1.0910439969,-0.0294487595845,0.0,-0.602019742538,0.553084748703,0.0,-2.45073877585,0.0,0.0,0.951726214748,0.0,-1.53928420356,-1.04208122589,-0.324521128591,0.553084748703,0.414726109115,-1.3250247398,0.0,0.0,-0.643617623135,-1.78953174701,0.0,0.672028264605,0.0,-0.802740265382,0.0,0.0,0.0,0.0,0.736679083103,0.0,0.510120992326,1.77885627287,0.0,0.0,2.64868635037,0.0,0.0,3.57601513355,0.0,0.0,0.0,2.6670127096,0.0,-1.92465694312,0.0,0.0,0.0,0.0,0.0,0.0,0.0,0.0,0.0,0.808658181252,-1.15607117233,0.0,0.527370147683,1.7731914353,0.0,0.874570450121,-2.51303948821,0.0,0.0,2.74440400626,0.0,0.226979391154,0.0,0.357204280774,-1.25745184813,-1.65305697781,1.5798797437,0.0,-1.15159422935,0.0,0.0,0.0,0.0,0.0,0.0,-3.20695951201,0.751703837726,0.0,0.0,0.720150893307,0.0,-0.392494698642,1.75235576341,3.21976473702,0.501971841892,-2.83347619186,0.0,0.0,0.0,-0.190682606247,-0.114954809669,1.91020547329,0.0,-1.43981055258,0.0,0.0,0.0,0.475400768065,1.1586666776,-0.115592220067,1.05873670122,0.0,0.0,1.62250766251,0.0,-1.49352870096,0.0,0.0,0.0,0.0,0.0,0.0,0.0,-0.347060964189,0.0,1.80119508495,0.0,0.0,0.0,0.0,-4.64741268958,0.0,0.0,0.530327845272,2.27967595624,2.85996875815,-0.631812797505,1.02103982143,0.0,-1.13074134893,-0.637896497836,-1.00512477643,0.0,0.0,-0.956514223662,0.0,0.0,0.0,2.3494411146,3.54546166143,2.48981486148,0.144497157189,3.4567081914,-0.927527858315,0.0,0.0,0.0,-0.174351505599,0.180452500524,-1.85228481803,0.381784131973,0.510049367105,0.499583684816,-0.561812070944,0.0,0.0,0.0,-0.193947279192,-1.97293120684,0.383568228802,-1.09904661392,0.0,-0.544556336964,0.860234300938,0.0,-0.964695523468,0.0,1.40258406894,0.0,2.5177716115,0.0,0.0,0.0,0.0,0.0,0.0,0.103523995785,-1.44832017136,0.0,0.0,-2.94438529848,0.0,4.67359501086,-1.6191009503,0.882803738376,0.0,0.232594376016,0.0,-4.16835697565,0.0,-1.73752793283,0.0,0.0,0.0,-0.123552698083,0.0,0.101059723671,1.8120388058,0.0,2.72873376965,0.0,0.0,2.14022249915,0.0,-1.6039893739,-2.74914310783,0.0,0.0,1.3086250235,-0.963303076929,0.0,3.85534438381,-1.45138213148,0.0,0.0,-1.00842510242,0.0,-1.52521069055,2.18869909767,0.0,0.0,0.0,-1.96008591128,0.0,0.0,-0.368130018842,-2.40886705868,0.0,0.0,-2.16977229895,-0.594592905806,0.0,-0.394493130637,0.0,0.0,-4.48135887318,-1.68731562109,0.0,-0.116460532492,0.357924849126,0.0,1.1680367161,2.30329238309,-1.99995518989,0.0,0.515773433765,0.0,-3.17853302949,0.646783079619,0.246179011263,0.359856622329,-0.896106767902,1.89860682789,-3.38176977164,0.0,-2.85154501895,0.0,0.981040436995,0.820700557751,0.0,0.0,0.0,-3.06852599668,0.0,0.0,-1.70133740386,-0.278687574254,0.0,0.0,0.0,-0.394745840258,0.0,0.0,0.613992851613,0.0,0.0,-1.80106210441,0.963878167425,-0.832517741749,1.35407682986,0.0,-5.13068925814,0.0,-1.16152355003,-1.83455983296,-1.09064976416,-1.21964967147,0.0,0.600818786684,0.0,2.30725469211,0.0,0.0,-1.1956608116,0.716195218622,0.0,-1.31035955562,0.0,1.61611070203,-0.511778636609,0.0662114621829,0.0,-2.16635036562,0.0,0.0,0.0,0.0,-0.454012237053,-0.208698285258,0.0,-2.54091948509,1.42739111107,0.0,2.44577192339,0.0,0.0,1.26917626602,0.0,-2.68409915195,0.0,2.25031620726,0.815782225273,-0.188825944612,0.0,-0.885117099247,0.0,2.46620462917,0.0,-0.415033026742,-2.99460312704,0.0122135791867,-0.186374578812,-2.73085321059,-4.64366936722,2.85416125403,-3.15608481679,0.882465276826,0.0,0.264990903505,0.0,-0.403464824999,0.0,0.961203446799,0.457366163822,0.0,0.0,-0.492946795166,0.0,-0.329038573048,0.0,-2.08912632694,0.0,0.0,0.0,0.0,0.0,-1.35705334176,-2.31134324115,0.0,0.351146525282,0.0,0.0,0.852125859358,0.0,-0.124306268087,0.0,4.61629428209,0.0,0.0,1.08946990629,0.0,0.0,0.0,0.0,-0.45689169663,-2.41613249616,-2.15112609948,0.0,0.0,0.306624147275,-2.46488594492,0.0725427894992,0.0,0.0,0.0,0.0529112506021,0.0,-0.291980893916,0.0,-0.23548867839,0.0,1.44328627569,-0.0877515150977,0.0,0.0,0.0,0.0,0.0,0.0,0.0,0.0,0.0,0.0,0.0,-1.93116044097,-1.3151666175,-2.09710073663,0.0,-0.150903585033,-3.20790207104,0.0,0.0,0.0,-0.543994505717,-1.27682444524,0.0,0.0,1.67091270256,0.0,2.88839991094,0.0599454536801,0.0,0.0,1.95246894833,0.0,1.69019363823,-0.135716751621,0.0,0.0,0.0,-2.70351774834,0.0,0.0,2.40122404955,1.13891761525,0.0,1.80553649241,0.0,-0.815718556513,0.0,1.14140285783,-0.373685644722,0.917829383114,3.08337646301,0.0,0.308370038658,0.0,0.0,0.438531875059,0.0,0.0,0.0,0.0,-1.07158720133,4.09537248695,-1.80095205677,0.0,2.49502590583,0.846794621288,0.0,0.0,0.0,0.629200660259,0.0,-1.92571078809,0.0,-1.47704745217,0.0,1.19648645696,1.86509231183,0.0,0.0,0.0,2.53276086399,0.0,3.29297648035,0.0,0.0,0.0,1.4625468729,0.0,0.0,0.0,0.0,-1.54535212164,0.0,-1.86466076349,-0.684267305279,0.0,0.0549063686319,0.0,0.0,1.3648353566,0.0,1.68772660689,0.0,0.0,0.0,-1.69367361586,0.0,0.0,0.0,0.0,0.0,0.0,0.0,2.22359871139,2.15816875538,3.76362908453,0.0,0.730166589102,2.01687868059,0.0,-0.285638124642,0.0,1.32853451139,-1.33325836795,-1.17526922976,0.0,0.614403030252,0.757256216539,0.0,1.24550289476,-1.08556482924,2.10591064691,-0.489537514963,0.0,1.59390823412,1.63234046275,0.0,0.0,-0.645740604328,-0.753116926632,2.05136936787,-3.0292408562,1.4918573892,0.0,0.0,-0.535882284907,0.324268123783,0.354903463988,0.0,0.0,1.44788007336,0.674332755066,0.0,-3.03760267929,0.0,-0.298626927006,0.0,-1.58163910666,0.0,0.0,0.213837493608,0.0,0.0,0.718708194872,0.0,0.0,1.97130365244,-2.06861629478,0.378868019294,-0.693901555421,2.85679747212,0.0,0.0,1.20846255157,-1.49814130404,0.148263834586,0.0,0.0,0.0,0.0,2.31576917693,0.0,1.57099940921,-1.31786278826,0.0,2.18698956414,0.0,0.0,-0.917760955504,0.0,1.27882318977,0.0,1.55699174952,-0.303973599862,0.0,0.0,0.0,1.30749596565,0.0,0.0,1.5295291974,0.835668465463,0.149638909507,-0.108234628923,0.0,-1.43228960802,-1.47168591052,0.0,-2.29163403121,0.0,0.0,0.0,0.0,0.0,0.0,0.0,0.0,0.0,0.0,0.0,0.0,0.0,0.0,0.0,-0.648329955702,-3.0299670936,1.36460613293,0.0,0.0,-1.89112048805,0.0,2.5586829575,1.43673951159,0.871643105531,0.0,0.98379131933,-3.53898772269,0.0,2.40830595877