0.627393036575,0.0,0.516208636592,-0.28519714412,0.579250918761,0.0,0.0,-0.315496113353,-0.249070188185,0.0,0.574207905514,-0.234605679662,-0.357382945101,-0.752989045252,0.601066797576,-3.50003951967,0.0755974085448,0.927970433151,0.0,0.450288614842,0.0,1.08079275627,0.0,0.592431492294,0.124919366189,0.0,-0.942038963173,-2.47859838756,-0.730522578736,-0.0116856050214,-0.10526381893,-1.27144776034,1.45870105168,5.68327263527,0.432986340926,0.589309277525,-0.341126169686,-0.977922109319,0.0,0.293188521168,0.342537898108,-0.56227034242,0.164097201169,-1.25326824376,-0.130784733419,0.0931659224844,0.0,0.0,0.783257975521,0.0,1.08041022952,-0.215594228026,0.39430694975,0.348533533323,0.0,0.0,0.291847303252,0.564446334263,0.529087120589,1.71369026599,-0.723804951244,0.0,0.0,-1.00841616136,0.0,0.438329652973,-0.699151398485,0.0,1.1889387251,-1.15035475678,0.298055662103,0.280483174393,0.0,1.25308733034,-0.209487761771,0.0,0.602389895364,-0.307958016342,1.580569012,-1.27216865722,0.930228914147,-1.65869287597,0.142344315336,0.0,0.0,-0.503624098352,-0.0834289459288,0.0,0.0,1.62208814355,-0.299970093335,1.7103433779,-1.70413716498,-3.07429156202,0.441479985172,0.0,-0.767608994717,-1.19786097812,0.530427513788,0.931588899146,0.0132785338168,0.0,-0.173814683359,0.24832392395,0.993984334935,-1.00977922206,0.0,-1.90927091663,0.579549441764,-0.411947968404,0.62708499063,0.0,-0.0393959951079,-5.49648906838,-0.558649628221,0.631698665192,0.746526503019,0.0,0.218612068031,-0.237694313418,0.247706300446,-0.375227140867,0.0,0.111261153195,0.0,0.0,-1.13621860229,0.212306942002,-0.409953881061,-0.573683598267,1.14045451401,0.979925328865,0.584567396484,-0.99555623588,-0.307724411339,-0.658982565871,0.0,0.29845938463,0.75985043715,0.163464101613,-1.87977433134,2.45136070311,-1.23200268131,-0.680069205585,0.837189278344,-0.148041553614,-0.00100351055289,0.0,0.0,1.58183756938,-1.58435327426,2.46050364811,0.54224197026,0.556983331779,-0.177280399922,0.0,0.0,-1.20138327705,0.495833850583,-0.698259433756,0.208119311624,0.0,-0.757404463414,0.0,0.0,0.0,0.454086199765,0.0790351006197,2.83993618824,0.0,0.0,0.0,0.0,0.739284617895,0.0,-2.39391441269,0.0,-0.46266599966,0.0,0.349080800353,0.609648898187,0.0,-0.973797068624,-0.49759404353,0.0,0.0,0.0,0.0,0.91617274721,0.171197156944,2.70274357947,2.06958121844,0.597886012589,-1.1019885916,1.68411816063,0.0,0.487476574149,0.330344467707,0.0,1.2762702614,0.217689077968,0.0,-8.03613180016,-0.746235773166,-3.6403305892,0.0,-0.934145633505,-0.895019917283,0.118625129152,-0.547428979481,0.168142446752,1.93807121853,0.160552319626,-0.433085742605,0.325168615108,0.0,0.65320724149,0.0,-1.4218620646,0.0,0.0,0.0,1.59812766861,0.0,0.0,1.03154947023,-0.466244730063,1.38346628825,0.0,-0.527991707775,1.5746816165,0.0,-1.60228613932,-0.104730905578,-0.0661186459637,-0.683630354903,1.02009400381,1.54542706694,0.0,-1.99750060931,-1.53076735184,0.0,0.434753186883,-1.41016810693,-1.65819358573,0.208383406445,0.0,0.0,2.38519338773,0.0,0.0,-0.145209645169,0.373329531566,0.0,1.15714356958,-2.5507319649,0.813202037361,0.0,-0.665239750357,0.0,0.0,-2.06314215502,0.0444496612379,0.0365076133223,-0.0409446256177,1.3706233374,0.199811710362,0.0443879821035,-0.825736351085,1.28305155407,-0.49124357564,-1.06599136788,0.0,-3.08073899519,-2.0304114805,0.314010075345,-3.89737446007,0.0,-1.41528145601,1.22331983716,0.0,0.0,-1.19666467962,0.358004737152,0.776609928698,0.0,0.0,0.702651065374,-5.90931603432,0.0,0.000828765569671,0.174774188515,0.0,-1.43442186556,1.74532915654,0.0,-0.564266641753,0.0,1.05702175776,0.762537664836,0.0,-0.541677210257,0.673114607798,0.0,0.0,0.0233853986935,0.662052929367,1.03750422056,-0.0971237718075,0.698774048067,-0.38118042248,0.260674253352,0.623405462117,0.0,1.1590474839,0.0,0.247614339682,2.43501502509,0.19469576735,3.12890676933,0.0,3.51926227669,1.04161927067,1.06836516844,-1.14912408607,-1.46888428428,2.24606243123,-0.0692709082215,0.0118839642061,0.81466413597,0.303633908318,-0.715091403567,0.0929311774817,-3.21003945809,0.243567650118,1.82729596412,0.0,0.368062040294,1.19748971235,1.16036043558,1.27089846803,0.728309506023,0.0,0.0,0.0177959106116,0.0,1.84979374729,0.0,-0.612437778447,0.876724329238,0.0,-0.113399611932,-1.40324721403,2.75741475564,-1.71635628644,-0.861083505777,-1.82804876754,0.0,-0.743632930387,0.0,0.0,0.0,0.12413585745,-4.04885363209,-5.62772098708,0.585800223752,1.29049041877,-0.818014506864,0.0,0.0,-0.334727900454,0.363425387484,0.0,0.0,-1.98523544933,0.0,0.0,-3.78460744365,0.0,-2.27966417427,-0.209457162568,-0.992475057336,1.67138045034,-0.360485094036,0.0,0.0,0.0,0.0,-1.36819770094,0.0,-0.583306942237,3.2642465398,0.634113104984,-4.51285154741,0.29463765084,-1.90554023906,0.0,0.521855546529,1.43563212714,0.426330337831,-1.62681593879,-0.534481705201,3.86976625403,0.0476527302837,0.278352844635,1.87437050049,-0.610398242865,-0.436329344603,0.908197182213,0.482425940758,-0.526193310894,0.0,2.38615405307,0.375442544068,-0.469609395422,-1.59174196341,-0.759210590193,0.0590103119833,-1.17205193706,-1.02389236317,2.88112714438,-0.86975022826,0.0,-1.16086750484,1.02919832563,0.0,0.428840688234,0.0,0.0,-0.895610465126,0.0,1.8083373376,-0.78384208147,-2.1566623356,0.49032986654,-0.755192779897,3.96778774194,0.0,-1.47436224811,1.95545695064,-2.16588720318,0.0,-1.99845695222,3.18129745318,-2.14873694698,0.0,6.04375034207,0.0,0.452138875951,0.0,0.591603001558,1.57550267981,0.610504498355,0.643515913652,0.756470509048,0.0,0.8499597522,0.260652175022,1.66488550008,1.2228982149,0.0,2.15998750698,0.182477532503,-2.94830421905,-0.0448634807034,1.83769362943,-0.820276546531,0.0,-0.482790653538,0.62148762837,0.194001724255,-0.581221946785,0.505214477386,-1.76902525812,0.0,0.0,0.0,-0.201043264353,-2.03475909755,0.0,0.196511690386,-0.393810281868,1.38860365125,0.0,0.0,-3.90524464683,1.73560474971,0.0,0.0,0.0,0.0,-1.15757473803,0.0,0.0,0.0,0.287404065319,0.0,0.28468341698,0.0,0.225291778662,-1.3153765944,-0.576090341869,2.12357591435,0.0,4.3076769301,-1.02025104971,-0.489811426628,-1.12277454185,0.0,-3.83516491396,0.0,0.0542456975513,0.0,0.0,3.08940580244,0.0,0.704570999027,0.170168869671,6.55596761914,-0.259945779314,0.0,-1.11461616465,-0.569927336317,-1.05884928112,-0.930387869762,1.16226202855,0.544891180683,-0.492060540062,2.33850717027,-0.122327803505,1.42306110394,0.116982196318,0.0,-3.47885102181,1.34763312103,1.6123482814,0.741097278142,-3.35367681016,0.0,-4.77655958235,0.0,-3.85382585529,2.63828661869,0.0,-1.73910195926,-0.0635570567699,-2.73499745553,1.97747291038,0.0,1.00766011552,1.29169913781,-1.3474920927,0.671968338779,0.0,0.0,0.0,0.0,-0.636718457955,-0.967307187872,3.7348281053,-1.43617337313,-2.17719869983,1.35631004222,-0.449657874066,0.0,1.22670574735,0.0,0.8892696648,1.90107178544,0.0,0.0,-0.708485391459,-2.06190081381,-1.71053996974,-1.84994917233,0.0,0.511451629036,0.524406932178,-1.492624659,-2.13309010682,1.6737731391,1.69406566285,0.0,-0.00411030310081,-1.07027645577,-2.39125147222,3.04662435829,0.0,0.0,0.0,-1.17741522864,1.13892852723,0.0868841823961,1.35940014872,0.0,-1.01105342213,0.0,0.695789386498,0.0,-1.9226080025,1.28387659927,-0.451082177294,-1.26260554707,-1.52667868459,-0.593462907283,0.0,-0.148476984185,0.571391425789,0.0,0.127562636327,-4.50959437596,0.500796673872,0.790670707888,-0.0112856506598,0.0,0.0,0.0,-3.09242468605,3.31314132254,0.0,-0.656260351599,0.0,0.0,0.718928701485,-1.41577584876,1.59982493474,-0.281120881864,-0.883230420811,0.0,0.260148108823,-1.83655272279,1.99764500365,1.84204435243,0.744158302115,0.0,0.0,0.0,-1.28571027219,-2.79983547159,5.53053702113,-2.17162544335,0.0,0.0,0.974782949665,0.0,0.186713744102,0.0,-2.29704738324,-0.164841009273,0.0,0.0,0.0,0.0,4.29555723567,0.0,0.726545142554,-0.138756931938,0.0,0.0,-0.139651270905,-1.74843765048,-1.50615840206,-0.322078136786,2.97376469019,0.0,0.0,-0.84880997105,0.0,0.0,0.0,-1.16939196162,-0.437200414633,0.0,5.74496546244,1.59758590236,3.45212960487,0.0,1.16312907766,0.0,0.0,-3.83855687571,0.0,0.0,0.236657736023,-4.65444172397,-0.997136569887,-1.00056656279,0.762086159749,2.44256037372,0.26660245327,-0.890242206881,-0.51279268591,0.0,-2.17415143477,0.0,0.0,-1.28987316355,-2.21177154108,0.465644081815,-3.18384336853,0.0106985902921,1.90352548835,0.0,0.0,1.33984725046,0.0,-5.12928227635,0.0,0.603885998591,0.0,1.1064995595,0.0,1.84837922984,0.0,-1.39931031525,-0.923846526922,0.0,-0.419741175501,-0.518782528652,0.0,0.0,-1.03637758905,-0.458949045714,0.0,0.132015586699,0.0,0.0,0.0,-0.343822470941,0.0,0.0,1.80773203752,3.5252648883,-0.936616664936,0.0,0.0,-1.5186861784,1.10149105045,0.0,0.0,0.468793513936,0.0,0.0,3.22838133272,-0.79772824861,-2.42990765112,0.390414490958,0.0,0.529605257068,0.0,0.0,0.57336069075,-2.81422768239,0.126901363239,0.0,-0.926445730961,0.0,0.0,0.104172846735,0.480130854143,4.22940588849,0.0998363570755,0.0796929856196,0.0137097305599,0.0,0.66907122017,3.37482860417,1.95339607176,0.0,-0.809652686562,-4.72623005254,6.49008234184,0.0,0.973487197749,0.250494137579,2.01981706587,0.0,-0.45391802502,-6.45335052641,2.51955305752,-3.28518882059,1.51408904782,0.290090378794,0.404201815644,0.0,0.0,-1.38365105978,0.914774391923,0.0,0.0,-0.0740333450185,1.80991472739,-0.565931602204,0.334256272973,0.937458276057,1.26968538998,-0.396599517063,-1.66223943601,0.621612098748,0.0893547818926,-1.09502263202,4.90499998263,1.67978414054,0.0,-0.0963454519735,0.768662969331,0.0,-7.21673050086,-0.293901209418,1.81433110852,-3.56725281518,1.33914674932,-0.506933220693,3.86276774295,1.10150372771,0.0,0.0,-3.47931859775,0.0,-1.45990216332,0.0987908716018,-0.259372943414,-1.49508394791,-1.30315381543,1.1670560934,3.03781697007,1.45427819398,0.28625085411,0.0,-0.747566794005,0.0,2.25271163666,0.0,0.0,0.0,-0.797112554496,1.96647112997,0.605592974592,0.0,2.74379400342,0.0809422036047,0.0,-8.88463069969,0.519949714558,-0.366745004413,0.0,0.0,0.0165196316926,0.0,0.0,0.0,0.0,0.459715558681,-0.782028823208,-1.46534502746,3.53641816478,2.39262450619,-1.44848061586,0.0,-2.92910262871,0.941401160621,3.54612431996,0.0,0.0,0.0,-0.661495669327,0.0,0.0,4.69269061845,-0.244100097135,-0.243909484744,0.34798744782,0.0,-0.10812917466,-2.50437382809,0.0,-3.58825315807,0.0,0.444482822133,2.97419074976,0.330644539645,-1.20131433824,-0.060430053815,0.0,-4.06406321685,3.71937590247,0.0,-0.0946683472299,-8.75458123594,0.0,0.0,1.62163967415,2.66049517936,0.0,-0.740381688888,0.0,-0.162007080515,0.0,0.0,0.176438603713,-7.10229921466,0.0,-3.31862339817,0.0,-1.51390690105,-1.52586111611,-2.14694739857,0.0,0.0,-1.18727593619,-0.679996896786,-5.4141351075,0.0,0.0,0.49574888852,-1.03134464151,0.494264350594,-1.09871911155,0.0,0.0,0.0,0.0,1.54731748667,0.0,2.27305122501,0.0,0.0,4.37795799503,-2.2525059606,-2.39798219048,0.0,0.0144020653107,0.0,-1.89953958049,0.120492316318,0.0,1.17370027929,0.101801950857,0.0,0.0,-1.01914328474,-4.68527734469,0.0,-1.15475856826,2.79313647239,0.0,-3.09742943267,-0.240515614908,0.0,0.0,-2.22401241727,2.1426859996,-0.601212686097,-2.10541309475,-0.0807275339831,0.0,0.0,0.0,-0.437726215154,-3.45212050141,0.0,-0.222199261041,0.0,0.0,0.135405147544,2.71453536909,0.959808954408,0.0,0.0,0.0,0.0,4.87866957076,0.0,0.0,0.0,0.0,0.0,0.0,0.405709355225,3.46045521954,7.41777261236,5.59272922507,-0.00482000112634,0.0,-3.06825085497,-0.753371447966,-0.92101622564,0.0,1.99043066784,0.52398116661,1.49967497498,-0.233999425794,4.47983169138,1.80351824057,0.0,-2.90611451834,-0.139902231198,0.0,0.173544412104,0.0,-0.215698062921,0.551652328023,-0.37490265658,2.44075801622,0.0837119801971,1.40989924633,0.0,-6.46130956999,0.0,0.752297383514,0.144874377424,-2.66469058909,0.0,1.13982928428,3.3074050822,0.0,0.0,1.04734038003,0.0,0.0,-1.1197061976,-5.13474109182,0.0,-1.22500817002,6.34470144626,0.0,5.1766158887,0.0,0.0,-0.181214253986,1.74944916198,2.32377625325,-3.5743738244,5.34538559254,0.0,-0.231778675053,-0.761457214715,-0.161371447024,-1.32498993582,0.0,0.820510709549,0.0,0.0,3.24785097172,0.0,-0.574195738974,-0.0417453403315,3.92921490318,0.0,0.0,4.64727526444,-0.996811170718,2.56770600688,2.51899516403,0.0,-1.17354476025,-0.983868211462,3.03092763018,0.0,-1.57404372956,-1.57598371088,-2.69763102114,0.0,1.63235857399,0.0,0.0,6.32496135405,2.85988906719,-1.70499141254,-3.90524380808,0.0,-6.85930645054,1.50110504,-3.71441067104,6.90455264719,0.0,0.0,0.0,0.0,0.0,1.85156690386,0.0,0.0,1.01530719317,0.767506146336,0.0,-0.528681831176,-1.83004578211,0.0,0.0,-1.26537125777,1.16660106903,-5.25365100401,-0.0210538377188,2.38338471426,1.18697587557,0.0,0.819157871677,0.0,4.27340784736,-0.664719767479,-1.23794245746,1.68121915133,0.0,-5.29540516479,-2.42887981369,0.0,-0.7516957579,0.676665147844,-0.313674380536,-2.16118484358,0.723474417959,0.0,0.0,3.02824183981,1.47655495276,0.0,2.60704934045,0.245235763417,0.206270048532,0.0223725685288,0.0,0.0,3.3660959936,-0.372292235314,-0.806368945758,0.0,0.0,0.0,0.0,0.0,0.557200177158,0.0,0.736364592799,-3.13286720046,-0.189841595857,-2.33118742855,-1.55252967947,-2.96755955253,3.99844959305,0.0,0.0,-4.10567888336,0.0,0.0,0.437041475629,-0.222376388599,0.0,1.08410466901,2.37853077844,-1.61524145724,0.202757170153,0.156345797825,0.6326972246,-1.30796228992,-0.186933139139,1.35826314197,2.15877986662,0.0,0.0,-1.01598974785,0.0,0.195896785777,0.0,0.0,2.28725735999,0.444344709108,0.174403560509,0.192068877107,-0.360220381926,0.0,-0.812731872632,1.6070838593,-1.96271441491,1.5730247291,4.22716601016,0.0,0.0,0.0,1.4886978796,1.58526175042,0.0,0.0661513384906,-2.34488260718,2.17232930402,-1.2405581316,0.0,-1.97744573977,-1.29385220324,0.0,0.839977745408,0.0,0.0,0.0,0.0,1.95901709604,-1.488830438,-0.793865735039,-1.72405347301,-4.89537082631,0.0,-0.360550878779,2.87273456744,-3.96314706815,-0.179421232961,0.0,0.939910577836,0.0,-5.74428632305,0.0,-2.27173280501,2.48289143074,0.0,0.0,0.913039155468,0.00253607259431,0.0,-0.869048705784,-0.909058126466,-7.70152023827,2.46652925882,-0.0317605123661,1.01546030736,-2.27956303385,-3.44812593867,5.46664657367,0.0,-0.299370872387,-5.91564939002,0.0,1.65166898933,0.0,-0.88763323994,0.0,0.0,-0.996033123245,0.0,-2.60524732033,1.87509474685,0.241024991322,1.90972933744,-0.916264573521,0.239978806757,-4.78538197918,0.0,-2.10558447028,0.0705138313046,0.0,0.0,-0.379622131778,0.0,0.0,0.440540549642,1.50825724963,0.0,0.0,2.38776890615,-0.188985062107,0.0,0.0,-2.1256615184,0.0,0.0,0.640076871591,0.0,0.0,-0.758121098349,0.0,0.0,0.0,-1.72116882488,0.85265602661,0.0,2.06809562013,0.0,-1.56487106852,1.45186395701,1.89060623052,0.0,1.01443194158,0.0,0.313043075038,0.0,0.0,-0.232453515886,0.0,-1.13434726851,0.0,0.0,1.20095055592,0.0,-0.293595122642,3.01460032377,0.0,-2.14041797145,0.0,0.0,1.35205538936,0.0771844730046,0.0,0.0,0.0,0.112793850767,0.0,0.373888142356,-5.50771187608,0.724976541612,-0.975601805759,0.0,0.0,3.13799609743,0.0,3.02471993926,0.702171503549,0.568837269157,-1.06640927937,1.55315278837,-4.12345440378,-2.58409026209,2.64288503568,-0.0628726664956,-0.61818482429,0.665471880238,0.0,0.0,3.71112086719,-0.310089458361,-0.45604635419,-0.254548542955,0.482030033107,0.0,0.0,0.0,-1.80696253362,0.0,0.0,0.548234947064,0.0,0.0,-0.680613307385,0.0,4.72326231431,-0.368451879435,-0.501554136226,2.28302593259,1.83861073074,-4.67349234341,0.0,0.28139836228,-2.94708725143,0.0,-0.362842948891,0.0,0.0,0.0,1.11899483187,0.0,0.0,0.0,0.0,0.0,-1.49355214961,0.0,-0.97640466904,0.414291400124,0.0,-0.267889536442,1.29044684499,-3.12409144893,0.0,3.68089197028,0.836452203136,0.0,1.8870017504,0.0,0.131738335622,2.14443361701,2.76685934454,0.372238508104,0.0,0.165752926396,-2.15794165573,0.810927839145,-0.419070106376,2.71177855686,0.0,3.1786396944,0.0,2.94152399028,-0.763445996993,0.0,0.0,-0.899451467174,0.532422237701,0.0,0.0,1.82039337597,0.0,-3.61168276581,-5.66201114926,0.0,0.616352536314,0.0,0.0,-4.31937093653,0.0,0.0,1.96033208138,0.0,0.0,-1.19962335324,-3.34342443902,0.0,-0.215284678859,1.94624534785,1.24887935248,3.47326956013,-0.618163933173,1.18564717919,-5.85154692717,0.0,0.0,0.0,0.575988161462,-5.26948242387,-0.980389707904,0.0,1.04644881207,-1.68012388247,-1.02595815718,0.0,0.0,0.0,1.47828523091,1.43829087126,-1.88679936005,-1.98699215854,0.0,4.27075469433,-1.03206150182,0.0,-1.44446250968,1.81230740799,-1.74512589096,0.0,-0.836397167664,1.78524094413,0.342422538066,0.0,-0.0672302547725,-0.634292589838,-2.49842714445,0.0,-2.54984934002,0.0,-0.109401618732,0.0,-2.44163976201,0.0,0.0,-1.37737627663,0.0,0.0,-0.734616180184,0.74658562017,5.26001042086,1.80044605593,1.81135966097,0.0,0.0,0.676776197887,0.0,-5.52113098444,3.10068133082,0.0,2.06414353965,-3.75960372121,0.0,0.924576333503,-0.438568454249,-0.83859893127,-3.68592927763,0.0,1.12996029534,0.0,2.95420029381,0.0,-7.26724388511,0.552240698687,1.63912943501,0.0,2.57672837576,-2.36393934778,0.0,-1.33240227215,-2.04228796748,-2.54918080736,0.0,-3.35296427491,0.227578956383,1.05919455163,0.0,-2.38014900762,1.18863431384,0.0,-1.83341520358,-5.75479001529,0.0,-2.55091305631,0.0,0.0,2.14831367401,0.808229635967,-0.061079908572,0.0,-1.08918986396,-4.10705516024,-4.77561848637,0.0,0.0,0.0,0.0,3.59323154665,-0.286297262639,-3.06478332321,0.0,1.487258038,2.47820449173,-0.962150627173,0.0,0.156849976669,0.0,0.0,0.0,2.68679626734,0.0,0.0,0.0,-0.301065420553,1.57070288731,0.568201746016,3.86859863028,-0.760086744394,0.572170701502,1.50168502486,-1.70565606725,2.76850069363,-2.30997214395,-0.671563526168,-2.29180413037,-1.59074980429,-2.09764597929,-0.327949023258,0.0,0.0,-4.00804883405,2.20027979383,-2.89671226072,3.46238517457,0.0,2.08140952736,-1.95481717069,0.0,0.0,2.70324181017,0.0,-3.48165982893,-0.86438138176,0.0,0.0,-2.13225390284,0.253521222832,-2.68840079721,0.0,-0.89585017538,3.16032851629,-0.369691264946,0.0,0.640884039762,0.0,-9.3573804406,2.82746061509,7.22458901896,-0.0822046321528,0.0,0.0,2.17532269506,-1.38949617367,0.0,-0.878341146682,1.74266730988,-2.27456623083,0.640101342643,0.0,0.0,5.06122120903,0.0,0.0,0.857168486251,0.0,0.0835009563866,0.0,0.0249087075465,0.0,2.34397192022,-2.64356892825,1.20859141434,0.0,0.0,1.091037155,-3.25224833903,-1.5920157609,1.20990025315,-0.112587555881,-0.481060149756,0.0,-3.28516871363,0.0,4.85633028005,-1.11179177412,-1.17682283909,-3.39908710391,-1.7666034437,-3.96316631713,0.0,-1.32933233663,0.0,0.0,0.463492133377,0.0,0.0,-2.35527339078,0.257208847465,2.68914334518,2.13549713683,0.0,-1.10876203124,0.0,0.71870338533,0.311791523797,-1.62611887581,6.88565743887,7.23002763769,0.43533073754,-0.840099450956,0.123528664462,0.0,-0.102220969886,-4.04799272691,0.686343499969,0.214225962994,-7.36433920861,0.500507317965,-0.907207859331,-0.458866504646,0.0,-0.526140813777,-0.782280135475,0.0,0.0,-0.945784177881,3.67748145675,4.10676963769,-1.37452090764,1.44549050406,5.32901630682,-3.38423640309,-2.01592427147,1.41529871312,-2.70196249164,-0.0325698104947,-2.33180262578,1.14105283835,3.17361508211,0.0,0.0,0.0,-0.23750466203,0.0,-1.54856682758,-0.584664190077,0.0,3.74885436715,-2.08511278169,0.0,0.0,2.23977507113,-2.71750736117,-1.69589517698,0.0,-1.74097195577,-1.44070513935,6.75126212308,2.01580387665,3.78385101366,0.0,0.0,1.90898312384,0.0,-1.18021235315,0.0,2.73661942092,0.892249070929,0.0,-1.35871003498,1.12343078659,-8.23477619498,-3.76533691211,5.86665158668,-0.979080559818,0.0,0.0,0.769817005984,-1.25686543743,0.0,0.0,0.962681878102,5.02453671169,0.725171143682,0.0,-3.41074089029,3.58829130323,-1.75239340215,-1.52480124232,0.0,0.0,0.0,-0.38052914457,0.0257836043973,0.0,1.76390351919,0.0,-0.195763451732,-0.132107103439,0.0,0.00925013785651,0.0,0.0,-1.78023959607,-4.85568116956,3.75509207262,0.863312488098,0.112145716318,-3.44164188843,0.0,0.0,-1.7847063415,-4.11402921985,0.0,0.0,0.810408812066,7.50544534358,0.0,0.976286868947,2.78958442979,-0.245551395744,3.15892914255,0.0,0.0,-5.37137605003,1.86885554309,-3.992329941,0.0,0.0,-5.34514774667,-0.0830001798717,-6.82339700142,0.0,-0.164120183024,0.0,0.0,-0.0724862789124,2.56604193822,-0.262976695527,-0.392518702995,0.574439343501,-1.49331559347,0.0,0.0,0.194536591833,3.795046651,2.85509728382,0.0,-0.573226003346,0.0,0.0,-2.20375925732,3.18402002644,3.11406573032,-0.13894494702,0.0,-4.22815954093,0.0,0.0,0.0,0.0,0.0,0.0,0.0,-1.24949211639,0.0,-4.2056157308,0.0,0.0,-0.44681427055,0.0,-0.80583736662,-1.32785222874,-1.96313018246,0.0,-3.83220522867,4.28337739209,0.0,0.0,2.52530370613,3.16250977276,0.0,1.48400715873,-9.42544958655,0.0,0.112549112567,0.0,0.0,0.0,0.0,0.0,0.0,-2.37263894571,3.40267926168,-0.693880174589,0.0,0.0,-1.21976371171,7.0660124103,0.538094351153,0.0,0.0,-1.21471370781,0.0,3.02083576619,0.0,-3.14055216545,5.36671729125,-0.232209393855,0.0,0.619358270294,0.0,3.70739594629,0.0,-3.04425134309,-4.20311584198,-1.00124146222,4.76976772338,0.0,-0.12685023461,0.0,0.83601480822,0.0817259848573,0.0,-0.54040700295,0.0,0.788309433072,0.151834305765,0.0,0.0,0.0,-3.284708056,0.0,-5.69414769505,0.0,0.0,0.0940857540274,0.0,1.31630736743,4.25889393561,-2.58392536517,-4.26542922364,2.21062422049,-0.300624637915,-0.443533208513,0.0,0.0,0.0,0.0,0.0,4.56377768498,0.0,0.0,0.0,0.0,-0.239951978205,0.0,0.0,-4.78413460518,-3.9265539709,0.792288437789,0.0,0.0,-2.29400125103,-0.81931289761,-0.0862133463751,0.60037852298,-1.54265162856,0.0,0.512470034821,0.0,6.1837178636,-0.369033357506,0.0,0.134821029155,0.0,0.0756269587292,1.62103904977,-0.488776190983,1.73234127907,-1.23848228082,-4.2090417039,0.0,-4.473722044,0.0,-6.23101336967,0.387606896341,-1.0397788761,-1.31455732326,0.0,0.0,2.89535880007,0.0,0.0,2.79366870419,-1.62521224409,-1.54496508766,2.8964444988,-0.501084869891,0.0,0.0,0.0,0.0,3.33185496628,-1.16951443743,-1.44351949191,-3.75476892872,0.0,-4.92072204907,-1.32955012535,0.0,0.0,1.2333703784,-0.0377896269951,0.0,0.0,0.0,3.70514630487,0.0,0.0,2.62021892912,-1.40548029371,0.0,5.5287455617,0.309586261298,4.63440459465,-3.88574653279,-0.394148083719,-3.53283085199,6.22773508964,0.00738982452504,0.0,0.0,-0.16414107963,0.0,0.0,0.275117687479,-2.31837233807,-4.65142445004,-0.904854136202,0.0,1.41196615178,0.0,0.0,0.0,0.0,3.39249284378,0.0,0.0,0.0,0.0,0.0,-1.92703392485,3.58511962989,0.0,-2.01408700777,0.762561410063,4.27714940007,-1.52349829938,1.482337625,0.106217178078,0.0,0.0,-0.0719241705545,0.0,0.0,-5.07007443882,0.0,2.13297339195,0.0,0.0,5.0839222084,-1.38107636186,-3.30241825102,-6.54743470252,4.92590720881,0.209221373406,-4.93905112441,-0.833815280795,-1.15555840968,0.0,0.958730920726,0.0,-5.11566067633,2.00667956547,0.0,2.21263676731,-0.535135769552,0.0,4.17725951288,-4.37063900011,0.0,0.0,-3.51614497789,0.0,0.0,0.0,1.95423067906,-1.00490205427,-0.0625089024055,1.53205474673,1.04033740867,3.04580320806,-2.53625894921,2.55898128582,0.0,0.0,1.65723047556,0.143572836524,-0.834769657116,0.0,0.0,0.0,0.633844572695,0.139448147285,-0.354060472303,0.0,0.0,5.70911096894,-1.96321338838,0.0,1.96842552647,-9.61902920391,0.0,3.28891199443,0.0,-7.68254652914,0.95365469332,-1.89972141026,0.0,0.0,0.0,-2.6298609139,-0.131361886641,0.0,4.05543744624,-1.0352811193,1.5656714615,-0.773354451035,0.0,-5.69799235024,-1.89902774721,0.241432237433,0.0,-1.33872657921,-2.18895132439,0.0,-3.93631175655,0.0,1.38188469434,0.0,0.0,-5.74046913224,-1.89687504945,-4.13077255767,-0.266801812934,-3.56602914895,0.0,0.0,-2.25843025479,3.31850348484,-7.98794634757,0.0,-4.47854178033,0.0,0.0,-1.67570204196,0.0,0.0,-0.915545198328,2.22560768837,4.38700622532,-5.29841265687,0.0,-0.637452832776,4.09483875684,-3.26259286508,0.0,0.0,0.979506388551,-5.05823649347,0.0,0.281437855094,0.0,-3.55375593018,4.77282636651,0.0,0.0,0.0,-0.460391786294,0.0,0.0,1.40338600829,0.0,0.0,2.85692549032,-2.63950832784,2.11225799718,0.0,0.0,0.0,0.0,-2.37163445472,-1.64892345818,0.0,0.0,-7.90548936927,-4.90302757099,0.0,0.0,0.0,0.0,-0.0132155910757,2.23828068235,2.93444592725,2.93500488431,0.0,0.0,-0.57404892548,0.0,0.0,5.51231590303,2.19763984427,-1.09604926356,0.0,1.95403857614,6.70921497932,-1.84977903958,0.0,0.0,0.0,0.0,0.792850486734,0.597122704437,3.3878896255,0.0,0.0,0.0,-2.24298017358,0.0,-1.79845912408,-1.35941718201,-2.29769670846,-2.64091808051,0.0,-1.53320050783,0.0,0.0,4.14098014785,0.3324154286,2.69491125178,0.0,0.0,2.80157219212,0.0,6.11541230186,0.0,0.0,0.0,0.0,2.15567838057,0.0,0.605320253219,0.0,2.16511601993,0.0,-1.76438718518,0.0,-1.58365073954,0.956053966184,0.433743326045,0.0,-3.63261172384,2.09946456791,0.0,0.0,0.370589414601,1.00384036362,0.438587152553,5.06516165404,0.0,3.51175688127,0.0,0.0,-5.58725698381,-2.08553782153,0.142697397543,-0.853987181266,0.789424854793,-2.63142704408,-0.52106985031,0.0,-2.48848754376,0.0,0.411184003164,2.80734112639,-1.62980028275,0.0,-6.64806048617,-0.86487020307,-0.748115768283,-1.41288671408,4.59588622206,0.0,-0.639900485789,0.0,0.0,0.606277482351,5.75935161375,0.0,0.0,3.60780041004,0.0,0.923315000615,0.0,2.90782810409,1.73326080525,0.0,-8.80528896827,-6.73284768488,-2.33131349276,0.0,0.0,0.966864289838,0.0,0.0,5.00887671097,4.98959598404,0.0,-0.898607713827,-4.84562090237,0.0570751643186,0.104350145059,0.0,-5.21892657591,0.381525968597,0.0,-0.864792595106,1.78700469442,0.0,0.0489330093869,0.0,0.0,0.0,0.0,0.0,0.0,5.1450943851,-2.39308448857,2.45015086556,0.0,0.0,0.0,-1.12309995696,0.0,-1.53010875853,0.644465886909,-8.15932690988,0.0,1.53691042095,0.022073845348,0.0,-1.86801943194,-5.32508508818,-7.03018801242,0.0,-0.256764724698,0.0,0.0,0.0,-1.82408758159,-4.85568501026,5.19259694729,-6.1132564729,2.77764717842,0.0,1.85242476523,-4.01330529244,0.0,0.605321091827,0.0244214240958,-5.37409538033,-0.847501137401,-5.09490426053,0.0,-1.68769383658,0.346617424726,-3.43380235158,2.01192434251,0.0,0.0,-3.28392499791,1.57897335328,0.0,4.30101878443,5.2003930169,4.52865407709,0.0,0.0,0.0,1.20375402161,0.0,0.0,0.0,0.0,-2.2933388172,0.0,-1.04497696789,5.15122093878,0.0,2.09224542107,0.0,-0.705159185605,0.0,0.0,0.0,4.095293251,0.806379822596,0.0,0.606659044495,0.0,-1.42694776106,0.0,-4.9679890868,0.0,0.0,-3.27986601819,5.21946664193,3.67510294702,0.0574831314167,-1.60116545912,0.0,0.0,-6.01833679682,-1.48057800733,0.0,0.995386273526,-1.52601389896,0.0,3.63688343528,-2.1617176239,0.0,0.0222785772074,4.97063020063,-3.26802466491,0.0,2.49873611929,0.0,-0.245718131548,4.16386028692,1.14579619512,-0.680849561181,0.0,-0.595976416876,2.82509592559,0.0,3.03161718016,0.0,0.0,0.0,-2.69327716669,0.110989212471,9.77844726262,2.67784391362,0.0,1.1235045153,0.0,-0.444079974509,-0.263246223848,-0.864216051322,-0.317771492365,0.0,-5.37886942979,5.90100551926,0.0,0.0,0.0,2.5352516949,0.0,0.0,0.197336562291,-0.462221749342,3.46806919207,0.0,4.57769023981,0.0,-3.94894203793,0.760589110148,0.0,-4.10157786063,0.0,0.0,-0.934792139536,-1.72055684304,0.0,0.0,0.0,-1.73517415432,0.0,2.74204455055,0.0,3.81355472771,-1.68874123323,0.0,5.69195708834,0.0,0.0,0.0,0.0,4.18695909036,-0.273992036937,0.0,0.919281445626,-3.40043726478,0.0,3.77786773229,0.0,0.0,0.0,0.0,0.0,0.822122670474,-0.658847361829,-4.63920732625,4.09524113563,1.07768320342,-3.24604408554,0.0,0.0,-1.94072897738,-0.539212524355,0.0,-0.836513535808,4.63340677512,0.0,0.0,0.0,0.0,0.0,0.0,5.26715771724,-0.265636003098,0.0,0.0,0.0,-1.27794975412,0.0,-1.59497484189,-0.527016512751,-0.661485447291,-0.794465006792,1.18577830285,0.0,1.35630387043,4.90168663545,-11.3810464129,1.06124865917,-4.42826860646,0.0,0.0,2.90559928678,3.39443742274,3.65506787203,-4.68107127077,-4.87017336856,0.0,0.0,-3.16749534246,0.0,0.0656295826295,0.0,0.0,0.0,-3.17781406673,0.961097358318,0.0,1.72013362576,-0.597925045829,0.0,-6.39031547031,0.0,-1.91357145387,0.0,4.16078221107,-0.309827970833,-0.123762019973,-1.98547667878,-6.29458926565,0.0,1.55717486061,-5.22973847443,0.0,3.44269889469,0.97376122479,0.0,2.08970098676,-4.49596658418,3.90344180769,0.0,-2.2559553546,-0.76799115059,0.0,0.0,-3.39264283712,1.04859805345,-3.00762730982,-1.07594080716,-2.12420425143,0.0,0.0,0.0,0.0,-1.61631179142,0.0,-3.33449432808,1.76862772575,3.85163799158,-0.0280990159714,-1.1773681084,6.78862061439,0.0,-0.441785526284,-3.01287819768,-2.84307259364,-2.14621162868,-2.20326252259,0.0,2.9958422344,-7.14431401487,0.0,-2.13079997916,0.0,8.29753410637,0.0016723148635,0.0,0.0,0.0518006692972,0.260540059731,-3.25761061249,0.0,-5.360304776,0.0,0.0,-2.21518044174,-0.351209630767,1.17586263602,0.775351133271,1.20199954521,-4.23744414919,1.13406846904,0.0,0.0,0.0,0.0,0.0,2.15525059536,0.0,0.0,0.0,0.0,0.141534092879,0.630032916588,-1.41650708595,-3.16635784551,0.0,0.404256200837,-3.49165957011,0.683866904046,-5.6272510645,0.0,0.0,-4.29675373124,0.0,-6.7815596274,0.0,-2.1324127087,2.49173807978,0.0,-5.18154514157,0.0,1.1397304194,0.876181466805,0.0,-2.83069423407,-0.998684562675,0.0,0.0,0.0,0.0,0.0,0.0,0.890562701832,0.0,0.0,-3.93968880366,0.0,0.0,0.558640258624,0.0,0.0,1.46068812243,0.920157053338,0.745936563875,0.156735353968,-1.39461709386,-7.19837297978,0.0,-0.381117146661,0.0,0.0,1.05956164822,0.0,0.0,0.0,2.28846774005,4.68189969933,0.0,0.0,1.00568354834,0.0,0.0,-2.97425065648,3.05757576399,0.0,1.13263462311,-6.63461725086,0.0,0.0836320869555,-1.54467197601,0.0,0.0,-4.54404290412,0.251684904778,0.877549297982,-1.18488118005,2.94215976034,1.51580014183,4.6293930758,-3.8730259064,2.54872785338,-1.93150636912,-14.3647121949,4.35341034438,0.299275413192,0.0,0.0,-2.47559393565,0.189361106741,-7.72680191129,3.39264283712,0.0,1.88864063143,0.247079379954,3.15331737101,0.0,0.0,2.56194891226,0.0,0.0,5.25852258511,0.0,2.45587309872,0.0,-2.28626388008,3.48205839117,3.54095939003,0.245078724113,-0.015020558664,-3.76588443762,6.18457307928,2.64908473955,0.0,0.0,0.0,0.0,8.19544994904,0.0,-0.117472488366,3.87581384537,-0.180891774628,3.29743675524,0.257602352372,0.0,-2.89173490379,-5.31384608679,0.0,2.66576319964,-5.33736694727,-0.0074990754013,1.70066632703,-2.53248902316,-1.53566493526,0.0,-3.39899962477,0.0,-6.38000501311,-6.54494272562,3.75387519163,0.0,3.87349721107,0.568841493448,-1.87854683025,0.0,0.0,0.0820292243382,0.0,0.0,-5.32617166218,-2.06444760744,2.70983486056,0.0,0.0,0.0,-4.30026383349,0.0,0.0,-1.14669563822,-6.43640456697,0.575718250713,4.11861436619,0.0,5.59170375227,0.0,-1.66192718842,2.97591704461,0.0,0.0,-0.983653772877,0.0,5.41510537571,2.69091653031,-4.05375233572,-1.97959131866,-1.10832821649,4.34950983362,0.0,-0.259130492885,0.0,0.0,0.0,0.0,0.729531500799,0.0,0.0,4.00970581873,-2.44713787547,0.0,0.0,0.0,-3.11662231977,3.47020301576,-2.89790297626,-5.64703739113,0.0,0.0,0.0,0.0,0.0,1.20052966468,0.0,10.6743400005,-1.13151483667,-1.8988772274,0.0,-0.514023187199,-3.25135773825,0.0,-1.71340753563,-6.98479627974,2.02276393295,0.0,-1.00674238233,0.0,-4.31213628953,0.0,-0.0574195010893,0.0,-5.73100312816,0.0,1.01904824459,-3.34177126567,0.0,-2.28610297183,0.0,-0.456909700625,-0.925215872207,6.21611996815,-1.37451587535,-1.8853641942,0.0,2.14596752054,0.0,0.0,-1.60210078088,-0.724442411035,4.63944327309,2.03989193263,0.0,1.07392231259,0.0,0.0,0.866383015112,0.0,1.08218113501,0.0,-0.732412441499,-1.90322324198,3.15027968097,-3.51881050786,3.30305992095,7.3066949845,-0.448906276423,0.0,0.0,0.0,1.85041269432,-0.471072368649,-1.94873061206,-1.44415233288,0.0,0.0,6.73999326591,-2.02534518077,-2.09586912196,-0.745095576771,3.36968976267,0.221967109931,1.68884470177,-5.3897737415,3.39264283712,-2.11933798973,0.0,-3.12865649776,0.0,-1.72157848794,-1.18170999165,-1.94147377587,2.0508652553,4.43725948091,4.38099170053,-6.16425652943,0.0,-6.0119613752,0.0,0.0,-0.53204568967,1.30352903245,6.93630508078,-2.65987020449,-1.82762203518,-1.55115504965,0.334822409099,5.905619002,-3.43323290656,0.0,-1.2874852419,0.0,1.53059975764,4.52969609427,0.0,0.0,3.06772750033,0.0,-2.70814751045,4.72548100585,-5.00328551985,0.0,3.00719832711,5.30418968702,-0.0866678812052,3.29944909538,0.544198559459,0.0,-0.846261861086,4.03971448456,7.15804879524,0.0,-1.78440127981,-3.46592836459,0.0,2.02146885756,0.0,0.0,0.0,-4.07926070049,2.35629318864,1.39669358152,0.0,-3.03046229159,1.51272042953,0.0,0.0,0.0,0.598732742543,-2.06579940878,0.0,1.01835676564,-1.41815180494,0.0,-1.98502564683,2.12548519004,-1.25892334899,0.0,0.0,-1.21364585038,-2.41727705424,3.13866264183,-2.89776863618,0.0,0.0,0.0,0.0,0.0,1.28456015925,-3.63196077377,-3.01758297819,5.63600497892,0.0,0.0,0.0925572042958,0.0,-6.45944690746,0.0,0.0,0.0,0.462605181792,-3.39264283712,-1.73198538916,3.96704091444,-0.901152995448,-2.52134009324,0.0,0.0192813548508,0.0,0.0,-4.32154591725,0.0,0.0,0.0,-7.41472640927,-1.94985753292,-6.82032072027,0.0,0.722573592018,7.579378983,5.69524856643,0.194966145916,5.2701896381,0.0,5.52221372587,0.0,-3.62230455984,-3.45534556531,6.27601220946,2.50419845266,0.0,-0.241384185949,-3.29190248994,3.58358810091,2.37349716977,0.0,-0.924424089656,0.0,2.0762169427,0.0,-1.92376801465,-4.17460735687,0.0,7.47778044754,0.0,0.0,0.411064088765,-6.59882983794,1.46613412974,0.0,0.0,0.870649869504,-1.54463928378,-4.24153904646,-4.88853061076,0.0,0.0,0.0,0.0,0.0,0.0,0.0,0.0,0.0,0.534960138847,5.96584810717,1.28587656267,0.0,0.0,0.976231435194,0.0,1.57634335881,0.0,0.0,0.884954201712,0.83861087111,-2.77977068523,-2.30570830729,0.0,2.62158667727,4.07057657896,-9.18742228645,0.0,0.0,-3.39603565772,-1.89202750888,-0.845925906878,8.08631748806,0.0,0.0,0.419643250853,0.0,-5.7177140952,0.0,0.0,-0.861437388933,-2.90658069555,-7.67198141818,0.0,0.0,9.16759125272,7.98889759122,3.76922514161,0.0,-3.81642941394,0.0,1.92810916073,1.61305882747,-0.656260351599,-1.15295398141,-0.641962632203,0.0,-3.79524262388,0.0,6.80575451017,1.14565662206,-1.32481053651,0.0,0.0,0.0,-0.557688418667,4.87394641073,-3.13433028555,0.0,4.03448092164,-2.62148475763,4.24272792761,0.897772473979,-5.41046905578,-1.03979696529,2.09778115047,1.32662285715,-4.06087411349,0.0,2.33905661177,-1.22834322411,-9.18705718809,0.0,0.0,0.0,0.788605795665,0.0,0.0,0.0,0.0,0.691795169939,0.0,0.526218503427,-5.29758409365,0.796277136545,1.26565699043,-0.583995467645,0.534661510533,0.0,0.0,0.0,-0.718636798059,4.15680889639,0.0,-0.407507987762,-4.88383765867,-3.30395658959,0.0,0.0,0.675004993703,5.06133293045,0.0,-1.68451509287,0.779005331962,6.99177325553,0.0,-2.89208770632,0.0,0.412969674484,0.0,0.9804877903,1.96596485816,-1.21667220978,0.0,1.99134204425,0.642205233298,-2.20232264668,-2.41579551622,0.0,0.0,0.0,5.22664021459,0.0,-2.2400117603,0.0,-2.17094565592,0.0522317024307,0.0,0.0,3.40266898419,-0.639399086974,6.1338789087,4.52966481433,0.0,0.0,-3.94997853579,-1.72382594812,0.0,3.96380475134,4.05163885495,-1.82031007245,0.0,0.0,0.0,1.55802960117,-3.14387701496,-4.32427310438,1.26343007422,0.0,-0.0920495841865,1.02362530817,0.0,-1.3725788406,-2.73834572445,-0.669363603722,-2.51230560846,0.0,0.0,4.61903024005,0.0,-3.50351518459,0.0,0.0,0.0,0.0,2.83836713217,0.0,0.0,4.59485473479,0.0,0.0,-3.02970222629,0.0,0.0,0.0,3.72181338636,0.0,0.0,3.85125670746,2.3310074575,0.0,-2.88050693107,-6.46816625809,0.0,3.45162330208,0.0,-3.57466695624,3.57054934785,0.0,0.0,0.722349649628,0.0,-8.92216936702,2.12931763846,1.31994100525,0.0,0.0,-1.99199556736,-4.7513770643,0.0,-1.81066773998,-0.96859711016,5.0448062084,-3.14048944996,0.0,-2.07348458257,0.0,4.32568977149,0.0,-0.613149256238,-1.25358762291,0.0,-2.03552989779,0.0,1.05443735737,0.0,0.0,0.0,5.76842244189,0.573041485783,3.85830260181,1.27530968791,0.0,0.0,0.0,0.0,0.0,0.0,7.04504690839,0.119522512834,4.8154600226,0.0,0.0,8.29718643264,-3.44827783243,0.0,-1.68411963196,0.0,0.141964448443,-7.38703454267,-0.939556375302,1.39316558185,0.0,0.0,0.0,0.0,0.0,-2.29090633308,-0.252767767584,-2.63642973265,0.0,-4.6002925707,5.23433099265,0.437912039403,0.0,0.0,0.0,-3.77021873652,0.0,-3.27676599246,3.29757470911,0.0,-6.59387215782,0.88368743544,0.0,0.0,0.0,0.0,0.0,0.0219937994241,0.0,4.31940119915,-2.62835109145,0.0,0.426136826328,1.90579475195,-2.50304541923,0.0,1.71538787679,0.0,-0.418562563432,-0.314554620651,0.0,0.688506998025,3.3507007831,2.99539912906,0.0,0.0,0.0,0.0,-1.28891064249,0.0,-2.53595521653,-2.14532247185,-0.231473043687,0.0,2.30018872771,3.52021859362,0.0,0.777083791553,-4.12556183062,1.72130382945,0.386360408289,0.0,0.0,-4.12914810724,-1.68978459027,0.0,-5.83935517123,-0.854580634022,0.0,0.0,-4.51475293642,0.0478515837698,1.69991992144,0.0,2.07274005798,-1.86004296435,-2.18125775969,-7.59752146513,0.0,0.300309413636,0.0,0.0,-2.82553108983,0.0,-3.11434608157,0.0,-2.44261207458,0.0,-1.03041266603,3.91597832523,0.0,-2.42706117991,0.0,-2.33442161762,-7.12629152641,-0.944832773939,-0.839076900676,-4.25805502674,0.0,0.0,0.0,0.0,-3.65296834231,0.0,0.989933641723,-1.10780392836,0.0,-0.765226317469,0.218818985394,1.62814247333,-4.83611235825,-0.185625059649,0.0,0.0,-3.55024369704,-0.183603697474,0.0,1.1492561154,0.0,0.0,-5.2235873085,0.0,0.0,2.82294350761,0.0,-1.27461005851,0.0,0.0,0.0,2.47651357848,-3.97050455347,0.0,0.0,2.2176511398,1.0308322962,0.0,-1.10973641532,0.0,2.63432286577,0.0,3.05060841705,-0.893723267362,0.0,3.20059789037,0.0,-0.292008115375,1.09548747696,-1.43009384906,4.88830287474,-0.996343712127,-1.31632985242,0.0,0.0,-4.9534946393,0.0,0.0,1.6818215507,-4.55978576927,-0.605647073714,3.77547557747,0.704012055669,1.52655781578,0.0,4.68667381019,0.0,3.90436349326,0.0,0.0,0.0,4.10068574769,-7.98938803709,0.0,0.0,2.22991360049,1.40183580028,1.29600377545,0.0,-1.99146290466,0.0,2.62301125049,2.23668012207,-1.17757160832,-1.1797835447,0.0,-2.34479743694,0.0,0.0,5.73693569426,0.0,-0.273411941958,0.0,0.0,0.0,0.0,0.268067446462,0.236394264736,0.0,-2.96008755148,3.69981819777,3.92252566289,0.384362903619,3.3342203507,0.0,2.35941218099,0.0,0.0,-1.77693885143,0.0,0.0,0.0,2.86215233725,2.66300661056,2.37973996989,7.87452985435,-4.85638335635,-5.20722564402,0.0,-3.41925982919,3.3553590699,4.01077824897,-8.72150351738,0.0,-2.39868362049,6.0928365063,-4.37620271541,0.0,1.30827623009,-5.11403147668,-1.01812051797,-4.6552845267,0.0,-4.62311414346,0.870710626967,0.0,0.0,0.0,0.0,0.0,0.0,0.0,-1.41000104755,6.10638297111,0.0,0.715965547755,-0.192134048505,0.0,-2.18009362164,1.98594115189,0.0,-0.881320269573,-0.380073561293,0.0,-4.66418685703,0.0,2.96004754478,-3.54058683535,0.0,0.0,-3.0098794015,0.0,0.0,-6.2939785669,4.8154600226,-0.945786231877,0.0,-2.86732716223,7.2532815388,-3.3156589247,0.0,0.0,-3.98274865925,0.0,-0.117201244785,0.0,0.0,-1.06452346533,-0.330529823603,0.0,0.0,4.27896896556,6.30847585283,0.0,-2.47465717578,0.0,2.4192196806,2.59076929318,0.0,-1.08783841653,1.76407474728,1.67630018175,2.86276216966,0.0,0.0,0.0,0.0,-0.499133194176,0.0,0.0,-0.396400860834,-1.34655592361,6.6916391421,-5.32304200079,-9.36610569121,-0.0226880801693,3.38541088713,0.0,3.57244060093,0.0,0.0,0.0,2.34067602473,3.08761447094,-2.89467627737,0.0,0.0,-2.39792589905,0.0,0.387764746377,0.0,-5.98743447957,4.47374513286,0.306472289193,-0.210808503188,4.78340495026,0.0,0.0,2.13922196725,0.0,0.0,0.667251567003,-2.97398822209,0.0,0.0,1.55262611261,0.631007944301,0.0,0.0,0.0,-3.50959268749,2.96856460471,-0.211409377749,-0.360396896276,-4.52305494726,0.0,0.0,0.0,-2.30606344912,-0.256802473781,-0.0780708029064,0.0,-2.35949640161,0.0,0.0,0.0,6.22306840524,0.0,5.48515313085,0.0,0.0,1.99354647308,6.66315567599,-0.967262734371,-0.439014064193,0.182053589151,-0.347293430409,2.9087646133,0.0,4.31872453885,-3.55729361847,-1.77467529318,-1.34246743845,3.57614183023,0.0,-1.78517799747,-0.693454589836,0.0,0.0,-5.18989657262,0.0,-3.7973349229,0.0,0.0,0.0,0.0,-3.62550673507,1.31403248668,0.0,0.0,-3.0162029658,0.0,-0.633711246543,0.0,0.0,0.0,0.445237285114,0.0,0.0,0.0,0.0,-4.9896627218,-1.86460571125,0.975108902057,-1.69899483713,0.316096671297,-5.25342915003,7.99842933105,7.56320042499,-4.9568021946,0.0,0.0,0.0,3.02768192733,0.782866302833,1.83198760055,0.58186351424,-7.00766365606,6.76822968162,2.78776835262,0.0,5.63712888153,0.0605426457494,-5.60622223332,-4.87716582816,-1.52199188626,0.0,-6.17933696448,0.0,6.04570634625,4.42278828919,4.06709988286,-1.26635187739,0.426337986156,0.0,0.0,-8.06818247906,0.0,0.0,0.0,-0.961662497779,3.57629443694,-0.941951021409,0.0,0.0,0.0,3.53050108426,-5.47959279421,0.0,0.0,0.0,0.299324272231,0.699706460765,0.0,-2.28208377629,-1.80064424149,3.20587893165,0.0,-0.270910015365,0.0,4.84245183578,2.11092395455,1.62787919115,0.0,0.0,5.80517779995,-0.550748736507,1.17100341596,0.0,1.26565699043,0.0,0.0,4.63958149443,-5.03401027901,0.0,0.0,0.0,0.0,3.98658909444,9.3015312315,0.0,0.0,0.0,0.0,0.67768458073,0.0,0.0,-3.70341772569,-1.71076857991,0.0,5.76211225621,0.0,0.0,-3.96621659621,-4.933272613,0.0,0.0,0.0,-3.35963416459,1.90991609737,0.0,4.60222675677,0.0,-3.87273494437,0.0,0.0,0.0,1.59547461694,0.0,0.0,0.0,0.0,0.0,0.505296091392,-4.83643659672,-0.275640551118,1.34433601371,1.75542464729,0.0,-5.73495989152,1.1264172209,-0.449574545443,0.0,-1.56145055456,2.96429791605,-0.235463607237,0.0,0.0,0.0,-6.17338501269,8.47283582419,-3.54741610649,0.0,0.0,-5.16043606821,3.55665785194,0.0,-0.106001798857,-1.74486294078,0.0,-6.45437374544,0.0,2.95265720877,-0.83256141806,0.0,-1.53233827047,0.0,0.0,0.296897034626,2.90491938056,1.47863357894,3.499147226,-2.66132437183,4.30716960332,-3.8346344311,0.0,0.0,-9.03017794071,1.80458835436,0.166068135756,-2.04889134687,-1.83950698749,-3.01608385749,0.0,0.686980747166,-0.952349869698,0.0,2.8062002267,0.0,0.918556060131,0.0,-3.0446721301,0.0,-4.92006776687,0.0,0.0,-3.76594762698,-4.51854055856,0.0,-0.0826737512986,2.20830380473,-1.28830679815,0.0,2.8027251636,2.32254823066,3.64836575219,0.0,-3.77314140244,2.83839267176,1.50082732918,-2.92324343249,0.0,0.0,0.0,0.0,3.58570640577,0.925548493843,2.63032186838,-3.98841030081,0.0,0.0,-7.83661339318,-5.2763722076,2.35642914332,0.0,-0.210218378415,0.604409606462,0.0,-3.68082316988,1.93892421403,0.0,0.0,1.80592687332,0.990319275128,-3.40776742489,2.18101792893,0.0,0.0,4.7644944114,-3.53617219877,0.0,0.0,0.0,0.0,5.47281546523,0.976031238485,-3.08152475658,-5.11963817318,4.38232902012,0.0,0.0,0.0,0.474762110377,0.0,0.0,0.0,0.0,0.203911965147,0.0423042149066,-5.12339757064,-3.22343119956,-1.20780446727,-5.14001937224,-5.16504969596,0.0,0.0,0.0,0.0,-10.0615373784,-4.14180072891,-6.64293726289,-1.35941123522,0.893164555029,-1.54045131869,-2.56230419245,-2.62995280096,0.0,0.0,-7.11951782715,0.0,0.0,0.0,-5.98197959685,-5.23704177438,0.0,0.0,-2.95940745858,4.36031618637,0.0,-2.36059792759,2.44234805979,0.0,0.0,0.0,-0.804803452802,0.0,3.15375846904,0.0,0.0,0.0,1.7021541807,-2.14815560112,2.48593136251,0.0,-3.01364286861,-0.158906109886,0.0,-0.446276133238,5.57945472196,2.89946853397,0.0,0.0,3.67488499214,0.0,0.0,3.22566498539,0.0,-3.78736632141,2.79429568322,-1.10969226519,0.534013458368,-2.82830358347,4.71135605181,0.0,-3.11695372797,0.0,5.52432168705,-2.78235172968,0.0,4.42982198574,0.544745629784,0.0,1.64226694712,0.0,0.0,-0.85003867901,0.0,-1.05900647836,3.88325573755,-11.8885113811,0.0,0.0,0.0,0.0,-0.0874726129337,0.0,-3.37211808758,0.0,0.0,0.0,-1.17486427933,0.0,0.0,0.0,0.0,-4.12804112108,-7.94211169428,0.0,0.0,0.0,0.0,2.70969107896,0.0,4.16736898511,0.0,1.34794856346,0.0,2.31314956662,0.0,0.0,3.29997277163,-3.04132040032,-8.4627098384,-0.160795957809,0.84096498062,-0.268893812074,0.0,0.0,-2.92154971485,0.258974892317,0.0,3.46933797226,0.0,-1.84786081036,-1.90470587314,-0.246244055638,0.0,-0.122721566298,-0.118628124183,0.0,0.118265586904,2.82972638099,-5.27012652498,0.299147231864,0.0,-1.2619341927,1.18019659729,-5.47203024354,0.0,-5.41576357506,3.75654887619,-0.598442259847,0.408715492235,0.0,0.0,-5.49343064357,0.237401634462,0.0,2.35621469996,0.0,0.0,0.0,0.0,1.90516833275,0.0,10.3196689094,0.0,0.0,2.11293672937,2.69808355668,0.907653198655,2.39415063254,2.44198254283,-0.000208525003506,2.55263658433,3.03145859848,0.0,-0.0509707712935,0.0,-0.401624655968,0.0,-1.28110278169,0.0,-2.37963219406,0.0,0.0,0.0,-3.34973284258,3.67984842688,0.0,0.141225399824,0.0,2.42741222083,-3.64281343056,-0.0161869640801,0.0,0.518647999375,0.0,0.537818974944,-1.68110205674,-5.14894846395,2.74471666922,-5.12298681483,-0.166852742197,-0.287800958144,0.0,-1.25177614673,0.0,-4.13201613962,0.0,2.73210236037,0.00052260425754,0.0,0.0,4.26406015846,0.0,-6.7737479701,-3.36069519282,-0.593272513668,0.0,3.82185382147,0.0,0.0,3.53317551638,0.0,0.0,0.0,-3.56846160298,-0.464254894837,0.0,0.0,0.0,2.49269394122,0.0,-1.86802489609,0.0,3.05994201638,0.0,3.83118182251,0.0,0.0,0.129590151591,1.83231530369,0.0,0.0,5.03323710906,-3.64934448199,0.0,6.21824080458,1.04211045795,5.01020653496,0.0,0.0,0.0,-3.25629883408,3.16192347844,0.0,0.643794997086,-1.04061041166,0.0,0.0,0.0,-0.5111578803,-5.73767408531,-0.457508434121,-3.01197618352,0.0,0.0,0.0,-1.13486145117,5.314289792,0.851206215384,0.0837291716863,0.489326791232,0.0,-5.62766246074,1.04272854816,0.0,0.0,0.0,0.0,-2.29557485894,0.0,-0.279009244171,-5.1201651759,2.04178936209,0.0,2.21941488169,0.0,4.1153135898,0.0,-1.01045351655,0.0,2.04030480732,0.0045737910873,0.0,0.0,-2.32297868435,0.0,0.0,0.0,0.0,0.0,3.66607407435,-1.6764001625,-0.391601206133,0.0,-5.13491731712,-4.71247141351,-3.8680824276,-0.893782956247,5.90364548322,4.70795720692,3.25130355193,2.57354623991,0.449325881108,0.0,1.99974810396,-0.976112924745,0.0,0.0,1.3209358885,0.0,-7.8191201079,0.0,0.0,0.0,2.38853117713,-3.34823562722,0.0,0.0,0.162282409266,0.132652789602,4.74941596301,1.25977594385,1.01537116944,0.0,0.0,-4.66176572492,-2.99577417754,-3.96514577059,0.0,-0.295966431816,-1.63980833155,1.31227373427,0.0,0.0,-5.58675007535,6.71102546619,-7.07136111579,2.32756410437,2.4892424946,0.0,2.85734190887,0.0,3.3859266836,0.0,1.31514586062,0.0,-1.43719758719,0.0,-2.05236923023,1.02373956566,1.06209057311,0.0,-2.36131045036,-4.71056811042,2.85182613344,0.0,0.0,0.0,-4.80341928478,7.55367675669,0.512455686147,1.15458362771,-2.00963517851,-4.92015531169,0.0,0.0,-1.54308711322,4.50359583963,0.0,-2.01176944504,0.758369792044,0.0,-2.7343132685,-0.940821853323,-5.36288438498,5.7844007099,-0.017241275535,6.76839189539,4.25331947236,-2.74332785334,-0.928264412617,0.0,0.0,0.962042664037,-5.84852334785,0.0,0.0,3.86381216454,-6.92501758859,-0.17986974698,0.0,-1.6885728313,2.78929129688,0.0,1.54002927554,-1.67707862394,0.0,0.0,1.10545208025,0.0,0.0,0.0,3.96155270806,0.0,-5.75321554044,-0.189150793371,0.693128545509,-3.68990173536,0.912595427571,0.0,3.98435702209,2.00835065841,0.704648870243,0.0,0.0,0.0,0.0,3.00140060088,-8.52595579707,-1.92825216861,1.62596957381,0.0,-2.08364916647,0.0,0.0,2.95885840157,3.53205646792,0.0,0.0,3.37850880673,5.55030311831,-1.37281789842,-1.30442940843,-0.66429862616,2.49457091803,4.20483032972,0.0,0.0,0.0,0.0,3.3259022826,0.0,0.0,0.0,-1.14104422179,0.0,0.0,2.33109506861,-2.84199065904,0.0,0.829905940347,0.0,0.0,-3.80612463845,-7.65887789053,0.0,-1.86906185851,2.52990974948,0.0,3.41843286321,0.0,-1.83035653547,0.0,2.87382159886,1.12694872597,-3.1084775026,7.32414056375,0.0,0.0,3.11842853578,0.0,0.0,0.0,0.0,-0.806352458005,3.97597634901,0.0,0.0,2.60432944918,0.0,4.5542465625,-1.67066106459,-0.211139856596,-4.88343319439,0.0,2.8936080832,-3.4975348413,-2.43703421155,0.0,2.50071766922,-1.87963842393,2.02839969297,1.46325894226,0.0,0.0,0.0,-2.08979175979,-5.03366310501,0.0,0.0,3.42520889308,7.68757421003,0.0,0.0,5.1713442034,-1.45898392125,-3.55154601161,3.19627142736,0.0,-6.86755027951,0.0,0.0,-1.21238906149,0.0,-3.82120222904,0.0,-7.10495618826,-4.59591154453,0.0,0.0,0.0,0.0,6.52513294046,0.0,-3.87560149639,-0.325961806513,0.0,0.0,6.38204499851,0.0,3.28410913019,0.0,-2.31263697964,-0.173545184067,0.0,1.41178673921,3.16593463996,-1.31945245636,0.0,1.60364304989,-0.413577834686,4.03777106071,0.226666803859,0.0,3.44556580236,3.94364268363,0.454942706617,-1.74406119657,-0.770687524187,-5.59858472251,-3.07657343232,0.0,0.0,0.0,1.4427821427,0.0,3.51540654791,0.0,0.0,1.37052589905,-4.22352321335,0.0,0.0,1.62529809706,0.0,-10.529517767,0.0,0.0,0.0,5.62002613581,0.0,4.78218129042,-0.960651977335,4.4920907452,3.074776682,0.0,0.0,0.0,-1.27655562662,0.0,-3.14833412334,0.0,0.0,0.0,0.0,0.0,0.0,-0.886563094749,-0.786010853632,-2.94598699424,3.8409297498,-3.15281814501,-1.72692062583,0.0,0.0,-0.379658243282,0.0,0.0,0.0,0.0,0.274947654697,0.0,2.09463216911,-0.970428066692,2.30129287912,1.79230458997,0.260652175022,1.22982341186,0.0,0.0,2.9436735644,-3.29217708251,0.0,0.0,-3.63074049852,0.0,1.76025181647,0.0,0.085870205533,0.0,-0.0242000498569,0.0,-6.12675696021,0.0,0.0,-1.28333277529,-2.53179235807,0.0,0.0,0.0,-2.3406104448,-0.141776027678,0.0,6.07027188146,0.0,0.0,1.93025817948,0.0,0.0,0.849410042371,0.0,-3.06787971383,0.0956313853628,0.0,4.32083331783,-3.59773259141,0.0,0.0,0.0,0.0,0.0,-0.885164383983,0.0,0.0,2.02925003003,-1.6440088885,-2.36647628615,0.0,0.0,0.0,-1.39701034338,3.11813572181,-3.31737105129,-4.42806311598,0.0,0.0,0.0,0.176726184026,0.0,0.0,-0.672008672844,-0.671653082327,0.0,-0.977760891758,0.0,0.0,-1.54490556643,7.01269991261,0.0,0.0,1.8202008783,7.61375502913,0.0,0.0,0.0,0.0,0.0,0.0,0.0329431915176,0.0,0.0,3.41985669878,0.63301863286,0.0,-2.05869313338,0.0,0.729531500799,0.0,0.0,0.0,2.16505645272,3.76763647352,2.76047844769,0.0,0.0,0.0,0.0,-4.11593709309,0.0,-7.12764443811,4.64965138308,0.0,0.0,1.80592687332,0.0,0.0,1.10203991914,0.0,2.73558486193,0.0,0.0,-0.980257200571,0.0,2.75212913216,0.0,-1.29790665658,0.0,0.0,0.0,0.0,1.01499104779,0.0,-1.30615000265,5.33381006411,0.0,0.0,-1.24515833325,-6.30350085041,0.0,-3.51036081689,0.0,-4.85819962735,3.21731858877,1.76616171497,2.07853254116,0.0,0.0,-2.28868765635,0.0,-2.68138945477,-0.936937859464,0.0,0.0,0.0,-1.86240293032,0.660427875324,0.704288388985,0.0,1.35621279376,0.0,0.0,0.0,0.0,0.0,2.15453854894,7.8728012173,-2.34568516569,-8.21138130386,0.0,0.0,1.14703798357,0.0,-5.65008485412,9.90124544091,0.0,1.18586875687,0.0,-1.03082948483,0.0,0.0,0.0,-0.180821053026,4.50012854837,0.0,0.0,0.0,0.0,0.0,0.0,0.0,0.0,0.0,0.0,2.96586077801,0.774412097593,0.967389928029,-5.25435309106,-0.769170750737,0.0,0.202175663929,0.845948427005,3.38520775106,0.526508455264,-0.7160854004,3.94576450332,0.0,0.0,-3.56537888386,0.0,-3.22468911653,7.91442552146,6.89715009443,0.388228808831,-1.40110439583,-1.97718864608,0.21817739161,-1.10117713174,1.85595375736,0.0,0.0,3.45070629681,0.0,0.0,4.93196912232,0.0,-1.81369907422,-0.64696976721,2.8147184597,0.0,0.0,0.0,3.29791961864,6.91622741289,0.0,-2.51270803179,9.44098476413,1.46572097871,-0.283005422914,0.0,3.43167365258,-0.895971374472,0.0,0.0,-1.27204492773,0.908706900423,2.45336066939,4.10053762053,0.0,0.92758576196,-2.14016102089,0.0,5.13286347688,0.212595014149,3.39548720671,0.817461562224,0.0,-5.83109111525,8.27238997745,-2.51423015999,0.0,0.0,0.0,2.30713839372,-1.97829352973,-4.09570983946,-1.71498855331,-3.70795246335,0.0,-3.43519354342,-1.22515753377,-0.542631892313,1.8006750163,-1.1745580439,0.0,-1.2514517203,2.75605049719,-0.0870166817733,3.52496170706,0.47668334012,0.0,0.0,0.0,0.0,2.46743661092,3.76435398896,1.57150989832,-0.0494065193999,0.0,-0.325037383391,0.0,1.3884748818,-2.77691322942,2.76712001048,-1.04969648307,0.0,-0.216480634266,3.04834031267,0.314333369483,-0.198708354448,-5.06196299619,-0.374629261252,0.0,0.0,0.0,0.0,3.77318101859,0.0,2.14396499654,0.0,3.39264283712,3.50472187153,-3.60600680483,0.0,2.7158143363,0.365958950466,-0.778664880074,0.0,3.51570890564,5.17084541238,0.0,0.0,-3.68966621797,2.89776379716,0.0,0.0,0.0,0.0,0.0,-0.578135180322,-0.817544911809,0.0935238673762,2.05642447765,-2.49839319019,0.0,4.22540994877,0.0,2.78634114285,0.0,1.90820183679,0.511542307135,0.0,-0.0707682272056,-5.61233721748,1.54862450958,0.0,2.23670544205,0.0,0.0,0.0,0.0,-2.22437900749,0.0,-6.61354645185,3.97512523596,0.0,2.98215414537,1.32781066896,0.0,0.0,2.07425259047,0.0,0.0,6.81864159783,1.11985342791,2.10923530938,0.0,0.0,-3.93564286168,-2.44061747337,-3.27144824833,0.0,-3.3523254677,-1.87462411851,5.04985778102,0.0,0.0,-4.05600415927,2.2360405717,0.0,0.0,0.0,0.0,0.0,0.827854052515,1.72652402861,0.0,0.0,1.75752592259,-4.88566706508,0.0,-1.5924602975,3.60226313392,0.0,0.0,-4.06249903689,-2.05732788969,1.90859522085,1.54726444955,0.0,4.344740881,0.0,-3.8166479264,-6.8606314528,0.0,-2.15652681888,5.31610315235,1.84307164264,-3.45996880328,-1.59123133708,0.0,-5.7068996874,0.0,0.808158363758,3.47438667555,2.92632163295,-3.31493319372,1.5470324164,0.0,0.0,0.0,0.0,0.396696271751,0.0,2.4016691849,-4.8699028497,1.89029042685,0.0,0.0,-3.5299910062,-1.72305370424,0.0,0.0,0.0,0.0,3.83740943399,0.0,-1.52682351888,0.0,0.0,0.0,-0.542631892313,3.67920512701,-0.347793534119,0.0,0.0,0.0,0.0,-0.98821136681,0.0,-2.27647571341,-4.83582930816,2.2866911628,0.0,0.0,-4.84063878723,0.0,-4.49152588113,0.0,1.71279112399,0.0,2.00505626602,-1.60652330016,-5.75842307997,0.0,0.45313107843,0.0,2.62012942018,0.0,3.91393746719,0.0,0.0,0.0,-2.3442311248,0.0,-2.67883178354,0.0,1.29268769442,0.0,1.59740678102,0.0,0.0,-6.30037755485,-3.87249319053,1.62191734462,0.0,9.75128103051,0.0,-3.79608632467,-0.326910486461,-2.3637314451,-2.4420081608,0.0,0.0,0.220255739518,0.393398952904,2.47808814073,-3.78067880018,-4.35076475458,0.0,2.31713794602,0.0,-0.566308879286,0.0,-2.38871510798,0.0,0.0,0.0,2.03416141274,-0.582755705136,-6.18906676954,4.46299909622,2.14510090364,0.0,1.52189839468,0.0,0.0,2.10292616906,0.0,0.0,-8.0723249325,0.826055466417,0.0,0.0,0.344215728418,-6.49211501595,0.0,-5.08700672486,0.0,0.0,0.0,0.0,2.02840322648,0.0,0.930428155749,0.0,4.21725204468,4.29863445334,-2.02528761227,-0.960803278096,0.0,0.0,-0.0707682272056,0.0,0.0,0.0,0.0,0.0,-1.21012313839,0.0,0.0,0.0,3.99547404647,2.94458835173,0.0,0.0,3.68701357601,-4.30400089306,0.0,0.0,-3.69982746782,0.0,-1.06627018169,0.0,-4.6669384503,0.0,-4.60719980074,0.0,2.49314652708,-5.34811207927,0.0,-0.0707842721974,0.0,0.0,-5.09999101683,0.0,0.0,0.0,0.0,0.0,0.0,-4.70482675499,0.0,-5.59640918238,0.0,0.0,2.18657794971,3.64746150799,0.0,2.82524655112,-0.793864991095,2.92238850275,0.0,0.0,-4.87102169371,0.0,0.0,0.0,2.97804342393,-3.47834266886,0.0,0.0,-0.977651604046,-0.714444284351,2.30757379087,0.0,1.14669151725,5.23936775713,0.0,0.0,2.14910876882,0.0,0.715041986332,-0.322965235141,2.66271733122,-1.01416259776,0.0,0.0,3.6138339845,-1.84525897761,0.0,-3.29161580266,0.0,0.0,-4.78625284171,1.10375033753,-0.264165254982,0.0,-2.62558875263,-0.744181937466,0.0,0.0,-1.28469369129,0.898055770549,-1.51490217705,-6.22014960539,0.0,0.0,-3.11028587397,3.97601261369,-5.05442721484,0.0,-2.52038531425,-2.28644119199,0.0,0.0,-5.97932557517,0.0,3.92255899897,0.0,4.38857978893,0.0,-1.26186613127,0.0,0.0,4.17884004777,-1.51179380308,-1.08884681427,0.0,1.98765314604,0.0,0.937216672008,-3.59982409206,0.0,-0.562823813816,1.57952629641,-2.28984762965,3.17682578343,0.0,0.0,-4.48811440849,0.0,0.0,0.0,-4.4178950019,1.22449764176,0.0,0.0,-9.61234200509,0.0,0.0,5.29839309422,0.0,0.0,3.04384850902,0.0,2.2805201335,0.0,0.0,1.22883731824,0.0,-0.909682135133,0.0,0.0,-3.53994875593,-4.60205321775,0.450405571809,0.0,-0.341970089533,0.0,0.0,4.58678229226,6.39206242425,-1.68913436381,-1.43344790362,-5.03732099582,1.71959907482,-2.42548649359,0.0,0.0,4.17894997872,-0.125231833149,0.0,0.0,0.0,0.0,1.68232334274,3.81860324031,0.0,0.0,0.0,0.0,0.0,0.0,-1.04261879446,0.845948427005,0.511542307135,-3.00629812218,-1.35471823223,0.0,-2.72250375446,-1.44594273938,0.0,1.1159121404,-1.49418779225,1.20452313275,0.0,0.0,0.0,0.0,-2.44019608435,0.0,0.0,0.0,0.0,0.0,-1.72470609528,4.79513318,0.0,-4.62093159935,0.0,-3.2605958561,0.0,0.0,-6.67301076053,3.88642523596,4.10263467339,3.570207931,0.0,0.0,0.110355504084,0.0,-1.19300778298,-0.592583374025,-1.77963278046,-1.64965984351,-2.27735878926,0.0,0.0,-0.0226256061246,0.0,-7.78272999626,6.62396035973,0.314612491506,0.0,0.0,2.70568361354,0.0,-3.56577633709,0.0,6.39806959995,-6.02043500656,0.690014597938,0.0,4.65638931296,0.0,1.58797436865,0.872650877894,0.0,-0.383407673424,1.57368305671,0.0,0.0,4.94349971687,0.0,2.48820098848,0.0,-3.5291655114,0.0,0.0,0.0,0.0,4.95298457468,1.70509904378,0.0,0.0,3.47516185019,0.0,-2.57275697653,0.0,-2.67667359928,0.0,1.53544177314,-5.2014077187,0.121650948298,2.20306720804,3.60084625834,0.0,0.0,0.0,-1.71272432401,0.553385440418,0.0,0.0,0.0,-2.28389526975,-1.7135231807,-2.46574941408,-4.3582098325,0.0,1.13759424411,-2.49304912138,0.0,-5.20809137864,0.0,0.0,0.0,-3.24886946337,0.0,0.0,2.45150975335,0.0,0.0,0.0,-6.14810391459,0.845948427005,1.12373884608,0.0,-6.58741202803,-0.731886549967,-0.243622047904,0.0,-3.33307627816,1.91272239845,3.73490863002,-1.30502676162,0.0,0.0,0.0,3.95245251869,0.0,0.0,-0.904408907593,0.0,0.0,0.0,3.31286306223,1.9743234194,-3.91770861709,3.349172118,-0.166648112008,-1.25401229541,3.65153865062,6.12572225182,0.0,0.0,0.0,-4.20825760023,0.0,0.0,0.0,0.874302489566,0.0,-1.79153114771,3.59165417832,-4.76160376906,-1.81451425102,0.0,-2.20165290229,0.635525755474,3.17837448736,0.0,4.64500004249,0.0,0.0,2.52002990096,0.0,0.0,-0.727674730758,-1.23668021385,-2.84346380583,0.0,2.17797524013,-3.54893580863,0.0,-2.98998156504,-5.51702370298,-1.14239943723,5.86824910747,0.0,1.03211064063,3.31373389688,-1.11631308531,-0.777134107504,-3.14557855269,0.424003738225,-4.1142054833,-2.20927736054,0.0,-2.04740722979,1.35564121295,0.0,0.0,-1.87405785742,-3.38940707878,2.27306811316,0.0,-2.32250004393,3.02164425342,0.0,-0.929185059448,0.0,0.0,1.80012274892,3.2361077801,-7.76431814296,-4.66344617005,0.0,0.0,0.0,-0.723011714254,-6.3718507191,0.0,0.0,-0.417572167106,-5.96831520785,-1.4901123197,0.0,-0.59054205628,-1.88138073283,0.0,0.0,-3.33190222459,0.0,0.0,0.0,3.46788682761,-0.690508563956,0.0,0.0,-2.04180763135,0.0,-2.6546530012,-1.76845340353,-3.7570605597,6.33553199491,0.0,-0.0445224808883,3.89839688122,-5.35373219267,0.0,0.0,0.0,-0.775343537619,0.0,0.0,2.97090625305,0.0,2.8689495898,-0.471963896903,-3.47101493662,0.0,0.0,-3.76141471407,1.32478829835,0.0,0.0,0.0,3.31557974205,0.0,-2.66882577613,-1.77017446645,0.0,-0.165434930536,-0.913572894723,-0.198748492362,-1.48913693255,-2.92481326963,-2.2183196116,-3.37719471379,0.0,-3.70680320622,-1.78915852115,0.0,2.90781782759,0.159412942982,-3.9891123843,-6.50267475761,0.0,-3.38489590659,0.0,0.0,0.0,3.99941064862,-1.30637171578,2.05555321121,0.0,0.0,-0.85232934176,0.0,0.0,2.40997449353,0.0,0.0,3.16340661122,1.20132909248,-5.51894390698,7.08172804553,0.0,0.0,0.0,0.0,4.39452228912,0.0,-3.33514314891,0.0,1.59945940535,3.44878920849,-1.83350948291,0.0,0.0,6.26022138121,-1.15754066488,-3.45759118947,-2.11843070238,0.0,-2.40040470217,3.57969379928,0.654730554438,-2.0319236312,0.0,0.0,0.183562026359,2.00795539837,0.0,5.76638238756,0.0,0.0,-7.67888019688,-4.42245099238,4.73620209304,-4.05847136735,-0.343920163499,1.25868276778,-5.4361061805,-6.1293620575,0.0,3.01667652322,0.0,0.0,-1.5739310849,4.02986945249,-2.05732788969,7.19735165801,-2.12442126081,0.0,-0.32147056712,0.0,-0.0220851589616,-7.77815945632,2.06692897558,-3.00820679282,1.45140223977,0.555380973684,0.0,0.0,-0.303236037786,-2.18573400253,0.0,-4.0773611392,3.79855673542,5.63109663975,-0.931829837636,2.88744793291,-3.54647572061,0.0,0.0,-0.488397959299,-3.4663770132,0.0,-0.598947274707,-6.69312002209,0.0,5.01094722357,1.51016236042,-0.431178879867,7.68776214207,-1.62635710501,0.0,3.55917447033,1.18480604822,0.0,0.0,0.0,0.0,2.12516260939,0.0,0.0,0.0,0.0,4.52768714541,0.0,1.05306524388,0.0,-0.563776409752,0.0,1.75752592259,0.0,-0.108477809077,-4.80979624091,-2.66598027404,2.74786859276,-2.09238433921,0.0,1.50034392983,-0.178703789444,-1.95214607648,0.0,0.0,0.0,2.46564739114,0.0,-0.173788581042,3.74273421016,-1.25523893971,3.3342203507,0.0,0.0,0.0,-2.90245786454,0.0,1.61137540309,-1.40110439583,-4.55585016299,0.0,0.560266253335,0.756455837688,0.0,0.0,2.18629741765,-1.25423528332,-5.2808714191,-1.31419280252,-0.835261228386,-2.57677563634,-1.20004326787,-8.55613414467,0.0,0.0,-0.440434784856,0.0,0.0,-0.643637798062,-0.630282718961,0.0,0.0,0.0,0.0129207370319,0.731976585925,0.0,0.0,-9.02071938837,0.0,3.00643473554,1.16639382503,0.0,0.0,-5.72540384695,0.0,0.0,-4.25970030299,-1.18579163429,-3.41561468302,-0.307923719991,-1.28444457981,0.821141804799,0.0,1.15559359192,-3.49334544321,2.39270409847,0.0,-1.38817776502,0.0,-1.73756816637,0.714598402486,0.0,0.0,0.0,0.0,0.0,0.0,0.0,-1.82283994311,0.0,2.08325956465,0.0,7.68680106618,3.96543765173,-4.75632918287,-2.77006941885,2.99652253529,0.0,0.0,0.732896932224,-1.82229183413,4.36779203746,0.0,0.0,3.46993592128,0.0,0.0,1.92292049528,-3.13816913699,-1.19282239655,-0.575018074502,-1.21904201379,-0.988056486988,0.0,0.0,3.52731602319,-2.92959249837,-3.69604485464,-2.31405323567,3.53669059717,0.250939835533,0.0,-4.46746083219,2.21634522507,0.0,0.0,0.0,0.607974481325,0.0,-2.48057983686,0.257016681217,-3.71682834571,0.0,1.64383373154,0.0,0.540228751081,0.0,-1.4338765986,-1.333287436,-1.04043517236,0.0,0.0,1.27220748103,0.0,0.0677495532557,0.0,0.0,0.0,0.0,0.0,0.0,2.03588587002,0.489235914881,-2.07254239134,0.0,-1.18169143849,-3.47205338715,1.24227246642,1.03983952813,0.0,0.0,1.00463804704,-6.85978032725,0.0,6.18103704764,0.0,0.0,0.0,1.55360601817,-2.70173709551,0.0,-0.237132392775,-3.67471415937,-1.90707793558,0.0,1.47962003095,-1.60910178265,0.0,-0.347600098136,0.0,0.0,0.0,0.0,0.0,0.0,0.0,0.0,0.119383099031,-1.15342393982,0.0,0.0,0.0,-4.06352077351,0.0,5.27428973545,0.0,0.0,0.0,3.91488956146,-2.79194287027,0.0,0.0,0.0,3.235228,3.45563241306,0.541352315121,-6.6086867117,1.59393665815,2.50306886695,0.0,-0.326127502384,0.0,5.02775642961,1.26367729437,2.14286506838,-4.05161439471,0.0,-5.40222423687,2.2633382833,0.0,5.31703665976,0.0,-4.73051500153,0.0,1.02165832958,0.327712466512,-1.47667247537,-0.798955723757,-3.70745575229,-1.21584763244,0.0997660860376,0.0,-1.17865533324,0.0,0.0,0.0,0.0,4.34237732723,0.0,0.0,-5.0162797145,5.58116687094,-4.06599174763,1.00498410829,2.48357030897,1.73462199381,0.0,0.0,-1.55752738974,0.0,-1.00783775425,2.85527798345,3.34091875119,1.19010472531,0.0,0.0,-0.851030961857,0.705947839943,-4.21066409834,0.0,-0.612426694189,0.0,0.0,0.0,-3.18284593338,-8.20493107281,-3.91293701244,0.0,0.0,-0.171378222993,0.0,4.28318187771,0.0,0.498557491762,-0.018656291253,0.0,0.0,3.22026437506,0.0,0.0,5.64040026073,2.95740509898,4.33493335958,0.0,0.0,-1.14299383311,0.0,0.0,0.0,-0.569328152955,0.0,0.818567986769,0.0,0.0,3.23005651957,0.0,0.0,0.0,0.0,-0.789391449624,0.0,-2.12761509735,0.0,2.75706195466,0.0,0.0,0.0,0.0,0.0,2.17362298016,0.0,-1.23163645208,5.08938890138,0.0,-2.90842261453,0.0,-5.76273574525,3.27076989048,-4.06352077351,0.0,-0.694397825895,0.0,0.0,0.0,-0.735912469465,6.14728076934,0.0,0.0,0.0,0.0,-1.79541517872,0.0,0.0,5.65227995123,3.21445631744,0.0,-1.40668242099,-2.98152172942,0.0,-2.71724357915,0.0,3.3045516659,-5.90367012125,-0.767536388621,1.04298062601,-3.99012743555,-1.23068053464,0.0,-1.32501906581,-0.295811825735,0.0,0.0,0.0,-4.93125834196,8.37806235665,10.1942480406,-1.00493111617,0.0,-0.319534851699,-0.604268350848,-2.03519465087,0.0,-3.54323438455,0.0,0.0,0.0,0.0,2.86966833038,0.21027297889,-0.799961667852,-3.94295408005,0.0,0.0,-8.08506966641,0.0,-2.84024826624,0.0,-2.72466261137,-1.93092480384,0.0,5.29928379853,-1.53565127071,0.0,0.0,0.0,-0.562342879304,-2.16760425475,3.08887548039,1.03983952813,3.79639491739,-3.4727589774,0.0,-0.559395731982,-1.03124472878,0.0,-5.37427305438,-0.247844484245,0.0,-2.19370055866,0.0,2.40725805888,1.93685659964,0.77367906946,-1.28098494772,0.0,0.869570476294,-5.13657370618,-0.980257200571,-0.722496240671,-1.5588862037,0.0,0.0,2.28067996775,1.5129161552,0.0,1.64542843139,0.66657395842,0.0,5.70818812397,0.0,0.0,-1.16856795705,0.0,-2.12667817205,0.0,0.0,-0.754267449613,-1.67166892592,0.0,0.545977533344,0.0831972738404,-1.36298732139,0.0,-2.01642074085,0.0,3.87275430183,3.15110738618,0.0,-3.18122940901,4.14668910105,0.0,0.0,-0.955526176887,0.0,-0.269805945958,3.07610492901,0.0,0.0,0.0,-1.74440551148,0.0,-1.93286459788,1.96578976132,0.758051932421,-3.40988680198,-3.37640822056,0.0,5.58537104024,-3.59422886428,0.817730260046,0.0,-0.515891815961,0.0,0.0,0.0,0.0,-1.63469871412,3.98001532487,0.0,0.0,0.0,0.0,2.61772330173,0.0,0.0,0.0,-2.0172532103,0.0,1.21590379554,0.0,-1.31062673688,1.27585558869,2.11034773887,3.76890446103,0.0,0.0,0.0,-1.66897305623,0.0,4.24446241019,0.0,0.0,-5.76097541522,-2.45161876805,3.46982945294,-4.18347601107,0.0,3.91047634482,0.0,3.44005530551,0.0,1.02165832958,0.0,0.0,0.0,0.228335842082,-8.29803818253,0.0,0.0,-4.41522620903,0.0,0.269126578967,0.482711519556,0.0,0.0,0.0,0.0,-5.82891445181,-1.60402955051,3.81716903599,0.0,0.0,0.0,-1.62346357618,0.0,7.69073599545,-4.08941635699,-0.221895961548,0.0,0.0,0.0,0.0,-0.127866598717,0.0,2.60294378999,0.0,-0.640007402,0.0,-0.0925116910874,3.7166635064,0.0,-2.10874456761,0.0,2.32420784712,-1.35233131735,-2.34205223119,0.0,0.0,0.219773330692,0.0,-5.76351496194,-1.94901016945,2.15257652683,3.52021830839,-1.44351949191,0.0,0.0,2.36803751475,-0.998456686318,-1.62072259244,0.0,0.0,-4.66173850871,0.0,0.0,0.375992338034,0.63122777422,0.0,0.0,-0.809442962023,-0.390488889768,0.0,2.95158963848,0.0,-4.94404548481,0.0,0.0,0.0,0.0,0.0,0.0,3.85548711559,0.0,0.0,0.0,-6.46147023302,0.0,0.370691181995,0.106061796646,4.90874341376,0.0,1.28539702094,2.65729986181,0.406306650595,-6.15978671633,-1.51088817265,0.0,-1.54844873068,-1.97042623894,0.0,0.0,0.0,0.976609004491,4.69815071402,-0.411630425759,0.639283863609,0.0,1.06487139479,0.0,0.0,0.0,0.0,0.0,0.0,2.66634139398,0.0,0.0,0.0,5.06166637386,-3.39505183306,1.25594176332,-1.47776772647,0.0,0.408095195386,0.717146698636,1.7966107752,-1.30431403727,0.0,0.313362525702,0.0,3.08128797535,-2.49200352202,-3.44616242107,2.59733917222,0.0,0.0,1.3255562992,2.55263658433,0.0,0.0,0.574969461386,-7.27568774752,-3.57184888042,0.0,0.0,0.730946277411,0.0,-1.523602916,1.68762499427,0.0,0.0,0.0,-1.28915669485,0.0,0.0,0.0,-0.176482688437,0.0,0.501277953436,3.79907325975,-2.29652006202,0.0,0.0,0.0,0.0,0.0,-2.76475879352,0.0,0.0,2.09608873423,4.22854942864,2.64986082182,0.0,7.40820690911,0.0,0.0,0.0,0.0,0.0,-5.83736651029,3.17390017321,0.0,3.83916648303,-1.22502103453,0.0,0.0,-0.440028734716,0.0,-2.06441500711,-3.39264283712,5.49407766124,-2.19370055866,1.09434094036,5.45065623577,0.0,-1.55145643333,0.0935610362257,4.44411891723,3.81172665627,3.04593808652,0.0,0.0,-5.88987291524,0.0,-1.20158527262,0.0,0.0,0.0,0.0,0.0,0.0,-1.70464018133,-0.475272290657,0.0,-1.46311607417,0.0,0.0,-4.47830258341,0.0773317814092,0.0,0.0,0.0,0.0,0.0,0.0,-1.91525024863,-5.6237535904,-3.80530062473,0.0,0.612207291458,0.545678428601,2.63010804682,0.206195980977,0.0,0.0,0.0,0.399734551912,-3.75789290229,1.05304110489,5.04003478251,0.0,0.0,0.0,0.0,1.25514401303,-3.21098656943,0.0,-7.13917088788,2.96799923594,0.0,0.0,7.40217808174,1.82157189903,0.0,0.0,-4.35421266571,1.7268902803,0.0,0.0,-6.1261820397,-2.45631076286,0.0,-3.79701516952,0.0,0.0,0.0,0.0,-0.250899329755,5.04977517242,-2.63511299203,0.0,-3.6988455275,0.0,0.0,0.0,0.0,0.0,3.47530780531,1.1555006262,-0.603420419668,1.13951727336,1.08739151452,1.83709343255,-1.64757807267,0.0,0.0,0.0,7.8236300852,0.0,0.148814424263,0.0,0.0,-1.93307376423,-0.500901553269,9.64031035498,-3.76917565457,0.0,0.0,0.0,1.75724829875,0.0,0.0,-1.35304399121,0.0,-1.47847354701,0.0,0.142176480946,-3.74147903551,0.0,-1.91860204814,1.73299804133,0.0,0.897243481662,-0.368441629107,-3.05203225912,-1.12234021204,0.0,0.0,-3.85712772523,1.54571997429,3.33311192307,1.26275341144,4.58596388269,-1.77858160641,0.0,-1.94112375664,0.0,0.0,0.0,0.0,0.0,0.0,0.0,1.71262164646,-1.11212704375,0.0,0.0,2.48568554737,0.0,0.0,-0.333737179301,-3.33363383885,3.11376592831,0.0,-0.769375427554,0.0,-5.67364364256,0.0,0.0,0.0,2.02232124795,-6.61431791686,3.07094888313,0.0,-1.32482363637,0.0,1.18586875687,4.76993736622,-0.433509174578,0.0,-3.20089929244,-0.579007045719,0.0,0.0,3.79548799515,-0.37371887354,0.0,0.0,1.55419661102,0.0,0.0,0.0,0.541352315121,0.0,0.0,2.77359696047,4.79425307519,-2.66084663233,3.27985492421,3.00137728785,-2.82586131758,0.0,0.0,0.0,-0.17821362834,0.0,-4.7006601756,0.0,0.0,0.0,1.28122058756,0.0,-1.67515301914,-1.96555814572,2.65287362354,-4.17102679737,1.8097362918,-1.71161862258,-1.45904263659,0.0,3.4450779025,-4.48912210645,-7.39698276407,1.17097768617,0.0,0.763475305527,5.84609151491,0.0,0.0,0.0,0.0,-2.11843070238,-2.60083434924,-0.273685608307,0.0,-3.77850048984,0.0,0.0,0.0,-3.74376336677,0.0,1.14477637136,-3.56935084693,0.0,0.0,-0.49587311425,0.0,0.0,0.0,0.0,0.0,-2.85377559922,0.0,0.0,0.0,0.0,0.0,0.0,4.99054145898,-3.13707088642,4.4789940463,-1.76038228713,0.0,0.0,0.0,4.67625217116,0.0,1.79052419163,4.33643815627,0.0,0.0,0.0,-1.33376172704,-1.79221574772,-3.94872386769,1.11064427426,0.0,0.0,0.0,0.0,-3.79936373333,-1.22072889471,-6.5203605149,0.465427156054,0.0,0.0,-2.62100263193,0.0,-3.5257105761,0.0,2.26311903131,0.0,2.63968972967,2.60563019708,0.0,0.0,0.0,0.0,0.0,0.0,1.71735634433,-1.13798942187,0.0,-0.460202518057,-2.92705568956,0.0,0.0,0.0,-0.938865207101,-0.0588123332082,0.0,-2.73226690559,5.58155510182,2.87190592225,0.0,2.5715880675,0.0,-3.19378137962,0.0,-4.33457723194,0.0,2.2382404968,0.53353366308,-3.21959583717,-1.45324079117,0.0,3.9311819499,6.1074434109,-1.15941037006,-1.57190902466,0.0,0.0,0.0,1.74848571228,0.0,0.0,5.85433812308,0.0,-1.99465939379,0.0,4.24173986133,0.0,1.29812734958,0.0,0.657564593432,5.07563601002,2.96500964215,0.0,2.78312902005,-5.49975286595,5.6873718052,0.0,0.0,0.0,-3.49090805819,-2.32193834566,0.0,0.0,0.0,0.0,0.0,0.0,-4.25240970159,0.0,3.40221448586,5.46248143426,0.0,-1.78914956252,0.0,-1.61727335594,-4.36707724803,0.0,-0.756808024592,0.0,-2.86744972831,0.0,0.0,0.0,0.0,0.0,0.0,2.62247361279,0.0,0.0,0.0,5.18110571299,2.99196418004,0.0,-0.664019893848,0.0,0.0,0.365537700068,-4.10162948923,0.0,1.76688498398,0.0,-0.535519927274,0.0,0.0,0.0,0.0,-5.20297032501,3.3037845445,0.0,0.0,0.0,0.0,4.79719873566,0.0,-2.95498087414,0.0,-3.87707351067,0.0,-1.91105972328,0.0,0.0,-0.371152020927,0.0,0.0,-4.982266755,0.0,-4.30130497594,0.0,0.0,-3.86008120339,-0.643637798062,0.0,0.0,0.0,0.0,-0.253772879151,0.0,0.383492216564,0.0,0.0,1.30389280356,2.24613483219,-0.154906743021,-3.633998484,0.270211724691,1.64042343452,0.0,-4.38634505552,-0.237540238791,0.0,-1.5563181748,-2.80803861855,4.96560346825,0.0,-1.0089020344,0.0,0.0,0.0,-6.0206620163,0.0,-3.02908786776,2.97390304281,-2.6357126742,0.0,-4.99856613675,0.0,0.0,0.0,0.0,0.0,0.0,-1.58537250144,0.0,0.306685857898,-2.49123780254,-0.445117731916,0.0,0.0,-5.41085100718,0.0,5.00246944368,0.0,0.0,-0.150684725498,-0.383196686972,-1.71498855331,-2.6629425733,-0.547045697568,0.0,0.164923606484,0.0,-3.72154795374,0.0,0.0,0.0,0.0,0.0,-0.323217350369,0.0,0.0,0.0,0.0,-1.36962614943,-0.104767490738,9.34814114559,0.0,-2.57016782159,0.0,-3.33006952021,-1.71889809338,0.0,0.0,0.0,0.0,0.142176480946,-2.31663645079,1.69541433455,0.0,-0.45231379267,-0.089885078862,0.0,0.0,2.8974719096,0.0,-3.89550198064,0.0,0.0,-0.420863574189,0.0,0.0,0.0,-2.53821505471,0.0,-1.71732742696,0.0,0.0,-4.66981741126,-3.30252800185,-1.17045141496,0.0,2.2462566768,-1.5587760602,0.0,3.86784887766,1.76226187188,0.0,-0.0736026371965,0.0,0.244663860652,0.0,0.943820498285,-3.32246125267,0.0,-4.82853676783,7.16489441037,0.0,0.0,4.94806881169,0.0,0.0,0.244145731002,0.0,5.62891872755,-0.355343566502,-4.47466337712,4.17580038981,-0.717707224807,-4.44858479205,0.0,0.0,7.36784819064,0.0,-4.20266189165,0.0,0.0,-2.70107553926,-0.265493261289,-3.32648176902,-1.1122145235,1.69685883152,-8.98979784683,2.51023255363,0.0,3.7606873678,0.0,-4.95500858923,0.0,-4.84462903565,-0.218049152601,2.76665954842,0.0,-0.844585092771,0.0,0.0,0.0,-0.208333295996,1.83076725594,0.0,0.0,-3.41301033593,0.0,-2.60923778507,0.0,0.0,-4.39091291789,0.0,0.0,0.0,0.0,3.25027020111,0.0450637455181,0.0,0.0,0.0,1.12530320151,0.0,0.0,-4.91694930731,0.0,-7.48489830438,1.88213405296,2.81986642271,0.0,0.0,0.0,0.0,1.1762802898,0.0,0.0,0.0,-0.180588494328,-1.39341346247,0.0,1.88757684017,0.0,-0.110188696444,-1.18175585308,2.90757707453,0.0,0.0,0.0,-4.96319866376,-0.705404534075,5.51884585316,3.9673488876,4.55575002605,0.0,0.0,0.0,0.0,0.0,0.0,-0.13540586263,1.02165832958,4.53871664784,-0.840218878696,-2.55362684342,-4.33357191427,0.0,2.67244095818,-0.72331607058,0.0,1.64256961821,0.0,0.0,-2.07954979265,0.0,0.869905607263,1.92767965241,0.0,0.0,0.0,-0.991425482147,0.0,0.0,-0.210542438229,3.63064538926,0.0,-2.27590917352,0.0,0.0,0.0,-1.93861781692,3.73443669307,8.48381693418,-1.8383537002,1.54388261662,7.87344433309,-0.373279142135,0.812603526191,-3.42318660023,0.0,0.0,0.0,-0.744893238347,-2.89530529463,-4.59606413246,0.0,0.0,-1.33861794709,-2.07439901243,-3.74852872031,1.2500246662,0.0,0.0,-1.74862569908,1.59858634888,0.0,0.0,-3.2230517568,-8.23436846912,0.0,0.0,2.74469194826,0.0,0.608526607736,0.0,-3.73115557743,-3.26304637553,0.0,0.0,0.0,0.0,0.0,0.0,0.0,-3.3548680947,0.0,-1.39653158988,-4.01309262577,0.68433450803,1.33817030882,-1.62824183692,0.0,0.0,0.0,0.0,0.0,1.51376588711,0.0,-6.73010451104,-2.35515332785,0.0,0.119383099031,0.0,3.66679431102,0.0,0.0,0.0,1.05346929295,-0.0299502281247,0.0,-0.616714951713,0.965935627417,0.0,-7.37604067711,0.0,0.0,2.03172900144,0.0,-1.72272877742,-1.44351949191,-0.107914146112,0.965935627417,0.526066142521,0.257452690436,0.0,0.0,-1.29188866998,-1.16931048642,0.0,2.28847622911,0.0,-1.05109161822,0.0,0.0,-1.95214607648,0.0,0.801403936362,0.0,0.936085072485,2.16089254163,0.0,0.0,5.13340625821,0.0,0.0,3.94156296562,0.0,0.0,0.0,6.77866064013,-4.53956451076,-3.41963744757,0.0,0.0,0.0,0.0,0.0,0.0,0.0,0.0,0.0,1.94361164708,2.35711295668,0.0,-0.422488083076,1.7792781476,0.453196755039,2.26762185426,-3.27407857341,0.0,0.0,7.92975770383,0.0,0.295964775336,0.0,0.574969461386,-1.49697147719,-2.89734334781,2.64030168766,0.0,-1.94456501281,0.0,0.0,0.0,0.0,0.0,0.0,-4.36847620119,1.26808892577,0.0,0.0,2.7664579556,0.0,-0.397642277913,3.85694562509,4.3293587628,0.250939835533,-7.4318256592,0.0,0.0,0.0,-0.240333316138,-1.14707587801,1.95228041934,-2.59965829267,-3.11662960666,0.0,0.0,0.0,0.640101342643,1.32362158083,-4.10073139725,-0.500043535381,0.0,0.0,3.56266770576,0.0,-1.09789190239,0.0,0.0,0.0,-0.944959924542,-0.0709776175142,0.0,0.0,-1.40988376515,0.0,3.19929100452,0.0,0.0,0.0,0.0,-7.05555776792,0.0,0.0,0.533546462199,3.54094662333,3.53552542897,-0.124542608131,1.36557612077,1.53494913435,-1.27357542372,-0.522602455669,-1.45032162486,1.58098735961,0.0,-1.33861794709,0.0,0.0,0.0,5.45393554548,6.85885880891,3.91134556587,0.136685487624,8.71517505254,-0.865666599762,0.0,0.0,0.0,1.52094137847,0.871828249905,-4.71206073162,1.16417498578,1.10654012662,0.764948330323,-0.735031432292,0.0,0.0,0.0,-0.278274786235,-2.20226495973,-2.23903796073,-1.39360948901,0.0,-4.52220050746,0.529627301926,0.0,-1.22805588988,0.0,1.92540278458,0.0,8.22339343271,0.0,0.0,0.0,0.0,0.0,0.0,0.10701078952,-4.68701351928,0.0,0.0,-4.15711923984,0.0,6.34643462908,-1.92919771713,0.214745433487,0.0,1.88091940077,0.0,-5.55023959933,0.0,-5.4410699401,0.0,0.0,0.0,-0.319802610267,0.0,0.149580043464,3.77486778146,0.0,4.19460947992,0.0,0.0,3.63290182565,0.0,-1.78664240447,-4.07864137232,0.0,0.0,3.0201751907,-1.85518229441,0.0,5.13208617188,-0.901502956936,0.0,0.0,-1.92572269729,0.0,-2.83341466245,4.75542903137,0.0,0.0,0.0,-1.82393450505,0.0,0.0,-0.300012428329,-5.00079035627,0.0,0.0,-4.25764215136,-0.835261228386,0.0,0.432244700471,0.0,-0.376931178462,-5.98718155301,0.588383384995,0.0,-1.92368530426,1.33817030882,0.0,0.865408351582,4.27024166791,-4.03506543354,0.0,-0.198303811448,0.0,-5.94381819927,-1.56934367688,0.978452602541,0.39444507437,-1.06706884328,3.06377299565,-4.04747776817,0.0,0.266425153597,0.0,1.68484411211,1.1091385034,0.0,0.0,0.0,-4.15861166893,0.0,-2.08784402281,-2.50961643742,-0.64883303499,0.0,0.0,0.0,-1.35754338495,0.0,0.0,0.65739107544,0.0,0.0,0.523902187967,2.31598188246,-1.44594273938,1.73424651183,0.0,-7.64047559214,-2.90968540273,-2.48647960538,-2.31772527478,-1.82464066515,-4.03875890418,0.0,0.303106615598,0.0,3.54742669916,2.94222685253,-4.71565805366,-0.480880113536,0.797302168441,0.0,-1.78867259777,0.0,2.37637993565,-2.15491744706,0.0691695873043,0.0,-2.99231544991,0.0,0.0,0.0,0.0,-2.02024511223,-0.22616911668,0.0,-3.72734691416,4.85930099362,0.0,3.82364895792,0.0,0.0,1.09936419167,0.0,-4.25593387305,0.0,3.49776083182,1.97971068082,-1.11297319554,0.0,-2.36613587269,0.0,3.7661736389,0.0,-0.783218954061,-3.78309990601,-0.878153465979,-1.39329739527,-3.95700735576,-6.86575022385,5.48814953979,-7.9706659644,0.252554068877,0.0,-0.333737179301,0.0,-3.05105188852,-3.46989969904,-3.03117430517,0.338028655391,0.0,0.0,-0.273411941958,0.0,-0.957054753016,0.0,-4.0452579555,0.0,0.0,0.0,0.0,0.0,-2.68851482238,-1.50205961198,0.0,0.364537696854,0.0,0.0,-0.289362964256,0.0,-0.273768179241,0.0,6.45743802794,0.0,0.0,1.47167963645,0.0,0.0,-2.00391195406,0.0,-0.651196903676,-4.28977273786,-1.50497070046,0.0,0.0,-0.134295689828,-5.72819987683,-3.49762084169,0.0,0.0,0.0,0.220732509606,0.0,5.43723646692,0.0,0.309160291407,0.0,3.85956725384,-0.392339136446,0.0,0.0,0.0,0.0,0.0,0.0,0.0,0.0,0.0,0.0,0.0,-1.49284335469,-2.72466261137,-3.14007418684,0.0,-1.20839174526,-4.33301932736,0.0,0.0,4.0066100366,-1.54314026174,-3.63107888401,0.0,3.85245881803,-0.131751945923,0.0,4.02782749039,0.947027688152,0.0,0.0,3.45398894832,0.0,2.08634136968,-0.108256334896,0.0,0.0,1.89658497258,-4.15699733593,0.0,0.0,5.59636846103,-1.39703500571,0.0,2.94639085987,0.0,-3.03120872941,0.0,1.72323884518,-3.41611063715,2.58845809551,4.03773242595,0.0,0.738569627632,0.0,0.0,0.415166004357,0.0,0.0,0.0,0.0,-2.09191776772,5.79165976532,0.0682154477836,0.0,3.338423746,1.64307764909,0.0,0.0,0.0,0.801558918191,0.0,-1.29645422149,0.0,-1.28521285684,0.0,5.04478079836,2.97743091212,0.0,0.0,0.0,3.68752649086,0.0,4.96708190125,5.85078809941,1.02165832958,0.0,2.87914000955,0.0,0.0,0.0,-4.07508622314,-2.50866041167,0.150301734826,-5.24949337531,-0.301238798755,0.0,-0.785863818169,0.0,0.0,2.43206208565,0.0,2.17362298016,0.0,0.0,3.05831608682,-0.987319643055,0.0,0.0,0.0,0.0,0.0,0.0,0.0,4.80695456017,2.71521199526,9.37981755092,0.0,1.5545818088,2.55060299411,0.0,0.671075412043,0.0,3.7626405312,-0.678911985675,-1.66738328288,0.0,-0.505401644427,3.03368894625,0.0,6.73376446191,-1.56809523794,3.92188626199,-3.76086733663,0.0,2.28147342811,2.64718948072,0.0,0.0,-3.8218032536,-1.08540805041,2.80199334991,-3.72058944365,3.25186498205,0.0,0.0,-1.36453795368,0.931971307849,0.629357145423,0.0,0.0,1.92209874494,0.409098956609,0.0,-2.72106810879,0.0,-0.44935158513,0.0,0.776808892871,0.0,0.0,0.424744828689,0.0,0.0,2.17261325301,0.0,1.370129906,1.97843133873,-4.33643133776,5.28461397081,-0.753068117275,3.5977587818,0.0,0.0,1.02153331406,-1.90683415241,-1.72570742141,0.0,0.0,0.0,0.0,2.64417092847,0.0,2.33129612322,-2.6104058289,0.0,-0.986462887518,0.0,0.0,-2.20416733976,0.0,-0.112561183186,0.0,2.63657497833,2.28193844662,-2.80834126629,0.0,0.0,2.23124765014,0.0,0.0,2.40724869075,1.66134608482,0.146688117808,0.149446473133,0.0,-4.2366607339,-1.83754249155,0.0,-3.52509667498,0.0,0.0,0.0,0.0,0.457202289676,0.0,0.0,0.0,0.0,-3.39264283712,0.0,0.0,0.0,0.0,0.0,-2.28842412111,-4.14605417461,1.80300006267,0.0,0.0,-2.35425861332,0.0,4.47638868635,3.80154498345,1.30611201074,0.0,2.50981523604,-6.06433000741,0.0,3.46702178436