0.659348088023,0.0,0.479427685547,-0.291848085326,0.363223743878,0.0,0.0,-0.362628703945,-0.285946037686,0.0,0.502429987607,-0.238874912979,-0.212653295407,-0.604581222988,0.704428319885,-2.10823088062,0.0128018497803,0.814953701275,0.0,0.445999108878,0.0,1.36031807425,0.0,0.165021806965,0.103969144413,0.0,-0.892964623266,-2.43280024498,-0.48218229724,0.195059637004,0.316683138336,-1.08437320472,1.65361432512,5.36709378317,0.451748859939,0.636582919697,-0.148989989879,-1.05432532542,0.0,0.404731543429,0.559967480853,-0.65598567686,0.338187868978,-1.06804841491,-6.1945489348e-05,-0.490726202179,0.0,0.0,0.3109123543,0.0,0.620878125119,-0.334889866877,0.0935396114015,0.0887780739458,0.0,0.0,0.707786799226,0.450795749935,0.358119777837,1.53893085313,-0.728270209635,0.0,0.0,-1.11549493625,0.0,0.69382171207,-0.575103416477,0.0,1.05891188245,-0.826053996187,0.155438242956,0.703192382998,0.0,0.980915461992,-0.237088230473,0.0,0.744708245468,-0.194594211346,1.37461350523,-1.6737806816,1.00681672766,-2.26800158343,0.309618167009,0.0,0.0,-0.39626460765,-0.387748841041,0.0,0.0,1.73430614676,-0.104261187517,1.5277877916,-1.15110227598,-2.60253681202,0.412111628702,0.0,-0.872864445392,-0.979976647348,0.104957952205,0.425220441622,0.647072903617,0.0,-0.355612321391,0.0341642047123,1.31299657791,-0.85168114751,0.0,-1.74713365183,0.775408564918,-0.121926313479,0.678264329186,0.0,0.115337665075,-2.25713668631,-0.580726440477,0.563521952103,0.855844440833,0.0,-0.31429424902,-0.161066753818,-0.158712689463,-0.249819855637,0.0,-0.378798584923,0.0,0.0,-0.713433099265,-0.26033611476,-0.901278721425,-0.503764641991,0.787727683274,0.825480331101,0.566143130661,-0.963777292285,-0.247424126516,-0.337711254918,0.0,0.326594438803,0.248946777432,-0.0738620820609,-1.44312649613,2.15181213026,-1.03441153054,-0.511133022238,1.07723796355,-0.410425241657,0.526531779556,0.0,0.0,1.4935779554,-1.20686527595,1.78091510997,0.514213467467,0.360988431447,-0.0940394514802,0.0,0.0,-1.01109348053,0.500235530483,-0.794208398261,0.446949212012,0.0,-1.20450763351,0.0,0.0,0.0,0.519903488458,0.495509864241,3.08192374413,0.0,0.0,0.0,0.0,0.340389514029,0.0,-2.2571643569,0.0,0.0567738000889,0.0,-0.134944728619,0.64138088197,0.0,-1.10017532272,-0.422898088479,0.0,0.0,0.0,0.0,0.638681150714,0.116516451209,2.45737415648,1.69626914151,0.683747701532,-0.983237551921,1.14244353748,0.0,0.89226652206,0.653160577981,0.0,1.02323808475,0.492393169399,0.0,-5.90278088295,-1.09864139566,-3.57519810639,0.0,-0.821156687434,-0.348260853661,0.151751844794,-0.597229122408,1.35921932326,1.78451221297,0.222864721671,1.13564732276,0.242127134718,0.0,0.680459140458,0.0,-1.79689069949,0.0,0.0,0.0,2.51728139826,0.0,0.0,-0.152091797667,-0.45236838767,0.722858176886,0.0,-0.219278427455,1.29041040986,0.0,-0.942477145987,-0.337817845019,-0.38969200114,-0.245585182118,0.63407819748,1.00005135089,0.0,-1.56551336845,-1.64523805625,0.0,0.270205358309,-1.44121067222,-2.1458771891,0.255846255752,0.0,0.0,1.04191101949,0.0,0.0,-0.890076327114,0.119221887252,0.0,0.783196249701,-1.51507761324,1.29918445662,0.0,-0.083695833083,0.0,0.0,-2.44700055043,-0.851510979677,-0.439605432545,-0.689256034809,1.47322482659,0.235418990078,0.03338303415,-0.437780387512,1.25955433487,-0.399250400619,-0.703163066191,0.0,-2.99229458485,-1.44320217316,-0.29200677403,-3.47410334859,0.0,-0.507975874574,0.506351466964,0.0,0.0,-1.73236758834,0.272108011348,0.691259340291,0.0,0.0,0.45484411942,-2.97258354533,0.0,-0.630654434561,0.251426240938,0.0,-1.65538007088,1.42735464864,0.0,-0.371505988429,0.0,1.0724333254,0.357064717079,0.0,-0.431233419675,0.13292221196,0.0,0.0,0.245727719564,0.734215927415,-1.08815782863,-0.336698732413,0.260625573456,-0.43739754389,0.332010657058,0.782773837112,0.0,1.40337036226,0.0,-0.616823665188,2.14163740258,0.308014934099,2.64473652418,0.0,3.14325402068,0.46113036512,0.869695366496,-0.638097908499,-1.24692601882,2.18824788868,-0.192320337445,0.112438059477,0.596306007146,0.321467613679,-0.135879327921,0.201040562128,-2.88723660936,0.0908798563212,1.51762098797,0.0,0.0876983345557,1.16477889033,1.39126121304,0.854821434563,0.362607464865,0.0,0.0,0.0387151651161,0.0,1.53420932047,0.0,0.727438358952,1.53428128987,0.0,-0.264532786264,-0.98587989469,2.53565132224,-0.508693447266,-1.33860907198,-1.09238303874,0.0,-0.385001050974,0.0,0.0,0.0,0.979405014787,-3.19502017139,-5.05992145057,1.2088703311,1.47460023488,-0.733683415522,0.0,0.0,0.0118439921728,0.11033195931,0.0,0.0,-2.61193713276,0.0,0.0,-3.70057208045,0.0,-1.43030726737,-0.171282653933,-0.578708581015,1.25326522286,-0.267999625577,0.0,0.0,0.0,0.0,-0.268765141649,0.0,-0.716318998134,2.15964079972,1.02456877195,-1.09800364936,0.157382032014,-1.55979086603,0.0,0.0833452727684,1.16017366579,0.688115966805,-1.78300648471,0.170730265986,2.69304354882,0.17715932037,0.238382866999,2.19728081171,-0.72047421824,-0.237082339276,1.43837543647,1.02772652227,-0.43771006727,0.0,2.55832862065,1.09909641204,-0.599319940204,-0.334424795482,-0.521972888781,-0.151572631697,-1.06938426755,-0.978207649629,2.28173273896,-0.145580274101,0.0,-0.666892965376,0.449063109901,0.0,0.182161098583,0.0,0.0,-0.964268285894,0.0,0.721573821719,-0.47554820549,-3.00754762587,0.892211001594,-1.68293012543,1.2880148987,0.0,-0.892855922272,2.92808074409,-1.35944354235,0.0,-0.880177888955,1.43819204945,-0.984844164584,0.0,3.03430973286,0.0,0.172371357374,0.0,0.724371195868,0.216191806413,0.983627822297,0.449975225232,1.2447290622,0.0,1.2163333375,0.259988552998,1.57421123774,2.74328458987,0.0,1.93243028518,-0.104944747385,-1.61547909038,-0.518498021011,1.4708019497,-0.645686930682,0.0,-0.614986977436,1.47116948915,0.437553963562,-0.825730473901,0.334939328557,-0.0467076514346,0.0,0.0,0.0,0.251759550441,-0.532931980107,0.0,0.247034038874,-0.38154023112,1.31716957331,0.0,0.0,-2.87458202363,1.95898580286,0.0,0.0,0.0,0.0,-1.71066616348,0.0,0.0,0.0,0.35418772058,0.0,-0.52309633469,0.0,0.0563503506005,-1.05869164985,-0.937233603199,1.04323551519,0.0,3.24210013709,0.775080988721,-0.482667432385,-0.740780142701,0.0,-3.89766584649,0.0,-0.434477360902,0.0,0.0,2.76831650654,0.0,-0.0627053719876,-0.831809988583,2.28412351702,-0.504038262715,0.0,-0.231266057488,-0.248060536094,-0.930887049306,-0.415559390243,1.61454928095,-0.261555746057,-1.41763576774,1.50583339354,-0.271139425375,0.814068891648,0.0658295424227,0.0,-3.40860179673,0.211709902276,1.59481414518,0.145479330519,-2.86251919708,0.0,-3.21987836989,0.0,-3.07343575022,3.31713837075,0.0,-2.46506085653,0.252164464753,-2.2544565837,1.96243190121,0.0,0.614189726557,1.54188031574,-1.03179929846,0.547850036559,0.0,0.0,0.0,0.0,-0.263101199506,-1.1774107538,3.38904858448,-1.51469188593,-2.80540694154,1.26755382299,0.43233545432,0.0,0.881498407111,0.0,0.803589495688,1.931521361,0.0,0.0,-2.15238420696,-0.899960447783,-1.09755527008,-2.11555750002,0.0,0.411358884823,0.0623802418121,-1.3420984926,-3.25347291619,2.11024829647,1.48492135336,0.0,0.0338571372483,-0.977543353223,-3.91921923483,2.54510061178,0.0,0.0,0.0,2.26612474941,0.64319736489,0.637877306285,1.3490316537,0.0,-0.724173229752,0.0,1.22040167561,0.0,-0.805152154804,0.816543253141,-0.295193631005,-0.408119110984,-1.23539248501,-1.4446191418,0.0,0.917376142965,-0.0543991250105,0.0,-0.0545295413201,-3.30596917125,1.17441202303,0.536296584397,0.438114319978,0.0,0.0,0.0,-2.12843962783,0.803954879376,0.0,-0.395475656723,0.0,0.0,0.998553753519,-1.44608811092,1.30001067638,1.06452957924,0.383582502094,0.0,0.018662975161,-2.00223904513,0.825473485386,1.3035779471,0.444029336883,0.0,0.0,0.0,-2.06059203588,-1.69624291945,2.56653471542,-1.96121275898,0.0,0.0,1.51729697667,0.0,0.0,0.0,-1.23538081061,0.251865050099,0.0,0.0,0.0,0.0,2.37736993859,0.0,0.997715208976,-0.885655429968,0.0,0.0,-0.183738788095,2.61321348381,-1.77436299392,-0.11779508572,0.367330587917,0.0,0.0,-0.75369472184,0.0,0.0,0.0,-2.26148582367,-0.138759222194,0.0,3.06442162441,-0.0527705459561,2.27497310487,0.0,0.077854896075,0.0,0.0,-1.94423846528,0.0,0.0,0.0995906143744,-2.96568284548,-0.631966391743,-1.06375209926,0.270681119985,2.79482681133,0.380809809578,-0.890170093063,0.0713755418781,0.0,-2.57935195308,0.0,0.0,-0.701096547133,-1.62552619288,0.233318794538,-0.541729620092,0.127966204773,1.24928224295,0.0,0.0,-1.87028655192,0.0,-5.53152093323,0.0,0.264585613039,0.0,1.21748387908,0.0,1.5643875753,0.0,-1.60200325873,-1.99561520802,0.0,-0.253190303882,0.170484475718,0.0,0.0,-0.872987641598,-0.522025787959,0.0,-0.47437035834,0.0,0.0,0.0,-0.382029842612,0.0,0.0,1.81610214323,1.88276495672,-0.909152616658,0.0,0.0,-1.03997504133,1.05095231336,0.0,0.0,0.0521605847647,0.0,0.0,3.42616278022,-0.985395590095,-1.36038808028,0.0645458546938,0.0,-0.471248579665,0.0,0.0,0.57512742707,-3.43807959504,0.0542669870146,0.0,0.569447274706,0.0,0.0,-0.893435054859,-0.482807641672,3.29995816621,-0.107508345909,-0.336915913236,-0.300433529458,0.0,0.533008073849,1.68919586917,0.202863527448,0.0,0.211558602591,-2.94357501004,4.07671541005,0.0,1.27703069762,0.758115613399,0.930664153253,0.0,0.19268470939,-4.35490469773,1.17450530996,-2.6301459518,0.904280173413,2.48307245467,-0.0613188708207,0.0,0.0,-1.37357070284,0.775828715118,0.0,0.0,0.222168634258,0.577874994567,-0.300089867614,0.222434574917,0.896886923702,1.10383725157,-1.95456257063,-1.61291928475,0.358920526476,-0.360132750402,-1.44230887297,3.43769508517,1.46287211258,0.0,-0.742114912058,0.714976229306,0.0,-5.01198489621,-3.0679045067,1.4561040286,-2.50480662262,1.09333444938,-0.0271490389531,4.94242963978,0.893000338242,0.0,0.0,-2.66070214749,0.0,-1.57922419151,-0.152069752318,-0.133378055368,-0.564058796681,-0.652023218144,1.06601020328,3.00954335223,0.977469914464,-2.1989263779,0.0,0.44519077162,0.0,2.90302652731,0.0,0.0,0.0,-0.387796365748,1.25795805675,0.106424155523,0.0,2.58659543935,0.130240750538,0.0,-4.68518966194,0.955769719219,-2.01465337382,0.0,0.0,0.762697903016,0.0,0.0,0.0,0.0,-0.107255645876,0.645659227702,-2.54085999264,1.64177435895,0.952392291295,-1.34613499708,0.0,-1.64941495655,0.76922936571,2.3084158292,0.0,0.0,0.0,-0.468548817769,0.0,0.0,2.85301004317,-0.0905665271146,-0.865175558779,0.178653756263,0.0,1.37015755588,-1.50111911004,0.0,-3.4177719505,0.0,-0.197220612375,2.40847687266,0.456652268716,-1.07664478424,0.0557847383797,0.0,-2.59031272347,2.02539704405,0.0,-0.195004535294,-5.63091535028,0.0,0.0,0.129839975673,2.34906192167,0.0,-1.59058211308,0.0,-0.449805238541,0.0,0.0,0.724546175719,-1.990476694,0.0,0.0,0.0,1.04120928549,-1.84548357335,-1.16202267613,0.0,0.0,-0.444211088339,-1.66983737942,-3.88558138252,0.0,0.0,0.612296023879,-0.186772884082,0.313873518864,-1.22374986497,0.0,0.0,0.0,0.0,-1.94892730864,0.0,1.53249870131,0.0,0.0,2.74332971614,-1.90497381473,-1.37165869641,0.0,-0.914381615348,0.0,-0.823841724671,0.127024952149,0.0,1.18079727366,0.877774918595,0.0,0.0,-1.43430781575,-3.57013886084,0.0,-0.957801892468,1.99510432222,0.0,-2.7468741636,-0.0816454564013,0.0,0.0,-1.76882125256,1.46104907367,0.222123467392,-1.6546064819,0.866148126193,0.0,0.0,0.0,-0.337246135622,-0.810660423127,0.0,-1.17512019136,0.0,0.0,1.569071503,2.40455260707,0.0894554099623,0.0,0.0,0.0,0.0,2.26224583702,0.0,0.0,0.0,0.0,0.0,0.0,-0.114145765448,3.4728030512,4.20745685215,2.97467460333,0.218079205084,0.0,-2.01845401305,0.371593307407,-0.594536841014,0.0,1.76519616177,-0.391894317067,2.09593702,-0.646709399846,1.46165019668,1.45608872998,0.0,-1.60966506518,0.0382313618998,0.0,0.0380710643579,0.0,0.638237576484,0.176119416505,-0.784680494439,1.7180437504,0.670567331226,0.249420876289,0.0,-3.18484077679,0.0,-0.785864307318,1.0173104961,-3.21400497303,0.0,2.17182157134,2.66466214753,0.0,0.0,1.07816818765,0.0,0.0,-1.88392509067,-2.71470713568,0.0,-1.23147327272,3.98314375913,0.0,1.736620817,0.0,0.0,-0.315591601745,1.82551121827,2.59315831728,-2.7473951959,3.54216219304,0.0,-2.24997232982,-0.220352278731,0.0103962198381,-1.25055652218,0.0,1.35984834894,0.0,0.0,2.81145081049,0.0,-0.168351389282,-0.83831778555,3.66039145718,0.0,0.0,2.32587721855,-1.15830763233,2.35403988963,1.66512303395,0.0,-1.65779992663,-0.301835023854,2.16409354329,0.0,-0.622282462536,-0.855955678719,-2.52295687282,0.0,0.782827179685,0.0,0.0,4.78856353511,1.14543441456,-1.35842862074,-2.9889920888,0.0,-3.65582643676,1.91129150964,-3.4695427942,2.23061456298,0.0,0.0,0.0,0.0,0.0,1.75826205801,0.0,0.0,2.0931715632,1.01195571982,0.0,-0.46567181671,-1.6218045465,0.0,0.0,-1.11889061826,1.30785999242,-2.6465577124,-0.265208971389,2.11189624347,0.351750756832,0.0,0.367505609066,0.0,1.5177269355,-1.24458067318,-1.09097660424,1.46305635718,0.0,-3.80355235541,-2.48639737535,0.0,-0.096894996903,0.955557149774,-0.828010229845,-1.92287020176,0.674230092489,0.0,0.0,2.61939594274,0.206527612807,0.0,1.65088424278,0.266860826379,0.059057658111,0.2183439126,0.0,0.0,2.46014840909,-0.722211865382,-1.04792374183,0.0,0.0,0.0,0.0,0.0,0.244123894946,0.0,0.842545952876,-3.28941998126,-0.488457997445,-1.66029670541,-1.80659735596,-0.984311237862,0.380806015702,0.0,0.0,-2.82670772154,0.0,0.0,1.23434204931,-1.42110262352,0.0,0.925518718783,2.88404005594,-0.0883197290782,0.552978703985,0.123709357821,-0.284923601942,-0.455880323412,0.326148169345,0.0484670152357,2.34277956212,0.0,0.0,-1.40867966523,0.0,-0.385003280049,0.0,0.0,0.453614710308,0.666927307518,-0.356319194503,0.246384746905,0.0307626705025,0.0,-0.589218694885,0.0567531575408,-1.22077037326,0.971186764725,2.76993834168,0.0,0.0,0.0,1.06150791457,2.87603839594,0.0,-0.534471137933,-4.1461417524,-1.04654804604,-0.890563126766,0.0,-1.91978051197,-2.04861178896,0.0,-0.469835993569,0.0,0.0,0.0,0.0,0.619395366339,-1.39648668395,-2.35851880466,-1.07084155826,-2.74735164989,0.0,-1.328029885,2.39148921876,-1.35460975193,-1.36658620701,0.0,0.461626444485,0.0,-3.44989895868,0.0,-1.13734505583,0.894187341264,0.0,0.0,0.48226835722,-0.0240360608708,0.0,-1.61020562235,-0.0788184766823,-4.53773779822,1.75404407725,3.83831020606,-0.15424389242,-0.542676613451,-2.72362151224,4.14882877979,0.0,-1.8992841358,-5.53061800811,0.0,1.65336616157,0.0,0.376260091486,0.0,0.0,-1.69380870278,0.0,-1.60302827801,1.19442613252,1.1796546079,1.08187715384,-0.772519358959,0.434118402596,-3.03395633238,0.0,-1.39451408026,0.241599804559,0.0,0.0,-0.433075869802,0.0,0.0,0.685183882351,0.672170775014,0.0,0.0,0.247170620402,-0.901626822874,0.0,0.0,-1.45524542122,0.0,0.0,1.49102723735,0.0,0.0,-1.38961711485,0.0,0.0,0.0,-1.37035241606,1.47667573601,0.0,1.69580334909,0.0,-1.10316253641,0.482345904957,1.16050054428,0.0,1.81061665547,0.0,-0.140382765176,0.0,0.0,-0.81979868533,0.0,-0.859412679434,0.0,0.0,0.550078768743,0.0,-0.180837107677,3.61733363522,0.0,-2.13612772254,0.0,0.0,0.333498900341,0.138759861773,0.0,0.0,0.0,0.755224768912,0.0,-0.16816237139,-2.65727878158,0.275442678858,-2.36953876566,0.0,0.0,2.20832388955,0.0,1.78614874744,0.631396120727,2.34964228871,-0.857019906462,1.32061294818,-2.71799326917,-0.843101936487,1.91753553496,1.16656020226,-0.723747712746,0.830678531463,0.0,0.0,2.7662521443,0.163912548856,-0.595341406192,-0.705562872499,-0.916017807867,0.0,0.0,0.0,-0.871712558964,0.0,0.0,0.0,0.0,0.0,0.687727222545,0.0,2.42870496168,-0.243262237869,-0.695196873124,-0.932414440808,1.77997039807,-4.67838750446,0.0,-0.580595247629,-1.07176629053,0.0,-0.15646327807,0.0,0.0,0.0,2.18247843854,0.0,0.0,0.0,0.0,0.0,-0.980964529905,0.0,0.0864979433433,-1.04530389204,0.0,-0.0603937296415,1.30631823595,-2.71976308563,0.0,4.36212587557,1.46831540745,0.0,1.70172773388,0.0,0.863147402278,1.38754991091,0.445658342485,0.935892729007,0.0,0.112637978046,-2.36810081128,0.95324014564,0.0,1.22092032005,0.0,0.627502653635,0.0,1.02792850631,-3.24473376644,0.0,0.0,0.304784611907,0.0549027079479,0.0,0.0,0.0,0.0,-1.2533791748,-2.64797742913,0.0,0.0791507123676,0.0,0.0,-2.77343844401,0.0,0.0,-0.364516046952,0.0,0.0,1.05031104846,-1.31265311641,0.0,-1.931352727,1.91076924864,0.135452577798,2.48854375328,-0.862050417401,1.85490860186,-3.80067908799,0.0,0.0,0.0,0.541502080906,-3.00506657062,-0.10940503375,0.0,-0.275561397227,-0.023141532394,-0.810418764604,0.0,0.0,0.0,0.975790474758,1.2362223653,-1.29421154869,-4.02160606952,0.0,3.41755918242,-0.233520563025,0.0,-0.462000958709,0.241770053953,-1.77532652087,0.0,-0.46375875386,1.88483083523,0.437638623556,0.0,0.358459279331,-0.316997141466,-2.11839982217,0.0,-1.71321743051,0.0,-1.21704716087,0.0,-2.2650680513,0.0,0.0,-1.02807301298,0.0,0.0,-0.699576878388,0.532803610892,2.48525727542,1.76632715369,0.970661561318,0.0,0.0,0.87714559157,0.0,-4.07669735827,2.04017607726,0.0,2.10856651508,-2.66416034396,0.0,0.71465083249,0.325218965068,0.0284147854256,-2.03541294559,0.0,1.27498704662,0.0,0.369577089557,0.0,-3.75331695941,0.735254758028,0.897511566193,0.0,2.42757299162,-0.0472880674549,0.0,-0.861971497512,-4.03733245397,-1.53256174527,0.0,-2.83945939966,-0.689237901726,0.445460053018,0.0,-1.92399504022,-0.152916636006,0.0,-0.0811406344881,-4.1945742754,0.0,-0.947711158983,0.0,0.0,0.615742188376,0.805942194545,0.0,0.0,-5.38027462591,-2.47142322023,-4.10262695524,0.0,0.0,0.0,0.0,1.63972768617,1.19552088631,-2.74512029767,0.0,0.413653528323,0.701278803483,-1.34504715692,0.0,0.484712958011,0.0,0.0,0.0,0.969157938132,0.0,0.0,0.0,0.0363790440838,1.45630481771,-0.289107607737,1.78759901818,-0.441233195288,-1.29293708779,0.762823114213,-1.54331369937,2.17092821877,-2.34682780191,-0.808773420365,-0.712234130768,-1.25336331828,-1.57502761718,1.11204842208,0.0,0.0,-3.37264362273,0.393646681242,-1.96095355841,1.70668082738,0.0,2.84366457189,-1.14807536469,0.0,0.0,1.58384038944,0.0,-4.4354797407,0.0,0.0,0.0,-2.04918454939,-0.0487845224575,-2.63790210904,0.0,-0.571179065969,2.15313038596,-0.297862402941,0.0,0.935693847252,0.0,-6.24585480012,1.39049215218,4.84217653447,-0.792986539768,0.0,0.0,2.3666342607,-0.555848033516,0.0,-0.556184243997,0.907722402931,-2.47420831532,0.0,0.0,0.0,3.38176392541,0.0,0.0,0.174830363144,0.0,0.579461696045,0.0,1.36857582947,0.0,1.97938619716,-0.917443339786,-0.181833044869,0.0,0.0,0.633806622511,-2.07136824343,-4.28082169234,1.37094967428,1.05611460129,-0.390163868967,0.0,-1.26309043329,0.0,3.18588145907,-0.992880621204,-2.96106858192,-2.66106924275,-1.01848244807,-2.69069610824,0.0,1.4866886456,0.0,0.0,0.409645030789,0.0,0.0,-1.15193720602,-0.152576539047,1.9803816481,2.16745081069,0.0,-0.789625611627,0.0,1.43880170609,-1.15653792707,-0.809735476275,5.19139191631,5.67642053274,0.319172399086,-0.830668807899,-0.151130216831,0.0,1.06445964061,-2.83799483671,0.501289376568,-0.371296996771,-4.66816838825,-1.24711338954,-0.729406594798,-0.135458035003,0.0,-1.0144199804,0.57603960133,0.0,0.0,-0.7955912787,3.04175777196,2.20656900856,-0.935082977109,2.20879946222,4.63069452126,-0.79099262047,-0.672136534715,0.246384746905,-1.95615688866,0.735330253923,-1.13133329484,0.500123327371,2.37786421575,0.0,0.0,0.0,-0.424464477888,0.0,-1.22175175478,-0.543838578734,0.0,3.76322473934,-2.03120862095,0.0,0.0,2.92633051646,-1.25610239809,-0.133620478634,0.0,-0.237895524147,-0.515346173206,3.99404683568,-0.216185789961,2.12742566908,0.0,0.0,-0.952697019448,0.0,-1.48408140789,0.0,0.893373499835,2.29081168183,0.0,-0.746168764845,0.439786548477,-6.32263251233,-1.76561853601,3.27956189667,-0.637539989425,0.0,0.0,3.02181303294,0.605582044366,0.0,0.0,0.974280168355,3.32272025842,-0.161816557435,0.0,-2.27279535184,3.65570685278,-1.02623084923,-1.59590289834,0.0,0.0,0.0,-3.30502690437,1.15448975307,0.0,1.1498172847,0.0,-0.258007527176,-0.498832261664,0.0,-0.340316081133,0.0,0.0,-1.1788449215,-0.242271623372,3.94202734713,1.05714929452,1.23562987082,0.48969221889,0.0,0.0,-0.647566332596,-3.53389303798,0.0,0.0,0.178677727286,4.52026366858,0.0,-0.490238593633,0.819211554535,-0.794660162736,0.819863282502,0.0,0.0,-3.27858259198,1.77268650777,-2.09491148151,0.0,0.0,-1.89348059289,0.409032339249,-3.22027776792,0.0,-0.13111762149,0.0,0.0,-2.52732882846,2.02742582517,-0.196634637717,-0.368794926253,1.02455741419,0.585723816626,0.0,0.0,0.627755256196,2.76948148022,1.69713919151,0.0,0.142271600279,0.0,0.0,-1.59681667851,1.91265229788,2.50857306177,-0.747581046363,0.0,-1.99893527692,0.0,0.0,0.0,0.0,0.0,0.0,0.0,-0.895505443421,0.0,-3.32241817595,0.0,0.0,-0.448746812435,0.0,-0.728682965725,-1.12143966776,-1.8858038943,0.0,-0.0901999336108,3.90234099141,0.0,0.0,1.64479165344,-0.157043921123,0.0,1.28422758041,-4.00660921453,0.0,-0.0776246798321,0.0,0.0,0.0,0.0,0.0,0.0,0.564420398497,1.15037149395,-1.17453643498,0.0,0.0,0.247713424946,2.60080953761,0.501218025679,0.0,0.0,-0.212131532327,0.0,1.19848327373,0.0,-2.09275897094,4.56539943724,0.269559139132,0.0,-2.93422296302,0.0,0.349521758773,0.0,-1.87949838275,-2.93839103693,-1.09427351212,2.28434384741,0.0,0.370193836159,0.0,1.31594206428,-0.608375520092,0.0,0.515911456448,0.0,0.321057469571,2.40287263352,0.0,0.0,0.0,-2.18522429975,0.0,-4.08612630928,0.0,0.0,1.40113201821,0.0,1.61127485066,2.53472550424,-1.80019632545,-3.60814658676,0.258339901387,-0.41922065632,-1.00372805179,0.0,0.0,0.0,0.0,0.0,2.41894370527,0.0,0.0,0.0,0.0,2.15187922715,0.0,0.0,-2.14526203903,-3.81552664971,0.832627037717,0.0,0.0,-1.52880576891,0.0482852092345,-1.0032742438,0.584758946935,-4.04678133834,0.0,0.0539451786173,0.0,2.96107958039,-0.481229985645,0.0,0.692418040991,0.0,0.29777832547,1.41572975086,-2.42543521043,-1.17292876804,0.365289742499,-3.43086788134,0.0,-3.81712758583,0.0,-5.23501137495,1.35478325085,-1.17294720093,-1.73755742978,0.0,0.0,2.1389657728,0.0,0.0,2.73544124241,0.0,-3.01254899896,2.9558765663,-1.0934092942,0.0,0.0,0.0,0.0,5.20795731891,-1.10581390472,-0.862163048272,-3.87363370536,0.0,-3.60771632842,-0.92120788593,0.0,0.0,0.56764317029,-0.0631584618413,0.0,0.0,0.0,2.69507371028,0.0,0.0,0.384666456521,-2.30637288667,0.0,3.5581577157,0.557886558016,1.01944370462,-1.57123570584,-0.959518883775,-2.03445313372,4.31839103717,-1.57614666866,0.0,0.0,-0.00680383734043,0.0,0.0,0.157124432181,-1.66784385233,-1.2919635673,-0.108763329929,0.0,0.909741742249,0.0,0.0,0.0,0.0,0.953842841151,0.0,0.0,0.0,0.0,0.0,-0.797438515703,2.61134970728,0.0,-0.943310290947,-0.573160720994,3.57445202288,-0.287512645762,-1.82973535816,0.244774842571,0.0,0.0,-0.577696328646,0.0,0.0,-3.29227231043,0.0,0.0,0.0,0.0,1.19680676197,-0.601134540436,-0.0892116540252,-4.05887911972,4.24619414729,0.0299464608079,-3.08997632026,-0.0307393280573,-0.541160355018,0.0,0.405990209588,0.0,-3.12270848872,0.427610950601,0.0,1.56410851245,-0.472545137066,0.0,2.19000033562,1.53663924302,0.0,0.0,-1.9537946642,0.0,0.0,0.0,4.05242457699,-0.782668607375,-0.991566935634,0.837069729586,0.564188847424,0.791468434202,-1.8821587181,1.63613416252,0.0,0.0,2.03889038632,0.0809704074671,-0.148055422622,0.0,0.0,0.0,-0.0560875518356,0.395973005839,-1.19329217762,0.0,0.0,3.76031312827,-0.112293209381,0.0,3.83123926778,-5.62927513745,0.0,2.77121429277,0.0,-5.45441224381,0.391821485873,-2.15731554091,0.0,0.0,0.0,-2.09364342668,-2.07222749224,0.0,2.74768027403,-1.22153799051,1.33717033417,0.188825231367,0.0,-2.76376823971,-2.2010338148,0.459957633262,0.0,-2.21524585699,-3.23433202607,0.0,-2.71450592637,0.0,1.76412307066,0.0,0.0,-3.98883907359,-1.36899280972,-2.39253202899,0.325829985231,-2.31766742286,0.0,0.0,-2.32312750031,1.98650611302,-5.35259395137,0.0,-4.3507048498,0.0,0.0,-0.229716368032,0.0,0.0,0.193166204026,1.14868312042,3.85057696259,-4.61185439597,0.0,-1.11274924686,2.13250435244,-0.199289199378,0.0,0.0,0.23906006276,-3.91377657151,0.0,0.144831695339,0.0,-3.41547610574,3.30672574937,0.0,0.0,0.0,0.29115871013,0.0,0.0,0.877639859702,0.0,0.0,-0.149729716074,-1.2168916316,-0.362460547646,0.0,0.0,0.0,0.0,-1.62761807233,-1.20461727905,0.0,0.0,-3.44576785549,-3.10167833423,0.0,0.0,0.0,0.0,-0.804641229035,1.67018901099,2.40108572396,1.98019033974,0.0,0.0,-0.508965136176,0.0,0.0,4.08747132274,0.400966291284,-2.95335566991,0.0,1.18042534788,0.0,-0.0748411773452,0.0,0.0,0.0,0.0,0.214422237518,-0.550664221632,1.32587173263,0.0,0.0,0.0,-0.204528083585,0.0,-1.73447004465,-0.97260684418,-0.583766616533,-2.72146346543,0.0,-0.840988273677,0.0,0.0,0.601797226928,0.562968547227,1.25618932014,0.0,0.0,2.12755139751,0.0,0.0,0.0,0.0,0.0,0.0,1.33908881716,0.0,0.915768390534,0.0,2.05620040696,0.0,-1.47241372506,0.0,-2.11179257152,-1.10701341797,3.19456442534,0.0,0.126247423416,1.73053698084,0.0,0.0,2.11221406357,-0.32644492071,-1.3073531281,4.10560881678,0.0,1.30294880182,0.0,0.0,-3.64924966533,-1.32055681537,0.132617708839,-0.160426961251,-0.0484345176736,-1.36667222035,-1.92662786519,0.0,-1.7323955214,0.0,0.251429479923,1.61891214728,-0.819946237599,0.0,-2.81515227575,-1.15339155289,-0.59403045004,-1.40970223988,3.20314789031,0.0,-0.338698382325,0.0,0.0,1.51161999227,3.93076868426,0.0,0.0,0.0105104173959,0.0,0.608367892934,0.0,2.06552929491,1.11951350633,0.0,-5.47543793601,-2.80112700361,-2.4597542269,0.0,0.0,1.12494846282,0.0,0.0,3.27064546631,3.57407656433,0.0,0.118806225147,-3.17208568256,1.22894004317,-0.0960695292036,0.0,-1.54727415108,0.229671315759,0.0,0.079873267844,1.40315780953,0.0,0.0787516189746,0.0,0.0,0.0,0.0,0.0,0.0,0.373178490666,-1.74049925461,1.50883212033,0.0,0.0,0.0,-1.43335082876,0.0,-4.18022349386,-0.340642387205,-3.19931202979,0.0,1.16398150637,0.143553959181,0.0,-2.60700317469,-3.04433664223,-5.54261836092,0.0,-0.101793411982,0.0,0.0,0.0,-0.603341455104,-3.51478227739,2.93084561571,-4.72153093554,1.78058847642,0.0,1.52814886039,-2.16548264561,0.0,-1.20989952167,-1.53016193825,2.11116286546,0.621073513999,-2.13937955627,0.0,-1.2272811611,-0.276126200431,-2.07285880447,0.854540617569,0.0,0.0,-1.15122068075,0.996077104601,0.0,2.11928101796,3.07337977009,1.2545292021,0.0,0.0,0.0,-1.92788539831,0.0,0.0,0.0,0.0,-1.58444521718,0.0,-0.564583305185,3.3839710818,0.0,0.287640683947,0.0,2.70755473588,0.0,0.0,0.0,2.38658987159,0.320370925798,0.0,-0.804614250258,0.0,0.0344761930911,0.0,-3.9051741074,0.0,0.0,-3.15810794799,4.02594916756,1.51289207209,0.287202615235,-1.10630679867,0.0,0.0,-3.62136366504,-1.35459799052,0.0,0.804774088978,-4.34343870053,0.0,4.31408222735,0.91522459646,0.0,0.454316949187,2.97847119104,1.18643176826,0.0,1.95229538813,0.0,-1.49544598075,3.75703067599,2.30901783811,0.32532791059,0.0,-0.507941992849,2.33172823021,0.0,2.20863023268,0.0,0.0,0.0,-2.35302698381,-0.543473951841,5.99322171683,0.96716725432,0.0,0.46023244712,0.0,-1.49846664008,0.0252377359164,0.0,-0.182257356385,0.0,-3.51089599093,3.34246237263,0.0,0.0,0.0,1.81918944422,0.0,0.0,0.33131600142,-0.217925201548,0.962050755469,0.0,2.87658966621,0.0,-2.82277797598,0.358882522142,0.0,-1.58614076741,0.0,0.0,-0.493775401416,-1.29809211752,0.0,0.0,0.0,1.14969182676,0.0,2.10194070625,0.0,2.22893845927,-1.58166317067,0.0,3.22568643026,0.0,0.0,0.0,0.0,2.55410245954,-3.49690115374,0.0,1.34434693384,-2.11787933305,0.0,2.250311591,0.0,0.0,0.0,0.0,0.0,0.656702676768,-1.86300759343,-3.13608908719,3.46625770035,0.147337242538,-2.01607132672,0.0,0.0,-2.03894463798,-0.785362521412,0.0,-0.14030923838,3.44115561909,0.0,0.0,0.0,0.0,0.0,0.0,3.33979418335,-1.78865737369,0.0,0.0,0.0,-0.212449123261,0.0,-1.38252276114,0.265023256443,-0.620087699016,-0.368978429259,-0.44422408427,0.0,-0.180015592643,3.53535635121,0.0,-0.0848036107637,-3.3063301626,0.0,0.0,2.19822964914,1.71244341733,2.35282897475,-3.08887140531,-2.66287605644,0.0,0.0,-1.90278404458,0.0,-1.06805357036,0.0,0.0,0.0,-1.94369673129,1.4642654814,0.0,1.75521901367,-0.532740177734,0.0,-3.03177726446,0.0,0.438251935977,0.0,2.66535746681,0.411173111955,0.20434657136,-1.17598273943,-3.48658037735,0.0,1.2973131795,-3.21686928411,0.0,2.43798749282,1.0939547653,0.0,1.6034736104,-2.93102639937,1.37321700548,0.0,-4.11928146141,-0.225867116404,0.0,0.0,-2.18547150367,1.64488206002,-1.21596894299,-0.407394869271,-1.56419697338,0.0,0.0,0.0,0.0,-0.633333066307,0.0,-2.48036442026,-0.0144631050422,1.3524207626,0.405191894265,-1.22402456116,3.12307405438,0.0,-1.78242572567,-2.34562289811,-0.791556901996,-1.93910327033,-1.11100025851,0.0,1.92498546083,-3.91303845021,0.0,-1.97775315818,0.0,4.35139999684,1.00128163606,0.0,0.0,0.298682521874,-1.78315433461,-2.24586327588,0.0,-3.679097428,0.0,0.0,-1.15491731153,-0.3015641002,-0.192037528329,1.44215475003,1.1407514305,-1.90253118391,0.82091622063,0.0,0.0,0.0,0.0,0.0,0.482077106721,0.0,0.0,0.0,0.0,0.225470102505,0.720386292605,-1.28022163583,-2.59988215767,0.0,0.376229905669,-2.35580687621,0.261506360118,-3.52213936056,0.0,0.0,-2.50636717419,0.0,-3.1593915299,0.0,-2.98754048833,1.37424711114,0.0,-3.65783264466,0.0,0.288551011632,0.807825583307,0.0,-3.06905869083,-0.355684931149,0.0,0.0,0.0,0.0,0.0,0.0,-0.0278322076944,0.0,0.0,-2.11329020393,0.0,0.0,-1.12838813189,0.0,0.0,0.826724458692,0.677876627243,0.222430626143,0.0,0.334667032186,-5.35024847994,0.0,0.613952250195,0.0,0.0,4.92162693585,0.0,0.0,0.0,1.19202875914,1.32072253649,0.0,0.0,0.673176298164,0.0,0.0,-3.3527036203,1.53493079659,0.0,-2.0761558378,-4.02866943248,0.0,-0.550639865717,-0.41231030851,0.0,0.0,-2.82482946233,-1.81624521544,2.27963832973,0.213325918657,1.3156761437,2.60174578963,3.76218732807,-1.62358336808,-0.110120577076,-0.973036737931,-8.0094287504,2.72661405132,0.434880077402,0.0,0.0,-2.60419885566,-1.3235913992,-1.81830916761,2.18547150367,0.0,1.18319773294,0.195057125327,2.54993120418,0.0,0.0,1.48619132468,0.0,0.0,3.36703436449,0.0,0.335539468133,0.0,-1.46216191992,1.62064100876,1.46911039435,-1.34244317046,-0.133996133389,-2.94922956652,0.0,1.94222107579,0.0,0.0,0.0,0.0,2.24509643749,0.0,-0.536169875922,2.27076681575,-0.213275774732,1.51287276513,-0.213188839769,0.0,-3.2193015854,-4.19816731174,0.0,1.0154924667,-3.6223036278,0.948745027956,1.789491047,-1.3968872735,-1.29547181751,0.0,-0.271850026249,0.0,-4.68142216331,2.02679609659,0.970816595809,0.0,0.0,-0.198765879052,-1.27302480402,0.0,0.0,0.564168048138,0.0,0.0,-2.25763571391,-1.54840832165,1.45815686047,0.0,0.0,0.0,-2.92831629613,0.0,0.0,0.48897259699,-4.34692993608,-0.432876485285,2.75451372925,0.0,3.14008442352,0.0,-0.315700770892,1.17148428681,0.0,0.0,-1.24188243661,0.0,4.11574763023,0.0,-2.37635959523,-2.0135282078,-0.839862822545,4.17961724707,0.0,0.269446641922,0.0,0.0,0.0,0.0,0.320388965778,0.0,0.0,2.0477741155,-1.55918283749,0.0,0.0,0.0,-1.72188095751,2.11211963833,-1.63883499066,-4.23227581709,0.0,0.0,0.0,0.0,0.0,-0.773362531366,0.0,6.82544506306,-0.754352204297,-1.48287022238,0.0,-0.681396031801,-3.1016681333,0.0,-0.228247750374,-3.83517941537,1.95096099776,0.0,0.975859229774,0.0,-3.32186978302,0.0,0.812703203344,0.0,-4.40141273544,0.0,3.93162994402,-2.74559087163,0.0,-4.01455700478,0.0,-0.10437517685,-2.39651600153,4.29533210907,-2.32625506784,-0.989940823481,0.0,1.31336263517,0.0,0.0,-0.151425967881,-1.03471151433,2.63001500336,2.92301825381,0.0,0.808952298643,0.0,0.0,1.41456231449,0.0,-0.996343114912,0.0,-0.41760137044,-0.52522902323,2.39687099381,-2.33091542592,2.02870354496,5.10133384703,0.425351140822,0.0,0.0,0.0,-1.8127724129,-0.839831860213,-1.20600822421,-0.884067630558,0.0,0.0,2.69559120242,-1.7650693742,2.57302748756,-0.20834885769,2.69910537479,1.52613499665,0.340925189812,-0.554901227655,2.18547150367,-1.66937625085,0.0,-1.94882157621,0.0,-1.20987785926,-0.366072853021,-4.69175203621,0.399337247847,2.10317252749,2.07879095121,-4.55134355046,0.0,-3.6487780787,0.0,0.0,0.255390163674,2.03723610716,1.06668204999,-1.10884631776,-2.04395227542,0.0736691669379,0.172689089261,3.99196861636,-1.24628462813,0.0,-0.844131990571,0.0,0.369323375166,2.30091143911,0.0,0.0,1.05504290108,0.0,-3.45108004432,3.88526359796,-2.92237117017,0.0,1.37308705536,2.2174341977,-0.303608829469,1.96099424205,0.184259323424,0.0,-0.587457238917,2.30492875007,3.76486361691,0.0,-2.75303225875,-2.44024691152,0.0,1.64698416296,0.0,0.0,0.0,-2.3890540541,-0.335467261008,0.944073470756,0.0,-2.62592330371,1.36264167371,0.0,0.0,0.0,0.0140099770468,-1.94555397219,0.0,0.539554109397,0.262355699367,0.0,-1.23883000254,1.41582250557,-0.552785536626,0.0,0.0,-1.37574076399,-0.4093777709,0.749378725198,-2.20250546876,0.0,0.0,0.0,0.0,0.0,0.765686288378,-1.17173683198,-1.82926943031,3.54132036482,0.0,0.0,0.231483058648,0.0,-3.50944516097,0.0,0.0,0.0,0.469764803833,-2.18547150367,-0.0177971363357,2.08519792049,-0.449582901226,0.513871456082,0.0,-0.547224617613,0.0,0.0,-3.02361682971,0.0,0.0,0.0,-2.96417141595,-0.714352606647,-2.53330539173,0.0,0.436619250821,2.71814711869,3.93104976532,0.056122778512,-0.386110758438,0.0,4.62774229974,0.0,-2.9176367118,-1.39251880394,4.4854228696,1.22951553582,0.0,-1.25306320699,-2.7992923096,2.44651679404,1.6423530151,0.0,-0.607570599969,0.0,2.99089508002,0.0,2.37333372316,-3.06362380851,0.0,3.58293307992,0.0,0.0,1.56986260737,-2.00811410865,0.485166354125,0.0,0.0,0.452195598118,-1.67733490996,-2.04446161812,-3.36843053436,0.0,0.0,0.0,0.0,0.0,0.0,0.0,0.0,0.0,0.311941477724,2.99553101508,1.05681074684,0.0,0.0,0.367038318897,0.0,1.099482229,0.0,0.0,1.29067880977,1.07569072837,-1.28955613544,0.839483952486,0.0,2.09876081747,2.75371278,-6.4765617345,0.0,0.0,-2.96738131227,-2.15765997016,0.00834831717927,3.44539393254,0.0,0.0,0.388694002625,0.0,-3.97483389252,0.0,0.0,-0.219558667886,-2.37689305226,-3.29652917133,0.0,0.0,5.15982043611,2.59853014187,2.58676983718,0.0,-2.56030674544,0.0,1.55104803474,0.647219299546,-0.395475656723,-0.415174836146,-0.505822217789,0.0,-2.52023997353,0.0,5.27764467952,0.90346699921,-0.613788585159,0.0,0.0,0.0,1.82629132632,4.69261461078,-2.59264470712,0.0,1.79216319102,-3.39339313238,-0.0571165904577,-0.14270794208,-1.26428229251,-0.805481182151,2.81843313157,-1.80912579013,-2.56464397261,0.0,0.0328498419575,-0.502415541079,-4.95967480461,0.0,0.0,0.0,0.221221482745,0.0,0.0,0.0,0.0,1.03899514028,0.0,0.411479062447,0.520155776495,-0.125080814015,1.10082574178,-0.186771423963,0.421351356162,0.0,0.0,0.0,-1.28635413458,2.3178705453,0.0,0.3484188476,-3.76879160941,-0.943470273221,0.0,0.0,1.02570970117,3.37645533663,0.0,-1.38322431581,0.792393924603,3.34136772758,0.0,-3.096941588,0.0,0.377933236679,0.0,3.80496112626,1.62181276882,-0.428172199498,0.0,3.21404209068,0.298176004103,-1.28438213204,-1.51769864792,0.0,0.0,0.0,3.23783192004,0.0,-2.15019709576,0.0,0.0,0.0634340549008,0.0,0.0,1.69199589882,-0.366072853021,1.96818996428,2.75804312783,0.0,0.0,-3.38746853104,-1.66112622642,0.0,2.52274062076,1.97259895327,-1.09067079928,0.0,0.0,0.0,0.872584298548,-2.39564232459,-2.86444715961,1.8388547705,0.0,-1.93251139388,0.730529275714,0.0,-1.18765871985,-1.53667674003,-0.511066524155,-1.73331725407,0.0,0.0,3.15428934223,0.0,-1.70779047067,0.0,0.0,0.0,0.0,1.41715866709,0.0,0.0,3.2815422076,0.0,0.0,-1.82837615556,0.0,0.0,0.0,0.802457586732,0.0,0.0,2.40878014218,2.62473851357,0.0,-2.0145709897,-2.17746844334,0.0,2.20247930269,0.0,-2.34608864181,2.39807781142,0.0,0.0,0.705486406242,0.0,-6.10788284845,1.92468366296,-1.64123832114,0.0,0.0,0.344883024475,-3.43944407519,0.0,-3.33819726578,3.57008184712,4.01755826389,-2.19477085964,0.0,-1.30300309216,0.0,1.06996708681,0.0,-2.04522474334,-0.856302258231,0.0,-1.56459284055,0.0,0.224305989633,0.0,0.0,0.0,3.37458798056,2.30432846007,3.03438386275,-0.427383532732,0.0,0.0,0.0,0.0,0.0,0.0,4.84618235515,-0.0806990645826,3.80582766518,0.0,0.0,1.83793320858,-1.91330870498,0.0,0.219381563817,0.0,-0.27117323204,-5.4358842908,1.123042056,0.242335098305,0.0,0.0,0.0,0.0,0.0,0.635274614275,0.232441818325,-1.99079564719,0.0,-0.803876112115,3.23440001167,0.155514829524,0.0,0.0,0.0,-2.85337301023,0.0,-2.41901296754,1.43218936829,0.0,-3.2727703025,-0.130672249797,0.0,0.0,0.0,0.0,0.0,0.668661974219,0.0,2.06722554267,-2.11777146582,0.0,0.970938919673,0.156563274219,-0.486492570329,0.0,1.02250247636,0.0,-0.116988901798,-0.150048484021,0.0,0.934149499608,2.79699739301,1.56255130209,0.0,0.0,0.0,0.0,-0.999452533971,0.0,0.995406751588,-1.57310024833,0.202339453126,0.0,1.27648941319,1.33958040882,0.0,0.730357895953,-1.12387359373,0.483946381985,-0.273986751353,0.0,0.0,-2.68626231816,-0.168111555822,0.0,-3.98938278628,-1.4740634283,0.0,0.0,-3.71302643826,-0.087195630855,0.397991565032,0.0,0.667374054637,-0.516889971965,-1.40633181099,-3.96642980499,0.0,0.106718100761,0.0,0.0,0.87974839316,0.0,-1.73905513851,0.0,-1.16465757383,0.0,-0.292613102949,2.97384412397,0.0,-0.465546451184,0.0,-2.95540168257,-4.93351622197,-1.59969595362,-2.75694542831,-2.84668304026,0.0,0.0,0.0,0.0,-3.33114063147,0.0,1.80408996021,-1.20128739041,0.0,-1.06342899587,2.07234373771,3.50687990157,-2.86394280757,-1.41729202357,0.0,0.0,-3.93424162714,0.239857794354,0.0,1.5231149423,0.0,0.0,-2.72063129006,0.0,0.0,2.40112729914,0.0,-1.0795506332,0.0,0.0,0.0,2.71827502622,-0.164869906031,0.0,0.0,1.58528311022,0.446233759422,0.0,-0.800525611375,0.0,1.07379664981,0.0,2.07156059178,-0.415869427655,0.0,2.38130614538,0.0,-0.141059364264,1.30493413276,-0.318838038748,3.38966637812,-1.12973783113,-1.54770115963,0.0,0.0,-0.202751737664,0.0,0.0,1.68513679291,-4.27176520342,0.0,2.29545711339,0.0,0.860386370285,0.0,2.39920888517,0.0,3.03769450394,0.0,0.0,0.0,2.6638665687,-3.99947900945,0.0,0.0,-0.1609143151,-1.1420711554,0.416900825442,0.0,-1.08032277532,0.0,1.35878529531,0.816825102025,-0.077107762916,0.389555635619,0.0,2.36856877261,0.0,0.0,3.53517142369,0.0,-0.22030723074,0.0,0.0,0.0,0.0,-1.37034915188,1.04417893811,0.0,0.453180793423,1.16986222842,2.49621319349,0.303365224943,0.513238515518,0.0,1.72472409313,0.0,0.0,-1.53144357549,0.0,0.0,0.0,2.15685157917,1.29409293264,2.6029337122,6.84720645109,-2.6639627134,-2.3741580941,0.0,-2.35011076956,2.14320650695,-1.04653558685,-0.375886116289,0.0,-0.558140682701,3.01897790394,-2.54778375474,0.0,0.482659895507,-3.09351445372,-0.41784366351,-2.22525123878,0.0,-1.22638340479,0.893367003076,0.0,0.0,0.0,0.0,0.0,0.0,0.0,-1.58893713793,3.56450542977,0.0,-1.23504501595,1.87127744511,0.0,-2.15915685918,3.52320248214,0.0,-0.350521357467,1.690754806,0.0,-0.510616230073,0.0,1.36943788194,-2.19139879831,0.0,0.0,-3.69019423661,0.0,0.0,-2.02624700845,3.80582766518,-0.43127270544,0.0,-1.537552814,3.60851175567,-2.58505170155,0.0,0.0,-2.78427649919,0.0,-0.319281563021,0.0,0.0,-1.04806345237,-1.01014884175,0.0,0.0,2.69349309512,3.18706269028,0.0,-1.60655930663,0.0,1.27509152287,1.23693760308,0.0,-0.628444751377,1.0156136284,1.19654595792,3.02136546636,0.0,0.0,0.0,0.0,0.394456952201,0.0,0.0,0.350682611333,0.0141264326331,3.21036170073,-2.51095542986,-4.81056525102,0.0,1.73346934306,0.0,2.64273431692,0.0,0.0,0.0,0.665672601441,1.49343289172,-1.97430272761,0.0,0.0,-0.391345271824,0.0,2.53200752588,0.0,-3.73585302383,2.93576455406,-0.689620092834,0.631853173269,2.9146528452,0.0,0.0,1.60166118452,0.0,0.0,0.987750797572,-0.133730552011,0.0,0.0,1.49265335664,1.50092011485,0.0,0.0,0.0,-2.343853912,1.30402393643,0.677077644733,-2.90010205305,-2.31429499222,0.0,0.0,0.0,-1.44012137452,-1.49793035228,-0.0489531399689,0.0,-1.06616894157,0.0,0.0,0.0,2.65699752543,0.0,2.96546870014,0.0,0.0,1.09833409177,5.02132174663,-1.1735350006,-0.444022305571,0.280716660891,-0.290876487035,-1.3173266391,0.0,3.34832109017,-1.8363328343,1.00426590982,-0.759548391596,0.994334988109,0.0,-0.636392284441,0.184802294137,0.0,0.0,0.0,0.0,-0.938027782128,0.0,0.0,0.0,0.0,-1.86771805381,0.395802827722,0.0,0.0,-0.619286822983,0.0,-0.802241820357,0.0,0.0,0.0,-0.0527178131332,0.0,0.0,0.0,0.0,-2.63685767593,-1.07020615396,-1.18072175313,-1.20649575789,1.49186950486,-2.71925181455,4.86015957629,3.63277190508,-2.8471296458,0.0,0.0,0.0,1.37868496449,0.581746612539,2.87753747702,-0.978232210261,-1.44486813851,1.16617324054,0.665330950224,0.0,3.11175691973,0.767858915606,-3.59286024739,-3.71287430888,-1.34443589399,0.0,-4.2394207894,0.0,3.27851838359,1.0947672452,2.88856946334,-0.0886808602819,0.429167266457,0.0,0.0,-3.76647603141,0.0,0.0,0.0,-0.443215783812,2.97446310309,0.745067658254,0.0,0.0,0.0,2.59945450501,-2.38053181587,0.0,0.0,0.0,1.16613081503,0.984398381094,0.0,-1.20387720892,-2.81671409752,2.23029019655,0.0,-0.286743589574,0.0,3.11991269408,1.19426378566,1.50253790323,0.0,0.0,2.19506883524,-0.556823418871,0.479016582988,0.0,1.10082574178,0.0,0.0,3.07266350443,-2.70897642906,0.0,0.0,0.0,0.0,2.80162578692,6.05783542579,0.0,0.0,0.0,0.0,0.732487781661,0.0,0.0,-2.09772320855,-1.04954897924,0.0,4.19969729848,0.0,0.0,-1.63870067415,-1.01215362083,0.0,0.0,0.0,-2.60328785376,4.51059052968,0.0,3.25160944264,0.0,-2.6327642882,0.0,0.0,0.0,0.611102979722,0.0,0.0,0.0,0.0,0.0,0.309460667937,-1.34570722572,-0.241806125135,0.406572530571,1.29547239467,0.0,-2.72448648093,0.717787969458,-0.387206111445,0.0,-0.409419716576,1.11395635921,0.594994507203,0.0,0.0,0.0,-4.65054721302,1.44214751066,-1.92345931482,0.0,0.0,-3.64931913704,2.04483714094,0.0,-0.0781798172577,-1.71132678406,0.0,-4.07909403549,0.0,1.88780235435,-1.63022172329,0.0,-1.08883858648,0.0,0.0,-0.423795929442,1.99037500333,1.36174894312,1.2197407251,-2.56348440599,2.53290754312,-1.9923751229,0.0,0.0,-5.03337141475,1.18632265477,-0.0447374610519,-1.21082985705,-0.44175014281,-2.3475370434,0.0,0.213112599836,-3.14176466514,0.0,1.27663145768,0.0,1.54083996033,0.0,-1.56991717981,0.0,-1.20287286759,0.0,0.0,-1.43871037199,-2.616453699,0.0,-1.20057860947,1.53918140027,-0.649365929122,0.0,2.01817970199,-0.251980404117,1.51428040897,0.0,-2.53170165668,2.08407378777,0.786614363573,2.26434834316,0.0,0.0,0.0,0.0,0.936048017048,0.74359490915,1.88549271642,-2.40816816775,0.0,0.0,-5.42405788085,-2.90173698165,1.38373007732,0.0,-0.187448961839,1.96382055522,0.0,-2.36529213391,-0.028296301044,0.0,0.0,1.23807104965,-0.0450631099303,-1.85697947703,1.28979630994,0.0,0.0,3.22267498546,-2.91778381864,0.0,0.0,0.0,0.0,2.74932125572,0.262634992437,-2.53733573049,-1.96580433315,2.46147701021,0.0,0.0,0.0,-0.193546461545,0.0,0.0,0.0,0.0,0.718798524643,-0.4894034556,-1.89070589688,-1.31489347521,-0.879202173536,-3.38172284164,-2.46445851254,0.0,0.0,0.0,0.0,-6.07860440758,-0.580682669688,-3.22345754369,0.0,0.289874289271,-0.811252898204,-1.56806911194,-2.2945904194,0.0,0.0,-2.49842720089,0.0,0.0,0.0,-3.95115295126,-4.03758424443,0.0,0.0,-1.63513681964,1.07184792887,0.0,-1.26145614884,0.378455818986,0.0,0.0,0.0,-0.614897188749,0.0,1.23506781693,0.0,0.0,0.0,1.91722363569,-0.63126822875,1.17398487273,0.0,-2.21116451719,-2.74732392951,0.0,-0.775608423926,3.34181662405,2.11240812608,0.0,0.0,2.72928394695,0.0,0.0,0.104975505347,0.0,-2.96933577605,1.68071866794,-0.889517369229,1.24773544623,-1.02892472864,2.95941113671,0.0,-1.28353483258,0.0,3.74959211913,-2.5420875231,0.0,3.45726703047,0.40214669305,0.0,0.565352717202,0.0,0.0,-0.252358532,0.0,-0.840114328956,2.83668536971,-6.39366182866,0.0,0.0,0.0,0.0,-0.300538521199,0.0,0.41968773227,0.0,0.0,0.0,-1.93764210361,0.0,0.0,0.0,0.0,-1.01794447931,-2.22623614382,0.0,0.0,0.0,0.0,1.9900801685,0.0,3.312830522,0.0,0.613603524191,0.0,2.44848630313,0.0,0.0,1.1036222263,-2.31220566417,-5.65138665164,-0.331144743281,0.503424812538,-0.207268999851,0.0,0.0,-1.94644684648,0.459646262287,0.0,2.37016917298,0.0,-0.859902609149,0.767494865959,-0.184433805549,0.0,0.004377202112,-1.873433598,0.0,-0.187735894887,1.41567161461,-2.9031718669,-0.446432622549,0.0,-0.166322846367,0.0,-3.14928821309,0.0,-4.01323884551,1.50254406457,-0.756986845378,-0.219251599576,0.0,0.0,-0.297161492237,0.445983741951,0.0,2.78254822544,0.0,0.0,0.0,0.0,0.664063721526,0.0,2.33352310202,0.0,0.0,1.7831496493,1.0453101746,2.37709501919,2.07684483055,1.55935847972,0.347637778684,0.881251270122,-0.304615843583,0.0,0.923760271178,0.0,-0.0588023097003,0.0,2.25709512171,0.0,-1.21940709877,0.0,0.0,0.0,-2.94452454167,2.55376963681,0.0,0.331051357088,0.0,0.59310301491,-2.67970080061,-0.0188032747929,0.0,0.351730189447,0.0,1.22017566238,0.0,-3.13908497021,1.1327867743,-3.51265721291,0.124931261854,-0.271727830863,0.0,-1.0234128766,0.0,-2.65255811143,0.0,1.25515014278,-0.883369894335,0.0,0.0,-0.284305014428,0.0,-3.07868659934,-2.0837218311,2.66137445899,0.0,2.65864764368,0.0,0.0,0.491409841499,0.0,0.0,0.0,-2.50785222021,-2.56056630836,0.0,0.0,0.0,0.939051627641,0.0,-2.20089848468,0.0,1.94314667138,0.0,3.71019901262,0.0,0.0,0.583855828314,1.25639819452,0.0,0.0,2.9372993632,-2.15262518673,0.0,3.72900957913,0.826647120136,4.07996420568,0.0,0.0,0.0,-2.21973610529,1.49385581611,0.0,1.1073194319,-0.703518140379,0.0,0.0,0.0,0.61598700654,-3.98319376974,-1.53946671579,-1.8395092957,0.0,0.0,0.0,-0.371814255999,1.99434284456,-1.52272605001,-0.392542838708,0.553298773336,0.0,-3.1957565553,0.559543245586,0.0,0.0,0.0,0.0,-2.14160702315,0.0,0.0887477568705,-2.6287891986,1.27421224715,0.0,-0.40994891854,0.0,2.59460336039,0.0,-0.796689211344,0.0,1.6118421462,0.387826978158,0.0,0.0,-0.298288467627,0.0,0.0,0.0,0.0,0.0,2.32487776449,-0.117247194849,-0.084045890117,0.0,-2.88799842002,-3.43013353954,-2.64646978652,-2.49488903277,1.27363655322,2.3552565676,3.009041092,0.461622397717,0.0150404058027,0.0,0.950450120556,-0.944012734096,0.0,0.0,0.767007301478,0.0,-4.06510640356,0.0,0.0,0.0,1.23883741239,-2.43648529221,0.0,0.0,0.670526912399,0.979046130897,2.986968687,0.639084979725,-0.229672499581,0.0,0.0,-3.32483845796,-1.47543757613,-3.19376472651,0.0,0.13154118676,-0.950462467868,1.47221221346,0.0,0.0,-3.7751549512,3.47770432228,-3.34657873913,0.873302830697,2.16028852805,0.0,2.44600086233,0.0,2.3463479147,0.0,1.5739185049,0.0,-0.866486454784,0.0,-1.18058928262,-0.13986121221,0.306471536259,0.0,-0.936217624949,-2.69197300276,2.08107477339,0.0,0.0,0.0,-2.43391810336,3.802646457,0.381819181699,0.899734038922,-0.948856950208,-2.28620690825,0.0,0.0,-1.37827306716,3.6909857253,0.0,-0.477396125628,0.108971231427,0.0,0.217176618085,-1.55965800476,-2.91828295243,3.33352398374,-1.11301847219,3.6454112715,1.01418997897,-1.8480587568,0.0,0.0,0.0,-0.549391449274,-3.99113155725,0.0,0.0,3.13747382008,-4.51909142983,-1.7063306161,0.0,-1.57812861518,1.24630556586,0.0,0.83669982305,-1.01247712627,0.0,0.0,0.869444051268,0.0,0.0,0.0,2.14954973352,0.0,-3.82900707961,-0.272682502225,-0.0743788973411,-2.24370510718,0.47088295981,0.0,1.8794055626,1.7713232963,1.15168133199,0.0,0.0,0.0,0.0,1.43046345926,-4.27198262623,1.08850899914,0.951282842926,0.0,-1.32048041681,0.0,0.0,1.36571947329,2.13419301377,0.0,0.0,-0.780324684904,1.20962720139,-0.99633854812,-0.564011603357,-0.884768878849,0.0802655828423,-1.38897746278,0.0,0.0,0.0,0.0,2.49547000273,0.0,0.0,0.0,1.24213395528,0.0,0.0,1.03822210696,-0.745023726893,0.0,0.428585599699,0.0,0.0,-3.46246891603,-1.82902992535,0.0,-1.12153993845,1.5791707473,0.0,2.44526899544,0.0,-0.893413055074,0.0,1.53996107711,0.895877324687,0.359574059534,2.98372337565,0.0,0.0,1.63516605422,0.0,0.0,0.0,0.0,-0.930444276458,3.76546288058,0.0,0.0,2.2691352576,0.0,3.23203708385,-1.26522679754,-1.71150449119,-1.46504704097,0.0,2.04992172308,-1.52496920438,-2.47962101812,0.0,1.68552394606,-1.29912626848,1.36041467111,1.39933150701,0.0,0.0,0.0,-1.43234727028,-1.1420711554,0.0,0.0,1.39521614095,3.63760266326,0.0,0.0,2.66521342323,-1.10432328406,-2.80590911423,1.83926166715,0.0,-2.00740384597,0.0,0.0,0.599854507036,0.0,-1.89748318697,0.0,-1.71351140923,-2.90011331027,0.0,0.0,0.0,0.0,3.38680194989,0.0,-2.45191858555,-1.22884179096,0.0,0.0,4.22047293774,0.0,2.07757881496,0.0,-0.285392227414,-0.186349665885,0.0,0.621009348791,2.6364299952,-1.2247061354,0.0,1.11161985433,1.06511302855,1.77901171876,0.0,0.0,2.20130022676,2.73275981172,1.04519236262,-1.80338363274,0.193889539646,-4.44566570254,-2.26374752716,0.0,0.0,0.0,-1.69045031256,0.0,2.32588432272,0.0,0.0,1.07936182067,-1.42066176373,0.0,0.0,2.34486846297,0.0,-5.31801772253,0.0,0.0,0.0,2.55288652276,0.0,2.17959661374,0.0,3.37523162138,2.19859522164,0.0,0.0,0.0,0.194439359191,0.0,0.678694182429,0.0,0.0,0.0,0.0,0.0,0.0,-0.791645537811,-0.229491062085,-1.09177908211,0.902688040362,-3.06046108067,-1.27199847585,0.0,0.0,-0.188902329544,0.0,0.0,0.0,0.0,-0.585546521157,0.0,1.42556527169,-0.401637789519,1.31569557705,-1.4784958409,0.259988552998,-1.99480676996,0.0,0.0,1.73890832935,-0.474235061008,0.0,0.0,-2.71180816711,0.0,0.0894765959563,0.0,-0.10450143357,0.0,-0.0972005809814,0.0,-4.185334281,0.0,0.0,-1.66719165687,-1.02358454178,0.0,0.0,0.0,1.51086352415,-0.206940736424,0.0,3.59188880075,0.0,0.0,0.913996801092,0.0,0.0,0.98963825858,0.0,-1.46123473806,0.271894923798,0.0,0.0,-1.56018017942,0.0,0.0,0.0,0.0,0.0,-0.68149900753,0.0,0.0,1.48182533625,-2.18547150367,-1.11240081672,0.0,0.0,0.0,-1.00710160416,1.0136428385,-1.6275593452,-2.18547150367,0.0,0.0,0.0,0.27430896933,0.0,0.0,-0.265154757434,-2.67360478118,0.0,-0.886842762828,0.0,0.0,-0.626372589507,4.17975538574,0.0,0.0,1.22827735254,4.96072603984,0.0,0.0,0.0,0.0,0.0,0.0,0.17104159647,0.0,0.0,1.09965702421,-0.210774148202,0.0,0.449615050104,0.0,0.320388965778,0.0,0.0,0.0,-0.807274331468,-0.49685040091,2.23627514543,0.0,0.0,0.0,0.0,-2.6375847567,0.0,-4.53665657787,2.51126509302,0.0,0.0,1.23807104965,0.0,0.0,-0.0954218417803,0.0,1.10456129759,0.0,0.0,0.822527100545,0.0,1.60994118384,0.0,-0.71116346647,0.0,0.0,0.0,0.0,3.37720735159,0.0,-1.13146146904,2.67661194051,0.0,0.0,-1.03323876827,-2.94960378471,0.0,-2.27489409215,0.0,-2.7990670246,1.19102996233,0.676164007954,1.40372559089,0.0,0.0,-1.18719321227,0.0,0.0315292382509,0.549307005921,0.0,0.0,0.0,-1.55054084673,0.339328278847,0.913870199466,0.0,0.858204362817,0.0,0.0,0.0,0.0,0.0,1.74692593667,4.3612598296,-1.35780262065,-0.163833067372,0.0,0.0,1.51386881644,0.0,0.850817153584,4.51717130083,0.0,0.0,0.0,-2.32196910007,0.0,0.0,0.0,-1.93008024398,1.7592203255,0.0,0.0,0.0,0.0,0.0,0.0,0.0,0.0,0.0,0.0,2.1223051048,0.493472084265,1.40774786749,-2.20921385181,0.27628163076,0.0,0.116138934872,0.852086125302,1.51829974852,-0.0763105337607,-1.09325437846,2.3021190883,0.0,0.0,-1.19749343083,0.0,-0.473495054636,4.20255676262,1.51086352415,-0.43147585062,-0.848883958086,-0.663511833972,0.261273556275,-0.785325147296,1.14901778043,0.0,0.0,1.77382933359,0.0,0.0,2.55502827602,0.0,-1.17785372995,-0.181408394552,1.4808789498,0.0,0.0,0.0,1.96992846288,0.87974839316,0.0,-1.67981964121,5.63855930942,-0.193619255554,-0.183606971229,0.0,1.64750674222,-0.0800399188985,0.0,0.0,-1.26626235086,0.479449713267,0.0,2.39540702068,0.0,0.719295454441,-0.884338482442,0.0,2.63836419063,0.767206251965,2.40879239165,0.227936335049,0.0,-3.54294527491,4.6842185632,-1.75330868731,0.0,0.0,0.0,2.27685188134,-1.13879793501,-3.53115133565,-1.19842905563,-2.69805620256,0.0,-1.36933520012,-1.08705774535,-0.249074703737,1.56045044569,-0.98522816116,0.0,0.0,1.57989236295,-0.219730617406,2.23057234867,0.181731958723,0.0,0.0,0.0,0.0,1.57603028552,1.31941013181,0.0,-0.0497027270894,0.0,-0.318551649913,0.0,1.50962759247,-0.589218694885,2.44962777763,-1.49129256111,0.0,-0.241806125135,2.19776828415,-0.469820005477,2.3571342475,-3.63498874022,1.43218936829,0.0,0.0,0.0,0.0,0.394757342567,0.0,0.935436285241,0.0,2.18547150367,2.32072321997,-0.237317353705,0.0,0.0,1.07625041344,0.154647636435,0.0,2.96810873638,2.83315180631,0.0,0.0,-2.55432794838,2.25925415655,0.0,0.0,0.0,0.0,0.0,-0.190828092313,-0.71503507918,1.1555541152,0.441104213546,-1.29698949199,0.0,1.02205668927,0.0,1.63502848308,0.0,1.6698148803,0.432707584629,0.0,-0.0763810711345,-4.60568142309,1.25395638389,0.0,1.69481555474,0.0,0.0,0.0,0.0,-2.41353713308,0.0,-3.87844085237,1.1183691859,0.0,-1.10752798373,0.964398216828,0.0,0.0,1.44357050589,0.0,0.0,1.80994839003,1.06362352511,1.46345389863,0.0,0.0,-3.23617032445,-1.50831337146,-1.98563100061,0.0,0.0207134563042,-2.01637384015,2.68419471223,0.0,0.0,-1.37423708625,1.71435368689,0.0,0.0,0.0,0.0,0.0,0.992296181443,1.19856450448,0.0,0.0,1.18758749404,-2.0999517751,0.0,0.58184874997,2.8106876714,0.0,0.0,-2.94864352401,0.0,-1.40037036349,0.478732449673,0.0,-1.27863899368,0.0,-2.44693914135,-4.75787319704,0.0,-1.47984194986,3.77718015924,1.48266979575,-2.34471116417,-1.79591305147,0.0,-3.1752259409,0.0,0.753897359504,0.352574790386,1.98202366901,-0.279645585618,0.998996812911,0.0,0.0,0.0,0.0,0.221860357358,0.0,1.29614043894,-3.2306865775,-1.24960816562,0.0,0.0,-2.56374590896,-0.945405017108,0.0,0.0,0.0,0.0,2.6353862231,0.0,-1.35263525729,0.0,0.0,0.0,-0.249074703737,2.54240661002,-1.62959773961,0.0,0.0,0.0,0.0,-1.13397633641,0.0,-1.47589499761,-2.29426603742,1.55666039571,0.0,0.0,-3.41174019811,0.0,-2.55057322623,0.0,1.47868431525,0.0,1.91739418513,-1.03692913054,0.59310301491,0.0,0.267696592245,0.0,-2.62807390101,0.0,0.0,0.0,0.0,0.0,-2.5760270936,0.0,-0.18589181894,0.0,0.533987822874,0.0,1.08747151628,0.0,0.0,-1.04238090206,-4.04153171028,3.46646680555,0.0,4.45757657361,0.0,-0.669875453867,-0.132088161015,-1.52447050882,0.0,0.0,0.0,0.219547219077,0.647070322194,0.756766653727,-1.51789509221,-3.17478473001,0.0,2.03773313791,0.0,0.795023435575,0.0,-0.181408394552,0.0,0.0,0.0,1.08666738595,-0.707080967671,-4.44592258591,3.14167820609,1.60316358868,0.0,1.06601020328,0.0,0.0,1.39264066493,0.0,0.0,-3.47262376741,0.181124628012,0.0,0.0,2.07758384239,-1.77177594543,0.0,-4.05988068156,0.0,0.0,0.0,0.0,0.0582580227223,0.0,0.690915346261,0.0,2.241225517,0.0,-1.53257950151,-0.780375939459,0.0,0.0,-0.0763810711345,0.0,0.0,0.0,0.0,0.0,-2.96032089001,0.0,0.0,0.0,1.56017911505,2.00002270563,0.0,0.0,3.95489287181,-2.43211636938,0.0,0.0,-2.12025465706,0.0,-0.915734478184,0.0,-3.60020465713,0.0,-2.38933730875,0.0,2.73782367678,-2.18625067626,0.0,-0.686630700104,0.0,0.0,-2.06324425514,0.0,0.0,0.0,0.0,0.0,0.0,-3.08240147213,0.0,-3.43631538264,0.0,0.0,1.20124475679,2.19485088275,0.0,0.0,-0.366665653073,2.2888827574,0.0,0.0,-3.3261480839,0.0,0.0,0.0,2.5979596923,-2.06149734803,0.0,0.0,-0.499245820375,-0.728458830896,0.0,0.0,-1.19898553458,3.4999769339,0.0,0.0,1.54186297426,0.0,0.525839123153,-0.0395478582915,0.131664378289,-0.295879481664,0.0,0.0,3.00641741045,-1.84107450648,0.0,-0.157275879297,0.0,0.0,-3.26543468617,0.0190297723718,0.0964456201999,0.0,-1.01304134719,-0.753779066529,0.0,0.0,-1.50497416957,0.505098738116,-2.73750338451,-3.76280764348,0.0,0.0,-0.745845203202,2.9041213758,-1.69065376205,0.0,-1.1360492241,-1.94898186883,0.0,0.0,-3.4958660323,0.0,1.72441771721,0.0,0.968609820078,0.0,-1.43267785794,0.0,0.0,1.98854112787,-0.102403686527,-0.409911429822,0.0,1.01389003778,0.0,-0.163110163998,-2.52146683988,0.0,-0.324803539763,1.042031653,2.01398540112,1.96957549369,0.0,0.0,-0.368036588893,0.0,0.0,0.0,0.0,1.25777028575,0.0,0.0,-4.91905245997,0.0,0.0,3.60538036846,0.0,0.0,2.11822508612,0.0,1.37925292093,0.0,0.0,-1.26607298959,0.0,-0.798567810369,0.0,0.0,-2.0876818296,-2.18922559921,0.0113963726402,0.0,1.24133696783,0.0,0.0,2.75425451779,1.73722358349,-1.30704356779,-1.36753107094,-3.71278395649,1.64751282512,-1.75571592115,0.0,0.0,0.271894923798,-0.102929534862,0.0,0.0,0.0,0.0,2.45294854322,2.39558814156,0.0,0.0,0.0,0.0,0.0,0.0,1.77156466863,0.852086125302,0.432707584629,-1.1988314705,-0.51283015496,0.0,-2.0671119932,-1.21392340156,0.0,-0.956359741597,0.82758878218,0.0840426192043,0.0,0.0,0.0,0.0,-2.28310245958,0.0,0.0,0.0,0.0,0.0,-1.55522522235,2.50695691528,0.0,-3.02514098741,0.0,1.22552168761,0.0,0.0,-2.65646892559,1.92568990325,3.03474326423,2.28604274515,0.0,0.0,0.367896164085,0.0,-1.05079451194,-0.493634957364,-0.687884871408,-1.48734412799,-1.31668842581,0.0,0.0,0.39973236945,0.0,0.0,4.70403119459,0.462422297911,0.0,0.0,2.62949374643,0.0,-0.173449353059,0.0,3.75424967702,-0.873500771086,0.68752004906,0.0,0.795219130167,0.0,1.79668532261,-0.947321388555,0.0,-0.661992769412,0.976003444955,0.0,0.0,3.17866782575,0.0,1.81073557476,0.0,-2.14468495304,0.0,0.0,0.0,0.0,2.4010652709,0.479449713267,0.0,0.0,2.20693554732,0.0,-2.56356081708,0.0,-2.04740331,0.0,2.25885846682,-3.93542275374,-1.98447882146,1.90650204904,1.78090506961,0.0,0.0,0.0,0.0,0.307630549751,0.0,0.0,0.0,0.915890239085,-1.09662694079,-1.39570566442,-2.50988910058,0.0,0.856305194297,-1.97410916937,0.0,-1.76674458891,0.0,0.0,0.0,-2.20436653812,0.0,0.0,1.20002868858,0.0,0.0,0.0,-3.10560940266,0.852086125302,0.949681797207,0.0,-0.944021820515,-1.0277320205,-2.52959890531,0.0,-0.447118945028,0.94563971985,-0.587324549343,-1.06523940668,0.0,0.0,0.0,1.76556304631,0.0,0.0,-0.599927581883,0.0,0.0,0.0,0.915894510471,1.98987751572,-1.60160349235,2.50432364024,1.04349578557,-0.850080884941,2.63551745873,2.50968736719,0.0,0.0,0.0,-2.66555071676,0.0,0.0,0.0,0.0,0.0,-1.0840454732,2.18168568238,-2.25940350926,-0.734660130123,0.0,-0.691115121791,-0.589718818249,0.697791864506,0.0,0.473450820622,0.0,0.0,-0.873283862356,0.0,0.0,-0.211488161307,-1.09177908211,-2.76476889072,0.0,1.0843208494,-2.80979161814,0.0,-1.38800892973,-2.83360235774,-0.865926730491,3.70349295949,0.0,0.500928069019,2.26794795164,-0.281125741578,0.0,3.05618609396,0.0,-2.91060464361,-1.48315913244,0.0,-1.38013925243,0.990820437039,0.0,0.0,-0.91005504256,-2.14424243188,-0.0211598138895,0.0,-1.81500092754,0.844266186791,0.0,-0.300040294727,0.0,0.0,0.422745538673,2.24326980614,-3.42357704671,-0.217395738005,0.0,0.0,0.0,1.45907493143,-3.99067466781,0.0,0.0,-0.230429960962,-5.69908881886,-1.22359709301,0.0,-1.83166760966,-1.48909193814,0.0,0.0,-2.02965825908,0.0,0.0,0.0,0.881343086699,-0.933843106753,0.0,0.0,-1.00716794202,0.0,0.0,-0.886804817324,-1.75304878549,4.55575069418,0.0,0.0764678019388,2.60951844857,-1.10758300716,0.0,0.0,0.0,1.79761000794,0.0,0.0,2.83623218458,0.0,1.90095342596,-0.612389177649,-2.39743009972,0.0,0.0,-0.595311164096,0.6187393997,0.0,0.0,0.0,1.26074096396,0.0,-1.85108414967,-1.42685064043,0.0,-0.00578015862461,-1.04208374274,-0.379378035463,-0.300265275356,-1.37338564007,-0.527403934836,0.0,0.0,-3.1143113247,-0.443227156087,0.0,0.86164904062,0.0,-2.40591754918,-4.43112002579,0.0,-2.4226053044,0.0,0.0,0.0,2.68465696789,-0.296556512633,0.367822481903,0.0,0.0,-1.04208374274,0.0,0.0,2.5608027235,0.0,0.0,1.66719192335,0.964098872744,-2.14691583598,3.45639935644,0.0,0.0,0.0,0.0,3.34951168271,0.0,-2.0216798273,0.0,2.09334134385,2.35378262161,-0.557483195258,0.0,0.0,3.0083516515,0.984487436147,-2.07089827486,-1.5700718972,0.0,0.083463077596,2.37171837871,-1.24906857206,-1.6697898226,0.0,0.0,0.139733255772,1.26729636389,0.0,0.38170465921,0.0,0.0,-3.69962178372,-2.77565311532,2.96661426505,0.0,-0.424697332545,0.013144409282,-3.09559188754,-3.24766258897,0.0,0.911195004052,0.0,0.0,-1.3173266391,2.89880908057,0.0,0.838106109203,0.112298482498,0.0,-0.33737301288,0.0,-0.0339584832538,-3.09256105319,3.03722773345,-2.23255060346,0.8260815453,-0.891107724299,0.0,0.0,0.144884037531,-1.36501713404,0.0,-2.5532373759,2.45556222604,0.0,-0.629186808236,1.28406913086,-2.08353490738,0.0,0.0,-0.740432946678,-1.61191437955,0.0,-0.482526718537,-2.7447239357,0.0,-1.59310172697,1.48985232887,-1.04568302863,3.4694500031,-1.22015978497,0.0,2.43558860336,1.12991183126,0.0,0.0,0.0,0.0,1.50932499507,0.0,0.0,0.0,0.0,3.28794734631,0.0,0.00494106850513,0.0,-0.541843950294,0.0,1.18758749404,0.0,-0.101128383187,-1.17696088987,-0.0972005809814,1.83120122318,-0.462319630632,0.0,1.13759948981,-0.186644911277,-1.0904201748,0.0,0.0,0.0,1.31766378926,0.0,-0.405245424683,0.0,-0.90362132325,0.513238515518,0.0,0.0,0.0,-2.73800366696,0.0,1.27961319658,-0.848883958086,-1.9529683468,0.0,0.619066471706,1.03051966336,0.0,0.0,-0.00951463377639,-0.52529710553,-3.2380074016,-0.944275654394,-0.23310796671,-1.11282482881,-0.785325147296,-4.16470862903,0.0,0.0,0.0609356115065,0.0,0.0,-0.619149744272,0.283499225606,0.0,0.0,0.0,-0.0551749359126,-0.73102560191,0.0,0.0,-3.70184680201,0.0,2.2067393064,1.01494474193,0.0,0.0,-1.4936123479,0.0,0.0,-2.06251426542,0.0,-0.393639074737,0.0,-1.0248457038,0.218997777266,0.0,-0.208321728116,-2.76668351249,0.844784471092,0.0,-0.118428919802,0.0,1.12069743435,0.885287136405,0.0,0.0,0.0,0.0,0.0,0.0,0.0,-1.54471681395,0.0,0.0,0.0,3.15614451716,2.45535650772,-2.58665791115,-2.06840586245,2.36892499065,0.0,0.0,0.271894923798,-1.51905514722,2.18630812069,0.0,0.0,2.39418187103,0.0,0.0,0.814221062331,-1.10008995412,-0.545283616675,-1.06652584241,-0.868912149481,-1.04444012773,0.0,0.0,0.0,-1.78006567318,-0.738130262048,-1.59245072023,1.50366789997,0.0,0.0,-2.51595478073,0.855088709737,0.0,0.0,0.0,0.0,0.0,-1.04896988582,0.151973568927,-3.05526751587,0.0,1.39968018097,0.0,1.59475880147,0.0,-0.739309590196,-0.65295319935,-0.282917800142,0.0,0.0,0.293100413031,0.0,2.81520867263,0.0,0.0,0.0,0.0,0.0,0.0,1.40099087803,0.82275652884,-0.825083751562,0.0,-0.909553149478,-0.691013813498,0.0432215951384,0.79640897268,0.0,0.0,0.425446321144,-2.00789723598,0.0,-1.46504704097,0.0,0.0,0.0,-2.01119613017,-1.70864480852,0.0,-0.388960223598,-2.27262299529,-1.01544903177,0.0,1.0843208494,-1.20380679494,0.0,-0.403565698834,0.0,0.0,0.0,0.0,0.0,0.0,0.0,0.0,0.0,-0.298265662058,0.0,0.0,0.0,-2.88948210767,0.0,2.35342142609,0.0,0.0,0.0,2.0867077517,0.0,0.0,0.0,0.0,2.4355789769,2.62282317913,0.0171228359635,-3.98541192759,1.02759254556,0.576352288816,0.0,-0.403920337601,0.0,3.29975744584,0.114899687772,1.98307637152,-2.90532450018,0.0,0.0,1.28785276581,0.0,3.88176364317,0.0,-3.14797308912,0.0,0.613842467833,0.210435852533,-1.18152185059,-0.797951433683,-1.38465181744,0.191130506229,0.173904832193,0.0,0.0,0.0,0.0,0.0,0.0,0.0,0.0,0.0,-2.92898803712,2.65779776525,-0.766337333829,-0.153275649314,2.19864752901,1.20698529073,0.0,0.0,-0.809904270068,0.0,-0.506196644165,2.25940310278,1.84847878754,0.0,0.0,0.0,-0.934138160636,0.309355923105,-2.52276156812,0.0,0.0,0.0,0.0,0.0,-1.71457862425,-0.828010229845,-2.14651570957,0.0,0.0,-0.215910497876,0.0,3.0746437619,0.0,0.180508542979,-0.243525235433,0.0,0.0,1.57756458956,0.0,0.0,3.78845590357,1.59475880147,3.39751224409,0.0,0.0,0.00260586041075,0.0,0.0,0.0,-0.988312808453,0.0,0.553021406033,0.0,0.0,1.78213389359,0.0,0.0,0.0,0.0,-0.656317468701,0.0,-1.81135523648,0.0,1.20303919815,0.0,0.0,0.0,0.0,0.0,1.54580477378,0.0,-1.77398529944,1.18616548211,0.0,-1.87303833244,0.0,-2.96408966492,2.87657878636,-2.88948210767,0.0,-0.801692135348,0.0,0.0,0.0,0.0,3.62264498537,0.0,0.0,0.0,0.0,0.0,0.0,0.0,-0.084045890117,1.77757331333,0.0,-0.280010276903,-1.10432328406,0.0,-1.69234385298,0.0,2.41780611214,-1.01199698674,-0.618477851975,0.0,-2.41943551215,-0.612080669434,0.0,0.0,0.199208731348,0.0,0.0,0.0,-3.49439109269,5.28520190355,5.77000745025,-1.06249165433,0.0,-0.21848307753,-0.528385111035,-1.69858474504,0.0,0.0,0.0,0.0,0.0,0.0,0.647908165945,0.203642664493,-0.390587377312,-2.88559135725,0.0,0.0,-4.74570611269,0.0,-2.12202874446,0.0,0.0,-2.29983348903,0.0,2.31676010705,-0.976964951619,0.0,0.0,0.0,0.0,-1.3466175392,3.2458255508,0.79640897268,2.75579818185,-0.454066796039,0.0,0.649840015392,-0.367714845949,0.0,-0.219795150976,0.719887225514,0.0,-1.12106058495,0.0,2.49513282719,0.0,0.684047035723,-0.529479550763,0.0,0.603836920255,-1.92948304575,0.822527100545,0.855492949037,-0.00267005330733,0.0,0.0,1.79976583311,0.589700113041,0.0,0.151479906998,0.946442409956,0.0,3.65376278558,0.0,0.0,-1.00413455173,0.0,-1.17330381433,0.0,0.0,-0.632266667874,-1.04297128043,0.0,0.256638157116,0.0976952524063,0.0,0.0,-1.40922180222,0.0,-0.485630569883,1.71890317372,0.0,-1.87983227736,2.89354139458,0.0,0.0,-1.04896988582,0.0,-0.0763105337607,2.01186786633,0.0,0.0,0.0,-1.30790007427,0.0,-0.339432760973,1.43046345926,-0.339432760973,-2.20893760601,-0.857158591044,0.0,3.95759875324,-0.918902894626,0.935166179544,0.0,-0.099553147425,0.0,0.0,0.0,0.0,-0.958401140975,1.66169453026,0.0,0.0,0.0,0.0,2.57007258367,0.0,0.0,0.0,-1.44747643043,0.0,0.93368735534,0.0,-0.88979559291,1.19320824896,1.64742938208,2.26028775206,0.0,0.0,0.0,-1.07786074599,0.0,2.16170551319,0.0,0.0,-3.30032446833,-0.945821045541,2.24365046338,-3.06718498761,0.0,2.62864055436,0.0,2.04399816384,0.0,0.613842467833,0.0,0.0,0.0,-0.518823899893,-3.74573919531,0.0,0.0,-3.22011433654,0.0,-0.988312808453,0.495185364374,0.0,0.0,0.0,0.0,-1.85847435408,0.120963870131,1.94762117737,0.0,0.0,0.0,0.0,0.0,3.24488730858,-3.01208685673,0.0,0.0,0.0,0.0,0.0,0.243341485103,0.0,1.35801140177,0.0,0.453108140422,0.0,0.0938426678753,2.53777602887,0.0,0.807996112096,0.0,1.0435277024,-0.642197706174,-1.75015958259,0.0,0.0,0.15869276542,0.0,-2.31770017757,0.255882979592,1.24178478021,2.38800449819,-0.862163048272,0.0,0.0,0.822824768269,0.0,-0.983443512478,0.0,0.0,-3.11498841711,0.0,0.0,0.393182835182,0.338248395525,0.0,0.0,0.544610048733,-0.184953441417,0.0,2.06647090006,0.0,-3.62425981202,0.0,0.0,0.0,0.0,0.0,0.0,0.646685724215,0.0,0.0,0.0,-3.34740959952,0.0,0.707689978109,0.0,2.88690917709,0.0,0.0,0.875307286704,0.730464997992,-4.40840470344,-0.536765509663,0.0,-0.99633854812,-1.27422572755,0.0,0.0,0.0,0.923699447229,3.33415475051,-1.68444923477,0.738283866072,0.0,1.83470577087,0.0,0.0,0.0,0.0,0.0,0.0,1.45177256009,0.0,0.0,0.0,2.06647090006,-0.0574749014928,0.831277118272,-0.309788641876,0.0,0.536173643346,0.714422360514,2.09297354556,-1.37587151188,0.0,0.498563928887,0.0,1.44777397798,-1.63466397762,-2.50811580503,1.61184403585,0.0,0.0,-0.272878205468,0.881251270122,0.0,0.0,0.63212082361,-3.89779519423,-2.56917699469,0.0,0.0,-2.27248248164,0.0,-0.385131224147,0.981573289254,0.0,0.0,0.0,-1.27155641654,0.0,0.0,0.0,-0.117893794677,0.0,-0.467962001087,2.46284812139,-2.29366917871,0.0,0.0,0.0,0.0,0.0,-1.81417884762,0.0,0.0,1.1565700697,2.49896212124,1.91306062492,0.0,3.90658497186,0.0,0.0,0.0,0.0,0.0,-2.52812636761,1.74389338955,0.0,2.44181119414,-0.790739858149,0.0,0.0,-0.534576959908,0.0,-1.42283019347,0.0,3.31384762752,-1.12106058495,0.0607801340198,1.83588517044,0.0,1.54083996033,0.125255592147,2.9575742429,2.68693409065,0.0,0.0,0.0,-2.39079499968,0.0,-1.59645607595,0.0,0.0,0.0,0.0,0.0,0.0,-1.51965335946,-0.769692107651,0.0,-0.844131990571,0.0,0.0,-0.810301159062,1.96915507213,0.0,0.0,0.0,0.0,0.0,0.0,-0.44422408427,-2.33915583009,-1.50895343964,0.0,0.108146758438,1.15140140841,1.72831657871,1.36943788194,0.0,0.0,0.0,-0.520177109756,-1.84286068369,0.358343919893,4.41356330984,0.0,0.0,0.0,0.0,-0.12620689807,0.0,0.0,-3.99745725892,1.89872781734,0.0,0.0,1.58420624184,0.620651815034,0.0,0.0,0.0,0.0,0.0,0.0,-3.86701787054,-1.88259448891,0.0,-2.03058579491,0.0,0.0,0.0,0.0,-0.375886116289,2.36854099108,-1.07233005991,0.0,-2.44505676162,0.0,0.0,0.0,0.0,0.0,2.80941645453,0.849418561402,-0.826933299398,0.987618866786,-0.686630700104,1.18616548211,-0.664291432313,0.0,0.0,0.0,5.43814489961,0.0,-1.01459894474,0.0,0.0,-1.69644603383,-0.241792749152,4.88344433582,-1.67284176758,0.0,0.0,0.0,-1.89348059289,0.0,0.0,-0.981276120152,0.0,-1.49703464805,0.0,0.0,-2.36571487313,0.0,-1.31064345918,1.55773263138,0.0,0.512039590075,-0.309247208823,-2.76334130983,-1.57067754087,0.0,0.0,-3.130777846,1.25065323495,2.77415901006,0.800378400668,2.45244290126,-0.92817001522,0.0,0.112536786993,0.0,0.0,0.0,0.0,0.0,0.0,0.0,1.71679751229,-0.130732737125,0.0,0.0,1.03601822742,0.0,0.0,0.0751044345447,-2.34076196729,1.2985935398,0.0,-0.285415365863,0.0,-4.76982693078,0.0,0.0,0.0,1.44913718533,-3.26599922531,1.80183802186,0.0,-0.645350336666,0.0,0.0,2.96978800873,-2.49816380926,0.0,-0.923070788759,-0.0347000308015,0.0,0.0,1.58990842848,-2.05182566248,0.0,0.0,1.31188949965,0.0,0.0,0.0,0.0171228359635,0.0,0.0,1.93184661639,2.90398267724,-0.493731873486,1.45907493143,1.93229798974,-1.9871483314,0.0,0.0,0.0,-0.139738489799,0.0,-3.44281020274,0.0,0.0,0.0,0.61614009988,0.0,-0.384093390163,-2.12729217502,0.757254378825,-2.16061566974,0.927056074272,-0.204043419,-0.8904184129,0.0,2.1722117688,-3.49813002568,0.0,0.765493614844,0.0,0.791228435487,4.13278634814,0.0,0.0,0.0,0.0,-1.5700718972,-2.20002514883,0.6985620434,0.0,-1.4040374347,0.0,0.0,0.0,-1.99795927542,0.0,0.79886570739,-2.47086186302,0.0,0.0,-0.025948540655,0.0,0.0,0.0,0.0,0.0,0.0,0.0,0.0,0.0,0.0,0.0,0.0,2.43916783773,-1.31786834442,2.25098005238,0.0,0.0,0.0,0.0,2.80861179482,0.0,0.511040291979,0.0,0.0,0.0,0.0,-0.478453912626,-0.127634164246,-2.40210633176,0.638681150714,0.0,0.0,0.0,0.0,-2.01299595665,-0.859938172493,-2.55257437723,0.760241628383,0.0,0.0,-0.610472851748,0.0,-0.717628164411,0.0,-0.375886116289,0.0,1.4350237016,0.976003444955,0.0,0.0,0.0,0.0,0.0,0.0,1.63985883255,-1.03136495341,0.0,-0.401118133138,0.0,0.0,0.0,0.0,-0.166353641684,0.0,0.0,-0.851048996632,3.05273110545,1.69829750259,0.0,1.28842496097,0.0,-2.04748849544,0.0,-2.40359603153,0.0,0.0,0.831744504142,-1.01247712627,-0.902665390458,0.0,2.53460184402,2.50807119977,-1.28853634509,-1.69082865712,0.0,0.0,0.0,0.353212475772,0.0,0.0,3.63227990449,0.0,-0.462319630632,0.0,2.22163756932,0.0,-0.417350148072,0.0,0.0,3.51138732175,2.68124190115,0.0,0.953876458343,-2.23942660079,3.50774238774,0.0,0.0,0.0,-2.36255293212,-1.60375582728,0.0,0.0,0.0,0.0,0.0,0.0,0.0,0.0,2.42903827935,3.4207605995,0.0,0.0,0.0,-1.45492785415,0.0,0.0,0.0,0.0,-1.91274734847,0.0,0.0,0.0,0.0,0.0,0.0,1.68060691934,0.0,0.0,0.0,3.19447427636,1.85660651674,0.0,-0.108801264458,0.0,0.0,0.4053615297,-2.20864456207,0.0,1.15237351706,0.0,-0.243086942362,0.0,0.0,0.0,0.0,-3.43681769964,2.33129651161,0.0,0.0,0.0,0.0,1.73917592239,0.0,-2.15774120207,0.0,-2.30975833876,0.0,-1.09338496568,0.0,0.0,-1.29042046355,0.0,0.0,-3.42819693439,0.0,-3.18098347021,0.0,0.0,-2.20915656402,-0.619149744272,0.0,0.0,0.0,0.0,0.0,0.0,1.16135676622,0.0,0.0,0.909858902826,1.58003661042,0.0,-2.40249614952,0.0,1.69672500199,0.0,-2.81639343233,-0.205732629975,0.0,-0.789072979359,-2.04867150173,3.33097474486,0.0,-0.899794299062,0.0,0.0,0.0,-3.54796199348,0.0,-1.98002601121,0.694150707648,-1.86126096326,0.0,-4.70218917234,0.0,0.0,0.0,0.0,0.0,0.0,-1.2746785067,0.0,0.458074868498,-1.78717526123,0.492056581849,0.0,0.0,-2.98545473605,0.0,2.3220326298,0.0,0.0,-0.24021681664,-0.365610765939,-1.19842905563,-1.32706247697,-0.336089619216,0.0,-0.326765281955,0.0,-1.61707389785,0.0,0.0,0.0,0.0,0.0,0.883881613536,0.0,0.0,0.0,0.0,-0.306817181023,-0.115714128377,0.0,0.0,-1.59529726232,0.0,0.120963870131,-0.389993530395,0.0,0.0,0.0,0.0,0.0,-1.17381469966,0.0,0.0,-0.151689467257,-0.347399976828,0.0,0.0,1.72251758485,0.0,0.0,0.0,0.0,-0.368324359664,0.0,0.0,0.0,-1.35537071877,0.0,-0.850697327501,0.0,0.0,-3.17187066552,-1.95578505957,-0.567032889872,0.0,1.56056726983,-0.269050445206,0.0,2.43977912787,1.52325963375,0.0,-0.0921631917736,0.0,0.245505791924,0.0,-0.281125741578,0.0,0.0,0.979871234415,3.95586568188,0.0,0.0,2.23648743222,0.0,0.0,0.43491714053,0.0,3.86174811356,-0.404024437344,-2.67795735772,0.0,-0.675974091146,-2.88239225185,0.0,0.0,3.57526450274,0.0,-1.38474018388,0.0,0.0,-3.09815988449,-0.298165096911,-2.15025736603,-0.448081656083,0.0,-4.42177648631,0.822507795554,0.0,2.54958626325,0.0,-1.98245020727,0.0,-1.06805357036,-0.0970353134997,1.40654819906,0.0,-1.75432297958,0.0,0.0,0.0,-0.243086942362,1.0822245075,0.0,0.0,-2.03962224765,0.0,-1.43502945349,0.0,0.0,-2.78610176166,0.0,0.0,0.0,0.0,2.11348133336,-1.91049665495,0.0,0.0,0.0,0.478937723385,0.0,0.0,-3.44244798051,0.0,-3.27052009864,1.39537317339,1.93167643878,0.0,0.0,0.0,0.0,0.973320161865,0.0,0.0,0.0,-0.0798316467829,-1.33031779371,0.0,1.52482737035,0.0,0.0,-1.80416337691,1.92785178089,0.0,0.0,0.0,-2.69412769828,-0.560715468313,0.0,2.25101493439,3.6446068996,0.0,0.0,0.0,0.0,0.0,0.0,0.0,0.613842467833,0.216488380591,0.631853173269,-1.47089913085,-3.16559066815,0.0,0.526956623621,-0.303902227565,0.0,1.58079905044,0.0,0.0,-1.25421058167,0.0,1.34520282859,1.45831959305,0.0,0.0,0.0,-0.783028264107,0.0,0.0,-0.726114436933,1.57279837796,0.0,-2.02025401035,0.0,0.0,0.0,0.547686165411,0.933964527231,4.56543857464,-0.914302667838,1.10258925164,2.79909165293,0.350281602592,0.731609137033,-2.32285119314,0.0,0.0,0.0,0.329709712286,-1.83706106542,-2.71584063121,0.0,0.0,-0.701021070484,-1.01582653266,-2.66455137714,1.22951553582,0.0,0.0,-0.400150873854,1.21293867866,0.0,0.0,-2.16703682479,0.0,0.0,0.0,1.25893464799,0.0,0.494005476557,0.0,0.0,-1.56831434866,0.0,0.0,0.0,0.0,0.0,0.0,0.0,-2.43210475078,0.0,-0.756648572189,-2.43755916034,0.803649464584,0.220041493004,-1.60321620749,0.0,0.0,0.0,0.0,0.0,0.506940893721,0.0,-3.50544028913,0.0,0.0,0.0,0.0,2.29085631784,0.0,0.0,0.0,-1.06403272294,-0.0347000308015,0.0,0.0,0.151881506092,0.0,-4.18246717828,0.0,0.0,0.0,0.0,-0.898615893255,-0.862163048272,-1.03323876827,0.151881506092,0.0,0.22642513956,0.0,0.0,0.0,0.0,0.0,1.43905781002,0.0,0.302229375624,0.0,0.0,-1.0904201748,0.0,0.783133488637,0.0,0.595201644205,1.74564686059,0.0,0.0,2.56449675492,0.0,0.0,2.72865313695,0.0,0.0,0.0,0.342637534188,-3.25374495232,-2.16289283585,0.0,0.0,0.0,0.0,0.0,0.0,0.0,0.0,0.0,0.82785724057,0.416532851842,0.0,0.392500260041,0.812935028068,1.19961968488,1.3475536464,-0.526877416985,0.0,0.0,3.65686375778,0.0,0.0757450688471,0.0,0.63212082361,-1.59245072023,-1.79591305147,-0.85204561145,0.0,-0.73102560191,0.0,0.0,0.0,0.0,0.0,0.0,-3.04665276699,1.18510422017,0.0,0.0,0.979660821482,0.0,-0.587649314134,1.82296028396,2.60983107832,0.0,-2.44825113326,0.0,0.0,0.0,0.205479121305,-0.680257089655,1.15053135001,-2.19193961084,-1.31324322521,0.0,0.0,0.0,0.0,0.488190368205,-3.10037121025,2.01636288764,0.0,0.0,1.82823578544,0.0,-1.06748513538,0.0,0.0,0.0,-1.23752426222,-0.0901596165435,0.0,0.0,1.98918116793,0.0,0.679486604471,0.0,0.0,0.0,0.0,-4.67733423073,0.0,0.0,0.881251270122,2.25874230594,2.4187214151,0.219503515036,-0.282125969167,1.02188119503,-0.790130768184,-0.278446110231,-1.20002556844,1.2226393983,0.0,-0.701021070484,0.0,0.0,0.0,2.01289463805,3.18600175389,0.547686165411,0.160801172246,4.12897791781,-0.139444124823,0.0,0.0,0.0,1.39698882672,0.38913545564,0.0294524928703,0.566770187649,1.17536106715,-0.593063418985,-0.0193200519417,0.0,0.0,0.0,-0.131637724485,-1.12836693414,-0.585762627981,-0.854061618417,0.0,-3.95799733357,-1.76851087479,0.0,-0.825702469922,0.0,1.37030766417,0.0,2.65906968499,0.0,0.0,0.0,0.0,0.0,0.0,0.0531813827576,-3.07770471504,0.0,0.0,-2.76094803446,0.0,3.46459148049,-1.19867562447,0.4627505789,0.0,0.74099681527,0.0,-1.65215395268,0.0,-2.26751964364,0.0,0.0,0.0,-0.544123757774,0.0,0.220671516686,-0.383003049939,0.0,2.4868734512,0.0,0.0,1.91222556573,0.0,-1.52812258866,-2.77882084515,0.0,0.0,0.976003444955,0.0,0.0,2.3236135929,0.332973358324,0.0,0.0,-1.38228254303,0.0,-2.15690781072,0.580534706307,0.0,0.0,0.0,-1.59446277072,0.0,0.0,-0.701850483297,-3.04539301895,0.0,0.0,-2.34262248334,-0.23310796671,0.0,0.745067658254,0.0,0.591784961955,-3.99298533136,2.19519670612,0.0,-2.03031671077,0.220041493004,0.0,0.721376069334,2.71595200546,-2.38384808932,0.0,-0.469262708914,0.0,-2.88242933393,-1.07089527386,0.319439086205,0.0,-0.968799131484,0.0,0.410689919019,0.0,3.40340498804,0.0,1.32218591028,0.700925450978,0.0,0.0,0.0,-0.244408722123,0.0,-2.06699698136,-0.156542530212,-0.205455391971,0.0,0.0,0.0,-0.684769176841,0.0,0.0,0.58269778918,0.0,0.0,0.180390113367,-0.205455391971,-1.21392340156,-0.685134798656,0.0,-1.24981802704,-0.85204561145,-1.52629984976,-0.503325978227,-1.64399064838,-1.78528796268,0.0,1.18584640147,0.0,0.0,1.899123851,-1.96582069556,-2.32920768693,0.510594911911,0.0,-0.581251837472,0.0,0.0,-3.18991572703,0.0911634407832,0.0,-1.24116087086,0.0,0.0,0.0,0.0,-0.688539895316,-2.18547150367,0.0,-1.22204520605,2.07758946815,0.0,2.29969851255,0.0,0.0,1.26723757217,0.0,-2.73654178603,0.0,2.44035147085,1.16803473266,-0.575686312383,0.0,-1.47792579675,0.0,-0.704043205615,0.0,-0.084045890117,-2.78362508831,-0.292701381858,-2.34449671006,-2.57475282551,-4.23478714345,3.49838633373,0.0,0.205206194443,0.0,0.0751044345447,0.0,-1.33249206732,-2.54540083171,-2.45663287898,0.0,0.0,0.0,-0.22030723074,0.0,-0.238538711605,0.0,-2.36530747765,0.0,0.0,0.0,0.0,0.0,-1.0657164754,-0.619286822983,0.0,0.345301318775,0.0,0.0,-0.14874228572,0.0,-0.419776194858,0.0,3.13211601818,0.0,0.0,1.06588235021,0.0,0.0,-0.555116589525,0.0,-0.366665653073,-0.905062454658,-1.09442995447,0.0,0.0,1.05948030321,-3.16362797232,-2.37698917688,0.0,0.0,0.0,0.157036809423,0.0,2.08458199718,0.0,1.26677438015,0.0,1.70172417506,0.0,0.0,0.0,0.0,0.0,0.0,0.0,0.0,0.0,0.0,0.0,0.0,-1.07181769136,0.0,-1.72778654425,0.0,-0.842505975273,-2.54099068214,0.0,0.0,2.02205168553,0.547686165411,-1.82195462199,0.0,1.27560661481,0.143625157353,0.0,2.60592135864,-0.0668087762004,0.0,0.0,2.4379636371,0.0,1.65768144126,-0.140107061123,0.0,0.0,1.10549425856,-3.08342642331,0.0,0.0,2.01416343632,-0.303530652445,0.0,2.30881739575,0.0,0.187986601006,0.0,1.01623721023,-2.3602769864,1.19385528014,3.84569757681,0.0,0.288921244452,0.0,0.0,0.616982420319,0.0,0.0,0.0,0.0,-2.11077375312,2.31713523999,-0.5311069562,0.0,1.81756848471,1.05948030321,0.0,0.0,0.0,-1.33729305647,0.0,-1.09926290861,0.0,-2.7716930123,0.0,2.616061529,0.991716120689,0.0,0.0,0.0,0.0,0.0,4.31623463304,3.40935120386,0.613842467833,0.0,1.73459198847,0.0,0.0,0.0,-1.03687940599,-1.19786528138,0.263527482351,-3.30916541682,-0.269558460985,0.0,0.0,0.0,0.0,1.17914292346,0.0,1.54580477378,0.0,0.0,3.27056907175,-0.0993869973178,0.0,0.0,0.0,0.0,0.0,0.0,0.0,2.77022720676,0.0,5.85468585503,0.0,-0.640245537633,0.661155792869,0.0,0.330106457503,0.0,0.0,0.124760749251,-1.26866876907,0.0,1.1377234971,2.48334935426,0.0,4.76071727264,0.0,1.53850224974,-2.15840498412,0.0,1.42013030758,1.68539461597,0.0,0.0,-1.43451673021,-0.689836610352,2.18930045472,-1.98473808873,0.0,0.0,0.0,-0.464263558898,-0.117893794677,0.350061459227,0.0,0.0,1.32929209955,0.353573582262,0.0,2.56100373464,0.0,-0.315328287723,0.0,1.38993138931,0.0,0.0,0.380221854827,0.0,0.0,1.43536333183,0.0,0.358221498954,1.31809719803,-2.31986134956,2.47665332279,-0.323531473559,2.08219797398,0.0,0.0,0.720886620879,-1.24154444497,-0.791249521907,0.0,0.0,0.0,0.0,-1.01830108987,0.0,1.57718025865,-1.05206284213,0.0,-0.955389624044,0.0,0.0,-1.43525079288,0.0,-1.17631141797,0.0,1.75955275656,-0.563557856152,-1.99708469025,0.0,0.0,0.976003444955,0.0,0.0,1.04519236262,-0.589218694885,-0.312526745399,-1.0027328705,0.0,-2.60583190614,-0.803366272954,0.0,0.0,0.0,0.0,0.0,0.0,0.582297076133,0.0,0.0,0.0,0.0,-2.18547150367,0.0,0.0,0.0,0.0,0.0,0.244965069523,-2.76663349791,1.78892582877,0.0,0.0,-1.08631680774,0.0,-0.743000753273,2.0566892206,0.0,0.0,1.79033469388,-0.92966396583,0.0,2.321248434